SVM-light Version V6.01
0 # kernel type
3 # kernel parameter -d
1.0 # kernel parameter -g
1.0 # kernel parameter -s
0.0 # kernel parameter -r
empty# kernel parameter -u
99 # highest feature index
2000 # number of training documents
1861 # number of support vectors plus 1
0.027766119876772022 # threshold b, each following line is a SV (starting with alpha*y)
-17.287885427695276 1:0.012826897203922272 2:0.009531455114483833 5:0.014225098304450512 7:0.002507220022380352 8:0.0219112616032362 9:0.020415756851434708 10:0.014937933534383774 11:8.286174270324409E-4 13:3.4890807000920177E-4 15:0.005896653514355421 17:9.304862469434738E-4 18:0.019236529245972633 19:0.004551481921225786 22:0.0024970693048089743 23:1.7284615023527294E-4 25:0.006479280535131693 26:0.0062875752337276936 27:0.004895539954304695 28:0.0075046890415251255 29:0.0058930376544594765 30:0.006192720029503107 31:0.019233278930187225 32:0.02517508901655674 33:0.03228771314024925 36:1.242732396349311E-4 38:0.029313361272215843 40:0.014982478693127632 41:0.01092278677970171 42:0.004188423976302147 43:9.978226153180003E-4 45:0.024469442665576935 48:0.014017147943377495 50:0.015532808378338814 51:0.024404633790254593 52:0.005715792998671532 53:4.0850329696695553E-7 54:0.03137700632214546 55:0.0054197465069592 56:0.01046943198889494 57:2.4028408006415702E-5 59:0.033460717648267746 60:0.005156397353857756 61:7.975450557751174E-7 62:0.032503824681043625 63:0.016822902485728264 64:0.009870922192931175 66:1.496515906183049E-4 67:0.03232039511203766 68:0.014404402114450932 69:0.023821931332349777 70:0.02294592186808586 72:0.007101902272552252 73:0.03729694336652756 74:0.023837555199861526 75:0.014960302039980888 76:0.015451841987669468 77:0.006135765928775072 78:0.009784899652004242 79:0.026153020560741425 80:0.02361663617193699 81:0.008020306006073952 82:0.015076964162290096 84:0.033484186977148056 87:0.028644418343901634 88:0.0012658076593652368 89:3.447526542004198E-4 90:0.02214069664478302 93:0.03645826503634453 95:0.03716258704662323 97:0.007604633457958698 99:0.0172739140689373
17.287885427695276 4:0.22046257555484772 20:0.1781185269355774 37:0.07926736772060394 52:0.09593955427408218 64:0.2103354036808014 74:0.06521930545568466 75:0.015725065022706985 91:0.08522247523069382 96:2.704633334360551E-5 98:0.04968267306685448
17.287885427695276 7:0.06568868458271027 10:0.0385722815990448 21:0.010860079899430275 22:0.14717885851860046 26:0.05352745205163956 33:0.04343045502901077 37:0.1472047120332718 67:0.14443764090538025 70:0.15948808193206787 77:0.05103070288896561 78:0.04576462134718895 80:0.024884870275855064 81:0.06560055166482925 94:0.0023309888783842325
-17.287885427695276 3:0.007233953569084406 4:0.01280792523175478 5:0.01873103715479374 6:0.004646311514079571 7:0.008585470728576183 8:0.0014758172910660505 10:0.021144716069102287 11:0.01672135293483734 12:0.01633589155972004 14:0.021559791639447212 16:0.015171137638390064 19:0.0016100844368338585 21:0.011507410556077957 23:0.021498968824744225 25:0.00873652659356594 26:0.024369707331061363 29:0.015147288329899311 33:0.021775318309664726 34:0.01318350713700056 36:0.028057875111699104 38:0.02340972051024437 40:0.03502051159739494 41:0.04123641550540924 43:0.03646056726574898 44:0.03963053598999977 46:0.006097350735217333 51:0.030189605429768562 55:0.0025802592281252146 56:0.028513388708233833 57:0.0018440861022099853 59:0.006095374934375286 60:0.0394795797765255 61:9.162733913399279E-4 62:3.947095592593541E-6 63:0.017543334513902664 64:0.015397114679217339 66:0.00978728849440813 67:0.026823950931429863 68:0.004282383713871241 70:6.264489493332803E-4 72:0.013615772128105164 73:0.001140957698225975 74:0.02431332878768444 75:0.02618231438100338 76:0.03039262816309929 77:0.001808849861845374 78:0.008532377891242504 80:0.0025385937187820673 81:8.082988206297159E-4 82:0.020080076530575752 84:0.015044350177049637 85:0.020285185426473618 88:0.033947717398405075 89:0.04322844743728638 90:0.042188435792922974 92:0.04661093279719353 95:0.005585220642387867 96:0.007188213989138603 99:2.7007024618797004E-4
-17.287885427695276 12:0.2906869947910309 43:0.098368339240551 60:0.17801083624362946 64:0.3719892203807831 84:0.06094462424516678
17.287885427695276 7:0.07510101795196533 16:0.28544142842292786 36:0.16424502432346344 42:3.7376863474491984E-5 55:0.1784687489271164 64:0.20426705479621887 69:0.09243935346603394
-17.287885427695276 1:0.0017291525145992637 4:0.2877044975757599 10:0.01251894235610962 36:0.010202459059655666 52:0.1721453070640564 70:0.227565199136734 73:0.21047145128250122 90:0.07766298204660416
17.287885427695276 2:0.006733748130500317 6:0.057852815836668015 7:0.010490699671208858 8:0.010559039190411568 9:0.03259199485182762 12:0.002370410365983844 13:0.009000430814921856 18:1.6960888751782477E-4 20:6.273630424402654E-4 21:0.05421653389930725 25:0.046634599566459656 26:0.026787178590893745 32:0.0012269072467461228 33:0.051776036620140076 36:0.029825536534190178 37:0.005557875148952007 38:0.019748162478208542 40:0.006985222455114126 43:0.006004660855978727 45:0.06727927923202515 46:0.0022018607705831528 49:0.03267216309905052 52:0.03424297645688057 54:0.001763564650900662 55:0.05256250873208046 59:3.439143765717745E-4 60:0.010344068519771099 63:0.03247445821762085 70:0.04338023066520691 76:6.053117685951293E-4 77:0.003919478505849838 79:0.04126428812742233 84:0.036944679915905 87:0.056890349835157394 88:0.05832357332110405 89:0.0069594900123775005 90:0.07363968342542648 92:0.03433240205049515 93:5.134025286679389E-6 96:0.03069177083671093
17.287885427695276 24:0.07729269564151764 30:0.0013813045807182789 32:0.26654747128486633 54:0.0642637088894844 60:0.00401444174349308 62:0.26068827509880066 68:0.14565151929855347 79:0.09214228391647339 99:0.08801831305027008
17.287885427695276 31:0.04324205219745636 63:0.11802065372467041 71:0.06852211058139801 73:0.16919611394405365 78:0.008752165362238884 80:0.5356391668319702 99:0.056627705693244934
17.287885427695276 1:0.0030605243518948555 2:9.96490940451622E-4 4:0.009906081482768059 6:7.349697407335043E-4 7:0.006293414626270533 8:6.052128155715764E-4 9:0.013212527148425579 11:0.01788514479994774 12:0.04025896638631821 13:0.001182691426947713 14:0.03549337387084961 15:0.0231475867331028 16:0.012698953971266747 17:0.007143616210669279 18:0.023701786994934082 19:0.023380795493721962 20:7.16393580660224E-4 21:0.004655919503420591 22:0.03958039730787277 24:0.022415053099393845 25:0.0024927968624979258 26:0.014643088914453983 27:0.01000271923840046 28:0.03560841456055641 29:0.002914045238867402 30:0.02060527354478836 31:0.017895912751555443 32:0.022134408354759216 34:0.028961554169654846 35:5.582675221376121E-4 37:0.026719611138105392 38:0.00678880512714386 39:0.009119665250182152 41:0.014037927612662315 42:0.0033574316184967756 43:0.0011948227183893323 44:4.840463589061983E-5 45:0.005024850368499756 46:0.03690897300839424 47:9.97664756141603E-4 48:0.0012370782205834985 49:8.764715166762471E-4 50:0.015117575414478779 51:0.0167999230325222 52:0.002607787260785699 54:0.0290082897990942 55:0.021322354674339294 56:0.02049201913177967 57:6.255163461901248E-4 58:9.153068531304598E-4 59:0.03346250206232071 60:1.2347086158115417E-4 61:0.040254198014736176 62:0.020453229546546936 63:0.02412509359419346 68:0.017183465883135796 69:9.19675687327981E-4 70:0.00520226638764143 72:0.0047395131550729275 73:4.2762947850860655E-4 74:2.2490792616736144E-4 75:0.0012230349238961935 76:0.025822307914495468 77:0.015069697052240372 78:0.02862267568707466 81:0.007045456673949957 82:0.004184950143098831 83:0.014319386333227158 85:0.006775195244699717 87:0.0015255067264661193 88:0.019932465627789497 90:0.014599100686609745 91:2.7559511363506317E-4 94:0.005628691520541906 95:0.03390731289982796 96:0.004564072471112013 97:0.012017972767353058 98:8.876649189915042E-6 99:0.0012748921290040016
-9.57924801290457 80:1.0
-6.671009463247852 49:0.4080929160118103 62:0.5919070839881897
-17.287885427695276 19:0.22443218529224396 38:0.505185604095459 68:0.09376007318496704 82:0.17662212252616882
-17.287885427695276 13:0.48070812225341797 26:2.4662562645971775E-4 38:0.4649517834186554 55:0.02807021141052246 74:0.02602323703467846
-17.287885427695276 1:0.03149170055985451 17:0.10287687927484512 24:0.13313303887844086 32:0.010033749975264072 52:3.9926887257024646E-4 54:0.0019388964865356684 62:0.13962630927562714 63:0.12019748985767365 67:0.0797504186630249 77:4.0183073724620044E-4 80:0.13558202981948853 83:0.07599255442619324 95:0.10154881328344345 99:0.0670270174741745
11.414693343614532 21:0.5037719011306763 41:0.018181482329964638 73:0.3643697202205658 93:0.11367689073085785
7.847083192425759 2:0.19851568341255188 16:0.05845005810260773 17:0.038047246634960175 24:0.07038144767284393 29:0.06261011958122253 43:0.07047510147094727 50:0.17400029301643372 53:0.0016416313592344522 54:0.0366385318338871 57:0.02416343241930008 58:0.016871865838766098 60:0.002395504154264927 61:0.007349051535129547 70:0.20986101031303406 85:1.5059288125485182E-4 88:0.028448427096009254
17.287885427695276 6:0.08881478756666183 7:0.007615341804921627 12:0.11624538153409958 13:0.014363687485456467 20:0.06995979696512222 21:0.017007842659950256 25:0.07662447541952133 30:8.778439951129258E-4 31:0.12682440876960754 43:0.02460097335278988 46:0.006709753070026636 56:0.015468934550881386 59:0.019663626328110695 65:0.004230804741382599 69:0.09337707608938217 70:0.09456709027290344 72:0.00851728580892086 74:0.04686097428202629 79:0.08366896212100983 85:0.02227715589106083 92:0.06172381341457367
10.19130590176639 2:0.058713823556900024 34:0.01765904203057289 43:0.4749596416950226 50:0.01447057630866766 53:0.12386427819728851 59:0.2934491038322449 81:0.016883522272109985
-17.287885427695276 1:4.329576622694731E-4 2:7.654611254110932E-4 3:0.004701474215835333 4:0.0020511141046881676 5:0.0010958884377032518 6:0.03576788306236267 7:0.008524109609425068 9:1.4328437100630254E-4 10:0.03710096329450607 11:0.00516598392277956 13:0.016123801469802856 14:0.016466904431581497 15:2.2677751258015633E-4 17:0.01623411849141121 18:0.013809981755912304 19:0.00528239831328392 20:0.0251828171312809 21:0.001073070103302598 22:1.2647404219023883E-4 25:0.009950489737093449 26:0.03872521594166756 27:0.013730213977396488 28:0.00940035842359066 29:0.026880856603384018 30:0.013635891489684582 32:0.001375134103000164 33:7.139953668229282E-4 34:0.009402913972735405 35:0.036333419382572174 37:0.006668510846793652 38:0.007433876395225525 40:4.843059869017452E-4 41:0.03707870468497276 42:0.028677985072135925 44:0.008331038057804108 45:0.019074756652116776 46:0.016202488914132118 47:0.005490180570632219 48:4.0184607496485114E-4 49:0.034212157130241394 51:0.00847229827195406 54:0.007859449833631516 56:0.01854001358151436 57:0.010602083057165146 58:0.010661937296390533 60:0.02872551791369915 61:0.030550537630915642 62:1.2820461051887833E-5 63:0.02726343832910061 64:0.037220459431409836 65:8.833752945065498E-4 66:0.02126786857843399 67:0.02095729298889637 68:0.014515109360218048 69:0.009861948899924755 71:0.032463934272527695 72:0.024849968031048775 73:0.0018081053858622909 74:0.0059920139610767365 76:0.00727477204054594 77:7.5347547863202635E-6 79:0.0023272002581506968 80:0.022902952507138252 86:0.014743635430932045 87:0.014364076778292656 88:0.02370273508131504 89:0.0014080068795010448 91:1.2232780863996595E-4 92:0.01565776951611042 93:0.022457512095570564 95:0.003867883700877428 97:0.023119105026125908 98:0.016016703099012375 99:0.00503980228677392
-17.287885427695276 1:2.0388668053783476E-4 2:0.06502996385097504 4:0.04738808423280716 5:0.008711972273886204 6:6.840053829364479E-4 7:0.04146896302700043 8:0.042491137981414795 9:0.016329074278473854 13:0.01547163911163807 17:0.035645775496959686 18:0.005052079912275076 22:0.0020206940826028585 23:0.015085658989846706 24:0.0340377539396286 26:0.002464121673256159 27:0.011691863648593426 29:0.045731399208307266 33:0.012435919605195522 36:0.03370213136076927 37:0.041274912655353546 39:0.006966005079448223 41:0.05037656053900719 42:4.889253177680075E-4 43:0.019054440781474113 47:0.003785508219152689 49:0.025142785161733627 52:0.011723448522388935 54:0.024554606527090073 58:4.501625371631235E-4 60:0.015855897217988968 61:0.035173166543245316 62:0.0329858660697937 64:0.004280061461031437 65:0.02323022112250328 69:0.021626649424433708 71:0.023971635848283768 73:0.03954923897981644 80:0.007762248627841473 81:0.06116768345236778 83:0.024781042709946632 85:2.7058720661443658E-5 87:0.0059091513976454735 88:5.73105993680656E-4 89:7.907429244369268E-5 90:4.794247433892451E-5 93:0.04372734948992729 97:0.004265133757144213 99:0.03552399203181267
-17.287885427695276 2:0.28859201073646545 3:0.09129561483860016 11:0.19085164368152618 25:0.2961948812007904 61:0.010487571358680725 64:0.029050776734948158 68:0.06632882356643677 73:5.364641401683912E-5 85:0.019619828090071678 95:0.0075251939706504345
-17.287885427695276 3:0.09933973103761673 6:0.2937333881855011 46:0.12988552451133728 50:0.2761588990688324 57:0.1904735416173935 61:0.009070626460015774 81:0.0013382923789322376
-17.287885427695276 6:0.7382616996765137 81:0.2617383301258087
17.287885427695276 4:0.07032466679811478 9:0.07006596773862839 12:0.005550604313611984 13:0.024151071906089783 15:0.0457211509346962 17:0.026939766481518745 19:0.06072578206658363 22:0.02500426582992077 25:0.06306142359972 27:0.020196177065372467 28:1.611242041690275E-4 32:0.009955442510545254 33:0.029487594962120056 34:0.0036469304468482733 36:0.06846048682928085 42:0.0029144929721951485 44:0.018869535997509956 49:0.0010062037035822868 50:0.06492260843515396 53:0.048852771520614624 56:0.06950940191745758 57:0.00515902740880847 62:0.02912890538573265 65:0.01699669286608696 69:0.04306595027446747 71:0.02450776845216751 75:0.003200203413143754 83:0.016179244965314865 85:0.030457714572548866 93:0.06424611806869507 97:0.03753089904785156
17.287885427695276 3:0.07459436357021332 10:0.057750292122364044 15:0.045664239674806595 18:0.0226825512945652 27:0.0349905900657177 31:0.028728162869811058 33:0.028999829664826393 35:0.009429486468434334 36:0.1046677678823471 38:0.07929542660713196 39:0.07473088800907135 41:0.10143936425447464 42:0.048995766788721085 46:0.0025945266243070364 51:0.08433492481708527 52:0.020915748551487923 58:0.04612729698419571 72:0.00680165970697999 74:0.029590483754873276 79:0.05305282399058342 81:0.020903153344988823 90:0.010835738852620125 91:0.011586854234337807 94:0.001288058701902628
17.287885427695276 9:0.012842514552175999 17:0.869569718837738 88:0.10540604591369629 94:0.012181730009615421
17.287885427695276 26:0.596086323261261 38:0.2190641462802887 73:0.06511398404836655 78:0.11906807869672775 96:6.674728356301785E-4
-7.0173160069690885 17:1.0
-17.287885427695276 17:0.06903620809316635 21:0.08884657919406891 22:0.006354083772748709 23:0.09645497053861618 31:0.08007396757602692 38:0.12848521769046783 51:0.01061718724668026 64:0.0024541530292481184 71:0.08173127472400665 76:0.10325507074594498 83:0.1294916719198227 86:0.088945671916008 90:0.08553436398506165 95:0.028719604015350342
-17.287885427695276 11:0.06462418287992477 26:0.36657512187957764 66:0.05981952324509621 73:0.03331416845321655 76:0.23393657803535461 97:0.24173042178153992
-17.287885427695276 8:0.0841619148850441 26:0.2269994467496872 72:0.3257220983505249 90:1.9081018399447203E-4 91:0.3629257380962372
-17.287885427695276 6:0.020314287394285202 13:0.001516727963462472 21:0.06038539484143257 32:0.1474921554327011 38:0.13147705793380737 42:0.0064080143347382545 46:0.010557536967098713 62:0.001643879571929574 65:0.05660118907690048 71:0.15668870508670807 74:0.08002468198537827 81:0.1251993477344513 88:0.044138938188552856 92:0.09345604479312897 97:0.031017158180475235 98:0.033078860491514206
17.06593958958216 11:0.6598793864250183 14:0.03336140513420105 80:0.30675920844078064
-17.287885427695276 1:0.029395341873168945 5:0.03125932440161705 7:0.04560599476099014 9:0.009591798298060894 11:7.493960438296199E-4 13:0.019844574853777885 15:0.00459127314388752 18:0.041273098438978195 20:0.05856625735759735 22:0.03826756775379181 24:0.021345388144254684 25:0.002020927844569087 26:0.008503876626491547 28:0.008226057514548302 30:0.042343541979789734 32:0.06130560487508774 33:0.05809946358203888 34:0.05489765852689743 36:0.02923523634672165 37:0.001160587533377111 38:0.005498435348272324 42:8.373511373065412E-4 45:5.360540235415101E-4 47:0.010370975360274315 49:0.03826642408967018 51:0.04847238212823868 53:0.0015274550532922149 54:0.0016002439660951495 55:0.013884739950299263 56:0.0033512336667627096 57:0.018656566739082336 59:0.014675512909889221 60:1.2870287173427641E-4 66:0.010362809523940086 67:0.018726790323853493 70:0.007671899627894163 71:2.634261306866392E-7 74:7.748610805720091E-4 77:0.010684783570468426 79:0.008621428161859512 80:0.001522533711977303 82:0.009222045540809631 84:0.05806106701493263 85:0.007106512784957886 87:0.047593358904123306 92:0.028801029548048973 93:0.0016461644554510713 95:0.024770215153694153 99:0.040345191955566406
17.287885427695276 9:0.06685180217027664 20:0.03426821529865265 24:0.009526325389742851 48:0.08973819017410278 74:0.22862498462200165 84:0.24516861140727997 89:0.05780978128314018 95:0.2680121064186096
17.287885427695276 10:0.31858575344085693 13:0.6814142465591431
-17.287885427695276 48:1.0
-17.287885427695276 38:0.11060699075460434 95:0.8893930315971375
17.287885427695276 64:0.12709742784500122 81:0.8729025721549988
17.287885427695276 23:0.1677882820367813 27:0.033058732748031616 28:3.3578951843082905E-4 33:0.0020603439770638943 36:0.009770462289452553 37:0.02186080440878868 63:0.031670063734054565 67:0.21448825299739838 76:0.11233843863010406 80:5.049961037002504E-4 82:0.1538931280374527 86:0.03818589448928833 93:0.21404480934143066
17.287885427695276 18:0.289953351020813 23:0.7099143862724304 30:1.3224678696133196E-4
17.287885427695276 4:0.03960512578487396 8:0.04235779494047165 9:0.007034181617200375 25:9.900073055177927E-4 29:0.06831628829240799 31:0.06304125487804413 32:0.026955652981996536 39:0.039216358214616776 43:0.02702995575964451 44:0.05983408913016319 50:0.002236278261989355 55:0.06771904975175858 59:0.004693859722465277 60:0.10182397067546844 65:0.12163921445608139 67:0.0013439489994198084 72:0.06736433506011963 74:0.025559911504387856 75:0.0026545075234025717 84:0.06971067935228348 85:0.13411258161067963 88:0.013653669506311417 91:0.013100022450089455 93:7.260093752847752E-6
-17.287885427695276 13:0.08712862432003021 23:0.7810165882110596 39:0.13110138475894928 69:7.533738971687853E-4
17.287885427695276 1:0.10528208315372467 10:0.07048414647579193 11:0.04456198960542679 14:9.200034546665847E-4 17:0.08501847833395004 18:0.017720971256494522 30:0.06670515239238739 38:0.013429454527795315 39:0.0011751806596294045 40:0.006074214354157448 42:0.010264920070767403 50:0.05884590372443199 59:0.09716537594795227 60:0.04646783694624901 63:0.032536961138248444 64:1.1220674878131831E-6 67:0.0068579018115997314 74:1.1277438170509413E-4 76:0.09590701758861542 87:0.09659256786108017 88:0.10336846858263016 91:0.0024394220672547817 95:8.091345662251115E-4 99:0.037258923053741455
-12.208795908549222 67:1.0
17.287885427695276 48:1.0
17.287885427695276 4:0.07175181806087494 7:0.23616328835487366 33:0.03605208545923233 46:6.630779826082289E-4 50:0.07459378242492676 51:0.046569403260946274 65:0.06607265025377274 69:0.03399179130792618 71:0.3707088232040405 91:0.06343328207731247
17.287885427695276 5:0.021062567830085754 9:0.002481011673808098 19:0.1282927244901657 20:0.027554498985409737 21:0.10172592103481293 25:0.03422156721353531 28:0.10932682454586029 29:0.014868195168673992 30:0.11257082223892212 31:0.013025357387959957 52:0.022699013352394104 58:0.08948352187871933 61:5.295617738738656E-4 63:0.04460765793919563 65:4.3324774014763534E-4 67:0.008204531855881214 74:0.015947604551911354 78:0.16721202433109283 83:0.028116242960095406 94:0.055557701736688614 99:0.0020794034935534
-17.287885427695276 7:0.5689485669136047 53:0.039416052401065826 63:0.18252749741077423 85:0.16642846167087555 98:0.04267941415309906
-4.405291332162953 12:0.028719134628772736 16:0.00632497388869524 29:0.2738322913646698 43:0.05092882364988327 59:0.2962615191936493 64:0.052178703248500824 68:0.0028511404525488615 84:0.13563703000545502 99:0.15326638519763947
-13.846039612368267 4:0.047969937324523926 32:0.1455041468143463 35:0.043125081807374954 40:0.30423030257225037 45:0.026596451178193092 65:0.06334467977285385 78:0.36922940611839294
14.797883618931836 2:0.015106071718037128 3:0.0026465593837201595 4:0.050081487745046616 5:6.765190628357232E-4 8:0.014309396035969257 9:0.08160629123449326 10:0.023873019963502884 12:0.025440597906708717 19:0.03219332918524742 20:3.657774650491774E-4 21:4.596197129558277E-7 23:0.014247638173401356 28:3.860321521642618E-5 33:0.06435491144657135 34:0.0038837497122585773 37:0.030215857550501823 39:0.02330266498029232 40:0.08389925211668015 42:1.0661671694833785E-4 43:0.03293884918093681 45:0.05075228959321976 49:0.009995955973863602 53:0.06671932339668274 55:0.0604311041533947 56:0.001951355836354196 57:0.0667617917060852 58:0.06961894035339355 60:5.02164417412132E-4 62:0.02757595293223858 64:3.660631482489407E-4 70:0.01930222474038601 73:1.7501039837952703E-4 74:0.016718195751309395 80:0.007357513997703791 82:0.02302286960184574 85:5.199925908527803E-6 87:0.0012328902957960963 88:0.029614033177495003 89:0.045320384204387665 96:0.0031903779599815607 97:3.210498107364401E-5 98:6.66042251395993E-5
-17.287885427695276 8:0.08488156646490097 25:0.3846462368965149 66:0.006350105162709951 81:0.5241220593452454
17.287885427695276 3:0.12188435345888138 12:0.14121867716312408 13:0.10592436790466309 32:0.1952962577342987 40:0.11391979455947876 72:0.24370911717414856 78:0.01112318504601717 79:0.053535763174295425 85:0.009050986729562283 88:0.004337491001933813
17.287885427695276 3:0.252876877784729 26:0.1028708890080452 29:0.048185158520936966 32:0.2378596067428589 41:0.0011696546571329236 69:0.005460668355226517 75:0.31143879890441895 77:0.0401383712887764
1.6553649989662258 12:0.0964030921459198 19:0.5267097353935242 41:0.03467053174972534 43:0.23948848247528076 68:0.0038457221817225218 85:2.507838071323931E-4 88:0.09863167256116867
17.287885427695276 19:0.035424623638391495 22:0.0027777778450399637 25:9.703153045848012E-4 31:0.014392470940947533 36:0.13766013085842133 39:0.08420184999704361 40:0.08782520145177841 51:0.05205962806940079 52:0.040449358522892 55:0.06427150964736938 58:0.08663417398929596 59:0.07491833716630936 67:0.022200603038072586 72:0.009911379776895046 74:0.09698467701673508 80:0.12840580940246582 87:0.017391424626111984 89:0.025424644351005554 97:0.01809607818722725
-17.287885427695276 36:1.0
-17.287885427695276 10:0.4586942791938782 18:0.262464314699173 25:0.04140772297978401 26:8.949399343691766E-4 90:0.23653876781463623
-7.495881480708672 58:1.0
17.287885427695276 25:0.7707043290138245 60:0.22929565608501434
-14.75200645666195 23:0.005075092893093824 33:0.05069110542535782 55:0.44577011466026306 75:0.17755326628684998 84:0.32091042399406433
17.287885427695276 9:0.02838643454015255 23:0.29463404417037964 24:0.20329666137695312 34:0.06337447464466095 45:0.038392238318920135 48:0.1689114272594452 60:0.15227730572223663 88:0.019160890951752663 92:0.031566519290208817
17.287885427695276 1:0.007398337125778198 2:1.8405047740088776E-5 3:0.03838794305920601 4:0.05079026520252228 5:0.03276166692376137 6:2.3717147996649146E-5 7:0.01321796141564846 9:0.006540335714817047 10:0.032024990767240524 11:0.013977734372019768 12:0.014709660783410072 13:0.02568245120346546 14:0.04924415796995163 16:3.965984215028584E-4 17:4.522604576777667E-4 19:7.47383339330554E-4 20:0.026791473850607872 21:0.0020362797658890486 22:0.0021656800527125597 24:4.021770437248051E-4 25:0.00281888316385448 26:0.04688315466046333 27:0.017288224771618843 28:0.007233129348605871 30:0.04252775013446808 31:0.006139508448541164 33:0.004455630201846361 34:0.035377904772758484 37:3.148784162476659E-4 39:4.930843133479357E-4 41:0.008126410655677319 42:0.011583591811358929 43:0.009974316693842411 45:0.007250869181007147 46:0.005283522419631481 47:0.0013268898474052548 48:5.115712992846966E-4 49:0.001183641841635108 50:0.027957212179899216 51:0.0033266297541558743 52:0.018462298437952995 55:0.04031090438365936 57:0.02627764828503132 58:0.02509857714176178 59:6.309530726866797E-5 62:0.0018134571146219969 64:0.03422285243868828 65:0.0020561094861477613 66:0.0035727049689739943 67:0.023290447890758514 68:0.005674819927662611 70:0.04576447606086731 71:0.014943089336156845 72:0.039720941334962845 73:0.027043305337429047 76:4.039764462504536E-5 83:0.010489965789020061 84:0.011844495311379433 85:0.004816275089979172 86:0.015316715463995934 88:0.025491023436188698 89:0.0034985041711479425 90:0.04890768229961395 91:0.006825294811278582 95:0.006628631614148617
6.59042551876402 10:0.42476633191108704 32:4.8686470108805224E-6 46:0.11091616004705429 57:0.46207359433174133 61:0.0022390547674149275
-17.287885427695276 14:0.15326839685440063 20:0.03978120908141136 32:0.008232015185058117 42:0.0061656110920012 47:0.12045318633317947 48:0.08915801346302032 50:0.14901962876319885 57:0.03861168026924133 59:0.014639953151345253 69:0.1550072580575943 73:0.06921032071113586 76:0.14412203431129456 77:0.012330682948231697
17.287885427695276 16:0.04433073475956917 27:0.05100507661700249 29:0.15330544114112854 35:0.16633130609989166 46:0.12170178443193436 55:0.07768695801496506 61:0.07002529501914978 62:0.11242927610874176 68:0.15747880935668945 87:0.02317793294787407 98:0.02252739481627941
17.287885427695276 5:0.001990310847759247 14:0.06981541961431503 22:0.08331642299890518 26:0.008388887159526348 33:0.06904654204845428 36:0.03665957972407341 41:0.02607467956840992 47:0.011012361384928226 53:0.13364258408546448 57:0.11021119356155396 61:0.12350846827030182 69:0.12198909372091293 72:3.8562703412026167E-4 77:0.03595471754670143 80:0.0714581236243248 87:0.030055683106184006 96:0.0664903074502945
17.287885427695276 2:0.025612004101276398 3:0.030163627117872238 4:0.006291903089731932 6:0.03128594532608986 7:6.099718302721158E-5 8:0.02473331056535244 9:0.01319706067442894 11:4.6045732915445114E-7 12:0.005501828156411648 13:4.212565181660466E-5 14:0.003656984306871891 15:0.005688167642802 16:0.007212465163320303 17:9.360073017887771E-4 19:0.002763182856142521 20:0.0012965573696419597 21:0.0030685553792864084 22:0.02650696597993374 23:0.0026052563916891813 26:0.010309472680091858 27:0.003742485772818327 29:0.0028713990468531847 30:0.001176329213194549 33:0.0016820718301460147 34:0.0020761736668646336 35:0.005703992675989866 36:0.022873878479003906 37:0.012500757351517677 39:0.026451751589775085 40:1.1405229452066123E-4 41:4.025194502901286E-4 42:0.0044479831121861935 43:0.019446123391389847 44:5.628058352158405E-5 45:0.00961859617382288 46:0.00806498620659113 47:0.012458483688533306 48:0.03298991546034813 49:0.029673391953110695 50:2.569362404756248E-4 51:0.00383836985565722 54:0.03199705109000206 55:0.00587276229634881 56:0.005056528840214014 58:0.02645868994295597 59:0.003124027047306299 61:0.020003940910100937 62:0.009576787240803242 63:0.03044673055410385 65:0.012060652486979961 66:0.03636796772480011 68:0.02529866248369217 70:0.023607175797224045 71:0.015261473134160042 74:0.01645655184984207 75:0.031221546232700348 76:0.003481150371953845 78:0.026897739619016647 80:0.0211630929261446 81:0.013087034225463867 82:0.029213571920990944 83:0.01850130595266819 84:0.032533153891563416 85:0.002282818080857396 86:0.005023228470236063 87:0.0033333529718220234 88:0.027220362797379494 89:0.023263586685061455 91:8.87758273165673E-4 92:0.02153250388801098 93:6.035492406226695E-4 94:0.029191596433520317 95:0.005292689893394709 96:0.035518430173397064 98:0.0053213671781122684 99:0.0014618110144510865
-17.287885427695276 39:0.01784672774374485 40:0.23285913467407227 45:0.2464064359664917 50:0.032497555017471313 71:0.3521193861961365 73:0.043587666004896164 79:0.01753021776676178 87:0.016008110716938972 91:0.041144758462905884
-17.287885427695276 10:0.0440644770860672 17:0.002167744329199195 40:0.17091628909111023 42:0.0013605871936306357 55:0.18059691786766052 64:0.03401540592312813 67:0.15541182458400726 76:0.1282246708869934 79:0.010926398448646069 83:0.06770993024110794 85:0.001907329191453755 99:0.20269842445850372
-9.671417095159807 9:0.5187469720840454 20:0.38446110486984253 68:0.09679191559553146
-17.287885427695276 1:0.02161334827542305 4:0.1997239589691162 5:0.04447532445192337 7:0.12521426379680634 24:0.0025003254413604736 27:9.720234666019678E-4 31:0.06686996668577194 56:0.02809257246553898 59:0.023265009745955467 73:1.54088280396536E-4 75:0.0380120575428009 77:0.026832446455955505 81:0.07946296036243439 84:0.016544867306947708 90:0.0049552349373698235 92:0.05280464142560959 93:0.17454533278942108 95:0.09396157413721085
17.287885427695276 1:0.007130065467208624 4:0.029200607910752296 6:5.8665918913902715E-5 7:0.040466051548719406 8:0.005525930318981409 9:3.8993271300569177E-4 11:0.00896848551928997 12:0.018509315326809883 14:0.0324593149125576 15:0.0071128238923847675 16:0.0017911989707499743 18:0.03948533535003662 19:0.03892379626631737 20:0.025440767407417297 21:0.01841038465499878 22:0.008285289630293846 23:0.0018124949419870973 24:0.033230800181627274 25:0.02223946712911129 28:0.0031515336595475674 29:0.0011402876116335392 32:0.0020189995411783457 33:0.007716931402683258 34:0.0380060188472271 36:0.02448078989982605 39:0.013578037731349468 40:0.025847159326076508 42:0.007730689365416765 43:0.03392598778009415 44:0.010856423527002335 46:0.02191969007253647 47:0.03491561859846115 48:0.029275905340909958 50:0.0017201282316818833 52:0.02295888587832451 54:0.029498862102627754 55:0.01511223241686821 57:0.03850041702389717 58:0.026550063863396645 59:0.0028995790053159 61:1.3038338511250913E-4 62:0.0030977120622992516 64:0.0015914856921881437 65:0.019986025989055634 69:0.019519073888659477 73:0.00318810879252851 77:0.002313935896381736 78:0.020983895286917686 79:0.005358018446713686 80:0.0014070220058783889 81:0.028756385669112206 83:0.035192303359508514 84:0.025623079389333725 87:0.02041424624621868 88:0.010182026773691177 89:0.022562647238373756 90:0.013837124221026897 93:0.021082397550344467 95:2.510623598936945E-4 97:0.005823884624987841 99:0.007454201113432646
-13.945974993910923 16:0.056707438081502914 18:0.2622784674167633 21:0.24445536732673645 51:0.009543216787278652 73:0.08604416996240616 74:1.5792145859450102E-4 78:0.22547370195388794 84:0.017117945477366447 87:0.005702191032469273 92:0.0925195962190628
17.287885427695276 7:0.3518752157688141 97:0.6481247544288635
-17.287885427695276 1:0.07557585835456848 12:0.04148966446518898 22:0.0724388062953949 32:3.2859735074453056E-4 35:0.08556962758302689 36:0.04383692145347595 41:0.07793857902288437 47:0.13067710399627686 58:0.007471559569239616 65:0.0025314833037555218 66:2.1884401576244272E-5 71:0.0892067551612854 77:0.08104553073644638 81:0.028797447681427002 89:0.1591821163892746 91:0.007425685878843069 92:0.004673177842050791 97:0.09099508076906204 99:7.941095973365009E-4
-17.287885427695276 6:1.0143934559891932E-5 9:0.003680707886815071 20:4.2701460188254714E-4 26:0.03398703783750534 36:0.011481567285954952 42:0.03668142110109329 46:0.2293974757194519 62:0.033922892063856125 70:0.1734558641910553 73:0.18594029545783997 78:0.012273681350052357 79:0.08493828773498535 89:0.12528851628303528 91:0.03918147459626198 95:0.029333628714084625
17.287885427695276 16:0.26786282658576965 20:0.10685354471206665 40:0.38300666213035583 57:0.011815541423857212 58:0.1813192218542099 88:0.04914218932390213
-17.287885427695276 58:1.0
17.287885427695276 42:0.3553953766822815 52:0.10897841304540634 55:0.06625727564096451 61:0.004618849139660597 66:0.4439062178134918 80:0.02084387093782425
-17.287885427695276 1:0.0018946717027574778 3:0.010607966221868992 4:0.02638259530067444 7:0.009629412554204464 14:0.057804517447948456 16:0.0010013000573962927 27:0.011898694559931755 28:0.005197820719331503 32:0.04216472804546356 35:0.06548453122377396 37:0.036455120891332626 38:0.05351824685931206 39:0.005972360260784626 42:0.017781151458621025 43:0.0879131406545639 53:0.0037247135769575834 54:0.09296601265668869 55:0.03800229728221893 57:0.06847289204597473 59:0.012597513385117054 60:0.09868009388446808 61:0.0654904916882515 75:7.017417228780687E-4 77:0.007831456139683723 78:0.016114061698317528 83:0.07893417775630951 86:0.013003019616007805 87:8.284702780656517E-4 88:0.04748062789440155 89:0.021466171368956566
17.287885427695276 10:1.77768524736166E-4 12:2.956775642815046E-5 14:0.017509400844573975 17:0.0744868591427803 21:0.0013156242202967405 27:0.0014126271707937121 28:0.025027915835380554 29:0.0017781590577214956 31:0.04013663902878761 43:3.0917071853764355E-6 46:0.0861877053976059 49:0.06922854483127594 52:0.09414863586425781 53:4.830060061067343E-5 55:2.6464980692253448E-5 57:0.10086546838283539 58:0.07167010754346848 60:0.025237763300538063 70:0.054307349026203156 77:0.0761343315243721 79:0.0017151094507426023 80:0.0061494894325733185 87:0.045138128101825714 91:4.52107226010412E-4 94:0.0722113698720932 96:2.6221093139611185E-4 97:0.08576974272727966 99:0.04856952652335167
17.287885427695276 6:0.015688695013523102 13:0.039412688463926315 16:0.018594052642583847 38:0.007701485883444548 40:0.18526646494865417 41:0.2103090137243271 61:0.060387834906578064 66:5.111702193971723E-5 79:0.0727066844701767 87:0.16818788647651672 92:0.0027116425335407257 95:0.08387508988380432 98:0.1351073533296585
-17.287885427695276 18:0.01564297080039978 33:0.044520460069179535 53:0.16552604734897614 75:0.7743105292320251
3.832303532385952 7:0.9458869695663452 97:0.05411304160952568
-17.287885427695276 2:6.234619650058448E-4 3:0.025998614728450775 4:0.022715799510478973 5:0.05192073807120323 7:0.02904866635799408 9:0.007219541817903519 10:0.03674045950174332 13:3.0339177101268433E-5 15:0.002876243321225047 16:0.01480794232338667 17:0.02033236064016819 23:0.03355775773525238 24:2.868742449209094E-4 25:0.04421716928482056 27:0.011779808439314365 28:0.0456601157784462 33:0.06252287328243256 34:0.016503045335412025 35:0.028957737609744072 44:0.044566210359334946 45:0.011555736884474754 46:0.012694892473518848 48:0.037658464163541794 51:0.01826968602836132 52:0.007939072325825691 57:0.011889312416315079 61:0.02670283056795597 63:0.03010324016213417 66:6.697340268146945E-6 69:0.0035196742974221706 70:3.376645618118346E-4 74:0.005296327639371157 75:0.05830775201320648 76:7.286802865564823E-4 77:0.05486343801021576 80:0.05030827969312668 83:0.019174346700310707 94:0.04972176253795624 96:0.019624996930360794 97:0.06322658061981201 99:0.017704807221889496
-3.0618208545333676 3:0.0031198295764625072 33:0.009841778315603733 69:0.2768213152885437 75:0.7102170586585999
-17.287885427695276 10:0.06907937675714493 13:0.006711243186146021 17:0.0994047299027443 26:0.11900023370981216 38:0.10289040952920914 40:0.02479366771876812 43:0.10135548561811447 48:0.011979728937149048 49:0.14645721018314362 53:0.07240394502878189 73:0.14861822128295898 88:0.09730573743581772
17.287885427695276 1:0.012958856299519539 2:0.038599081337451935 3:8.800789364613593E-4 4:0.017662987112998962 5:0.002771790837869048 6:0.02982289344072342 7:0.01129466388374567 11:3.0441417493420886E-6 12:0.017919111996889114 13:0.0029166548047214746 14:0.03630868345499039 15:0.016408558934926987 16:0.008200694806873798 17:0.0043917251750826836 20:0.004570753779262304 21:0.00946827046573162 23:4.0821137372404337E-4 25:1.3940243661636487E-5 26:0.00107992859557271 27:5.7497290981700644E-5 30:9.806580010263133E-7 32:0.0026713975239545107 34:6.502976175397635E-4 35:0.013682997785508633 36:0.040696918964385986 37:4.688157350756228E-4 38:2.892863121815026E-4 41:0.012183981016278267 42:1.8305111734662205E-4 44:8.555666136089712E-5 45:7.246035384014249E-4 46:0.0030184246134012938 47:0.0012210593558847904 49:0.0016908665420487523 50:5.274740979075432E-4 53:0.048904694616794586 54:0.031890176236629486 55:0.002873904537409544 57:0.036951594054698944 58:0.033267442137002945 59:0.01404827181249857 60:0.001511573907919228 61:0.0012619878398254514 65:0.006452576257288456 66:0.01233694888651371 67:3.851627407129854E-4 68:0.004322651773691177 69:0.03821912035346031 70:0.03256547078490257 71:0.03314407542347908 73:0.011317954398691654 74:0.011832990683615208 75:6.694260518997908E-4 76:0.004655141849070787 77:0.0348699651658535 81:0.04596967622637749 82:0.04807385802268982 83:0.00909014604985714 84:1.9147401326335967E-4 85:0.03867361322045326 87:0.00161601766012609 88:0.01874559372663498 89:0.04126385971903801 90:6.027091876603663E-5 91:0.01118246279656887 92:0.04793451726436615 93:0.02847079001367092 95:0.02084086276590824 96:0.01027968991547823 99:0.022292904555797577
-17.287885427695276 17:0.04029945284128189 21:0.3681567311286926 23:0.26538175344467163 68:0.32616207003593445
14.323849845696108 14:0.2153029441833496 18:0.3743034899234772 30:0.3182540237903595 38:0.0033896630629897118 43:0.08746781200170517 52:5.354355089366436E-4 56:9.907076309900731E-5 66:6.475572008639574E-4
-17.287885427695276 1:0.025081798434257507 3:4.8819140647538006E-4 6:0.017992990091443062 9:0.018370063975453377 10:0.0034238824155181646 13:0.01944921351969242 14:0.01654210314154625 16:0.021042335778474808 22:0.020337486639618874 24:0.008449743501842022 25:0.02484867349267006 26:0.027476688846945763 27:0.03002028353512287 29:7.260803249664605E-4 31:0.05509490147233009 34:0.027364281937479973 40:0.04334331676363945 41:0.03707550838589668 42:0.04830319434404373 43:0.019657859578728676 44:3.425198083277792E-4 45:0.022547001019120216 48:0.001084238407202065 49:1.3925449457019567E-4 50:0.010021603666245937 51:8.873509614204522E-6 52:0.017030276358127594 53:0.05519244074821472 54:0.02157227136194706 56:0.043862052261829376 60:0.039002254605293274 61:0.013394597917795181 63:0.0014376736944541335 65:0.029899081215262413 66:0.04825468733906746 68:0.013493414968252182 69:0.036853667348623276 72:0.017138710245490074 73:0.03388058394193649 79:0.021115010604262352 80:0.015609574504196644 83:0.005177643615752459 84:0.012960444204509258 85:0.0065901875495910645 88:0.005020011682063341 91:0.0066414182074368 92:5.70407195482403E-4 93:3.4205885413030046E-7 94:0.019829271361231804 97:0.03624190390110016
17.287885427695276 1:0.07597397267818451 5:0.06577074527740479 7:0.04005150869488716 8:0.01882992498576641 12:0.11844566464424133 14:0.11169775575399399 17:0.10485842078924179 20:0.0047913603484630585 25:0.015020396560430527 27:0.07631967961788177 31:0.04158950224518776 38:0.0022224723361432552 62:0.04493561014533043 66:0.018634358420968056 76:0.1309443861246109 81:0.08475115150213242 82:0.029596073552966118 85:0.015567008405923843
17.287885427695276 2:0.0956086590886116 4:0.08814491331577301 5:1.5870571951381862E-4 10:0.0038353800773620605 13:8.451382163912058E-4 14:0.10439499467611313 30:0.004811643157154322 31:0.027110345661640167 32:0.031028319150209427 35:0.08589234948158264 41:0.016865894198417664 45:0.1048252135515213 46:0.12240523844957352 57:0.0779949501156807 82:0.1111697182059288 86:0.00425660191103816 87:0.08574607968330383 95:0.03490586206316948
17.287885427695276 12:0.019010109826922417 15:0.08234948664903641 29:0.03834781423211098 38:0.028297947719693184 42:0.0034488968085497618 48:0.13816745579242706 49:0.07619314640760422 50:0.20168477296829224 55:0.04251173511147499 65:0.16632577776908875 78:0.020564517006278038 83:0.038365740329027176 95:0.14473259449005127
17.287885427695276 13:0.011180533096194267 18:0.01914029009640217 19:0.025569606572389603 22:0.07545513659715652 28:0.02358320914208889 31:0.05715008080005646 36:0.07983388751745224 43:0.015084040351212025 50:0.11856146156787872 53:0.12366767227649689 55:0.03893425688147545 58:0.03445461392402649 71:0.10437986254692078 72:0.13696354627609253 80:0.004970189183950424 81:0.013645825907588005 85:0.0763283520936966 87:0.02888723649084568 95:0.012210184708237648
-17.287885427695276 23:0.05198746547102928 30:0.3451803922653198 31:0.1323828101158142 34:0.39211589097976685 40:2.283552476001205E-6 53:0.07833115756511688
2.329828788052577 5:0.005107922479510307 6:0.034652259200811386 9:0.06752273440361023 15:0.03913889080286026 20:0.07058971375226974 21:0.06260378658771515 24:0.04846687987446785 25:1.9496450477163307E-5 30:0.052362602204084396 32:0.07685251533985138 33:0.06727918982505798 34:0.005408081691712141 36:0.06087338179349899 41:0.0044067176058888435 53:0.004689674824476242 57:0.029328176751732826 59:0.030019430443644524 64:0.004723574500530958 65:0.0031907372176647186 66:0.024348203092813492 67:0.006341768894344568 71:0.010952572338283062 76:0.0685918927192688 78:0.05021962523460388 79:0.00210759649053216 84:8.23872338514775E-4 85:0.00259987055324018 88:0.0704202800989151 93:0.06944257766008377 94:0.026206230744719505 98:7.097491179592907E-4
-17.056572975260526 3:0.3334104120731354 22:0.4104119837284088 24:0.014429748989641666 44:0.016613846644759178 87:0.2251340001821518
-17.287885427695276 5:0.006093386560678482 15:0.9939066171646118
-17.287885427695276 3:0.14407354593276978 5:0.03912697359919548 8:0.047677554190158844 9:0.01033361442387104 13:0.3964294195175171 21:0.009190594777464867 38:0.11472680419683456 50:0.0012386318994686007 60:0.022595614194869995 61:0.11052624881267548 70:0.0665593147277832 90:0.03752167150378227
-17.287885427695276 21:0.09559360146522522 30:0.01319430023431778 31:0.022817261517047882 40:0.013967568054795265 42:0.012662786990404129 45:0.03198344632983208 48:0.1703721135854721 51:0.16150319576263428 61:0.19843007624149323 65:0.18459486961364746 89:0.09488078206777573
-17.287885427695276 1:0.026924259960651398 2:0.01185742486268282 3:0.017204131931066513 4:3.1606334687239723E-6 5:0.004554275423288345 6:0.016926001757383347 7:6.760079995729029E-4 8:0.014819575473666191 9:1.4036499487701803E-4 10:9.700350929051638E-4 11:0.012725559063255787 12:0.02832067385315895 13:0.010900330729782581 14:0.014404832385480404 15:0.005528261419385672 16:0.006086990237236023 17:0.018787214532494545 18:0.0014729243703186512 19:0.009114827960729599 20:0.015202383510768414 21:4.1048956336453557E-4 22:5.145397735759616E-4 23:0.01227869838476181 24:0.0180297140032053 25:0.018197298049926758 26:0.004276496358215809 27:0.004227748606353998 28:0.0015573168639093637 29:0.010367936454713345 30:7.587813888676465E-5 31:0.014028582721948624 32:0.023990212008357048 33:0.00626352708786726 34:0.015509762801229954 35:5.514538497664034E-4 36:0.023638905957341194 37:0.01040442194789648 38:0.004754274617880583 39:0.009175729006528854 40:8.601268054917455E-4 41:7.878397009335458E-4 42:7.149354787543416E-4 43:0.008671829476952553 44:0.00438659219071269 45:0.008907180279493332 46:0.01437722984701395 47:0.009047828614711761 48:0.005816549062728882 49:0.01610293611884117 50:0.0017986730672419071 51:0.009935070760548115 52:0.030631529167294502 53:0.005040593445301056 54:0.020561084151268005 55:2.1449945052154362E-4 56:0.02355409599840641 57:0.007825215347111225 58:0.03111991100013256 59:0.010347097180783749 60:0.02140357345342636 61:0.013940182514488697 62:3.123481583315879E-4 63:0.01285070925951004 64:0.0036789891310036182 65:0.02463986724615097 66:5.573326488956809E-4 67:1.5232502482831478E-4 68:0.0025633482728153467 69:0.0063749514520168304 70:0.006169416476041079 71:0.014363454654812813 72:0.02718309685587883 73:0.003934200387448072 74:6.990314577706158E-4 75:0.00149727298412472 76:0.03039192222058773 77:9.662869269959629E-4 78:0.001635451102629304 79:0.0014034759951755404 80:7.106924313120544E-4 81:0.015841614454984665 82:3.386234166100621E-4 83:0.0038218603003770113 84:0.006485905963927507 85:0.028956830501556396 86:0.007175401784479618 87:0.012019138783216476 88:0.013200008310377598 89:0.0052072349935770035 90:1.7950455912796315E-6 91:0.0251731239259243 92:0.006220399402081966 93:0.0032561547122895718 94:0.002295971615239978 95:0.021245699375867844 96:0.0107262646779418 97:0.01914582960307598 98:0.029463456943631172 99:0.008423717692494392
-17.287885427695276 2:0.11660999804735184 14:0.1244204193353653 17:0.12212632596492767 18:0.003307872451841831 26:0.062498874962329865 29:0.07682689279317856 31:0.09689176827669144 36:0.032533224672079086 43:0.0656345933675766 47:0.0040738838724792 48:0.06217426061630249 49:0.00789047870784998 50:0.002437256509438157 52:3.894712426699698E-4 53:0.053104910999536514 59:0.07219596952199936 65:7.967013516463339E-4 73:1.2479451834224164E-4 81:0.0015288153663277626 88:2.864937123376876E-4 91:0.02995709516108036 94:0.03716989606618881 96:0.012365528382360935 97:0.014654464088380337
-17.287885427695276 2:0.023197755217552185 3:0.01610543020069599 16:0.20523495972156525 20:3.248043185521965E-6 26:0.21847142279148102 27:0.03327784314751625 29:0.09266115725040436 37:0.028910575434565544 44:0.03337736800312996 47:0.09635370224714279 64:0.13804608583450317 65:0.0536564476788044 66:0.005753268953412771 85:0.007904956117272377 91:0.04704577848315239
-17.287885427695276 2:0.017399294301867485 5:0.12086621671915054 12:0.03825663402676582 15:0.0040109893307089806 20:0.046371132135391235 21:0.032762326300144196 22:0.039887163788080215 30:0.13570736348628998 32:0.1082807406783104 42:0.05648539215326309 56:0.10497500747442245 64:0.11200063675642014 67:0.01793280616402626 72:0.1370057463645935 74:0.010126959532499313 82:0.003043304430320859 90:0.007445738185197115 94:0.003259264165535569 99:0.004183272831141949
-6.011010687633874 1:0.05966019257903099 6:0.05473007634282112 8:0.025365609675645828 16:0.0067849233746528625 22:0.043295975774526596 27:0.03837622329592705 29:0.0023437615018337965 31:0.021816419437527657 37:0.03192970156669617 39:0.01556723564863205 40:0.06528890132904053 45:0.016534440219402313 48:0.04869302362203598 49:0.04370344057679176 52:0.01046446617692709 63:0.03160281106829643 65:0.0488508865237236 69:0.05260876566171646 70:0.0013080097269266844 71:0.04425698518753052 74:0.025685396045446396 76:0.06430129706859589 78:0.007386327721178532 79:0.021706832572817802 84:0.07155182212591171 90:0.035132430493831635 93:3.1111412681639194E-4 96:0.04415467754006386 98:2.628921647556126E-4 99:0.0663253664970398
-17.287885427695276 2:0.0257035531103611 3:0.03795146197080612 4:0.003689421573653817 6:0.019953232258558273 9:0.006275858264416456 12:0.02781776897609234 13:0.0313875675201416 14:1.2127702939324081E-4 15:0.0010369789088144898 17:0.02561134658753872 18:6.336660007946193E-4 21:0.030472775921225548 23:0.031009599566459656 24:0.006101564504206181 25:0.012554031796753407 26:0.055032920092344284 27:0.03534926101565361 28:0.024415258318185806 31:0.052070584148168564 32:0.04204438254237175 33:0.041059814393520355 35:0.05319017916917801 37:0.045971695333719254 39:0.001685355557128787 41:0.015615624375641346 44:2.419194352114573E-4 47:3.103089111391455E-4 48:1.9775674445554614E-4 49:0.04189147427678108 50:8.220024756155908E-4 51:3.221806764486246E-6 60:0.014848451130092144 61:1.9992850866401568E-5 64:3.1226727878674865E-4 66:0.027298573404550552 68:4.021403437945992E-4 70:0.041060131043195724 71:0.0489184707403183 72:4.906600806862116E-4 73:0.006026629824191332 75:0.002132810652256012 76:1.3357071111386176E-5 77:0.0037695132195949554 81:0.04822230711579323 84:0.0018293289467692375 86:0.011002897284924984 87:0.05394618213176727 88:3.8227761979214847E-4 90:0.0013553353492170572 93:0.012773066759109497 94:0.002338381949812174 95:1.9802684255409986E-4 96:0.0013710851781070232 97:0.0406094565987587 98:0.00941323209553957 99:0.0010435613803565502
-17.287885427695276 1:0.0016375702107325196 4:0.012654215097427368 9:0.0014556521782651544 11:0.002938797464594245 15:0.03751831874251366 16:0.012623332440853119 21:0.009116064757108688 23:0.023975428193807602 29:0.0052864388562738895 32:0.16997146606445312 38:0.020899983122944832 48:0.04462023079395294 50:0.007777208462357521 60:0.016789890825748444 61:0.19224217534065247 69:0.06394410878419876 71:0.005047392565757036 76:0.07368753850460052 87:0.1692485213279724 89:0.061569273471832275 96:0.06699639558792114
-17.287885427695276 2:0.0023449186701327562 9:0.015104373916983604 27:0.0032087303698062897 31:0.12592270970344543 38:0.06927255541086197 39:0.17176660895347595 45:0.16293129324913025 53:0.06766428798437119 56:0.020382553339004517 57:0.010499700903892517 60:0.026145318523049355 62:0.0581318736076355 63:0.003153847297653556 64:1.4443845429923385E-4 67:0.07091520726680756 76:0.07516784220933914 82:0.043360188603401184 85:0.04446834698319435 88:0.0071939146146178246 92:3.4263284760527313E-6 93:6.702967802993953E-4 95:0.01727854646742344 99:0.004269025754183531
-17.287885427695276 3:0.048595234751701355 8:0.04125621169805527 11:0.044635187834501266 19:0.02274884656071663 23:0.0387909859418869 24:0.06822517514228821 28:0.0729699358344078 30:0.08315923064947128 31:0.03946631774306297 35:0.008138611912727356 37:1.3167751603759825E-4 41:3.708482608999475E-6 42:0.04430048167705536 48:0.007091286592185497 56:0.001759186270646751 58:0.038963884115219116 59:0.05951721966266632 62:0.08616003394126892 74:0.00925411470234394 76:0.055459506809711456 77:0.013881460763514042 78:0.0547051765024662 87:0.06901933252811432 91:0.007930399850010872 94:0.018355922773480415 95:0.0036851849872618914 96:0.028294790536165237 99:0.03350089117884636
-9.570619246747913 18:0.07354755699634552 33:0.10183510184288025 90:0.026329295709729195 97:0.7982880473136902
-17.287885427695276 6:0.24641646444797516 34:0.1475079506635666 42:0.31375816464424133 45:0.04726415500044823 50:0.0945492684841156 64:0.004773681052029133 72:0.0662137046456337 83:0.07808680832386017 88:0.001429781666956842
-17.287885427695276 2:0.07078121602535248 3:0.06740301847457886 6:0.05972941592335701 7:0.01735854707658291 9:1.537216485303361E-5 10:0.0065128686837852 12:0.026982014998793602 19:0.015704182907938957 23:0.01091071031987667 24:0.04325935244560242 26:0.045850444585084915 27:0.002972261281684041 31:0.035664256662130356 32:0.02534148097038269 34:0.06052500754594803 39:0.013066939078271389 42:0.06564140319824219 44:0.00839137751609087 45:0.017077896744012833 47:0.00748486677184701 50:0.046751342713832855 51:0.06600417196750641 54:7.784874178469181E-4 56:0.01399961393326521 57:0.042380739003419876 60:0.03661061450839043 64:0.010607992298901081 73:0.057286519557237625 81:0.0758850947022438 83:0.047448933124542236 86:8.690795511938632E-4 94:1.5771562175359577E-4 99:5.470633623190224E-4
17.287885427695276 1:0.002573587466031313 7:0.03815782070159912 8:0.029426008462905884 9:0.03909654915332794 10:0.038005344569683075 14:0.01461537554860115 15:0.04161740466952324 18:0.0017920371610671282 22:0.008371253497898579 23:0.006961592473089695 24:0.051477592438459396 25:0.027034776285290718 26:0.007557744160294533 28:0.0011278860038146377 31:0.009720325469970703 33:0.029133951291441917 34:0.010660291649401188 35:0.025045286864042282 39:0.0012288573198020458 40:0.009408900514245033 41:0.013285023160278797 43:0.03279504179954529 44:4.564700066111982E-4 46:0.017479771748185158 48:0.017117416486144066 50:0.008381490595638752 52:0.03163808211684227 54:0.0333087220788002 56:0.04644843190908432 57:0.03707883879542351 59:0.034707508981227875 61:0.004183505661785603 62:9.972667321562767E-4 63:0.012073792517185211 64:3.7980428896844387E-4 65:0.008645660243928432 66:0.03562149778008461 68:0.03166557848453522 72:0.02333233878016472 74:0.009934217669069767 76:0.01622709631919861 77:0.023320579901337624 82:0.04022685065865517 83:0.010682724416255951 84:0.010885783471167088 89:0.03092409111559391 91:0.02593449503183365 96:0.034622061997652054 99:0.014633270911872387
17.287885427695276 15:0.345601350069046 19:0.0438462495803833 23:0.1824275106191635 35:0.26040419936180115 43:0.0029135148506611586 74:0.001963273389264941 89:0.16284388303756714
17.287885427695276 5:0.11840977519750595 16:0.089057557284832 17:0.025983108207583427 24:0.001422450295649469 30:0.009953605011105537 35:1.961137750186026E-4 39:0.0398268923163414 41:0.010212155058979988 42:9.674536413513124E-4 46:0.11276069283485413 58:0.06454866379499435 65:0.04395539313554764 68:0.08966504782438278 70:0.1111770048737526 82:0.009079997427761555 93:0.0953323170542717 96:0.060508936643600464 99:0.11694283038377762
8.194158734317801 1:0.2829911410808563 34:0.7170088291168213
17.287885427695276 7:0.23694831132888794 27:0.5241707563400269 56:0.23888090252876282
-17.287885427695276 1:0.011044940911233425 7:0.04764200747013092 10:0.12020360678434372 11:7.746905321255326E-4 16:0.12362539023160934 20:0.0029816285241395235 27:0.10979920625686646 34:0.07973270863294601 48:8.700411854078993E-6 50:1.5974863345036283E-5 51:3.069127269554883E-4 57:0.06084054708480835 60:0.01862967014312744 61:0.13055261969566345 62:0.13129088282585144 65:0.014959475956857204 66:0.06529901921749115 74:0.048217739909887314 76:0.004998540040105581 79:0.008524948731064796 88:7.340608281083405E-4 89:0.019816730171442032
-17.287885427695276 1:0.003796238452196121 2:0.010817723348736763 4:0.001173745607957244 5:0.022505253553390503 7:0.002707470441237092 8:0.027425585314631462 9:7.893675356172025E-4 10:0.017226003110408783 11:0.009846113622188568 12:0.031909845769405365 15:0.002632895251736045 16:0.03598764166235924 18:0.012150558643043041 19:0.0031675149220973253 20:0.019550584256649017 21:0.023289697244763374 23:0.021235041320323944 24:0.008215665817260742 25:0.010450896807014942 26:0.010664521716535091 28:1.5480721776839346E-4 30:0.03832174465060234 32:0.019944865256547928 34:0.016244977712631226 35:0.03786883130669594 36:0.021948840469121933 37:6.0954080254305154E-5 38:0.019617415964603424 39:0.004920036531984806 40:0.004674606956541538 41:1.45580546814017E-4 42:0.0035026613622903824 43:0.02128954604268074 44:0.025061797350645065 48:0.03082510456442833 49:0.0016245718579739332 50:0.002886201487854123 51:0.025678196921944618 52:0.031777750700712204 53:0.038293033838272095 54:1.7492946062702686E-4 55:0.02209651470184326 57:5.4526499297935516E-5 58:0.003066185861825943 59:0.03867262229323387 60:0.023114275187253952 62:0.011209828779101372 63:0.03661179542541504 65:0.016179263591766357 66:0.0070084333419799805 68:0.0298679918050766 69:0.016209451481699944 70:1.8238939810544252E-4 75:0.006423937156796455 76:0.0044635748490691185 77:0.018231743946671486 79:0.0025168645661324263 80:0.0014052761252969503 81:0.0393417552113533 82:0.03165893256664276 85:0.005058007314801216 86:7.80716072767973E-4 88:4.233309009578079E-4 89:0.004594305530190468 90:0.0028350313659757376 92:0.007517677731812 93:6.980611942708492E-5 94:0.006107225548475981 95:8.57982158777304E-5 96:0.0012634723680093884 97:0.0203108973801136 98:0.022079549729824066
-17.287885427695276 4:0.006725730374455452 13:0.09017664939165115 14:0.01962008699774742 15:0.0016084120143204927 16:0.014508442021906376 19:0.016895025968551636 22:0.10356020927429199 29:0.06936223804950714 30:0.023791147395968437 31:0.05237939581274986 38:0.06733877956867218 44:0.014677879400551319 50:8.580030989833176E-4 52:0.03653760254383087 59:0.08545202016830444 60:0.007131397724151611 63:0.027994034811854362 66:0.07553813606500626 75:4.210649349261075E-4 77:0.048325106501579285 79:0.08300716429948807 80:0.05622636899352074 82:0.006707874126732349 93:0.05088597536087036 95:0.040271248668432236
17.287885427695276 6:0.24248209595680237 7:0.008909941650927067 10:0.0035206039901822805 18:0.0375223234295845 34:8.260596951004118E-5 39:0.039641957730054855 42:0.02048070915043354 47:0.17389434576034546 49:0.20688728988170624 60:0.009955760091543198 70:0.007857841439545155 75:0.034265339374542236 97:0.14331817626953125 99:0.07118100672960281
17.287885427695276 1:0.14148299396038055 10:0.09502997249364853 30:2.7118113939650357E-4 35:0.30416935682296753 42:0.43877923488616943 50:0.02026725746691227
17.287885427695276 12:0.0012397111859172583 18:0.07588455080986023 23:0.11738548427820206 30:0.1632527858018875 49:0.1893988996744156 84:0.29829689860343933 87:0.003129624994471669 90:0.15141203999519348
17.287885427695276 3:0.09369128197431564 7:0.19603939354419708 8:0.020642105489969254 20:0.008503834716975689 37:5.99719314777758E-5 62:0.07830121368169785 68:0.17713049054145813 81:0.17964650690555573 83:1.0839242895599455E-4 95:0.24587680399417877
17.287885427695276 5:0.0402461513876915 7:0.012392071075737476 8:0.20207494497299194 13:0.046269599348306656 22:0.002637864788994193 26:0.06174670159816742 28:0.004798806272447109 29:0.08910638839006424 35:0.011815446428954601 37:0.17479202151298523 38:0.08407457172870636 43:0.003073501866310835 47:0.0023013309109956026 79:0.0133608253672719 85:0.10164470225572586 87:0.07030589133501053 92:0.014882505871355534 93:0.0016563967801630497 96:7.389913080260158E-4 97:0.013792282901704311 98:0.04828900098800659
17.287885427695276 2:0.0015371341723948717 26:0.0011202760506421328 38:0.04140240699052811 44:0.11452426761388779 51:0.2190818041563034 53:0.010521266609430313 55:0.0069420007057487965 58:0.13091373443603516 61:0.02167450450360775 73:0.058642756193876266 74:0.1852841079235077 86:0.16031065583229065 88:0.048045068979263306
14.250960617304564 28:0.16658911108970642 30:0.0021371522452682257 38:0.004936086013913155 56:0.23581084609031677 59:0.14870697259902954 61:0.40800338983535767 71:0.0210226159542799 99:0.012793836183845997
17.287885427695276 4:0.02132144197821617 8:0.00974738784134388 12:0.014902268536388874 13:0.13899077475070953 15:0.08466308563947678 16:0.018958529457449913 36:0.22024942934513092 37:0.040410116314888 51:1.573529589222744E-4 53:0.002707127947360277 71:0.029650919139385223 72:0.17108771204948425 79:2.4727979325689375E-4 81:0.15908771753311157 89:0.052685365080833435 94:0.0351334884762764
-17.287885427695276 7:9.059066651389003E-4 16:0.08363840728998184 30:0.2775794267654419 33:0.012643717229366302 68:0.18650782108306885 73:0.18602456152439117 94:0.25270015001296997
-17.287885427695276 1:5.47723553609103E-4 3:0.022309916093945503 4:0.04671210050582886 6:0.0011734268628060818 7:0.005009721498936415 8:1.0160382771573495E-5 9:0.010756857693195343 12:0.03940628841519356 13:0.028455713763833046 14:0.02915729396045208 15:4.729400825453922E-5 16:0.04415939748287201 17:0.004229006357491016 18:0.03288407251238823 20:0.03403178229928017 21:1.1339945558574982E-5 24:0.02021642215549946 25:0.007424262817949057 27:0.0077090030536055565 28:0.00743345869705081 29:0.018906835466623306 30:0.002343584317713976 31:0.01635812595486641 34:2.3418873024638742E-4 38:0.031225809827446938 39:0.010234636254608631 42:0.004199201241135597 43:1.9960716599598527E-4 44:0.024337736889719963 45:6.651097210124135E-4 46:1.588917220942676E-4 47:0.02791210263967514 49:0.003144074697047472 50:0.05139416456222534 51:0.009604872204363346 54:0.03606318682432175 55:0.007098821457475424 56:0.03399858623743057 57:0.024747595191001892 58:0.006823328789323568 62:3.0279386555776E-4 64:0.044412046670913696 65:0.05118931084871292 67:0.010443962179124355 72:0.05195990577340126 73:0.03057345189154148 74:1.4358001863001846E-5 78:0.00580530846491456 79:0.04570743069052696 81:2.0457196114875842E-7 83:7.515735234164822E-8 84:0.04253343120217323 85:0.0022230450995266438 88:0.013626789674162865 92:8.227554499171674E-4 94:0.011038335971534252 95:0.012928725220263004 98:0.022903727367520332 99:0.002178640803322196
17.287885427695276 41:0.0036624791100621223 68:0.24385583400726318 72:0.0647493526339531 85:0.05052943155169487 87:0.056479357182979584 91:0.03319923207163811 93:0.31503453850746155 97:0.23248976469039917
17.287885427695276 12:0.11882353574037552 17:0.002544761635363102 18:0.2025213986635208 27:8.147761400323361E-5 34:0.18470169603824615 36:0.03149974346160889 43:0.03530620411038399 52:0.09767339378595352 67:0.008646953850984573 75:9.520959574729204E-4 78:0.012954737059772015 85:0.1359819620847702 87:0.16831204295158386
17.287885427695276 16:0.05673080310225487 26:0.004001733381301165 35:0.03662925958633423 45:0.25837472081184387 46:0.051080331206321716 51:0.22192755341529846 63:0.0387645922601223 70:0.18318821489810944 71:0.14930279552936554
-17.287885427695276 1:0.019742386415600777 2:0.012574439868330956 8:0.049035005271434784 11:0.045700449496507645 12:2.9581926355604082E-5 13:0.04466169327497482 14:0.0013664038851857185 18:1.2723062536679208E-4 19:0.024228541180491447 23:0.002514396794140339 25:4.8194342525675893E-4 26:0.0026432685554027557 28:0.0020706651266664267 29:0.0030940573196858168 30:9.445311734452844E-4 31:0.04241591691970825 32:0.014191137626767159 34:0.026649214327335358 35:0.002345259767025709 36:0.009181113913655281 38:0.012832824140787125 39:0.006661667954176664 41:0.04240133985877037 43:0.04010042920708656 46:0.007654040120542049 47:0.028432313352823257 49:0.02834201604127884 50:7.924855162855238E-5 51:0.009775463491678238 52:0.0038290568627417088 53:1.1735322186723351E-4 55:0.03340088576078415 58:0.03575523570179939 59:0.045822951942682266 61:0.015473361127078533 63:0.010690947063267231 65:0.015239334665238857 67:0.04634173959493637 68:0.010493007488548756 69:2.859796513803303E-4 71:7.976351771503687E-4 74:0.004811101593077183 75:0.013362267054617405 76:0.037509795278310776 77:8.933360368246213E-5 78:0.026833411306142807 80:2.928311296273023E-4 81:3.256032068748027E-4 82:0.04728486016392708 83:0.01863716170191765 87:0.009195374324917793 89:0.0029592684004455805 91:0.04056413471698761 92:0.05308103188872337 96:0.004355875309556723 97:0.0046996064484119415 98:0.025003628805279732 99:0.012470654211938381
-17.287885427695276 1:0.02466656267642975 2:3.0803060508333147E-4 3:0.0015210736310109496 4:0.0011638207361102104 5:1.642583629291039E-5 6:5.363388336263597E-4 7:0.004102082457393408 8:0.0024375258944928646 9:0.004747767001390457 10:0.004143434576690197 11:3.965723153669387E-4 12:0.003051742911338806 13:0.02295873872935772 14:0.015032635070383549 15:0.0016335505060851574 16:0.02801240049302578 17:0.016372812911868095 18:0.003009494859725237 19:4.866550152655691E-4 20:0.007783328182995319 21:0.007437241729348898 22:6.53822673484683E-4 23:0.0016703364672139287 24:5.671380204148591E-4 25:0.01581314578652382 26:0.016959218308329582 27:8.168148342519999E-4 28:0.011338034644722939 29:0.011928215622901917 30:0.004730845335870981 31:0.005058921407908201 32:0.019660120829939842 33:0.022167779505252838 34:0.010253571905195713 35:5.899199459236115E-5 36:0.025288762524724007 37:0.018124429509043694 38:0.025120550766587257 39:0.01797490380704403 40:0.025618037208914757 41:0.010764651000499725 42:0.01081573311239481 43:0.005809041205793619 44:0.0014359061606228352 45:0.002255024155601859 46:0.019052322953939438 47:0.016651079058647156 48:0.021854178979992867 49:0.02272413857281208 50:0.014933855272829533 51:0.023150695487856865 52:0.00805423129349947 53:6.035713595338166E-4 54:0.0030642738565802574 55:0.009358253329992294 56:0.015470132231712341 57:0.003570845350623131 58:0.004635630175471306 59:1.0434565774630755E-4 60:0.017681481316685677 61:0.005272271111607552 62:0.0013734478270635009 63:0.028290359303355217 64:0.01125938817858696 65:0.01883048191666603 66:9.661900548962876E-5 67:0.029019253328442574 68:0.0016921504866331816 69:0.023997317999601364 70:0.028516249731183052 71:0.0015650050481781363 72:0.00905686430633068 73:0.010719059035182 74:4.442994759301655E-5 75:0.001967367948964238 76:2.4234698503278196E-4 77:0.0016748447669669986 78:8.151440415531397E-4 79:0.010637895204126835 80:0.021657126024365425 81:0.015614987351000309 82:0.016711749136447906 83:5.54151542019099E-4 84:0.0204668790102005 85:0.01893419399857521 86:8.245259523391724E-4 87:0.0038559918757528067 88:0.012521850876510143 89:0.0010886738309636712 90:0.027427535504102707 91:0.009612156078219414 92:0.028583522886037827 93:0.0037090200930833817 94:0.0032102176919579506 95:1.3403346201812383E-5 96:0.021303633227944374 97:0.004267633426934481 98:0.004812487401068211 99:0.004148495849221945
-2.1508739572246207 96:0.9999990463256836 99:9.37338654694031E-7
17.287885427695276 1:0.025022204965353012 2:0.013897410593926907 3:0.007974228821694851 4:0.010233928449451923 6:0.03556966409087181 11:0.029709627851843834 12:4.944020183756948E-4 13:0.017412498593330383 14:1.4843120879959315E-4 19:7.622478879056871E-4 21:0.02548040635883808 24:0.042700689285993576 25:0.02053956128656864 26:0.01000102236866951 27:0.0017723956843838096 28:0.01627180725336075 30:0.0037667290307581425 31:1.881281059468165E-4 32:0.004094358999282122 34:0.0026990536134690046 35:0.015215813182294369 37:0.005819740705192089 38:0.04027649760246277 39:0.007705925963819027 40:0.005408322438597679 42:0.019913306459784508 44:0.001674015074968338 45:0.0013835286954417825 47:0.023881282657384872 48:0.011722798459231853 49:0.01987852156162262 51:0.0333106592297554 52:0.030193205922842026 53:4.8005234566517174E-4 54:0.0011817954946309328 55:0.03353898599743843 56:0.007381673436611891 58:0.015177866443991661 59:0.01633019745349884 60:0.005489908624440432 62:0.017405960708856583 64:0.03335781395435333 65:0.002890937030315399 66:0.012607320211827755 67:8.612634264864028E-4 69:0.02314699999988079 70:0.005858393851667643 71:4.984228289686143E-4 72:0.02140221744775772 73:0.016919463872909546 74:0.003774352138862014 75:0.0031280999537557364 76:0.01915597729384899 77:0.031652648001909256 79:0.04001602530479431 82:9.414367377758026E-5 84:0.005861109122633934 85:6.021154695190489E-4 86:0.044833142310380936 88:0.005857964511960745 89:0.0328604057431221 90:0.004750300198793411 91:0.0016365506453439593 93:0.03730250149965286 94:0.0024487944319844246 95:0.0016242560232058167 97:0.038798414170742035 98:0.020670054480433464 99:0.00528145395219326
17.287885427695276 1:4.461069329408929E-5 2:0.02375427819788456 3:5.822812090627849E-4 4:0.0302291139960289 6:1.4768554379429588E-8 8:0.03459327295422554 10:0.006061644293367863 12:0.023589037358760834 13:0.008605943992733955 15:0.024874113500118256 16:0.007093669846653938 17:1.673910883255303E-4 19:0.03832666575908661 20:0.01617693528532982 21:0.03158235177397728 22:0.034634459763765335 23:0.026665322482585907 27:0.0024999110028147697 29:0.004718863405287266 30:0.004823177121579647 32:0.009516543708741665 33:0.003520716680213809 34:0.0339827761054039 38:0.030768362805247307 40:0.005485248286277056 42:0.03820651397109032 43:0.03656579554080963 46:0.03187033161520958 47:2.257994783576578E-4 50:0.024432776495814323 53:0.004378118086606264 54:0.013726492412388325 55:3.939695670851506E-5 56:0.01736288331449032 57:0.029662953689694405 58:0.034083228558301926 59:0.035431157797575 60:0.00943861436098814 64:0.034164298325777054 65:0.005741557572036982 67:0.0019062210340052843 68:8.509663166478276E-5 70:0.003475807374343276 72:0.03949271887540817 73:0.004517121706157923 74:0.021938607096672058 75:4.281686869944679E-6 76:0.014736762270331383 78:5.10824320372194E-4 79:0.008710131980478764 81:0.002287948736920953 83:0.03358767181634903 85:3.357742098160088E-4 86:0.003472639247775078 87:0.028108442202210426 89:0.0028727520257234573 90:0.010643335990607738 91:0.0222296342253685 92:0.007981186732649803 94:0.034306060522794724 96:0.01084404531866312 97:0.022164493799209595 98:0.008161812089383602
9.747740365178489 22:0.3378302752971649 50:0.004687310196459293 54:0.32771429419517517 61:0.24319744110107422 64:0.08657068759202957
17.287885427695276 8:0.2357219159603119 42:0.011944559402763844 58:0.10516773164272308 75:0.1165194883942604 79:0.27126041054725647 89:0.259385883808136
-17.287885427695276 8:0.09256961941719055 11:0.16074739396572113 15:0.024631179869174957 16:0.06586567312479019 19:0.007443152368068695 27:0.06873544305562973 29:0.12172114104032516 30:0.09781264513731003 31:6.178165203891695E-4 36:2.8734053557855077E-5 57:0.007436932530254126 59:0.0058853053487837315 61:0.05574655532836914 64:0.07303863763809204 72:0.0020828444976359606 82:0.032850101590156555 85:0.010032599791884422 89:0.0012087745126336813 92:1.836332376115024E-4 93:0.11941936612129211 95:0.051942456513643265
17.287885427695276 34:0.2274763286113739 35:0.09223318845033646 48:0.19890600442886353 56:0.25846344232559204 81:0.22292102873325348
17.287885427695276 3:0.19231493771076202 13:0.031742747873067856 14:2.9513644403778017E-4 16:0.06286823749542236 20:0.02899026684463024 24:0.0015317992074415088 47:0.18625320494174957 51:0.13962073624134064 67:0.20083579421043396 71:0.00945156067609787 75:0.05330269783735275 92:0.07689902186393738 99:0.015893857926130295
17.287885427695276 4:0.010150709189474583 8:0.014931156300008297 10:0.0014787771506235003 11:8.81390122231096E-4 17:0.016683025285601616 22:0.06585545837879181 27:6.534418789669871E-4 28:0.041249051690101624 29:0.07575669884681702 33:0.030028602108359337 34:0.05751208961009979 40:0.01635586842894554 46:2.5782480952329934E-4 49:0.0023135344963520765 56:0.01202663965523243 58:0.004159030504524708 61:0.040804423391819 62:0.023358598351478577 63:0.06960907578468323 64:0.008429201319813728 65:0.009101399220526218 72:0.027925414964556694 74:0.01221034862101078 75:0.04796844348311424 76:1.000139964162372E-4 78:0.025954093784093857 80:0.07457087188959122 82:0.005531005561351776 84:2.5077429017983377E-4 86:0.011188818141818047 87:0.0074354917742311954 88:0.009598753415048122 89:0.07567121833562851 90:0.0014224416809156537 91:6.077529978938401E-4 92:0.010043509304523468 93:0.06693299859762192 94:0.025309383869171143 95:0.05675952136516571 97:0.015256189741194248 98:0.023666953667998314
17.287885427695276 3:0.006297077983617783 12:0.013062268495559692 15:0.18900489807128906 45:0.01594369113445282 52:0.06323336064815521 58:0.16750968992710114 83:0.16983333230018616 87:0.0019162525422871113 93:0.16683387756347656 95:0.20636555552482605
17.287885427695276 4:0.022969447076320648 9:0.09199411422014236 12:0.029641566798090935 17:0.00765431160107255 18:0.012637811712920666 29:0.08078337460756302 34:0.004902197513729334 35:0.013084382750093937 36:0.06832749396562576 37:0.002690336899831891 38:0.00950485561043024 43:0.0018362830160185695 45:0.12028626352548599 53:0.08921728283166885 60:0.019950442016124725 62:0.06903667747974396 64:0.012611541897058487 65:0.010633191093802452 67:0.004572180565446615 68:0.019654808565974236 76:0.0037571967113763094 77:0.09627613425254822 79:0.016038144007325172 80:2.596710983198136E-4 85:0.0903201699256897 91:0.09297951310873032 93:8.682627812959254E-4 97:0.007512337993830442
17.287885427695276 3:0.013432038016617298 5:0.006043154280632734 8:0.001449915231205523 9:0.017101379111409187 10:0.023600663989782333 14:0.013353293761610985 15:0.0443447083234787 18:0.005301332101225853 19:0.05361897498369217 20:0.0038716262206435204 26:0.024163058027625084 27:0.05296775698661804 28:0.03491221368312836 30:0.008157332427799702 32:0.005677945911884308 34:0.015401882119476795 35:0.010159374214708805 36:0.03297751024365425 37:0.02253253199160099 38:0.00934471283107996 40:0.01696114055812359 47:0.013064038008451462 48:0.0013449679827317595 51:0.02441580779850483 52:0.02240239828824997 53:0.019104113802313805 55:0.03606820106506348 59:0.010822047479450703 60:0.001784914406016469 63:0.014607623219490051 64:0.0158509723842144 65:0.03201112896203995 66:5.8265231928089634E-5 68:0.0010634619975462556 69:0.04193025827407837 70:0.007224483881145716 71:1.0779151489259675E-4 72:0.007798556704074144 73:0.025780629366636276 74:0.04785533249378204 75:0.05252057686448097 78:0.0021324558183550835 80:8.058345993049443E-4 81:0.037027109414339066 82:0.02139757014811039 83:1.0442911843711045E-5 84:0.0037153454031795263 85:0.03528458625078201 87:0.027622751891613007 91:0.001602182281203568 95:0.03176509588956833 96:0.008299046196043491 98:0.03901463374495506 99:1.348271907772869E-4
17.287885427695276 1:0.024878311902284622 5:0.027629733085632324 18:0.04413820430636406 22:0.029477344825863838 28:7.328888750635087E-5 29:0.07711914926767349 31:0.039787255227565765 42:0.024026352912187576 46:1.532902751932852E-5 55:0.02120605856180191 58:0.010835840366780758 60:0.07091515511274338 66:0.08532112836837769 67:8.458446245640516E-4 68:0.08656928688287735 70:0.0777011439204216 72:1.468822574679507E-5 78:0.00782431848347187 80:0.06816722452640533 82:0.02387944422662258 83:3.8320611929520965E-4 84:0.014901161193847656 87:0.08794475346803665 90:0.022745966911315918 91:0.05012392997741699 94:1.0170777386520058E-5 95:0.10346570611000061
17.287885427695276 3:0.0051799495704472065 6:0.001349398517049849 8:0.058629561215639114 17:0.01721748150885105 21:0.04778662696480751 26:0.04791778698563576 27:0.0055567738600075245 29:0.05315034091472626 30:0.0280466265976429 31:0.07509021461009979 34:0.04928106814622879 36:0.046223871409893036 39:0.021248523145914078 40:6.479687872342765E-4 41:0.06813150644302368 46:0.08250546455383301 48:0.025644386187195778 63:0.0788431242108345 69:0.046891722828149796 70:0.04523124173283577 71:0.032854363322257996 84:0.005912053398787975 87:0.05785127729177475 88:0.009511115960776806 92:0.03925202414393425 96:0.05004551634192467
17.287885427695276 6:0.04775078222155571 26:0.17456386983394623 27:0.11685040593147278 31:0.0018686349503695965 33:0.12769970297813416 36:0.18816505372524261 41:0.0020474367775022984 55:0.0031138553749769926 71:0.21100325882434845 80:0.12693698704242706
17.287885427695276 3:0.1355835348367691 8:0.07276561856269836 12:1.569328596815467E-4 19:0.00612725829705596 21:0.03428622707724571 25:5.2901130402460694E-5 27:0.10971616953611374 29:0.12392199039459229 34:0.05897872895002365 35:0.02261732704937458 36:0.003509944537654519 38:0.010355723090469837 41:0.010252444073557854 46:0.06566163152456284 50:0.018413729965686798 53:0.0405341312289238 56:0.020535891875624657 57:0.014449389651417732 58:0.0036625319626182318 59:0.0817762017250061 70:0.026749538257718086 78:0.05409732460975647 86:0.06564377248287201 91:0.003281303681433201 94:0.005822299048304558 98:0.01104744616895914
-17.287885427695276 11:0.27769747376441956 21:0.03637826815247536 54:0.26019546389579773 56:0.10490104556083679 69:0.3208277225494385
-17.287885427695276 8:0.05062929540872574 9:1.106407871702686E-4 12:2.7627061527368824E-8 18:0.09683188796043396 27:0.038276638835668564 33:0.028597742319107056 34:0.20216010510921478 37:0.09351140260696411 40:0.04011639952659607 43:0.06230534613132477 56:0.005031752400100231 63:0.12320151180028915 66:0.06198633089661598 77:0.01574082486331463 83:0.15061549842357635 86:0.030884599313139915
-17.287885427695276 59:0.47962599992752075 66:0.3688645362854004 80:0.12547077238559723 87:0.026038693264126778
-17.287885427695276 19:1.0
-17.287885427695276 3:0.025324927642941475 13:0.006757247727364302 21:0.020350150763988495 25:0.10768694430589676 28:0.16824620962142944 40:0.0775844156742096 43:0.08792487531900406 45:0.015216901898384094 66:0.10334060341119766 70:0.06318315118551254 78:0.03319885954260826 86:0.01803821325302124 92:0.08897990733385086 93:0.09112120419740677 95:0.06502161175012589 97:0.028024772182106972
-17.287885427695276 29:0.054610174149274826 47:0.562386691570282 49:0.3131428062915802 55:0.009644236415624619 57:0.001404611743055284 69:0.058811452239751816
-17.287885427695276 11:0.0909881517291069 13:0.021512171253561974 18:0.02484644018113613 22:0.01280794944614172 28:0.004002615809440613 29:0.009764817543327808 31:6.882559391669929E-4 45:0.11584872007369995 54:0.2877779006958008 58:0.0873548611998558 60:0.035376451909542084 64:0.015430312603712082 71:0.149337500333786 77:0.08912599086761475 92:0.05414653941988945 99:9.913326939567924E-4
-17.287885427695276 2:0.0018109905067831278 4:0.00838717445731163 5:0.005556304007768631 6:9.820854756981134E-5 7:0.01893283985555172 8:0.04880324378609657 9:0.028418738394975662 14:0.021968888118863106 15:0.0016202334081754088 18:0.0024343780241906643 19:0.03101910650730133 21:0.018570629879832268 23:0.045768871903419495 24:0.006768029183149338 27:0.03227097913622856 31:0.00668460875749588 35:0.04272616282105446 38:0.051156818866729736 41:0.011374111287295818 44:5.537737742997706E-4 45:0.00834446307271719 46:0.010911040008068085 49:0.01200780738145113 52:0.00864602904766798 53:0.012351247482001781 54:0.05390078201889992 56:0.010188732296228409 58:8.19334527477622E-4 60:9.252672316506505E-4 61:0.0026076247449964285 62:0.019337184727191925 63:5.359624046832323E-4 64:0.01949181593954563 66:0.004717833828181028 68:0.05384860560297966 70:0.029986251145601273 71:0.046020396053791046 74:0.001260841265320778 76:3.752706979867071E-4 80:0.05842522531747818 81:0.05556551367044449 82:0.012243630364537239 85:0.04595636576414108 86:0.011432548984885216 87:0.001083306735381484 88:0.008896167390048504 89:0.03470979258418083 90:1.934637111844495E-4 92:0.038973331451416016 93:0.038122277706861496 94:0.0014828811399638653 96:8.63673456478864E-4 97:0.010851236060261726
17.287885427695276 10:0.15360543131828308 11:0.069911889731884 12:0.06761374324560165 18:0.1802336424589157 19:0.04908085614442825 28:0.06841649115085602 33:0.139166459441185 35:0.07446910440921783 44:0.06816158443689346 92:0.12934079766273499
-10.22491775162399 41:0.24807924032211304 52:0.0023481298703700304 56:0.39886775612831116 58:0.16378261148929596 63:0.1103372648358345 72:0.05174519121646881 79:0.006754839792847633 81:0.01808496005833149
-17.287885427695276 9:0.06321163475513458 12:0.05384018272161484 14:0.09843364357948303 20:0.06302089244127274 25:0.03512757644057274 32:0.0012850504135712981 48:0.0033237547613680363 50:0.11596140265464783 56:0.10921601206064224 57:0.0077216653153300285 58:0.0324949286878109 67:0.018751952797174454 70:0.13096851110458374 79:0.0023401565849781036 80:0.08044658601284027 84:0.0010533843887969851 85:3.2206601463258266E-4 86:0.09466478228569031 89:0.01816827803850174 90:0.02486894093453884 96:0.04477859288454056
-17.287885427695276 12:0.12476690858602524 25:0.05726321041584015 27:0.01927552931010723 33:5.652426043525338E-4 34:0.001101838774047792 44:1.1072428605984896E-4 49:0.01058884710073471 58:0.059735655784606934 62:0.0474981926381588 66:0.03438965603709221 74:3.120052570011467E-4 79:0.14953471720218658 85:0.06948697566986084 87:0.1460387110710144 89:0.14223045110702515 92:0.11202080547809601 95:0.023210648447275162 97:0.0018698916537687182
-17.287885427695276 1:0.08971191197633743 2:0.07896140217781067 3:0.03187325596809387 4:0.04217078909277916 5:0.005392542574554682 12:0.012116107158362865 24:1.9410783716011792E-4 36:0.0032656679395586252 38:0.0050903381779789925 42:0.13027000427246094 43:0.1386556774377823 44:0.09616219252347946 45:0.03202921524643898 48:0.09195224940776825 57:8.293138816952705E-4 63:0.010650941170752048 81:3.1954070436768234E-4 91:0.01132406946271658 93:0.12312895059585571 96:1.405620714649558E-4 97:0.012597797438502312 99:0.08316338062286377
-17.287885427695276 1:0.10158120095729828 4:0.05731194466352463 12:2.8948672115802765E-4 14:3.837456461042166E-4 19:0.11112429946660995 25:1.8736709898803383E-4 33:0.07801379263401031 35:0.031070539727807045 36:0.001091672689653933 37:1.0400361134088598E-5 41:0.021510081365704536 43:0.10599453002214432 44:0.0010375226847827435 50:0.01988488994538784 54:0.05406361073255539 57:0.07469122856855392 60:0.07978582382202148 62:0.007252885494381189 68:0.13771963119506836 77:0.001118971616961062 82:0.03127310797572136 87:0.04139873757958412 89:1.9036568119190633E-4 96:0.04301415756344795
-17.287885427695276 3:0.03424636647105217 4:0.0033208548557013273 5:0.005072586238384247 12:0.09534897655248642 15:0.059735316783189774 17:0.11383556574583054 18:0.1457187980413437 20:0.0034664389677345753 23:3.8422440411522985E-4 30:0.0022565608378499746 38:0.04062663018703461 41:9.732772741699591E-5 49:0.0010157899232581258 51:0.004127352498471737 58:0.07408392429351807 61:0.0010781328892335296 62:0.020169531926512718 64:0.0015045232139527798 75:0.018117042258381844 77:0.04487477242946625 79:0.0697174146771431 80:0.15460863709449768 89:0.09746300429105759 97:0.009130232036113739
17.287885427695276 12:0.10229778289794922 13:0.02855333685874939 18:0.0024837725795805454 19:0.010404285974800587 25:0.0018084170296788216 26:0.041709717363119125 28:0.03793459013104439 30:0.031518228352069855 37:0.11444173753261566 42:0.091705821454525 47:0.039052486419677734 56:0.06665673106908798 58:0.0025854315608739853 61:0.005002184771001339 66:0.011025195010006428 72:0.02321033738553524 74:0.08406204730272293 85:0.079684317111969 91:0.11404441297054291 92:0.10900141298770905 93:0.002817755565047264
17.287885427695276 7:0.08355996757745743 11:8.59371866681613E-5 12:0.040523625910282135 22:0.05387917533516884 26:0.13504502177238464 28:0.051502615213394165 41:0.014259308576583862 46:0.10582364350557327 56:0.14863309264183044 60:0.018133025616407394 63:0.08712197840213776 69:0.05478852614760399 80:0.0629282146692276 92:0.04162192344665527 98:0.10209394246339798
-17.287885427695276 5:0.042410653084516525 9:0.09775368869304657 11:0.02272992581129074 23:0.050083354115486145 32:0.0013120812363922596 34:0.18136954307556152 37:0.002969111781567335 41:0.045583344995975494 61:0.020990891382098198 69:0.00987296923995018 70:0.18507246673107147 75:0.024268051609396935 81:0.13181619346141815 86:0.03835242986679077 99:0.1454153060913086
-17.287885427695276 1:0.00626903772354126 2:0.12941305339336395 7:0.11300291121006012 8:0.11163181811571121 11:0.03526945784687996 27:0.009849216789007187 32:0.002085864543914795 35:0.07024121284484863 36:0.010982641950249672 43:0.05274074152112007 48:0.040868066251277924 53:0.005373997613787651 54:0.05960213765501976 56:0.022408679127693176 57:0.002093982184305787 60:0.011636671610176563 61:0.049135539680719376 64:0.009647971950471401 71:1.97651403141208E-4 72:0.10099739581346512 79:0.00947592779994011 86:0.0663580670952797 87:1.5616831660736352E-4 88:0.0031743806321173906 90:0.0017223152099177241 93:0.07531590014696121 99:3.491955285426229E-4
-17.287885427695276 1:0.054508909583091736 3:0.1148892417550087 4:0.0039979335851967335 11:0.04552818462252617 12:0.08211656659841537 15:0.07200194895267487 16:0.046275585889816284 17:0.009756439365446568 19:0.008016656152904034 21:0.012846105732023716 27:0.001746244030073285 36:0.029955364763736725 38:0.07915180176496506 46:9.649419807828963E-4 60:0.00757927680388093 66:0.03819392994046211 75:0.002299240790307522 77:0.0035199173726141453 78:0.007873957976698875 81:0.011093252338469028 87:0.044623084366321564 89:0.13592638075351715 90:0.02552984282374382 92:0.10749639570713043 93:0.054108794778585434
17.287885427695276 2:0.0032701725140213966 3:0.025291496887803078 5:0.0023530905600637197 6:0.003374344203621149 10:0.0017423212993890047 11:0.014549127779901028 13:0.017552655190229416 14:9.072191314771771E-4 15:0.018338263034820557 16:0.04959274083375931 17:0.04706931114196777 18:0.016303636133670807 20:5.116381798870862E-4 21:0.0016970981378108263 26:0.01275815349072218 28:0.059225935488939285 30:0.012942624278366566 31:0.05933690816164017 34:0.038033049553632736 41:0.006017135921865702 45:0.03181167319417 46:0.022055521607398987 48:0.022774308919906616 52:0.03805727884173393 56:0.02737954817712307 57:0.0018854994559660554 58:0.05588366836309433 60:0.014209724962711334 63:0.06456922739744186 66:8.311632554978132E-4 69:0.008846726268529892 70:0.07834629714488983 71:0.056815676391124725 73:0.05016515776515007 74:0.009755006060004234 78:0.0059744128957390785 80:0.023633530363440514 85:7.665033626835793E-5 93:0.02936600148677826 95:0.04053066670894623 98:0.02616533450782299
17.287885427695276 7:0.040211644023656845 14:0.019808605313301086 21:0.07817071676254272 23:0.01977362483739853 29:5.495788063853979E-4 34:0.10761833935976028 37:0.028254594653844833 38:0.06676867604255676 39:0.0082333292812109 45:0.0535099059343338 51:0.09458652883768082 55:0.10064177960157394 60:0.1054060310125351 62:0.05039137974381447 67:0.04439707100391388 74:0.07444857805967331 76:0.06956571340560913 86:0.037663914263248444
-11.10040284914929 42:1.0
17.287885427695276 2:0.04505789279937744 41:0.5444170236587524 59:0.009121607057750225 66:0.1083744689822197 92:0.2930290102958679
10.02271923456909 9:0.5203024744987488 92:0.16651026904582977 94:0.16686683893203735 97:0.1463204324245453
17.287885427695276 9:0.3998199999332428 14:0.0042744772508740425 29:0.003098721383139491 36:0.0010708014015108347 46:0.011077803559601307 53:0.040918778628110886 77:0.5397394299507141
17.287885427695276 1:0.05017693340778351 4:0.012685352936387062 15:0.0995456799864769 22:0.10075918585062027 28:0.002693040529266 31:0.054856348782777786 41:0.06205219402909279 44:0.013441669754683971 49:0.06362505257129669 57:5.174263496883214E-4 59:0.0018097757128998637 62:0.07312312722206116 65:0.10413531959056854 68:0.026772385463118553 69:0.07221538573503494 72:0.11749310046434402 77:0.10477665811777115 78:0.02894609607756138 96:0.010375266894698143
17.287885427695276 3:0.003340440336614847 4:0.15312714874744415 16:0.05898728966712952 17:0.07476449012756348 25:0.02569868601858616 30:0.007726915646344423 36:0.036042243242263794 37:0.012003069743514061 41:0.030245013535022736 42:0.06050432473421097 50:0.01704332046210766 64:0.04197924584150314 65:0.05114985629916191 79:0.0314299650490284 80:0.12108748406171799 90:0.05552830919623375 91:0.03969578444957733 92:0.12162142246961594 94:0.05797543749213219 96:4.955764961778186E-5
17.287885427695276 2:2.0999652406317182E-5 4:0.11669133603572845 9:0.04910003021359444 17:0.009744810871779919 23:0.021448219195008278 24:0.11021971702575684 26:0.03086743876338005 29:0.0187231358140707 34:0.024276098236441612 41:0.007659116759896278 43:0.08617840707302094 45:0.017250284552574158 64:0.10505002737045288 67:0.00532542634755373 76:0.10200344771146774 79:8.332208963111043E-4 82:0.08929630368947983 84:1.4949531760066748E-4 85:0.02178630605340004 86:0.043188586831092834 87:0.02317575365304947 95:0.02205158770084381 97:0.005844702012836933 99:0.08911554515361786
17.287885427695276 1:0.002649466972798109 2:0.005500522442162037 3:0.009054808877408504 4:0.003524061059579253 5:0.003941567149013281 6:0.028303880244493484 7:0.02199052833020687 8:0.002074003452435136 9:4.4247752521187067E-4 10:0.026708215475082397 11:3.5799393663182855E-4 12:0.016942527145147324 13:0.010062255896627903 14:0.005788515321910381 15:0.022647425532341003 16:5.047473823651671E-4 17:0.015156881883740425 18:0.0031640357337892056 21:0.00984699185937643 22:0.00938462559133768 23:0.006157715804874897 24:3.6880155676044524E-5 25:0.011921542696654797 26:0.026005243882536888 27:5.737320752814412E-4 28:0.009538787417113781 30:0.020643848925828934 31:0.01414350513368845 32:0.02063501812517643 33:5.532004870474339E-4 34:0.001492214621976018 35:0.0016252753557637334 36:0.0030650165863335133 37:4.239551490172744E-4 38:1.1668788829410914E-5 39:0.031074583530426025 41:3.4991689972230233E-6 42:0.001311782281845808 43:0.0033630698453634977 44:0.014086268842220306 45:2.166692283935845E-4 46:0.02907649055123329 47:0.002227091696113348 48:9.909320397127885E-6 49:0.009882516227662563 50:0.003770167473703623 51:0.02885899879038334 52:0.013687626458704472 53:0.010982160456478596 54:0.028644420206546783 55:0.02926328033208847 56:0.0209128987044096 57:0.006356874015182257 58:0.007861008867621422 59:0.026391031220555305 60:0.0251962598413229 61:0.007683746982365847 62:0.01192802470177412 63:0.02709278091788292 64:0.006887093652039766 65:0.0016844309866428375 66:0.0019987779669463634 67:0.004618758335709572 68:0.004152920097112656 70:0.029291849583387375 71:0.012455321848392487 72:8.587461779825389E-4 73:0.027403127402067184 74:0.011799657717347145 77:0.025436798110604286 78:0.02339296042919159 79:5.95451972912997E-4 80:0.0020782293286174536 81:8.2411989569664E-4 82:0.02087736316025257 83:0.006542730610817671 84:0.014077023603022099 85:0.003409414319321513 86:0.013950692489743233 87:0.014299728907644749 88:1.1477050065877847E-5 89:0.018610861152410507 91:0.019226865842938423 92:0.024811066687107086 93:0.027370097115635872 94:9.389082697452977E-5 95:4.829316821997054E-5 96:0.020751118659973145 97:0.0015310202725231647 99:0.006155815441161394
-17.287885427695276 5:0.04161711409687996 10:0.07336508482694626 14:0.0596732459962368 19:0.09106142818927765 20:0.06943897902965546 25:0.09976638108491898 28:0.004572208039462566 34:0.07973002642393112 35:0.028636174276471138 38:0.017184404656291008 40:5.326911341398954E-4 45:0.020034903660416603 47:0.028588254004716873 50:0.0017472750041633844 51:0.02885158360004425 54:0.07733567804098129 58:0.01600351370871067 59:0.07975704967975616 60:0.013223334215581417 63:0.0418904684484005 65:1.3269901683088392E-4 68:5.228905356489122E-4 73:0.0020990166813135147 78:2.2784934844821692E-4 80:0.04110720381140709 85:0.03021334484219551 88:0.03173374757170677 90:0.012537513859570026 93:0.004157325252890587 94:0.004169702064245939 96:8.891041943570599E-5
17.287885427695276 1:0.04179764166474342 2:0.002741959411650896 3:0.007855099625885487 4:0.01581163890659809 7:0.025111205875873566 8:0.02470502071082592 10:0.014314423315227032 12:0.02186344563961029 13:0.022739147767424583 14:0.0037143551744520664 15:0.009006906300783157 16:0.0025697534438222647 17:0.022780217230319977 18:0.005029420834034681 19:0.005381179973483086 20:0.0015070540830492973 21:0.027304185554385185 22:0.00856189988553524 23:0.004040111321955919 25:0.005581080913543701 26:0.013261853717267513 27:2.5173045287374407E-5 28:0.0011959486873820424 29:0.008285834453999996 30:0.025147635489702225 31:0.001882542041130364 32:0.02790941298007965 33:0.03842887282371521 34:0.021770454943180084 36:7.558162451459793E-6 37:0.001151019474491477 38:0.008220949210226536 39:5.462803528644145E-4 42:0.01907515525817871 43:0.0036058479454368353 44:0.004609162453562021 45:0.013989277184009552 46:0.0038518738001585007 47:0.041721902787685394 49:0.0016826277133077383 50:0.002503675175830722 51:0.0055518923327326775 53:2.1689300774596632E-4 54:0.016202490776777267 55:0.04208150878548622 56:1.753464493958745E-5 57:0.0014283148339018226 59:0.030077099800109863 60:4.905739915557206E-4 62:0.008543751202523708 64:0.004428667947649956 65:0.0086674764752388 66:0.005133738741278648 67:0.005950051825493574 68:0.03457779809832573 69:2.493244828656316E-4 70:0.0024149937089532614 71:0.0023032608442008495 73:0.00514089735224843 74:0.03948603942990303 75:0.014502658508718014 76:0.016077769920229912 77:0.0036772701423615217 78:0.02929975464940071 80:0.015877924859523773 81:0.01755441725254059 82:0.0021161679178476334 84:5.336435424396768E-5 85:0.03588186949491501 86:0.006298014894127846 87:0.03966915234923363 88:9.72770358202979E-5 90:0.012809348292648792 93:0.03397456556558609 94:0.0036950341891497374 95:2.3919479281175882E-4 96:0.007517917547374964 97:0.0034271373879164457 98:0.0033302283845841885 99:0.02964981086552143
-17.287885427695276 1:0.004580604378134012 2:0.0012935998383909464 3:4.336470738053322E-4 4:0.0010126803535968065 5:0.013920029625296593 6:0.03065584972500801 7:0.018199102953076363 8:0.001559886964969337 9:0.024873390793800354 10:0.024147864431142807 11:0.006153710652142763 12:0.004825305193662643 13:0.0011372575536370277 14:0.007315491791814566 15:1.911396684590727E-4 16:0.030339568853378296 17:0.029393142089247704 18:0.025716625154018402 19:0.023906990885734558 20:0.011275077238678932 21:0.0022178932558745146 22:0.020471040159463882 23:0.014316704124212265 24:1.6396070714108646E-4 25:0.002952755894511938 26:4.265247262082994E-4 27:0.0012748850276693702 28:9.971883991966024E-5 29:0.01815505139529705 30:5.618631839752197E-4 31:1.5449929924216121E-4 32:0.022466473281383514 33:5.067566235084087E-6 34:0.0013367951614782214 35:0.021635299548506737 36:0.025343507528305054 37:3.486202040221542E-4 38:0.032211340963840485 39:6.959743041079491E-5 40:0.024911724030971527 41:0.0047085462138056755 42:0.0015969537198543549 43:0.0013484017690643668 44:2.4114215921144933E-4 45:3.5332105471752584E-4 46:0.014419080689549446 47:3.500909951981157E-4 48:0.004330942872911692 49:0.008271696045994759 50:0.002118841977789998 51:0.02559134177863598 52:0.0022609729785472155 53:0.02550487406551838 54:9.493034449405968E-4 55:0.03219440579414368 56:0.027390645816922188 57:0.01348075084388256 58:0.008236032910645008 59:0.012203505262732506 60:0.00435048621147871 61:0.002281393390148878 62:0.005327687133103609 63:2.5555831962265074E-4 64:6.290413439273834E-4 65:0.01696673594415188 66:0.012980099767446518 67:0.004612804856151342 68:0.002582390559837222 69:0.028532713651657104 70:0.02435498684644699 71:0.015415620058774948 72:0.009451374411582947 73:0.01039278693497181 74:0.024418681859970093 76:0.023128148168325424 77:0.0023414306342601776 78:4.944389220327139E-4 79:7.848930181353353E-6 80:2.2995320614427328E-4 81:0.02947124093770981 82:0.002262474037706852 83:0.012605812400579453 84:0.007815122604370117 85:0.025509295985102654 86:0.0016731300856918097 87:0.012897380627691746 88:0.017057102173566818 89:0.008270532824099064 90:7.32423213776201E-4 91:0.008191365748643875 92:0.0020289598032832146 93:5.105642685521161E-6 94:0.0013312618248164654 95:1.704427704680711E-4 96:0.007055804133415222 97:0.02779412269592285 98:0.010562860406935215 99:2.0624356693588197E-4
-17.287885427695276 14:0.1338648945093155 36:0.17839735746383667 46:0.15103231370449066 49:3.107473389718507E-7 51:0.14808601140975952 52:0.008193588815629482 56:0.2647084891796112 64:0.004749706946313381 80:0.11096735298633575
-17.287885427695276 11:0.15048900246620178 23:0.20574110746383667 25:0.0816064178943634 27:0.0013494087615981698 53:0.09928400814533234 63:0.03873705118894577 79:0.005456068087369204 81:0.0075879474170506 85:0.21598705649375916 91:0.05952783674001694 98:0.13423411548137665
-17.287885427695276 2:0.001453795121051371 7:0.09961263835430145 12:0.06813829392194748 14:0.10261454433202744 16:0.05965697392821312 18:0.0528448112308979 23:0.032525528222322464 25:0.0011420322116464376 28:0.11064902693033218 33:0.028491206467151642 46:0.04756396636366844 50:0.07961051911115646 51:0.001793834031559527 56:0.03901791200041771 71:0.03278455138206482 75:0.1162109524011612 80:0.10970548540353775 81:0.0060453214682638645 86:2.684014034457505E-4 96:1.8593200366012752E-4 98:0.009684272110462189
-17.287885427695276 21:0.36775118112564087 35:0.00705884350463748 59:0.034970059990882874 75:0.0644872784614563 78:0.129701167345047 81:0.2927384376525879 92:0.1032930463552475
-17.287885427695276 2:0.018011227250099182 4:1.536912895971909E-5 13:0.1456097960472107 18:0.004044859670102596 24:0.0889807641506195 26:0.19847235083580017 32:0.0730055496096611 39:0.004590675700455904 41:0.09020951390266418 44:0.0027694113086909056 45:7.949403952807188E-4 56:0.07145760953426361 59:2.0643054085667245E-5 62:0.003912930376827717 71:0.016392966732382774 74:0.03631719946861267 85:0.1573246717453003 91:2.622511237859726E-4 96:0.08780726790428162
-17.287885427695276 1:6.263902760110795E-4 2:0.003189325798302889 3:0.006760908290743828 4:0.0072470251470804214 6:0.05689986050128937 8:1.4556347741745412E-4 9:0.043566107749938965 11:0.036845967173576355 12:0.00918570440262556 13:0.01783600077033043 15:0.01334500964730978 16:0.0010451831622049212 19:0.01625535637140274 22:0.009950315579771996 23:0.0011866313870996237 25:0.05880475044250488 27:0.0046272072941064835 28:0.02878507599234581 30:0.021387163549661636 32:0.0028689748141914606 33:0.012395752593874931 37:0.010500089265406132 40:0.04158531501889229 42:0.017421241849660873 45:0.032413024455308914 46:0.03181915357708931 47:0.013988742604851723 48:0.03321630135178566 49:0.00597383501008153 50:0.0575496107339859 51:0.025339458137750626 53:0.01022172998636961 56:0.00171036331448704 58:7.554635521955788E-5 59:0.0019032725831493735 60:0.005544591695070267 63:0.003773496951907873 65:0.027710599824786186 66:6.318734958767891E-4 68:0.04020477831363678 69:0.008116284385323524 71:0.0026288973167538643 72:0.00454352842643857 73:0.005209016148000956 74:1.3717696128878742E-4 78:0.0012660268694162369 79:3.730177922989242E-5 80:0.02711903303861618 81:0.005035224370658398 82:0.0056871045380830765 84:0.017128286883234978 85:0.052435923367738724 86:0.018038462847471237 87:0.01791452430188656 88:0.03840746730566025 89:0.0028340467251837254 93:0.041612815111875534 95:0.037311580032110214
-9.526750797776407 1:0.03575617074966431 3:0.017639195546507835 6:0.04525855556130409 12:0.004751948639750481 16:0.08991070836782455 20:0.10640507191419601 21:0.11224064975976944 24:0.04900433495640755 29:0.0035435319878160954 30:0.04975128918886185 33:0.005168221890926361 43:0.017837554216384888 51:0.1082986369729042 53:0.0373624712228775 61:0.008701030164957047 63:0.05325236916542053 66:5.153860547579825E-4 71:0.09813813120126724 75:0.0321357287466526 78:0.08600986003875732 84:0.019494924694299698 92:0.005111002363264561 93:0.013713227584958076
17.287885427695276 2:0.03671375289559364 3:0.07586835324764252 5:0.035794079303741455 7:0.037379439920186996 17:0.03864138573408127 18:0.005150479730218649 28:0.04055771604180336 30:4.912222266284516E-6 32:0.004597118124365807 33:0.0017994553782045841 35:0.06706468760967255 36:0.005560852587223053 45:0.03453666344285011 48:0.004467111546546221 51:0.056613385677337646 52:0.016960589215159416 53:5.8714114857139066E-5 56:0.0193592831492424 57:0.00352899800054729 58:0.008674358017742634 60:0.06606415659189224 62:0.05569424480199814 63:0.002731044078245759 74:0.07180723547935486 76:0.022471370175480843 77:0.027172081172466278 78:0.05076318234205246 83:0.009560320526361465 85:0.03164134919643402 86:0.05497810244560242 87:0.0038371533155441284 91:0.0537714920938015 92:1.162160697276704E-4 95:0.025470808148384094 98:0.030589910224080086
17.287885427695276 4:0.0048967949114739895 15:0.10470733791589737 35:2.099126868415624E-5 37:0.021693861111998558 40:0.06166097894310951 51:0.05136990174651146 54:0.04836120456457138 56:1.378531160298735E-4 62:0.09792843461036682 73:0.003998769912868738 83:0.04288191348314285 84:0.0017126171151176095 87:0.04786696657538414 88:0.014071132056415081 89:0.15805228054523468 91:0.12462592869997025 95:0.11997855454683304 97:0.09567289054393768 99:3.615966415964067E-4
-17.287885427695276 3:0.21354307234287262 34:0.0782368928194046 44:0.20067086815834045 56:0.013683173805475235 72:0.13232266902923584 80:0.001128692296333611 83:0.06553393602371216 88:0.0056086755357682705 91:0.23377759754657745 98:0.05499177798628807 99:5.026498693041503E-4
-17.287885427695276 5:0.01712295599281788 7:0.13572821021080017 17:0.013864352367818356 18:0.07121697813272476 30:7.335696136578918E-4 34:0.046307966113090515 38:0.024753432720899582 40:0.05264683812856674 42:0.07206392288208008 47:0.010268250480294228 48:0.04307582601904869 57:0.05379049852490425 61:0.011996863409876823 62:0.10087043792009354 65:2.7949463401455432E-5 66:0.012105230242013931 70:0.06839320808649063 71:0.13360807299613953 78:0.011090097017586231 83:0.09046043455600739 89:0.0042511336505413055 98:0.025623762980103493
17.287885427695276 3:0.013490071520209312 6:0.0019419288728386164 7:0.04973816126585007 8:0.008675342425704002 11:0.017428651452064514 13:4.0282512782141566E-4 15:0.042502209544181824 19:0.0028079194016754627 22:0.002648756140843034 25:0.006673876661807299 26:8.079459075815976E-5 27:0.014741321094334126 28:0.04570208117365837 29:0.04948463663458824 30:0.0027284768875688314 31:0.03563380986452103 32:0.02570468559861183 33:0.023818546906113625 34:0.010262190364301205 35:9.107756341109052E-6 36:0.04690743610262871 40:0.015164443291723728 43:0.024878505617380142 44:0.045930877327919006 45:0.010994171723723412 47:0.014330432750284672 48:0.007141078822314739 50:0.010127969086170197 51:0.0010406402871012688 52:7.942894590087235E-4 54:0.04972812533378601 56:0.012253450229763985 57:0.0036457087844610214 58:0.0010023775976151228 60:0.0029046579729765654 62:0.028731176629662514 64:5.17001491971314E-4 65:0.014056754298508167 66:4.840819165110588E-4 67:0.04759335145354271 69:0.03159785643219948 71:0.01337738148868084 72:0.001739664119668305 76:0.029707934707403183 78:0.03179052472114563 79:7.956219633342698E-5 81:0.0011489164317026734 83:0.03348183631896973 85:0.010136790573596954 88:0.03539177030324936 91:0.012689175084233284 92:0.011836142279207706 93:0.007158633787184954 94:0.031167959794402122 96:0.00912877544760704 97:0.017059123143553734 98:0.02980603091418743
