SVM-light Version V6.01
0 # kernel type
3 # kernel parameter -d
1.0 # kernel parameter -g
1.0 # kernel parameter -s
0.0 # kernel parameter -r
empty# kernel parameter -u
3708 # highest feature index
1114 # number of training documents
413 # number of support vectors plus 1
0.9363705039868166 # threshold b, each following line is a SV (starting with alpha*y)
-3.1610003521448706 1:0.10195452719926834 2:0.12553459405899048 3:0.05235651880502701 4:0.16909874975681305 5:0.04591887816786766 6:0.04591887816786766 7:0.019941499456763268 8:0.08929717540740967 9:0.03460533544421196 10:0.05235651880502701 11:0.01572580263018608 12:0.10195452719926834 13:0.05235651880502701 14:0.04591887816786766 15:0.01176956482231617 16:0.03529203310608864
-0.7889120968532227 11:0.02982364036142826 22:0.005963317584246397 35:2.423007827019319E-4 64:7.307740743272007E-4 93:0.019541393965482712 111:0.009978178888559341 112:0.03108062595129013 194:0.007085183635354042 209:0.042337533086538315 256:0.014976033940911293 377:0.02316286973655224 616:0.019541393965482712 1138:0.06319282203912735 1187:0.021153362467885017 1350:0.0483386293053627 1436:0.006799682043492794 1638:0.07816557586193085 2167:0.02807561308145523 2756:0.03534303978085518 2777:0.038320813328027725 3676:0.23807360231876373 3677:0.23807360231876373
-0.03899570406571243 22:0.002068199450150132 31:0.04903073236346245 32:0.016587408259510994 33:0.08256875723600388 34:0.06705927103757858 35:3.3613931736908853E-4 36:0.1961229294538498 37:0.0264553502202034 38:0.05873405933380127 39:0.05873405933380127 40:0.05873405933380127 41:0.08256875723600388 42:0.08256875723600388 43:0.022761212661862373 44:0.03577220067381859 45:0.016370587050914764 46:0.08256875723600388 47:0.007797033991664648 48:0.05316174030303955
-1.4196266567310518 22:0.0015337124932557344 32:0.012300706468522549 35:2.492704661563039E-4 58:0.008785405196249485 60:0.03771432861685753 71:0.01540681254118681 84:0.041060786694288254 110:0.021171096712350845 174:0.02652755193412304 228:0.017565013840794563 245:0.02170378528535366 499:0.02308378368616104 548:0.03197464719414711 562:0.02308378368616104 689:0.030312495306134224 706:0.006774379871785641 1335:0.0168790090829134 2048:0.03635966777801514 2381:0.03942309319972992 2488:0.1212499812245369 3390:0.04972907155752182 3407:0.06123042479157448 3408:0.06123042479157448 3409:0.04972907155752182 3410:0.2449216991662979
-3.618466128129264 15:0.0069217681884765625 65:0.02971293032169342 66:0.034825555980205536 67:0.13327689468860626 68:0.052516330033540726 69:0.29531130194664 70:0.05996021255850792 71:0.018576575443148613 72:0.0365489162504673 73:0.02623905800282955 74:0.04753391072154045 75:0.07382782548666 76:0.038553036749362946 77:0.1461956650018692
41.57146691356754 22:0.0018393477657809854 35:0.0011957783717662096 67:0.033140718936920166 77:0.14541244506835938 135:0.03463898226618767 223:0.025390030816197395 227:0.009360694326460361 386:0.033140718936920166 398:0.04727925360202789 662:0.02768387459218502 773:0.02197233773767948 883:0.05963898450136185 893:0.05223498120903969 1030:0.05223498120903969 1131:0.029553746804594994 1312:0.010250967927277088 1691:0.030626296997070312 2027:0.05963898450136185 2103:0.05223498120903969 3284:0.0734323039650917 3285:0.0734323039650917 3286:0.0734323039650917 3287:0.05223498120903969
19.924088916480052 22:0.0014994469238445163 28:0.0029252527747303247 35:9.748054435476661E-4 43:0.016501903533935547 64:7.34998204279691E-4 99:0.03854231908917427 110:0.020698100328445435 195:0.029635265469551086 243:0.01831146702170372 280:0.029635265469551086 303:0.012524598278105259 341:0.02329675853252411 716:0.011715675704181194 959:0.02701650746166706 1098:0.022568054497241974 1134:0.04861804470419884 1154:0.12504112720489502 1156:0.04258225858211517 1457:0.02701650746166706 2131:0.03854231908917427 3288:0.23944975435733795 3289:0.05986243858933449 3290:0.05986243858933449 3291:0.04258225858211517 3292:0.05986243858933449
-1.6709185952229253 221:0.042457617819309235 319:0.06062811240553856 325:0.08505859971046448 457:0.022484568879008293 845:0.07511401921510696 1376:0.09969441592693329 1607:0.07967692613601685 1644:0.016812622547149658 2125:0.09538226574659348 3117:0.21134541928768158 3118:0.21134541928768158
17.793628269315413 22:0.002793131163343787 28:0.0013622714905068278 71:0.11223290115594864 93:0.03661161661148071 130:0.027584215626120567 182:0.1502075046300888 186:0.07932113856077194 214:0.021011915057897568 341:0.04339660331606865 503:0.044878676533699036 799:0.05823085084557533 1007:0.06621666252613068 1064:0.07179564237594604 1644:0.035482749342918396 1823:0.025853708386421204 3295:0.11151020973920822 3296:0.11151020973920822
23.246726118684464 22:0.007714842911809683 28:9.406746248714626E-4 58:0.002762008225545287 64:9.454145911149681E-4 103:0.01487797126173973 130:0.019047429785132408 147:0.04020952060818672 194:0.009166219271719456 195:0.03811929002404213 196:0.04020952060818672 232:0.03475083038210869 247:0.06270602345466614 288:0.04269189015030861 338:0.04269189015030861 390:0.1284569948911667 651:0.03098958730697632 977:0.15247716009616852 1072:0.010357311926782131 2485:0.04957627132534981 2637:0.06253648549318314 2986:0.054772768169641495 3297:0.07699994742870331 3298:0.07699994742870331
-9.446153401519595 35:5.008445004932582E-4 37:0.03941822797060013 71:0.12382400780916214 79:0.0243920236825943 182:0.04143013060092926 256:0.030956001952290535 300:0.04039276763796806 648:0.04500151798129082 651:0.04951362684369087 737:0.06090511009097099 904:0.058033306151628494 968:0.04143013060092926 978:0.07921050488948822 979:0.058033306151628494 1139:0.06090511009097099 1254:0.12302669137716293 1255:0.12302669137716293
-4.3628841729419845 28:0.0018970463424921036 35:6.321679684333503E-4 84:0.02603328227996826 190:0.04859500750899315 260:0.018798423931002617 430:0.07008155435323715 765:0.045480914413928986 817:0.040473420172929764 974:0.07687468081712723 975:0.11045953631401062 976:0.1552847921848297 977:0.07687468081712723 978:0.09997982531785965 979:0.07324987649917603 980:0.1552847921848297
-9.446153401519595 22:0.0015224781818687916 35:2.474445791449398E-4 37:0.019474761560559273 66:0.02867162972688675 67:0.10972590744495392 70:0.049364808946847916 71:0.015293959528207779 72:0.030090458691120148 77:0.12036183476448059 227:0.007748101372271776 260:0.007358120754361153 308:0.01289571076631546 542:0.011744314804673195 859:0.008731094188988209 1142:0.049364808946847916 1309:0.011176247149705887 1550:0.039134323596954346 1691:0.10140088200569153 3111:0.04323631525039673 3287:0.17294526100158691 3543:0.049364808946847916 3551:0.049364808946847916 3553:0.060781918466091156
-4.73821852127158 28:0.0026781789492815733 35:8.924711146391928E-4 137:0.07879693806171417 257:0.08018966764211655 338:0.12154737114906311 1120:0.12154737114906311 1681:0.06705935299396515 1711:0.13017968833446503 1820:0.07791458070278168 1821:0.14114777743816376 1822:0.1780465990304947
-2.525434333650088 28:0.006112128496170044 35:5.091984057798982E-4 58:0.004486606922000647 64:0.0015357317170128226 217:0.013838395476341248 524:0.0188735481351614 542:0.024167779833078384 560:0.054189279675483704 630:0.029935287311673164 982:0.022724119946360588 983:0.011643311008810997 1032:0.05644926056265831 1651:0.03914228826761246 1735:0.08053170889616013 1962:0.06934871524572372 2006:0.05644926056265831 2035:0.06934871524572372 2732:0.101584292948246 2733:0.1250787377357483 2734:0.1250787377357483 2735:0.08897290378808975
19.704754232723374 3:0.19642455875873566 13:0.19642455875873566 64:6.425069877877831E-4 73:0.018598336726427078 84:0.0087729562073946 126:0.019728118553757668 383:0.029013553634285927 472:0.025906000286340714 671:0.012524082325398922 931:0.025906000286340714 1141:0.021824952214956284 1431:0.1488950401544571 2069:0.03369220346212387 3342:0.052329424768686295 3343:0.20931769907474518
22.08090766229829 26:0.02182861603796482 28:7.290333160199225E-4 79:0.011831692419946194 86:0.022497698664665222 160:0.02182861603796482 194:0.007103922311216593 331:0.026932282373309135 499:0.022497698664665222 551:0.026932282373309135 594:0.03842216357588768 671:0.014282306656241417 720:0.017856135964393616 762:0.03116282820701599 968:0.020096266642212868 1006:0.03308669105172157 1119:0.028149867430329323 1291:0.028149867430329323 1419:0.015839990228414536 1669:0.04244950786232948 2851:0.04244950786232948 3327:0.048466477543115616 3348:0.05967581644654274 3349:0.05967581644654274 3350:0.05967581644654274 3351:0.23870326578617096 3352:0.05967581644654274
40.92443001399104 5:0.030116233974695206 28:0.001005823607556522 58:0.0029532986227422953 79:0.01632380299270153 137:0.007398293819278479 160:0.030116233974695206 206:0.026379745453596115 226:0.06686762720346451 229:0.030116233974695206 515:0.030116233974695206 586:0.0488906092941761 671:0.01970483548939228 743:0.03313585743308067 810:0.027031932026147842 855:0.04564863443374634 1340:0.0488906092941761 1503:0.05300981551408768 1865:0.06686762720346451 2106:0.04299434274435043 3316:0.0823327898979187 3317:0.0823327898979187 3318:0.05856620892882347 3319:0.06686762720346451 3320:0.0823327898979187
29.948706001604975 7:0.014953117817640305 22:0.009431354701519012 35:3.832136280834675E-4 37:0.030160265043377876 64:0.0011557642137631774 167:0.04660063236951828 169:0.04660063236951828 215:0.06060672551393509 229:0.03443223610520363 583:0.055897194892168045 1145:0.05219060555100441 1197:0.03169964253902435 1246:0.055897194892168045 2472:0.06060672551393509 2557:0.06695941835641861 2934:0.055897194892168045 3312:0.09413202106952667 3313:0.09413202106952667 3314:0.09413202106952667 3315:0.09413202106952667
16.164559519273897 28:8.960944251157343E-4 35:2.9861272196285427E-4 37:0.02350187674164772 60:0.011294939555227757 64:9.006097679957747E-4 137:0.006591184996068478 217:0.008115345612168312 227:0.009350302629172802 236:0.02350187674164772 299:0.04355694353580475 542:0.014172878116369247 800:0.04355694353580475 845:0.026069512590765953 905:0.033103927969932556 1753:0.020220153033733368 2017:0.03631275147199631 2759:0.05957277864217758 2767:0.05217699334025383 3329:0.07335078716278076 3330:0.07335078716278076 3331:0.07335078716278076 3332:0.29340314865112305 3333:0.07335078716278076
-6.278202247034735 35:4.860545741394162E-4 64:0.0014659304870292544 241:0.015770724043250084 243:0.036521635949611664 250:0.0342501662671566 319:0.0342501662671566 337:0.03825421258807182 372:0.03228841722011566 378:0.022222084924578667 874:0.06234763190150261 878:0.02684725634753704 965:0.07687142491340637 1342:0.09696713835000992 1431:0.3397158086299896 1925:0.06234763190150261 2371:0.1193937212228775
-4.256233795339942 35:0.005996299907565117 47:0.008693075738847256 64:0.001130294636823237 144:0.17369918525218964 190:0.028808625414967537 221:0.0184936486184597 222:0.06548383086919785 223:0.031829945743083954 224:0.2370845377445221 225:0.11798249185085297 226:0.299063116312027 227:0.011734935455024242
-5.62958482067259 3:0.16959242522716522 22:0.0025463367346674204 35:4.1384974610991776E-4 64:0.001248162123374641 111:0.017042730003595352 141:0.04091330245137215 195:0.05032613128423691 318:0.05308570712804794 629:0.05308570712804794 1131:0.04091330245137215 1132:0.101657435297966 1133:0.056362997740507126 1134:0.08256237953901291 1135:0.33024951815605164
-5.039934437259243 22:0.004767650738358498 28:0.005231897812336683 35:1.9371858797967434E-4 58:0.0017068772576749325 130:0.011771010234951973 205:0.01218358613550663 314:0.009819913655519485 339:0.015246337279677391 617:0.02147546224296093 635:0.1225493997335434 663:0.02147546224296093 706:0.005264656152576208 738:0.03063734993338585 743:0.07660429924726486 1038:0.10553164035081863 1079:0.08590184897184372 1720:0.020615678280591965 2859:0.028256630524992943 3269:0.028256630524992943 3319:0.15458622574806213 3483:0.04758474603295326 3484:0.04758474603295326 3485:0.04758474603295326 3486:0.04758474603295326 3487:0.04758474603295326
-8.065463825998801 3:0.2024524062871933 11:0.015202149748802185 35:4.940366488881409E-4 49:0.031071556732058525 61:0.04722769185900688 120:0.031071556732058525 135:0.057244475930929184 136:0.07813382148742676 137:0.010904716327786446 138:0.12135442346334457 139:0.12135442346334457 140:0.036311544477939606 141:0.04884060099720955 142:0.08632367104291916 143:0.05476844310760498 144:0.057244475930929184
17.79333117061968 28:0.001056431676261127 35:0.00140817288774997 43:0.02383812516927719 47:0.008165938779711723 64:0.004247019998729229 117:0.02706170454621315 143:0.03902718424797058 245:0.007663032505661249 318:0.04515760764479637 338:0.04794544726610184 641:0.1229364201426506 995:0.06151297315955162 1133:0.19178178906440735 1138:0.022953500971198082 1244:0.04079156741499901 1627:0.06151297315955162 2395:0.22270803153514862 3303:0.0702320784330368
27.630535250669908 15:0.006369569804519415 22:0.006806907244026661 35:0.0011063097044825554 101:0.008814672939479351 214:0.012801595963537693 236:0.021767618134617805 243:0.020781738683581352 248:0.030661115422844887 300:0.08922311663627625 484:0.1281891018152237 706:0.007516495883464813 775:0.02230577915906906 811:0.1749671846628189 1091:0.161371111869812 3176:0.055176764726638794 3321:0.06793805956840515 3322:0.06793805956840515 3323:0.06793805956840515 3324:0.048326730728149414
45.032547983589275 14:0.018071241676807404 15:0.004631878342479467 22:0.0012374762445688248 79:0.009795094840228558 119:0.021403759717941284 156:0.02229641005396843 336:0.031808532774448395 355:0.029336804524064064 368:0.031808532774448395 476:0.031808532774448395 524:0.007454701233655214 621:0.029336804524064064 628:0.020604757592082024 708:0.013889078050851822 800:0.029336804524064064 827:0.11734721809625626 1056:0.03514264523983002 1098:0.018625155091285706 1657:0.012018776498734951 1955:0.10956582427024841 2177:0.11734721809625626 2357:0.029336804524064064 2679:0.029336804524064064 3002:0.04012390971183777 3334:0.04012390971183777 3335:0.049403779208660126 3336:0.049403779208660126 3337:0.049403779208660126
40.21516918815702 35:0.0014820168726146221 87:0.04505510628223419 101:0.01180817186832428 236:0.029159989207983017 276:0.011017476208508015 319:0.026107830926775932 357:0.05404334515333176 359:0.021435216069221497 483:0.033290278166532516 599:0.04752565175294876 822:0.0647386834025383 927:0.0647386834025383 969:0.05859668552875519 1032:0.0410737544298172 1103:0.013596040196716785 1106:0.04505510628223419 1151:0.02289998158812523 1614:0.0647386834025383 1790:0.029159989207983017 1962:0.050459686666727066 2373:0.19010260701179504 3021:0.0739150196313858
25.901085274416886 28:0.002732963999733329 88:0.031008437275886536 175:0.0474630668759346 289:0.12403374910354614 302:0.017107781022787094 306:0.021084565669298172 313:0.022508693858981133 346:0.03600877523422241 347:0.045422181487083435 503:0.022508693858981133 954:0.026381706818938255 1137:0.023325569927692413 1138:0.014845042489469051 1307:0.18168872594833374 1448:0.15913261473178864 2065:0.02768721804022789 3184:0.03978315368294716 3344:0.05592743679881096 3345:0.045422181487083435 3346:0.05592743679881096
-9.446153401519595 28:0.0015853296499699354 58:0.0046548438258469105 103:0.02507401444017887 320:0.05856597423553467 803:0.0642428770661354 878:0.02918025106191635 1185:0.08355145901441574 1312:0.018115416169166565 1720:0.2248849868774414 2037:0.06776556372642517 2279:0.06776556372642517 2373:0.2710622549057007 2485:0.08355145901441574
-4.740137097764007 35:0.002051231451332569 58:0.018073640763759613 194:0.059980615973472595 241:0.06655508279800415 245:0.04464977979660034 944:0.1150309294462204 982:0.09154079854488373 1048:0.11000103503465652 1312:0.07033780217170715 1657:0.12257762253284454 2177:0.29920145869255066
-6.859671312702033 22:0.0029460182413458824 28:0.0014368378324434161 32:0.02362770587205887 35:0.0019152360036969185 58:0.0168753694742918 100:0.03065488673746586 175:0.024953395128250122 460:0.06141822412610054 982:0.02136792615056038 1048:0.10270803421735764 1309:0.02162620797753334 1312:0.06567445397377014 1645:0.011267952620983124 1648:0.03306526690721512 1657:0.02861270122230053 1666:0.018683280795812607 1737:0.04066631570458412 2177:0.27936461567878723 2178:0.09552165865898132 2179:0.11761392652988434
-7.082755665487896 35:3.2784129143692553E-4 58:0.002888648072257638 64:9.887624764814973E-4 68:0.22913654148578644 223:0.027844291180372238 622:0.03358670696616173 630:0.01927347667515278 793:0.016618814319372177 803:0.039867088198661804 829:0.039867088198661804 1089:0.04464934021234512 1090:0.05728413537144661 1091:0.4303831160068512 1092:0.05728413537144661
-5.571699410093004 58:0.003545800456777215 64:0.0012137007433921099 84:0.01657218486070633 322:0.06364484131336212 334:0.04122750833630562 424:0.026732835918664932 663:0.04461229220032692 668:0.035132408142089844 778:0.02724955417215824 808:0.08028285950422287 809:0.05162002891302109 810:0.03245517984032631 811:0.2545793652534485 812:0.3211314380168915
47.37433727580659 71:0.08222822844982147 84:0.013696683570742607 126:0.030800314620137215 224:0.052601590752601624 260:0.009890264831483364 293:0.028248246759176254 331:0.036871448159217834 345:0.04851410910487175 466:0.02444581501185894 534:0.024991029873490334 671:0.019553089514374733 689:0.040445465594530106 701:0.042663246393203735 723:0.058115195482969284 1139:0.040445465594530106 1166:0.036871448159217834 1376:0.0385383740067482 1592:0.058115195482969284 1594:0.06635268777608871 2055:0.058115195482969284 2190:0.040445465594530106 2441:0.06635268777608871 3362:0.08169875293970108
14.446429111540285 3:0.03247794508934021 47:0.00735351350158453 57:0.011633330956101418 64:9.561215410940349E-4 71:0.0783766582608223 137:0.006997452583163977 256:0.019594164565205574 283:0.017251573503017426 478:0.04624170809984207 613:0.0367332361638546 898:0.1405775547027588 979:0.0367332361638546 1120:0.17270152270793915 1138:0.02066987007856369 1442:0.026223955675959587 2653:0.06324472278356552 3103:0.06324472278356552 3304:0.07787197828292847 3305:0.07787197828292847 3306:0.06324472278356552
17.728814736326573 35:0.0014284146018326283 86:0.03306971490383148 101:0.011381087824702263 122:0.03958817571401596 245:0.007773184217512608 250:0.025163551792502403 252:0.05208868160843849 318:0.04580672085285187 325:0.03530336543917656 542:0.016948997974395752 595:0.041377924382686615 864:0.043425530195236206 983:0.008165517821907997 1519:0.03530336543917656 1761:0.028105316683650017 2017:0.043425530195236206 2865:0.07124162465333939 3256:0.28496649861335754 3360:0.0877184048295021 3361:0.0877184048295021
14.254493350569344 35:2.5604330585338175E-4 76:0.032843418419361115 90:0.03734758123755455 137:0.005651563405990601 319:0.018042264506220818 390:0.02623114176094532 391:0.03734758123755455 568:0.02724832110106945 601:0.029667969793081284 660:0.044738780707120895 814:0.40264901518821716 1327:0.040494244545698166 1425:0.044738780707120895 1531:0.05108024179935455 2190:0.031136102974414825 2285:0.044738780707120895 3307:0.06289409101009369 3308:0.06289409101009369
-9.446153401519595 26:0.01941249519586563 28:6.483395700342953E-4 35:8.642055909149349E-4 64:6.516064750030637E-4 71:0.053414486348629 194:0.00631761783733964 224:0.13667747378349304 227:0.006765102967619896 293:0.018349725753068924 345:0.03151419013738632 671:0.012701455503702164 689:0.02627289481461048 719:0.03151419013738632 721:0.025034071877598763 723:0.15100376307964325 1139:0.10509157925844193 1309:0.009758321568369865 1391:0.03775094076991081 1551:0.03151419013738632 1592:0.03775094076991081 1593:0.053070541471242905 1594:0.17240767180919647 1595:0.03151419013738632
-9.446153401519595 3:0.03143501654267311 13:0.03143501654267311 58:0.0027035903185606003 84:0.012635905295610428 101:0.009779111482203007 137:0.006772750988602638 231:0.04178893566131592 251:0.01125976163893938 457:0.00801859050989151 500:0.03731305152177811 520:0.04178893566131592 601:0.03555366024374962 793:0.015554149635136127 813:0.07537136226892471 814:0.2144571989774704 815:0.07537136226892471 816:0.07537136226892471 817:0.019644787535071373 818:0.04178893566131592 819:0.061213813722133636 820:0.07537136226892471 821:0.07537136226892471
-5.364645098411347 35:0.0021675254683941603 56:0.04482472687959671 58:0.004774580243974924 84:0.022315194830298424 114:0.03349239379167557 173:0.035996969789266586 227:0.016967644914984703 274:0.11139611154794693 457:0.014160948805510998 468:0.06278828531503677 793:0.027468856424093246 845:0.047307372093200684 898:0.2402898520231247 1103:0.019884904846549034 1178:0.31616461277008057
-1.4512431212985601 13:0.13296471536159515 28:0.003894736524671316 64:0.003914361819624901 80:0.10214728862047195 438:0.18931356072425842 929:0.03444869443774223 1644:0.025361310690641403 1647:0.025361310690641403 1666:0.050643470138311386 1719:0.07630079239606857 2094:0.15038588643074036 3123:0.2052638828754425
-4.809784461106769 13:0.14033079147338867 185:0.10067804157733917 191:0.04995032027363777 294:0.018101472407579422 308:0.017846642062067986 492:0.05983563885092735 497:0.03273608535528183 524:0.012692750431597233 601:0.03967926651239395 1092:0.05983563885092735 1250:0.05983563885092735 1520:0.0246368907392025 1625:0.02761785127222538 2511:0.0683169886469841 2512:0.05983563885092735 2513:0.05983563885092735 2514:0.0841173604130745 2515:0.0841173604130745
39.44222104550386 35:3.3608131343498826E-4 58:0.002961251884698868 64:0.0010136142373085022 93:0.027104729786515236 164:0.05872392654418945 309:0.04086911305785179 313:0.03322509303689003 314:0.01703651435673237 315:0.05872392654418945 317:0.06704770028591156 320:0.037257663905620575 648:0.03019733726978302 708:0.023208875209093094 1007:0.04902227222919464 1044:0.04311012849211693 1103:0.01233285665512085 1805:0.06704770028591156 2089:0.06704770028591156 2756:0.04902227222919464 2893:0.06704770028591156 3363:0.08255451172590256 3364:0.08255451172590256 3365:0.08255451172590256
22.95654660291544 22:0.0014662437606602907 28:7.151192985475063E-4 35:2.3830494319554418E-4 58:0.002099732868373394 79:0.011605877429246902 84:0.039254505187273026 101:0.0075949085876345634 201:0.018318597227334976 343:0.022068317979574203 388:0.041639335453510284 538:0.04754146561026573 748:0.037688855081796646 861:0.02897903323173523 908:0.04754146561026573 1023:0.018755439668893814 1027:0.041639335453510284 1168:0.037688855081796646 2472:0.037688855081796646 2499:0.041639335453510284 3132:0.04754146561026573 3355:0.058536868542432785 3356:0.058536868542432785 3357:0.058536868542432785 3358:0.23414747416973114 3359:0.058536868542432785
10.724979765849904 21:0.040930259972810745 56:0.031814973801374435 101:0.01225766260176897 119:0.040930259972810745 242:0.04263726994395256 671:0.022610729560256004 683:0.06082722917199135 746:0.0445648618042469 799:0.04933476820588112 1051:0.06720302999019623 2006:0.04263726994395256 2017:0.04677017405629158 2638:0.05238048732280731 3165:0.06720302999019623 3299:0.3778979778289795
27.8717806593602 64:0.0017298017628490925 119:0.06103716418147087 173:0.03810041770339012 194:0.06708482652902603 251:0.02104686014354229 283:0.031211307272315025 286:0.06358274072408676 300:0.04625606909394264 648:0.051533814519643784 673:0.10021638125181198 1266:0.06103716418147087 1368:0.03739564120769501 1503:0.09070847928524017 1543:0.11442147195339203 2009:0.11442147195339203 2312:0.10021638125181198
-5.905385052094354 35:0.01374905277043581 64:0.006634696386754513 84:0.02264796569943428 109:0.08697864413261414 212:0.06372460722923279 214:0.1018216609954834 293:0.04670950770378113 300:0.17741626501083374 304:0.21747761964797974 506:0.054369404911994934 540:0.03458888828754425 793:0.02787848189473152 983:0.012575412169098854 1013:0.0585273839533329 1526:0.07490040361881256
-8.220461853352527 28:0.003486946225166321 35:2.9049578006379306E-4 58:0.0025595922488719225 96:0.012661549262702465 217:0.00789475254714489 309:0.03532569110393524 310:0.12365911900997162 311:0.020060859620571136 312:0.042372968047857285 313:0.2584664523601532 314:0.014725708402693272 315:0.05075870454311371 316:0.05075870454311371 317:0.05795345455408096 318:0.14905095100402832 319:0.02046998217701912 320:0.03220409154891968 321:0.07135694473981857 322:0.045943036675453186
-5.290346431826598 57:0.04652853682637215 64:0.0038240929134190083 74:0.2005303055047989 93:0.1022588312625885 96:0.05526461452245712 245:0.027599727734923363 286:0.14056310057640076 303:0.06516373157501221 481:0.1022588312625885 673:0.22154952585697174 706:0.034458696842193604
-5.3041975672719754 11:0.017545921728014946 35:5.702041671611369E-4 79:0.027769964188337326 93:0.04598657786846161 118:0.05637054145336151 126:0.05280396714806557 227:0.01785450056195259 504:0.03861059248447418 524:0.021134739741683006 701:0.07314174622297287 708:0.039376769214868546 1105:0.1400640904903412 1106:0.2773583233356476 1107:0.07765720784664154 1108:0.11375484615564346
-3.4889732855692754 7:0.011386348865926266 22:0.0017954231007024646 28:0.003502669045701623 35:2.918056270573288E-4 37:0.022966133430600166 106:0.032349299639463425 172:0.024138323962688446 481:0.023533925414085388 714:0.1702561229467392 871:0.23285908997058868 882:0.03743075579404831 968:0.024138323962688446 969:0.4153517782688141
-2.9629907725355062 22:0.003369191661477089 45:0.026668434962630272 64:0.006606035400182009 81:0.03939574211835861 94:0.04780542477965355 101:0.017451874911785126 103:0.02598976343870163 218:0.06658914685249329 232:0.06070490926504135 236:0.04309697821736336 237:0.05827455222606659 240:0.03505823016166687 286:0.2428196370601654 459:0.09568047523498535 510:0.032722700387239456 702:0.05070943385362625 708:0.03781484439969063 837:0.10924262553453445
13.824271361999921 35:3.4261998371221125E-4 84:0.05643767863512039 190:0.026337336748838425 192:0.03798253461718559 194:0.0901678055524826 247:0.01713436469435692 515:0.03078484535217285 519:0.0416642501950264 552:0.03969968855381012 765:0.024649573490023613 898:0.15193013846874237 977:0.0416642501950264 1072:0.011320505291223526 1419:0.022339100018143654 1960:0.049976032227277756 3353:0.2734086215496063 3354:0.08416066318750381
16.485444451701024 61:0.027474144473671913 71:0.017763502895832062 111:0.011835403740406036 117:0.0220925472676754 457:0.0075106024742126465 477:0.03494922071695328 500:0.03494922071695328 504:0.0194608923047781 524:0.010652540251612663 751:0.024409515783190727 864:0.03494922071695328 878:0.015874553471803665 887:0.03914155066013336 919:0.04545341432094574 951:0.03914155066013336 977:0.03494922071695328 1025:0.018075507134199142 1573:0.03494922071695328 2236:0.04545341432094574 3294:0.05733583867549896 3366:0.2823859453201294 3367:0.07059648633003235 3368:0.07059648633003235
18.468687197287213 3:0.037525903433561325 13:0.037525903433561325 28:0.0010991900926455855 84:0.015084253624081612 158:0.030299872159957886 244:0.053428925573825836 269:0.25601068139076233 300:0.1181647852063179 390:0.037525903433561325 457:0.009572282433509827 660:0.06400267034769058 740:0.03898106887936592 880:0.06400267034769058 1145:0.049886010587215424 1211:0.06400267034769058 1538:0.03291179984807968 3347:0.08997540920972824
24.567861402457783 22:0.0025907435920089483 35:4.210670886095613E-4 64:0.005079718306660652 71:0.026025153696537018 135:0.04878942668437958 154:0.04667910560965538 191:0.06141866743564606 260:0.012521035969257355 316:0.07357360422611237 349:0.054011497646570206 683:0.06659340113401413 951:0.05734594538807869 1015:0.05120379477739334 1103:0.015451498329639435 3293:0.08400223404169083 3338:0.10343029350042343 3339:0.08400223404169083 3340:0.10343029350042343 3341:0.10343029350042343
25.122240682458433 22:0.0019742290023714304 35:3.208665002603084E-4 58:0.011308769695460796 71:0.01983199268579483 194:0.00938254501670599 247:0.06418590247631073 288:0.04369942843914032 359:0.018563466146588326 390:0.03287215158343315 430:0.035570960491895676 518:0.14871637523174286 589:0.06401237100362778 762:0.04115847870707512 803:0.039018917828798294 898:0.035570960491895676 979:0.037179093807935715 1072:0.010601747781038284 1419:0.020920753479003906 1769:0.04369942843914032 2161:0.04369942843914032 3170:0.05606542155146599 3300:0.06401237100362778 3301:0.07881716638803482 3302:0.07881716638803482
-7.980487583390373 47:0.02429184503853321 58:0.009227442555129528 64:0.0031584841199219227 73:0.09142711013555527 96:0.045645441859960556 101:0.03337642922997475 106:0.11609716713428497 152:0.08446000516414642 192:0.11609716713428497 194:0.030622923746705055 217:0.028460931032896042 227:0.03279198706150055 269:0.18298736214637756 383:0.14262701570987701 944:0.058728694915771484
-6.329586449399289 28:0.006876766216009855 35:0.0022915999870747328 58:0.005047888960689306 60:0.08667910099029541 64:0.0017278543673455715 114:0.035409580916166306 147:0.0734875500202179 194:0.15077093243598938 671:0.13472098112106323 706:0.015569603070616722 929:0.06082455441355705 1754:0.03879313915967941 1970:0.04739060625433922 1972:0.056637056171894073 1983:0.08356566727161407 2142:0.10010356456041336 2430:0.10010356456041336
-3.046907966817046 28:0.0029029748402535915 64:0.0029176026582717896 359:0.0559670627117157 518:0.11209138482809067 1084:0.13174957036972046 1630:0.057808853685855865 1644:0.01890326663851738 1647:0.01890326663851738 1654:0.15590231120586395 1719:0.0568714402616024 3103:0.19299112260341644 3104:0.19299112260341644
-7.614349480364237 22:0.002749721286818385 28:0.005364398006349802 51:0.023290717974305153 187:0.06086490675806999 258:0.015769077464938164 341:0.04272214695811272 518:0.051783330738544464 588:0.08915692567825317 613:0.051783330738544464 671:0.02627313882112503 1000:0.07067982107400894 1001:0.07067982107400894 1002:0.07808835804462433 1003:0.10977715998888016 1004:0.06518754363059998 1005:0.10977715998888016 1006:0.06086490675806999 1007:0.06518754363059998
-0.934663877738603 28:0.0011089700274169445 35:3.6955098039470613E-4 79:0.01799779385328293 382:0.09077595174312592 383:0.20131945610046387 384:0.053904302418231964 385:0.2556678056716919 386:0.04096807911992073 387:0.09077595174312592 388:0.06457212567329407 389:0.09077595174312592 390:0.037859782576560974 391:0.053904302418231964
12.827326494535392 28:7.885239901952446E-4 35:2.627661742735654E-4 58:0.00231526349671185 64:7.924972451291978E-4 117:0.0807957649230957 146:0.02433355711400509 194:0.007683617062866688 195:0.28758272528648376 338:0.03578663244843483 456:0.01974397711455822 518:0.030446955934166908 558:0.033705778419971466 1022:0.2096857726573944 1244:0.030446955934166908 1278:0.0524214431643486 1419:0.01713256537914276 1546:0.04591347649693489 1859:0.03578663244843483 2004:0.031953636556863785 3303:0.0524214431643486
17.933446472657955 7:0.013005340471863747 57:0.012230669148266315 59:0.024497201666235924 71:0.0824010819196701 143:0.03694895654916763 182:0.027570482343435287 227:0.010436341166496277 359:0.01928260177373886 583:0.048616085201501846 979:0.03861938416957855 1004:0.048616085201501846 1072:0.011012451723217964 1244:0.03861938416957855 1427:0.05823735520243645 2395:0.05271216109395027 2553:0.05823735520243645 2850:0.06649216264486313 3170:0.05823735520243645 3269:0.048616085201501846 3309:0.08187048882246017 3310:0.08187048882246017 3311:0.08187048882246017
-4.321078894797215 28:0.001731964643113315 35:0.0023086259607225657 71:0.035672664642333984 87:0.28074008226394653 104:0.06142142787575722 111:0.023767856881022453 217:0.06274112313985825 674:0.0668756440281868 1097:0.22823140025138855 1131:0.05705785006284714 1190:0.10084730386734009 1191:0.07860405743122101
-5.779654215150377 11:0.007344312500208616 22:0.0014685152564197779 35:2.3867412528488785E-4 58:0.0021029857452958822 64:7.198361563496292E-4 190:0.01834697648882866 196:0.030615422874689102 283:0.012988208793103695 305:0.016482194885611534 458:0.01078011468052864 524:0.008846507407724857 623:0.02539988048374653 682:0.01426270417869091 684:0.03481403738260269 810:0.0769956186413765 859:0.008421627804636955 872:0.021445175632834435 1025:0.015010984614491463 1103:0.008758396841585636 1955:0.13002195954322815 2180:0.03774724155664444 2313:0.13002195954322815 3121:0.03774724155664444 3478:0.1904604732990265 3585:0.05862755328416824 3586:0.04170383885502815 3587:0.05862755328416824
-2.2574288254913646 11:0.024506090208888054 28:0.002389866393059492 35:1.990986056625843E-4 47:0.004618259146809578 58:0.007017124444246292 64:6.004772149026394E-4 103:0.009449698030948639 378:0.00910265278071165 551:0.02207188494503498 810:0.01605716533958912 1349:0.020397266373038292 1409:0.01788926310837269 1570:0.027115624397993088 1830:0.024211352691054344 1950:0.024211352691054344 1955:0.10846249759197235 2313:0.10846249759197235 2615:0.03478875756263733 2859:0.029041381552815437 3051:0.03971986100077629 3121:0.031488217413425446 3318:0.03478875756263733 3477:0.19562512636184692 3478:0.15887944400310516 3479:0.04890628159046173
-5.549175896189634 247:0.039892155677080154 471:0.039892155677080154 542:0.037860117852687836 590:0.1393807977437973 617:0.08843077719211578 648:0.07167314738035202 945:0.1261572241783142 1020:0.1086384654045105 1021:0.1261572241783142 1022:0.15913720428943634 1023:0.06278073787689209
-1.6080020951508271 71:0.026278221979737282 165:0.02722020633518696 242:0.1885320544242859 294:0.08989565074443817 328:0.05453670769929886 474:0.04713301360607147 475:0.06724095344543457 476:0.06724095344543457 477:0.05170170217752457 478:0.2480636090040207 479:0.027720876038074493 480:0.10443604737520218
-6.1048604595123885 58:0.00358756585046649 228:0.028691057115793228 251:0.014941292814910412 257:0.03658416494727135 294:0.02152254432439804 451:0.03658416494727135 772:0.028691057115793228 929:0.010807096026837826 1087:0.059390634298324585 1312:0.01396185252815485 1436:0.011426221579313278 1456:0.04951305687427521 1647:0.03182496502995491 1767:0.059390634298324585 1869:0.03658416494727135 1924:0.016767384484410286 2052:0.0643945038318634 2053:0.04513777047395706 2054:0.0643945038318634 2055:0.2845768630504608 2056:0.08122849464416504
-4.682800136512477 11:0.010953030548989773 35:3.5594956716522574E-4 54:0.04565868526697159 58:0.0031363132875412703 111:0.05863337591290474 117:0.10944794863462448 135:0.04124419763684273 163:0.03946023806929588 217:0.009673578664660454 404:0.04565868526697159 466:0.02616218477487564 548:0.04565868526697159 733:0.22517924010753632 739:0.035189274698495865 864:0.04328518733382225 893:0.06219553202390671 1145:0.04847745969891548 1211:0.06219553202390671 1212:0.08743491768836975
-2.860090516483691 6:0.030996285378932953 15:0.007944723591208458 35:3.449732030276209E-4 43:0.02335938811302185 102:0.18793028593063354 119:0.14684924483299255 302:0.02592092752456665 306:0.031946372240781784 392:0.012916266918182373 618:0.03297789394855499 1109:0.044250715523958206 1114:0.18793028593063354 1160:0.06882161647081375 1171:0.06882161647081375 1172:0.08473870158195496 1173:0.044250715523958206
-4.447993559593588 7:0.019839894026517868 258:0.017940694466233253 276:0.015119502320885658 319:0.1433131992816925 864:0.24732008576393127 1082:0.07416476309299469 1120:0.06924683600664139 1257:0.10143505036830902 1269:0.12489497661590576 1270:0.06183002144098282 1271:0.12489497661590576
-7.82882366655616 22:0.004786926321685314 28:5.83672255743295E-4 35:1.945018011610955E-4 79:0.009472586214542389 101:0.006198878400027752 111:0.008009769953787327 205:0.012232844717800617 258:0.027452021837234497 337:0.015307977795600891 414:0.13594220578670502 523:0.02648957632482052 568:0.02069902792572975 594:0.030761215835809708 634:0.033985551446676254 706:0.005285941064357758 827:0.1134834885597229 946:0.028370872139930725 1130:0.15521122515201569 1187:0.016980411484837532 1414:0.04777713119983673 1415:0.10595830529928207 1416:0.03880280628800392 1417:0.04777713119983673 1418:0.04777713119983673 1419:0.012681673280894756 1420:0.04777713119983673
11.589638312708123 51:0.012381053529679775 71:0.058734357357025146 126:0.022000189870595932 172:0.019651861861348152 195:0.028889572247862816 227:0.007438880857080221 337:0.01869753934442997 706:0.006456378381699324 924:0.02752736769616604 979:0.02752736769616604 1015:0.028889572247862816 1120:0.12942007184028625 1158:0.032355017960071564 1425:0.04151078686118126 1428:0.04151078686118126 2260:0.037572503089904785 2385:0.04739470034837723 3306:0.04739470034837723 3325:0.058356158435344696 3326:0.058356158435344696 3327:0.1895788013935089 3328:0.058356158435344696
-4.664870246190887 28:9.120677714236081E-4 32:0.014998260885477066 35:0.002735421061515808 195:0.14784018695354462 499:0.02814607508480549 804:0.0218664538115263 859:0.0428975410759449 983:0.0069497814401984215 1219:0.01480221189558506 1419:0.019816851243376732 1645:0.00715260673314333 1654:0.012245497666299343 1666:0.011859666556119919 1675:0.21528729796409607 1909:0.24253877997398376 2981:0.06063469499349594 2982:0.07465830445289612 2983:0.07465830445289612
-7.014993147563087 15:0.00454735616222024 22:0.0012148949317634106 28:5.925309378653765E-4 58:0.006959155667573214 64:5.955166416242719E-4 191:0.02880146913230419 289:0.1075664833188057 302:0.014836476184427738 306:0.01828528568148613 346:0.12491237372159958 349:0.025327976793050766 524:0.007318668998777866 845:0.017238130792975426 996:0.026891620829701424 1025:0.012418507598340511 1445:0.025327976793050766 1446:0.04850226640701294 1447:0.19400906562805176 1448:0.034501366317272186 1449:0.04850226640701294 1450:0.04850226640701294 1451:0.04850226640701294 1452:0.04850226640701294 1453:0.04850226640701294 1454:0.04850226640701294 1455:0.009139301255345345
-6.9077287158810705 35:4.110975714866072E-4 58:0.003622228978201747 64:0.0012398617109283805 84:0.016929391771554947 86:0.038069840520620346 137:0.00907402765005827 160:0.14775057137012482 211:0.06501667946577072 251:0.06034262478351593 630:0.02416803315281868 668:0.035889673978090286 793:0.020839210599660873 1109:0.0527326799929142 1151:0.02540896087884903 1303:0.10098139196634293 1304:0.10098139196634293 1305:0.071831613779068 1306:0.0820133313536644 1307:0.0820133313536644 1308:0.04211615025997162 1309:0.018567906692624092
-7.003211711075867 22:0.0036110086366534233 35:0.002347552916035056 143:0.06506188213825226 390:0.06012556701898575 409:0.09281866252422333 645:0.05123656615614891 1110:0.09281866252422333 1151:0.03627416118979454 1647:0.01146817859262228 1677:0.07528185844421387 1719:0.03450259938836098 1805:0.11708329617977142 1806:0.07528185844421387 1807:0.10254774987697601 1808:0.062457092106342316 1809:0.11708329617977142
-4.1559168974146745 28:0.0018885679310187697 35:0.002517370507121086 47:0.01459813117980957 64:0.007592336740344763 101:0.020057493820786476 195:0.07653110474348068 227:0.019706273451447487 236:0.0495314858853817 1025:0.039581384509801865 1100:0.04625649377703667 1117:0.08072760701179504 1644:0.012297765351831913 1842:0.05345147103071213 1872:0.05654723942279816 1874:0.05494292080402374 2997:0.15459078550338745 2998:0.15459078550338745 2999:0.15459078550338745
-5.438074110908645 28:0.008638068102300167 35:3.198369813617319E-4 71:0.019768361002206802 111:0.013171193189918995 225:0.025172298774123192 245:0.006961989216506481 328:0.041026417165994644 368:0.20233385264873505 390:0.0327666811645031 526:0.1418273150920868 876:0.02961862087249756 944:0.01793612539768219 1063:0.028737761080265045 1637:0.05058346316218376 1654:0.05154462903738022 2102:0.10865786671638489 2891:0.07856427133083344 2892:0.07856427133083344 2893:0.06380698084831238
-4.941343762861533 58:0.002217377768829465 64:7.589916931465268E-4 175:0.01311523374170065 247:0.050341248512268066 515:0.09044674783945084 519:0.03060268610715866 534:0.018909230828285217 630:0.014794663526117802 762:0.1291230022907257 763:0.03060268610715866 764:0.20082058012485504 766:0.04397232457995415 769:0.05020514503121376 869:0.05020514503121376 937:0.02197016403079033 1048:0.013495557010173798 1297:0.03060268610715866 1309:0.011366499587893486 1596:0.02261168695986271 1597:0.05020514503121376 1598:0.06181660294532776 1599:0.06181660294532776
-1.209291373323983 22:0.003922936040908098 28:0.0019133021123707294 35:6.375850061886013E-4 146:0.05904379487037659 241:0.020687341690063477 1194:0.11140605807304382 1309:0.028797591105103493 1486:0.051420796662569046 1657:0.03810084983706474 1688:0.03276754543185234 1769:0.3473357558250427 1770:0.21096554398536682 2219:0.09300090372562408
-8.460642118490988 79:0.01530504785478115 146:0.029102208092808723 152:0.02534489333629608 225:0.02473340928554535 331:0.13935449719429016 378:0.014367775991559029 471:0.015716109424829483 708:0.021701985970139503 716:0.015107727609574795 835:0.03821559250354767 878:0.017358198761940002 1181:0.03641364723443985 1368:0.02049003541469574 1435:0.04279974102973938 1448:0.05491114407777786 1563:0.05491114407777786 1577:0.07719447463750839 1578:0.07719447463750839 1579:0.07719447463750839 1580:0.07719447463750839 1581:0.0626944750547409 1582:0.0626944750547409
-1.5919605778229775 7:0.0065851411782205105 32:0.008327861316502094 35:1.68761849636212E-4 101:0.021514128893613815 117:0.05189116671681404 260:0.005018376279622316 353:0.02948797680437565 368:0.240213081240654 516:0.020522257313132286 728:0.01795976422727108 810:0.054442111402750015 1310:0.033667728304862976 1312:0.005786932539194822 1455:0.007811270654201508 1459:0.033667728304862976 2735:0.02948797680437565 3435:0.04145440831780434 3436:0.033667728304862976 3437:0.026690343394875526 3438:0.04145440831780434 3439:0.04145440831780434 3440:0.16581763327121735 3441:0.04145440831780434 3442:0.04145440831780434
-5.393218790263093 5:0.027500364929437637 28:0.003673834726214409 35:3.060653689317405E-4 94:0.026720143854618073 120:0.019249437376856804 260:0.03640517592430115 312:0.04464401677250862 318:0.0392598919570446 386:0.03393012285232544 465:0.04464401677250862 481:0.024683963507413864 668:0.10688057541847229 1317:0.06105956435203552 1357:0.06105956435203552 1358:0.06105956435203552 1612:0.07518143951892853 1613:0.04464401677250862 1614:0.2139168083667755 1615:0.07518143951892853
-1.0892046592476248 28:0.0010893316939473152 35:0.0014520270051434636 64:0.001094820792786777 118:0.03588695079088211 221:0.017913231626152992 457:0.009486431255936623 471:0.018153902143239975 483:0.03261662274599075 793:0.018401408568024635 1151:0.022436581552028656 1188:0.04414337873458862 1372:0.028569912537932396 1644:0.007093388587236404 1645:0.008542744442820549 1823:0.020673753693699837 2483:0.57085782289505 3256:0.07241928577423096 3257:0.08916843682527542
-3.5141011322822306 3:0.03641939535737038 43:0.024071605876088142 113:0.03514396771788597 143:0.03940943256020546 151:0.04559990018606186 238:0.051853496581315994 251:0.013045125640928745 359:0.020566655322909355 622:0.03641939535737038 623:0.03783165290951729 772:0.025049936026334763 861:0.04322946071624756 907:0.06211545690894127 908:0.2836798429489136 909:0.08732234686613083 910:0.08732234686613083 911:0.0709199607372284
-4.180970305338074 11:0.008554899133741856 28:8.342851651832461E-4 51:0.014488933607935905 64:8.384890388697386E-4 93:0.022421764209866524 142:0.04857802018523216 245:0.006051649339497089 405:0.16221019625663757 648:0.09992021322250366 717:0.03786347433924675 1309:0.012557035312056541 1375:0.04857802018523216 1630:0.01661367155611515 1635:0.012407067231833935 1636:0.0563722588121891 1666:0.010848254896700382 2363:0.04396924003958702 2756:0.16221019625663757 2757:0.05546367168426514 2758:0.0682913213968277 2759:0.05546367168426514 2760:0.05546367168426514
-4.899667084481447 5:0.046089764684438705 15:0.011813364923000336 104:0.05458918213844299 126:0.04750249162316322 180:0.044782139360904694 229:0.046089764684438705 294:0.10845883935689926 300:0.04136956110596657 360:0.08640465140342712 424:0.034075479954481125 799:0.2631934881210327 1169:0.12600177526474 1170:0.08962949365377426
-8.058891900871453 19:0.030175302177667618 35:0.0036143397446721792 64:0.001211196999065578 84:0.016537996008992195 241:0.013030258938670158 276:0.011941954493522644 305:0.027732955291867256 509:0.027732955291867256 542:0.019060583785176277 545:0.04653298109769821 697:0.06351353973150253 866:0.03718969598412514 977:0.04883568733930588 982:0.01792200095951557 983:0.009182817302644253 1069:0.05469376966357231 1119:0.04653298109769821 1630:0.0239984393119812 1636:0.020357424393296242 1892:0.03970162570476532 1960:0.05857813358306885 2004:0.04883568733930588 2191:0.04883568733930588 2472:0.06351353973150253 2529:0.06351353973150253 2598:0.05857813358306885 2629:0.09864677488803864
-2.3379659262554773 28:0.012664047069847584 64:0.0031819650903344154 169:0.12829741835594177 256:0.06520923227071762 795:0.14368733763694763 1246:0.15389204025268555 1644:0.020616082474589348 1646:0.07590384781360626 1657:0.0630468875169754 1658:0.07434379309415817 2628:0.25915735960006714
-3.7043309195938594 28:0.0013904985971748829 35:4.633670032490045E-4 58:0.004082781262695789 64:0.005590020678937435 79:0.09026721864938736 247:0.023172901943325996 716:0.022275861352682114 982:0.020678792148828506 1330:0.05369075760245323 1480:0.08096472173929214 1484:0.07328329980373383 1649:0.02863960899412632 1741:0.18323436379432678 1824:0.07328329980373383 2282:0.07328329980373383 2373:0.059437431395053864 2754:0.09244100004434586 2755:0.11382077634334564
-2.3078055943766134 22:0.0026519405655562878 28:0.005173638463020325 35:4.310132935643196E-4 58:0.0037977085448801517 60:0.01630295068025589 64:0.0012999270111322403 194:0.012603376992046833 671:0.025338860228657722 929:0.011440125294029713 982:0.01923493482172489 983:0.009855533018708229 1754:0.029185473918914795 1878:0.06816642731428146 1970:0.03565365821123123 2017:0.20965319871902466 2503:0.25147783756256104 2857:0.08598648011684418 2947:0.1058734580874443 2948:0.1058734580874443
-2.317019332114922 35:0.005855336785316467 45:0.017822837457060814 47:0.008488716557621956 64:0.0011037233052775264 214:0.06775468587875366 217:0.009945591911673546 227:0.011459066532552242 272:0.04450233280658722 293:0.031081676483154297 299:0.21352118253707886 300:0.1180572360754013 302:0.02749774605035782 306:0.03388972580432892 371:0.04240395128726959 540:0.02301631309092045 739:0.1447150558233261 1071:0.07300816476345062 1072:0.012091634795069695 1525:0.06394441425800323 1526:0.04984060674905777
-2.892463032184194 22:0.00723773380741477 35:0.0011763308430090547 174:0.125186026096344 1035:0.13630253076553345 1100:0.08645996451377869 1133:0.16020677983760834 1291:0.13630253076553345 1300:0.1124519556760788 2829:0.23467618227005005
-2.830755856306978 35:5.18782006110996E-4 228:0.03655632585287094 241:0.016832610592246056 293:0.04406131058931351 306:0.04804199934005737 641:0.1811629980802536 651:0.051286935806274414 917:0.12743283808231354 918:0.12743283808231354 919:0.08204739540815353 920:0.09064745903015137 921:0.06654567271471024 922:0.12743283808231354
-9.446153401519595 35:1.994669873965904E-4 58:0.0070301080122590065 117:0.01533310767263174 132:0.03979335352778435 146:0.018471714109182358 147:0.025586210191249847 167:0.02425614930689335 206:0.015698755159974098 245:0.00434185890480876 303:0.041005004197359085 701:0.10234484076499939 706:0.00542087946087122 728:0.021227426826953888 731:0.027165794745087624 743:0.07887744903564453 855:0.1086631789803505 930:0.019719362258911133 944:0.011185901239514351 967:0.03979335352778435 968:0.016500018537044525 1258:0.03979335352778435 1955:0.027165794745087624 2155:0.03485312685370445 3192:0.03979335352778435 3459:0.03979335352778435 3460:0.04899677261710167 3461:0.04899677261710167 3462:0.04899677261710167 3463:0.04899677261710167
-2.371828665657175 28:9.16144868824631E-4 35:3.052942920476198E-4 58:0.002689983928576112 137:0.026954662054777145 258:0.010772324167191982 466:0.08975615352392197 706:0.00829692929983139 751:0.10371729731559753 1048:0.016371965408325195 1145:0.1663144826889038 1640:0.022939495742321014 1685:0.017120588570833206 1744:0.011315799318253994 1924:0.01257231179624796 2113:0.053344473242759705 2147:0.15664394199848175 2725:0.2999681532382965
-3.528927294888104 15:0.019910236820578575 22:0.005319320131093264 35:8.645358611829579E-4 84:0.14240966737270355 130:0.05253218114376068 338:0.11774281412363052 339:0.06804202497005463 340:0.09200455993413925 341:0.08264575153589249 342:0.126104936003685 343:0.08006066083908081 344:0.21236330270767212
-5.364843832438373 11:0.0064408062025904655 35:0.0018838092219084501 58:0.0018442737637087703 101:0.026683568954467773 157:0.020692655816674232 217:0.0056884391233325005 221:0.010328889824450016 260:0.006224197335541248 329:0.022275155410170555 392:0.007836931385099888 524:0.0077581992372870445 773:0.015384378843009472 928:0.015384378843009472 951:0.028506625443696976 1147:0.02684907428920269 1288:0.019383426755666733 1375:0.0365733839571476 1436:0.0058739217929542065 1455:0.009688171558082104 1538:0.01880696229636669 1623:0.02684907428920269 1636:0.010610375553369522 1753:0.01417328417301178 1842:0.017777346074581146 2306:0.05141511932015419 2307:0.0365733839571476 2308:0.20566047728061676 2309:0.03310352936387062 2310:0.04175744578242302 2311:0.04175744578242302 2312:0.1462935358285904 2313:0.028506625443696976 2314:0.05141511932015419
-7.207861378214594 9:0.02553534135222435 26:0.03388362377882004 35:3.7710784818045795E-4 57:0.013838367536664009 114:0.02330813743174076 276:0.011213844642043114 300:0.030413491651415825 471:0.018859095871448517 504:0.02553534135222435 509:0.02604205720126629 555:0.059641074389219284 793:0.019116217270493507 916:0.040132101625204086 951:0.05135904997587204 983:0.008622934110462666 1008:0.03863397240638733 1422:0.07523243129253387 1536:0.023717528209090233 1537:0.09263221174478531 1538:0.03388362377882004 1539:0.09263221174478531 1540:0.0658925473690033 1541:0.0658925473690033 1542:0.048372719436883926 1543:0.07523243129253387
-5.771420208629183 7:0.013499447144567966 28:0.004152700304985046 35:3.459594154264778E-4 111:0.056987762451171875 247:0.017301369458436966 251:0.012695343233644962 314:0.017537251114845276 543:0.025995030999183655 765:0.024889826774597168 882:0.044377218931913376 898:0.15341095626354218 983:0.007910694926977158 990:0.06044994294643402 1369:0.05046313628554344 1485:0.06044994294643402 1645:0.008141564205288887 1649:0.08553170412778854 1654:0.013938624411821365 1688:0.07111987471580505 1807:0.06044994294643402 1917:0.16828136146068573 2017:0.04207034036517143
-3.7484998644394065 22:0.0023601907305419445 28:0.004604467656463385 57:0.014076454564929008 58:0.003379908623173833 119:0.04082256928086281 172:0.031731266528367996 334:0.039298661053180695 373:0.044447608292102814 643:0.046647120267152786 671:0.022551238536834717 708:0.0264901053160429 751:0.032579656690359116 983:0.008771290071308613 1068:0.2681048810482025 1245:0.046647120267152786 1502:0.046647120267152786 1503:0.060667190700769424 1504:0.05595295876264572 1505:0.07652679085731506 1506:0.060667190700769424 1507:0.06702622026205063
-4.343183991107904 28:0.009859549812972546 35:3.650641010608524E-4 147:0.046827834099531174 175:0.019025517627596855 280:0.04439356178045273 291:0.049718789756298065 360:0.015373261645436287 488:0.0404706671833992 706:0.009921283461153507 1100:0.026832101866602898 1396:0.046827834099531174 1485:0.06378813087940216 1520:0.02626430056989193 1689:0.0728297233581543 1790:0.028731834143400192 1920:0.03740011155605316 1949:0.05773631110787392 2005:0.08967380225658417 2006:0.0404706671833992 2007:0.05324982851743698 2008:0.05773631110787392 2009:0.0728297233581543 2010:0.08967380225658417
-3.8363056810962455 28:0.001156752579845488 35:3.8547394797205925E-4 51:0.02008918672800064 58:0.013585824519395828 84:0.015874186530709267 120:0.02424369938671589 121:0.06735436618328094 130:0.02342272736132145 302:0.02896411158144474 306:0.035696957260370255 708:0.026619797572493553 804:0.11093069612979889 1103:0.014145370572805405 1339:0.09468724578619003 1340:0.22490759193897247 1341:0.04944586381316185 1342:0.07690145820379257 1343:0.07690145820379257 1344:0.09468724578619003
-5.024637236638984 35:5.494900397025049E-4 160:0.04937238618731499 184:0.10962241142988205 185:0.0403873547911644 186:0.09601311385631561 187:0.0748361125588417 188:0.10962241142988205 189:0.08690398931503296 190:0.04223952442407608 191:0.08015099167823792 192:0.060915958136320114 193:0.09601311385631561 194:0.016067789867520332 195:0.0668206512928009 196:0.07048468291759491
-3.2943882673663225 58:0.0021855602972209454 71:0.015331116504967213 79:0.012080272659659386 110:0.021067079156637192 130:0.015072115696966648 137:0.021900145336985588 186:0.17336542904376984 238:0.036181025207042694 253:0.030163563787937164 339:0.019522076472640038 510:0.014822735451161861 540:0.015600397251546383 591:0.17336542904376984 706:0.006741096265614033 806:0.04334135726094246 824:0.0494847446680069 861:0.030163563787937164 1644:0.004846975672990084 1816:0.03181754797697067 3044:0.060929588973522186 3045:0.060929588973522186 3046:0.03922940045595169 3047:0.060929588973522186 3048:0.060929588973522186
-3.29566959725673 79:0.054465990513563156 182:0.023127777501940727 241:0.009071665816009045 289:0.03807780146598816 302:0.08403218537569046 306:0.10356586426496506 345:0.04078209772706032 346:0.04421813040971756 347:0.05577762424945831 348:0.027640271931886673 349:0.143454909324646 350:0.032396260648965836 351:0.0686778873205185 352:0.274711549282074
-0.9522625668597098 101:0.047507282346487045 311:0.10293910652399063 457:0.15581843256950378 765:0.10724261403083801 1644:0.0291279386729002 2105:0.36615681648254395 2106:0.19120781123638153
-3.9298976775345267 22:0.033124882727861404 35:5.981894209980965E-4 47:0.01387550588697195 64:0.007216507103294134 113:0.05913717299699783 487:0.04050557687878609 564:0.11933785676956177 567:0.04050557687878609 586:0.08725449442863464 666:0.06128334999084473 983:0.013678176328539848 1154:0.07673149555921555 1455:0.11075060814619064 1632:0.023589536547660828 1642:0.03574664518237114 1645:0.014077366329729557 1649:0.036972660571336746 1721:0.015512297861278057 1782:0.05718422681093216 1871:0.04598306119441986 1895:0.037622060626745224 2227:0.06931275129318237
-2.711311284720359 28:0.006762461271136999 35:5.633773398585618E-4 64:0.0067965369671583176 81:0.04053181782364845 223:0.047848891466856 300:0.04543599858880043 384:0.08217664808034897 793:0.02855852246284485 829:0.06850940734148026 861:0.06850940734148026 882:0.07226604223251343 883:0.11239290237426758 884:0.053856346756219864 885:0.2890641689300537 886:0.07672744989395142
-3.42401001033708 11:0.018540125340223312 22:0.003707148367539048 35:6.02513609919697E-4 101:0.01920243725180626 194:0.017618265002965927 229:0.05413661524653435 392:0.02255892939865589 429:0.08205749094486237 456:0.04527224600315094 484:0.0698137953877449 1219:0.029343491420149803 1389:0.07326856255531311 1644:0.011773508042097092 1666:0.023510271683335304 2018:0.0698137953877449 2337:0.09528987109661102 2363:0.09528987109661102 3178:0.12020052224397659 3179:0.1480005383491516
-4.619312575010769 35:0.0010701472638174891 58:0.00942919310182333 227:0.03350895270705223 260:0.03182236850261688 390:0.10963451862335205 392:0.04006776958703995 775:0.08630664646625519 929:0.028404271230101585 982:0.047757718712091446 997:0.13727089762687683 1103:0.039270173758268356 1336:0.10963451862335205 1642:0.06394992768764496 1644:0.02091137506067753 1645:0.025184087455272675 1647:0.02091137506067753 1654:0.04311598092317581 1721:0.027751145884394646 1989:0.12399893254041672
-2.870173411516291 98:0.07485714554786682 103:0.04069662466645241 157:0.08476772159337997 158:0.07092871516942978 159:0.13560901582241058 160:0.07704295217990875 161:0.12507131695747375 162:0.0912504494190216 163:0.09505607932806015 164:0.14982330799102783 165:0.054896678775548935
-2.134458532182652 11:0.011260798200964928 35:3.659513604361564E-4 162:0.03894481807947159 243:0.027497204020619392 314:0.018550675362348557 784:0.05787663161754608 876:0.033889058977365494 1063:0.03288119658827782 1064:0.23150652647018433 1122:0.06394315510988235 1187:0.03194831311702728 1218:0.08989173918962479 1219:0.01782248541712761 1220:0.07300672680139542 1221:0.05787663161754608 1222:0.08989173918962479 1223:0.07300672680139542 1224:0.049839623272418976
-4.578085243850117 35:1.8711978918872774E-4 111:0.007705772295594215 158:0.015478652901947498 243:0.014059986919164658 279:0.025484206154942513 303:0.009616688825190067 398:0.11837489157915115 409:0.02959372289478779 594:0.02959372289478779 655:0.02729410119354725 743:0.01849871501326561 1151:0.011565428227186203 1894:0.019913429394364357 2177:0.02729410119354725 2866:0.03269568458199501 3008:0.037330109626054764 3016:0.13078273832798004 3106:0.03269568458199501 3184:0.03269568458199501 3686:0.14932043850421906 3703:0.045963823795318604 3704:0.045963823795318604 3705:0.045963823795318604 3706:0.045963823795318604 3707:0.045963823795318604
-3.190612793596966 15:0.016258815303444862 51:0.03679279983043671 58:0.02488206885755062 64:0.002129236003383994 100:0.045199424028396606 194:0.020643901079893112 809:0.09055875241756439 1193:0.11165428161621094 1309:0.0318869911134243 1312:0.02420859970152378 1645:0.016614152118563652 1664:0.05426935479044914 1666:0.027547761797904968 1737:0.05996088311076164 2373:0.09055875241756439 3213:0.1734171062707901 3214:0.1734171062707901
-3.0861489320666755 7:0.02007695846259594 28:0.001544018741697073 64:0.0015517988940700889 268:0.02719767950475216 471:0.025731341913342476 616:0.0414961539208889 982:0.022961866110563278 1188:0.06256882101297379 1666:0.02007695846259594 1773:0.07007426023483276 1895:0.03236018493771553 2175:0.08990375697612762 3009:0.1026470884680748 3018:0.1263873428106308 3019:0.1263873428106308 3020:0.1263873428106308 3021:0.1026470884680748
-1.8462491267461365 19:0.033863235265016556 22:0.0027729140128940344 64:0.0013592257164418697 98:0.039344847202301025 248:0.0499613881111145 332:0.08990892767906189 560:0.04796115309000015 737:0.0548042356967926 952:0.08990892767906189 1024:0.04617076367139816 1025:0.02834439091384411 1026:0.11070308089256287 1027:0.31498798727989197 1028:0.08990892767906189
-5.626970643693936 47:0.01389157585799694 58:0.0052768210880458355 71:0.03701547905802727 96:0.026102880015969276 101:0.019086701795458794 111:0.02466254122555256 119:0.06373349577188492 182:0.04953986406326294 227:0.018752479925751686 302:0.0449993833899498 322:0.09471555054187775 648:0.053810328245162964 651:0.05920565873384476 902:0.05920565873384476 903:0.1471085250377655 904:0.06939302384853363 905:0.06639152020215988 906:0.1471085250377655
-3.43228294493236 7:0.021249404177069664 15:0.012541496194899082 64:0.01478178147226572 114:0.033658746629953384 133:0.055790431797504425 294:0.028785957023501396 385:0.041861530393362045 386:0.060370832681655884 1246:0.07943373918533325 1335:0.03687500208616257 1976:0.030539078637957573 2635:0.13376805186271667 2636:0.13376805186271667 2637:0.10864143073558807 2638:0.0741664245724678 2639:0.13376805186271667
-4.695425723694288 35:0.001152005628682673 58:0.0025376142002642155 84:0.04744069278240204 113:0.028471898287534714 215:0.04554854333400726 217:0.007826963439583778 247:0.014402898959815502 251:0.010568513534963131 361:0.014801319688558578 601:0.13348393142223358 618:0.027531642466783524 688:0.07074423134326935 689:0.14008945226669312 690:0.03922346979379654 691:0.042009126394987106 692:0.07074423134326935 693:0.05745583027601242 694:0.02667047642171383 695:0.05745583027601242 696:0.04554854333400726 697:0.04554854333400726 698:0.07074423134326935
-3.4122139014584825 15:0.004109626170247793 22:0.001097948639653623 28:5.354936583898962E-4 58:0.0015723161632195115 94:0.015578781254589558 130:0.010843046009540558 171:0.024303022772073746 175:0.009299855679273605 260:0.005306373815983534 314:0.009045763872563839 341:0.0682348757982254 520:0.024303022772073746 665:0.12472100555896759 683:0.11288826167583466 706:0.004849618766456842 728:0.07596179842948914 794:0.03559986874461174 817:0.011424739845097065 855:0.024303022772073746 1300:0.01705871894955635 1372:0.014044397510588169 2104:0.026029029861092567 2236:0.028222065418958664 3506:0.0438334196805954 3507:0.0438334196805954 3508:0.0438334196805954 3509:0.1753336787223816 3510:0.0438334196805954
-1.9135496411518487 49:0.04351472482085228 58:0.006096258293837309 137:0.015271706506609917 193:0.12089354544878006 666:0.07088202983140945 1393:0.12089354544878006 1628:0.0736306682229042 1920:0.07088202983140945 2087:0.16995300352573395 2088:0.16995300352573395 2089:0.13802950084209442
-4.573271143428424 14:0.020073343068361282 15:0.0051450408063828945 22:0.0013745754258707166 28:0.0026816425379365683 32:0.01102439220994711 35:2.2340631403494626E-4 58:0.001968459226191044 60:0.008450278080999851 64:0.0026951550971716642 137:0.004931177478283644 156:0.02476661652326584 173:0.01484079472720623 190:0.01717333309352398 227:0.006995403673499823 243:0.016786517575383186 504:0.015127652324736118 636:0.0353325791656971 666:0.022887544706463814 668:0.01950383558869362 706:0.006071474403142929 720:0.01642029732465744 779:0.030426139011979103 845:0.01950383558869362 859:0.007882902398705482 929:0.005929738748818636 994:0.02865697629749775 995:0.15614430606365204 1309:0.010090518742799759 1351:0.044569212943315506 1376:0.02588629350066185 1419:0.01456627156585455 1455:0.01034053135663271 1627:0.03903607651591301 1644:0.017462020739912987 1645:0.0052574859000742435 1647:0.004365505184978247 1697:0.018017567694187164 2552:0.030426139011979103 2748:0.044569212943315506 2831:0.044569212943315506 3031:0.03903607651591301 3032:0.05487719178199768 3033:0.03903607651591301 3034:0.05487719178199768
-0.9838884785427914 35:3.785974404308945E-4 64:0.0011418419890105724 218:0.04603927955031395 240:0.09695608168840408 293:0.032155122607946396 369:0.04386842995882034 563:0.048563793301582336 662:0.035060156136751175 923:0.37199243903160095 924:0.04386842995882034 925:0.09299810975790024 926:0.09299810975790024 927:0.06615282595157623 928:0.02782679721713066
-2.3974130483555167 7:0.008365541696548462 64:6.465938640758395E-4 130:0.013027038425207138 228:0.060428373515605927 319:0.015107093378901482 325:0.021194593980908394 359:0.04961328208446503 456:0.06443598121404648 572:0.12508703768253326 576:0.037460535764694214 579:0.01610899530351162 580:0.12508703768253326 706:0.005826422479003668 787:0.042770348489284515 960:0.027500348165631294 2395:0.033906515687704086 2463:0.037460535764694214 3498:0.052662286907434464 3499:0.21064914762973785 3500:0.052662286907434464
-1.2701386776683028 35:4.3106303201057017E-4 185:0.031683001667261124 811:0.06817429512739182 921:0.05529370903968811 1161:0.07532020658254623 1162:0.08599640429019928 1163:0.10588567703962326 1164:0.10588567703962326 1165:0.42354270815849304 1166:0.047787245362997055
-1.4264829838986866 22:0.003328570630401373 28:0.00162341701798141 35:5.409842706285417E-4 45:0.026346905156970024 182:0.04475051909685135 219:0.05348185822367668 507:0.06939362734556198 559:0.055422794073820114 682:0.12931270897388458 902:0.05348185822367668 983:0.012370126321911812 1133:0.07367769628763199 1596:0.04860813170671463 1654:0.021796131506562233 1666:0.021109379827976227 1712:0.07891030609607697 2065:0.06578630954027176 2406:0.05997301638126373 2414:0.08555877208709717 2559:0.09452689439058304
-2.3838931512732198 7:0.007448268122971058 35:0.0017179361311718822 64:5.756954778917134E-4 77:0.09284859150648117 223:0.016212016344070435 706:0.0051875608041882515 734:0.038080621510744095 872:0.01715097203850746 907:0.03335302323102951 1013:0.08125513792037964 1610:0.038080621510744095 3541:0.18755166232585907 3542:0.04688791558146477 3543:0.15232248604297638 3544:0.18755166232585907 3545:0.04688791558146477 3546:0.04688791558146477
-3.6230439957794043 22:0.001078177709132433 28:5.258509190753102E-4 35:0.0015771017642691731 45:0.03413674607872963 47:0.004064688924700022 58:0.0015440031420439482 64:0.0021140025928616524 103:0.008317004889249802 157:0.017323635518550873 182:0.014495414681732655 227:0.005486994981765747 507:0.08991085737943649 522:0.027713865041732788 682:0.09424455463886261 694:0.016227565705776215 708:0.012101157568395138 960:0.022477714344859123 983:0.004006883129477501 1133:0.09546157717704773 1191:0.023865394294261932 1200:0.015298251993954182 1368:0.011425367556512356 1390:0.027713865041732788 1436:0.004917575046420097 1520:0.012607062235474586 1644:0.003424177411943674 1645:0.00412382185459137 1647:0.054786838591098785 1654:0.007060118019580841 1683:0.023865394294261932 1701:0.020304469391703606 1712:0.025560319423675537 1725:0.034958817064762115 1781:0.027713865041732788 2007:0.025560319423675537 2065:0.08523698151111603 2116:0.025560319423675537 2204:0.023865394294261932 2406:0.01942622661590576 2647:0.034958817064762115 2648:0.034958817064762115
-2.4334294799039626 11:0.01108472514897585 15:0.00829607155174017 35:3.602293727453798E-4 229:0.03236706927418709 288:0.049060333520174026 289:0.049060333520174026 290:0.22788670659065247 291:0.049060333520174026 292:0.07186520099639893 293:0.122380331158638 294:0.01904161646962166 295:0.0884862020611763 296:0.1962413340806961 297:0.022264916449785233 298:0.05254460871219635
-1.482995950615807 35:2.798279165290296E-4 103:0.013281305320560932 194:0.008182523772120476 229:0.10057158023118973 247:0.013994143344461918 963:0.0193241648375988 1072:0.009245792403817177 1093:0.136113703250885 1138:0.01824500411748886 1221:0.1770234853029251 1371:0.03811030462384224 1548:0.040816906839609146 1617:0.03811030462384224 1820:0.024429557844996452 1912:0.27494603395462036 1913:0.01858885958790779 1914:0.06873650848865509
-2.732646212285039 35:0.0018350596074014902 47:0.010641437955200672 103:0.021774085238575935 247:0.02294275164604187 458:0.02072088234126568 481:0.03699907660484314 628:0.046999577432870865 1279:0.09152288734912872 1455:0.021234283223748207 2136:0.09152288734912872 2263:0.09152288734912872 3002:0.09152288734912872 3003:0.11269032210111618 3004:0.11269032210111618 3005:0.11269032210111618 3006:0.11269032210111618
-1.592446706137522 6:0.0469072088599205 28:0.001566609600558877 58:0.0045998780988156796 98:0.045576389878988266 157:0.05161039158701897 337:0.04108748212456703 542:0.024777932092547417 796:0.06696537137031555 941:0.08256485313177109 1044:0.06696537137031555 1056:0.09121915698051453 1057:0.10414893925189972 1058:0.2678614854812622 1059:0.10414893925189972
-1.584240150053053 173:0.03457685932517052 237:0.055392395704984665 238:0.07592291384935379 239:0.2670660614967346 240:0.033324312418699265 241:0.01688847318291664 242:0.057702552527189255 243:0.039110105484724045 244:0.07592291384935379 245:0.011329962871968746 246:0.07592291384935379 247:0.026030296459794044 248:0.23081021010875702
-2.9199212062405997 35:9.378996910527349E-4 58:0.0020659861620515585 137:0.02070196531713009 145:0.03193359449505806 243:0.017618201673030853 297:0.014492335729300976 300:0.075640968978405 371:0.027168823406100273 483:0.021067872643470764 551:0.10397469252347946 584:0.034201525151729584 622:0.02402150258421898 697:0.03708312287926674 720:0.0172338355332613 902:0.02318025752902031 1079:0.025993673130869865 1144:0.16388043761253357 1203:0.04097010940313339 1266:0.024953000247478485 1311:0.046777382493019104 1388:0.04097010940313339 1389:0.028513286262750626 1390:0.03708312287926674 1391:0.04097010940313339 1392:0.05759606882929802 1393:0.04097010940313339
-2.2981723526363997 35:2.0278400916140527E-4 58:0.0017867536516860127 96:0.008838544599711895 158:0.016774404793977737 174:0.021580427885055542 194:0.0059296623803675175 250:0.01428931299597025 378:0.009271147660911083 731:0.11047019064426422 763:0.024659516289830208 774:0.029578952118754387 942:0.035432714968919754 985:0.02004728466272354 1007:0.11831580847501755 1300:0.07754097133874893 1309:0.009159077890217304 2912:0.16182038187980652 3586:0.035432714968919754 3597:0.04981156066060066 3598:0.04981156066060066 3599:0.19924624264240265
-3.1805516533881133 15:0.014538914896547794 28:0.0018944538896903396 35:6.313040503300726E-4 64:0.007615999318659306 117:0.04852860048413277 171:0.08597852289676666 240:0.0404181107878685 300:0.05091424286365509 338:0.08597852289676666 457:0.01649782620370388 640:0.07314977794885635 740:0.06718385964632034 829:0.0767696276307106 896:0.09984319657087326 1008:0.06467588245868683 1009:0.15507258474826813 1010:0.11030858010053635
-2.0485475672129785 32:0.018252968788146973 64:0.0011155848624184728 87:0.04498058930039406 178:0.016706764698028564 217:0.010052475146949291 263:0.03229229152202606 334:0.1515786498785019 458:0.016706764698028564 582:0.02174556441605091 584:0.05395396426320076 873:0.15745651721954346 900:0.06463161110877991 977:0.04498058930039406 1063:0.132940873503685 1098:0.034253932535648346 1242:0.09085957705974579 1243:0.06463161110877991 1244:0.04285965859889984
-2.5701540436547554 7:0.010822765529155731 11:0.00853479839861393 47:0.006433652248233557 64:8.365189423784614E-4 137:0.0061221313662827015 144:0.03213822469115257 185:0.020386045798659325 251:0.010178101249039173 283:0.06037420034408569 294:0.058645159006118774 303:0.05701817199587822 357:0.16182906925678253 360:0.011680040508508682 457:0.007248290814459324 511:0.03557806834578514 599:0.03557806834578514 671:0.016305865719914436 672:0.05533335357904434 733:0.043865930289030075 1099:0.02651459351181984 1366:0.13491439819335938 1441:0.06813086569309235 1442:0.022943563759326935 1443:0.04045726731419563 1444:0.06813086569309235
-2.2515273982168447 28:0.0010265904711559415 47:0.007935273461043835 71:0.0211443230509758 178:0.015451471321284771 724:0.039639320224523544 1072:0.011303290724754333 1319:0.012307971715927124 1362:0.05977540463209152 1869:0.12295212596654892 1900:0.15855728089809418 1924:0.014087964780628681 2011:0.08403268456459045 2012:0.04990003630518913 2013:0.08403268456459045 2014:0.04160089045763016 2015:0.16640356183052063 2016:0.0682482197880745 2017:0.04160089045763016
-2.839210477577241 47:0.010067207738757133 64:0.005235850345343351 79:0.021137025207281113 80:0.03415805473923683 137:0.009579748846590519 140:0.03189954534173012 274:0.02230512909591198 319:0.03058275207877159 466:0.03189954534173012 542:0.0205991193652153 800:0.06330645829439163 830:0.05910855159163475 1274:0.04618758708238602 1654:0.017486128956079483 1976:0.02433878555893898 2007:0.06330645829439163 2161:0.05910855159163475 2678:0.10660936683416367 2679:0.06330645829439163 2680:0.10660936683416367 2681:0.08658415824174881 2682:0.08658415824174881
-1.244993629901663 22:0.004698105622082949 58:0.0016819792799651623 64:5.757288308814168E-4 137:0.004213517997413874 170:0.030190447345376015 276:0.005676473490893841 361:0.009810598567128181 385:0.014674010686576366 629:0.024486379697918892 665:0.03335495665669441 878:0.01054397877305746 1253:0.03335495665669441 1277:0.024486379697918892 1549:0.038082826882600784 1830:0.09285397082567215 1950:0.023213492706418037 2069:0.030190447345376015 2104:0.02784445509314537 2679:0.11137782037258148 3227:0.15233130753040314 3266:0.15233130753040314 3291:0.03335495665669441 3570:0.046890631318092346 3571:0.046890631318092346 3572:0.046890631318092346
-1.9746207694263131 35:3.2629899214953184E-4 100:0.02089070715010166 245:0.007102650124579668 360:0.013740818947553635 433:0.02631579153239727 488:0.036173202097415924 602:0.051605455577373505 621:0.19038152694702148 659:0.051605455577373505 743:0.032258011400699615 1023:0.02568088285624981 1628:0.13889995217323303 1657:0.019498998299241066 1680:0.036173202097415924 1688:0.01676955632865429 1729:0.04443929344415665 1921:0.03967953845858574 2086:0.051605455577373505 2381:0.051605455577373505 2543:0.06509614735841751 2698:0.08015159517526627
-2.1865620645952126 16:0.037979207932949066 22:0.00338383624330163 28:0.0016503713559359312 35:0.0021998658776283264 64:0.0016586873680353165 126:0.05092984810471535 217:0.014946342445909977 540:0.03458916395902634 1131:0.054369840770959854 1820:0.048013217747211456 2522:0.08022048324346542 2561:0.109717458486557 2894:0.109717458486557 2969:0.09609635919332504 3130:0.109717458486557 3131:0.13509294390678406 3132:0.109717458486557
-0.9106394438950107 64:0.0034247119911015034 251:0.04166918620467186 479:0.07403697818517685 601:0.13157401978969574 1376:0.13157401978969574 1519:0.11225806921720505 2744:0.22653497755527496 2745:0.2789280414581299
-1.6755334303898297 28:0.001834444236010313 35:6.113065755926073E-4 120:0.03844704106450081 164:0.10681439936161041 256:0.03778340294957161 278:0.08325503021478653 279:0.08325503021478653 359:0.03536663576960564 1270:0.07433784008026123 1666:0.023853378370404243 1885:0.065055713057518 1941:0.05336833745241165 1958:0.06043393909931183 2461:0.10681439936161041 3227:0.12195471674203873 3228:0.10681439936161041
-0.6866588172956187 5:0.026881519705057144 22:0.0018407833995297551 128:0.04074562340974808 561:0.04363938421010971 876:0.110821932554245 884:0.028600068762898445 1023:0.023546358570456505 1060:0.07348962128162384 1061:0.29395848512649536 1062:0.05968553200364113 1063:0.10752607882022858 1064:0.18926462531089783
-1.9262894008167353 28:0.0012495133560150862 56:0.034443628042936325 64:0.0012558094458654523 286:0.04616009443998337 430:0.04616009443998337 714:0.06073576584458351 748:0.06585296243429184 877:0.06073576584458351 887:0.05670832842588425 888:0.027148660272359848 889:0.2910222113132477 890:0.07275555282831192 891:0.06073576584458351 892:0.10228027403354645 893:0.07275555282831192
-2.903427152901628 22:0.009876107797026634 28:0.0012041986919939518 35:4.0128480759449303E-4 183:0.20589585602283478 194:0.011734077706933022 467:0.04270503297448158 701:0.051473964005708694 706:0.010905646719038486 804:0.028870174661278725 817:0.02569153904914856 1219:0.01954328827559948 1308:0.04111085087060928 1688:0.02062331698834896 1691:0.04111085087060928 1697:0.032363343983888626 1759:0.05465175211429596 2373:0.051473964005708694 2443:0.05465175211429596 2444:0.09857099503278732 2445:0.09857099503278732 2446:0.09857099503278732
-5.31579044391269 22:0.001435325713828206 24:0.03689412772655487 35:2.33279904932715E-4 67:0.025861194357275963 77:0.1134718656539917 114:0.014418474398553371 118:0.09224846959114075 171:0.031770844012498856 228:0.016438227146863937 524:0.008646570146083832 559:0.023899076506495476 662:0.021602971479296684 668:0.0814632847905159 706:0.006339807063341141 793:0.01182534173130989 1200:0.020365821197628975 1239:0.046538978815078735 1319:0.008392899297177792 1329:0.046538978815078735 1596:0.020960498601198196 3111:0.040761303156614304 3244:0.040761303156614304 3287:0.040761303156614304 3384:0.029923491179943085 3579:0.046538978815078735 3591:0.057302527129650116 3592:0.057302527129650116 3593:0.057302527129650116
-1.7582094377879984 7:0.011105007492005825 22:0.0070042419247329235 35:0.001138382009230554 58:0.010030417703092098 66:0.032976340502500534 67:0.12619997560977936 71:0.017590168863534927 73:0.024845778942108154 77:0.03460818901658058 137:0.006281787063926458 154:0.03154999390244484 190:0.021876972168684006 229:0.025571269914507866 245:0.024779509752988815 458:0.012854230590164661 471:0.014232570305466652 706:0.00773440208286047 810:0.022952433675527573 916:0.030286869034171104 1436:0.007986597716808319 3096:0.04972774162888527 3384:0.14602357149124146 3470:0.04972774162888527 3496:0.04972774162888527 3547:0.05677635967731476 3548:0.05677635967731476 3549:0.06990761309862137 3550:0.04972774162888527
-2.831889811120063 35:3.149723925162107E-4 58:0.0027752588503062725 135:0.03649614006280899 227:0.009862564504146576 237:0.03351960331201553 260:0.037464629858732224 287:0.03830216825008392 309:0.03830216825008392 313:0.031138259917497635 391:0.045943234115839005 458:0.01422625407576561 763:0.03830216825008392 983:0.007202147040516138 1028:0.06283650547266006 1036:0.029168134555220604 1136:0.04981411248445511 1139:0.03830216825008392 1327:0.19925644993782043 1328:0.0550355389714241 1329:0.06283650547266006 1330:0.03649614006280899 1331:0.0550355389714241 1332:0.07736934721469879
-2.5568528394697068 15:0.005470197182148695 22:0.0014614458195865154 35:9.501005988568068E-4 117:0.018258653581142426 336:0.037565525621175766 423:0.032349009066820145 494:0.032349009066820145 500:0.02888420596718788 687:0.03464644402265549 762:0.030468039214611053 770:0.03464644402265549 928:0.017458027228713036 1038:0.12939603626728058 1039:0.15026210248470306 1040:0.05834532156586647 1041:0.04150307923555374 1042:0.032349009066820145 1043:0.15026210248470306 1044:0.12187215685844421 1045:0.04150307923555374
-3.491417342001096 7:0.013620926067233086 28:0.0010475174058228731 137:0.007704970892518759 297:0.02157534658908844 300:0.028152471408247948 339:0.027473248541355133 342:0.05091724544763565 630:0.020521648228168488 648:0.1254584938287735 895:0.17910625040531158 974:0.042448922991752625 1120:0.04754088073968887 1121:0.0857456848025322 1122:0.06099391728639603 1123:0.0857456848025322 1124:0.06099391728639603 1125:0.0857456848025322 1126:0.05520719662308693
-2.8493133207507357 22:0.01192850898951292 35:4.846777010243386E-4 64:0.005847111344337463 258:0.017101876437664032 314:0.024569109082221985 553:0.06600919365882874 800:0.07069718092679977 888:0.031601376831531525 1181:0.05616004765033722 1536:0.03048294223845005 1645:0.011406062170863152 1823:0.027603089809417725 1841:0.04488375782966614 1858:0.07069718092679977 1905:0.04009280726313591 2190:0.05893915519118309 2382:0.09669245034456253 3104:0.09669245034456253 3263:0.11905550956726074 3264:0.11905550956726074
-1.2086752224518578 58:0.003844758728519082 122:0.19349481165409088 203:0.02565278485417366 771:0.06364835798740387 881:0.06364835798740387 983:0.009977634996175766 1019:0.06901095062494278 1312:0.01496278028935194 1538:0.039206888526678085 1702:0.05942778289318085 1744:0.016173522919416428 1749:0.0417134054005146 1750:0.19349481165409088 1751:0.10718513280153275 1752:0.06901095062494278 1753:0.029547056183218956
-1.494667863812811 7:0.012184222228825092 35:3.1225327984429896E-4 58:0.002751300111413002 130:0.018973585218191147 176:0.02726035937666893 182:0.02582976222038269 260:0.03714120015501976 341:0.029850011691451073 680:0.13292092084884644 720:0.022950520738959312 798:0.19753627479076385 817:0.019991455599665642 1309:0.014103439636528492 1336:0.03198974207043648 1466:0.21824167668819427 1592:0.05456041917204857 1618:0.07670142501592636 1619:0.07670142501592636
-2.8894872092208113 26:0.029805254191160202 35:3.317176306154579E-4 64:0.0010004533687606454 224:0.2098497450351715 251:0.012172725982964039 260:0.009864101186394691 293:0.02817351743578911 369:0.03843642398715019 371:0.03843642398715019 408:0.04838576540350914 618:0.03171071782708168 716:0.01594696193933487 717:0.045177266001701355 718:0.06617715209722519 719:0.04838576540350914 720:0.02438114583492279 721:0.03843642398715019 722:0.08148261904716492 723:0.23184582591056824
-4.509754140995683 28:9.507662034593523E-4 35:3.1683145789429545E-4 126:0.1173611730337143 165:0.020284565165638924 206:0.024935754016041756 227:0.009920775890350342 287:0.038528237491846085 377:0.030287666246294975 380:0.055360373109579086 432:0.04314988851547241 477:0.038528237491846085 478:0.18485762178897858 646:0.05010812729597092 671:0.018626218661665916 762:0.04064089059829712 845:0.02766004391014576 1266:0.03371744230389595 1267:0.046214405447244644 1309:0.014310221187770367 1411:0.06320738047361374 1620:0.06320738047361374 1621:0.07782600075006485
-2.715829202782756 7:0.0069196089170873165 22:0.001091098296456039 28:0.002128610387444496 35:1.7733348067849874E-4 84:0.007302762940526009 143:0.019659025594592094 151:0.022747080773115158 206:0.013956771232187748 242:0.019659025594592094 339:0.013956771232187748 345:0.10346651077270508 731:0.0241513904184103 743:0.01753123849630356 795:0.0241513904184103 1268:0.03098571114242077 1353:0.03098571114242077 1649:0.010960559360682964 1844:0.020547792315483093 2106:0.022747080773115158 2859:0.10346651077270508 3397:0.03098571114242077 3398:0.043559931218624115 3399:0.043559931218624115 3400:0.043559931218624115 3401:0.043559931218624115 3402:0.17423972487449646 3403:0.12394284456968307
-1.6929275531718602 8:0.08314589411020279 11:0.014642523601651192 35:4.758500144816935E-4 64:0.0014351536519825459 98:0.041542697697877884 101:0.0151655999943614 274:0.024455465376377106 305:0.032860927283763885 515:0.04275573417544365 519:0.23146265745162964 577:0.06940954178571701 897:0.09493134170770645 898:0.0527522899210453 899:0.11688708513975143 900:0.08314589411020279 901:0.09493134170770645
-2.64464699738981 35:4.207794845569879E-4 57:0.015440944582223892 64:0.005076248664408922 101:0.013410472311079502 137:0.00928773358464241 251:0.015440944582223892 751:0.03573773801326752 789:0.05730677396059036 891:0.06137671321630478 944:0.023596877232193947 1719:0.024737223982810974 2100:0.048756103962659836 2373:0.05397460609674454 2374:0.1033596396446228 2375:0.1033596396446228 2376:0.1033596396446228 2377:0.08394485712051392 2378:0.08394485712051392 2379:0.07352335005998611 2380:0.08394485712051392
-3.3075414410123614 22:0.003731447970494628 35:0.005458166357129812 96:0.026433296501636505 152:0.048910822719335556 217:0.016481736674904823 223:0.05150824785232544 303:0.03116808459162712 641:0.05294547602534294 739:0.05995509773492813 811:0.09591447561979294 1142:0.12098841369152069 1143:0.14897064864635468 1144:0.10596806555986404 1145:0.08259536325931549 1146:0.14897064864635468
-2.2242358614715148 7:0.005864395759999752 58:0.001324229990132153 64:4.53273969469592E-4 137:0.003317322116345167 314:0.007618488743901253 359:0.008694951422512531 456:0.011292695999145508 479:0.009799082763493061 494:0.020468397065997124 540:0.009452274069190025 615:0.026260511949658394 655:0.021922068670392036 1502:0.018276091665029526 1600:0.0950763151049614 1894:0.015994062647223473 1961:0.048483408987522125 2028:0.029982784762978554 2177:0.08768827468156815 3612:0.10504204779863358 3631:0.029982784762978554 3666:0.14766885340213776 3667:0.14766885340213776 3668:0.03691721335053444 3669:0.03691721335053444 3670:0.03691721335053444 3671:0.03691721335053444
-0.6688026249913527 28:0.0014925390714779496 35:4.973707837052643E-4 58:0.0043823919259011745 64:0.001500059850513935 130:0.030221963301301003 214:0.023021183907985687 227:0.015573907643556595 708:0.03434709087014198 773:0.03655660152435303 872:0.044689398258924484 977:0.0604826919734478 1103:0.018251542001962662 1654:0.020038951188325882 1720:0.052930574864149094 1793:0.03578301519155502 2031:0.0677378848195076 2128:0.06379919499158859 2646:0.48869362473487854
-1.0081329989038859 28:0.002656581113114953 35:8.852738537825644E-4 64:0.010679869912564754 112:0.1135566458106041 150:0.15468505024909973 217:0.024058932438492775 276:0.026324892416596413 457:0.023134801536798477 878:0.048898160457611084 1635:0.03950732946395874 1663:0.06238142400979996 1732:0.14000950753688812 2425:0.1766107678413391 2653:0.1766107678413391
-1.3030177133751801 35:0.0034930771216750145 64:0.0026337618473917246 243:0.06561654806137085 247:0.04367204010486603 378:0.03992528095841408 472:0.10619377344846725 487:0.05913223326206207 716:0.04198146611452103 793:0.044267456978559494 1368:0.05693786218762398 1436:0.09802614897489548 1604:0.09680981934070587 1645:0.02055090107023716 1823:0.04973393678665161 2259:0.09680981934070587 2486:0.1742158681154251
-1.1141932558874057 22:0.007363431621342897 28:0.0035913074389100075 35:2.991900546476245E-4 80:0.09418925642967224 101:0.00953535083681345 119:0.03184003382921219 227:0.009368379600346088 568:0.12736013531684875 983:0.006841268390417099 1138:0.07802972942590714 1748:0.04364115372300148 2265:0.07349259406328201 2266:0.07349259406328201 2267:0.07349259406328201 2268:0.07349259406328201 2269:0.29397037625312805
-1.1474939100321697 15:0.020516864955425262 64:0.0026868656277656555 137:0.019664041697978973 260:0.026491500437259674 499:0.08249996602535248 552:0.10322669893503189 720:0.06547917425632477 817:0.057036783546209335 1166:0.09876176714897156 1625:0.2873944044113159 1644:0.017408311367034912 1884:0.21883362531661987
-1.7009447007042322 20:0.309173047542572 35:6.025689071975648E-4 37:0.04742429777979851 57:0.08844758570194244 64:0.007269340567290783 87:0.07327529042959213 96:0.026263568550348282 101:0.01920419931411743 217:0.016375908628106117 227:0.018867921084165573 256:0.03724334388971329 772:0.042460426688194275 822:0.10528764873743057 823:0.0878932997584343 824:0.12021155655384064
-1.2339383913803335 5:0.02847805619239807 35:0.0012677862541750073 62:0.04623119533061981 173:0.021054638549685478 329:0.03372969478368759 545:0.14689955115318298 788:0.04316556826233864 825:0.06323035061359406 826:0.0501263327896595 827:0.04623119533061981 828:0.06323035061359406 829:0.038542237132787704 830:0.04316556826233864 831:0.06323035061359406 832:0.3114171326160431
-1.07302069913197 22:0.0026897434145212173 35:4.3715728679671884E-4 64:0.0013184573035687208 96:0.01905393972992897 101:0.013932442292571068 146:0.04048311337828636 227:0.013688474893569946 256:0.027019649744033813 291:0.05953729897737503 440:0.06376565247774124 457:0.011424202471971512 515:0.1571165770292282 542:0.02074853703379631 779:0.05953729897737503 1008:0.04478592053055763 1154:0.056075435131788254 1158:0.05953729897737503 1192:0.348848819732666
-3.1218500745188 22:0.002707010367885232 58:0.015506286174058914 60:0.01664149761199951 81:0.03165290132164955 84:0.018118126317858696 101:0.01402188278734684 133:0.04507342725992203 242:0.04877396300435066 269:0.07687542587518692 270:0.07687542587518692 271:0.06417500227689743 272:0.053501710295677185 273:0.10807201266288757 274:0.02261115051805973 275:0.05097899213433266 276:0.013082952238619328 277:0.05991950258612633 278:0.05991950258612633 279:0.05991950258612633 280:0.053501710295677185 281:0.10807201266288757
-5.275522921796356 14:0.01850532367825508 15:0.004743138328194618 28:6.180417840369046E-4 35:0.0018535952549427748 47:0.004777300171554089 58:0.007258775644004345 64:0.0024846242740750313 71:0.012729588896036148 93:0.01661013253033161 172:0.017036713659763336 182:0.06814685463905334 214:0.009532785974442959 241:0.026730000972747803 442:0.025045128539204597 457:0.005382209084928036 559:0.021099694073200226 641:0.0179803017526865 651:0.02036077156662941 929:0.00546653987839818 963:0.014222702011466026 983:0.004709359724074602 994:0.026418449357151985 1099:0.019688377156853676 1103:0.007557735778391361 1197:0.017036713659763336 1391:0.03598679229617119 1436:0.023118846118450165 1496:0.026418449357151985 1504:0.030041489750146866 1559:0.025045128539204597 1596:0.01850532367825508 1632:0.008121815510094166 1642:0.01230747438967228 1644:0.004024495370686054 1647:0.004024495370686054 1666:0.008036430925130844 1700:0.023864196613430977 1701:0.09545678645372391 1719:0.04843159765005112 1721:0.005340842995792627 1781:0.03257258981466293 2341:0.04108770936727524 2342:0.03598679229617119 2343:0.03598679229617119 2344:0.03257258981466293 2345:0.04108770936727524 2346:0.03598679229617119
-2.505949423576205 35:0.001879895105957985 58:0.004140994045883417 167:0.057151082903146744 217:0.0127723952755332 243:0.03531334176659584 272:0.057151082903146744 314:0.02382374182343483 318:0.06028490141034126 336:0.07432818412780762 615:0.08211912959814072 784:0.07432818412780762 1024:0.04814790561795235 1195:0.09375903755426407 1196:0.115443654358387 1197:0.0388764888048172 1198:0.115443654358387 1199:0.06400664150714874 1200:0.041029687970876694
-0.8690346722801879 64:0.0027631528209894896 180:0.07998364418745041 194:0.026790007948875427 204:0.12477511167526245 245:0.019942576065659523 765:0.06591333448886871 1098:0.08484236150979996 2803:0.1448960304260254 3251:0.22504688799381256 3252:0.22504688799381256
-1.210194072281207 64:0.0011799889616668224 78:0.07805291563272476 79:0.019054368138313293 80:0.030792420729994774 81:0.1125916838645935 82:0.07805291563272476 83:0.09610501676797867 84:0.06444749981164932 85:0.24750813841819763 86:0.03623145446181297 87:0.047577373683452606 88:0.05328451469540596 89:0.07805291563272476 90:0.05706879124045372
-4.193486075871712 13:0.14346686005592346 22:0.002154075540602207 28:0.0010505899554118514 35:3.500965249259025E-4 63:0.06117282435297966 84:0.014417311176657677 185:0.10292796045541763 187:0.0476803258061409 189:0.05536913126707077 302:0.02630588971078396 306:0.032420817762613297 432:0.0476803258061409 664:0.06117282435297966 770:0.05106659233570099 771:0.05106659233570099 772:0.024669790640473366 773:0.025731990113854408 774:0.05106659233570099 775:0.028235046193003654 776:0.08599718660116196 777:0.08599718660116196
-2.7552691809792305 35:3.434819809626788E-4 58:0.0030264598317444324 111:0.014144917018711567 161:0.050101764500141144 217:0.009334749542176723 234:0.03395672142505646 357:0.050101764500141144 450:0.03655361011624336 641:0.02998669072985649 748:0.05432301014661789 749:0.02998669072985649 750:0.06852412223815918 751:0.029172688722610474 752:0.0843723937869072 753:0.05432301014661789 754:0.06001705303788185 755:0.06852412223815918 756:0.04176906868815422 757:0.06852412223815918 758:0.06001705303788185 759:0.0843723937869072 760:0.06852412223815918
-1.0142927330102178 151:0.025398992002010345 223:0.016817215830087662 245:0.017240356653928757 424:0.013153559528291225 450:0.08428841829299927 518:0.02294330485165119 548:0.025398992002010345 1015:0.024078665301203728 1075:0.031315650790929794 1486:0.01596916653215885 3155:0.039502181112766266 3497:0.039502181112766266 3605:0.19455303251743317 3606:0.19455303251743317 3607:0.15800872445106506 3608:0.04863825812935829 3609:0.04863825812935829
-1.397471629804075 21:0.05320245772600174 22:0.0030759444925934076 58:0.004404902923852205 64:0.0015077650314196944 300:0.04031865671277046 668:0.04364454373717308 739:0.04942278191447258 864:0.06079337000846863 1082:0.07292130589485168 1126:0.07906517386436462 1158:0.27234333753585815 1202:0.06808583438396454 1228:0.08735264837741852 1277:0.06412690877914429 1278:0.09973438084125519
-1.8931053115572334 22:0.002171583939343691 28:0.004236516542732716 52:0.05148166045546532 58:0.003109814366325736 194:0.04128190875053406 930:0.03489195555448532 960:0.045272909104824066 1419:0.09204844385385513 1647:0.006896719336509705 1681:0.10607881844043732 1736:0.02997616119682789 1850:0.05581916868686676 2047:0.03912683576345444 2542:0.07041140645742416 2807:0.07041140645742416 3037:0.08669617027044296 3038:0.08669617027044296 3039:0.08669617027044296 3040:0.08669617027044296
-1.2181946125613208 15:0.0056973532773554325 35:9.895545663312078E-4 59:0.018182991072535515 64:0.0029844758100807667 240:0.015838613733649254 253:0.12033462524414062 276:0.029425829648971558 305:0.017083996906876564 740:0.1053091436624527 772:0.017432408407330513 793:0.012540536932647228 814:0.043226540088653564 819:0.04935365170240402 874:0.03173325955867767 876:0.022909516468644142 955:0.03608517721295357 961:0.0391254760324955 983:0.005656779278069735 1063:0.022228186950087547 1280:0.0253444891422987 1557:0.06076817587018013 1558:0.1974146068096161 1559:0.12033462524414062
-1.5118262616031848 35:4.154716443736106E-4 52:0.06060248613357544 64:0.001253053778782487 236:0.032699085772037506 513:0.08288594335317612 514:0.08288594335317612 515:0.03733065724372864 516:0.05052335932850838 517:0.10205583274364471 518:0.048141077160835266 519:0.05052335932850838 520:0.2263355553150177 521:0.10205583274364471 522:0.0657084584236145 523:0.056583888828754425
-1.5130113969786538 28:0.004788923542946577 35:3.989628457929939E-4 58:0.003515308490023017 73:0.03483028709888458 196:0.051176123321056366 247:0.019952060654759407 263:0.03483028709888458 297:0.024658940732479095 308:0.08316867053508759 470:0.022373422980308533 1072:0.01318212877959013 1404:0.058194443583488464 1632:0.015733057633042336 1680:0.044228650629520416 1682:0.03944157809019089 1685:0.022373422980308533 1686:0.05433552339673042 1961:0.12870432436466217 1962:0.05433552339673042 1963:0.03944157809019089 1964:0.09800063818693161 1965:0.05433552339673042 1966:0.09800063818693161
-1.2815648961976278 22:0.005169892217963934 51:0.043790072202682495 57:0.030833842232823372 64:0.002534175291657448 94:0.0733555406332016 297:0.05193382501602173 360:0.1415354460477829 630:0.04939747601747513 817:0.21518190205097198 927:0.14681792259216309 931:0.1021784245967865 1442:0.06950591504573822 1697:0.06776556372642517
-1.4582813727123696 16:0.05123191326856613 35:0.0029675010591745377 221:0.036609191447496414 405:0.10821312665939331 1036:0.06870163232088089 1493:0.10821312665939331 1573:0.09021561592817307 2934:0.10821312665939331 3061:0.12962883710861206 3188:0.1480029672384262 3190:0.1480029672384262
-1.4475005041718088 35:4.94243751745671E-4 64:0.0014906288124620914 214:0.022876448929309845 240:0.03164307028055191 245:0.01075835432857275 526:0.0547914020717144 641:0.17259402573108673 944:0.027716675773262978 1337:0.0547914020717144 1696:0.048861075192689896 1936:0.08635985106229782 2293:0.07209252566099167 2404:0.08635985106229782 2612:0.08635985106229782 2668:0.12140529602766037 2669:0.12140529602766037
-1.335126789334445 22:0.0044226800091564655 35:7.1880710311234E-4 94:0.0627533569931984 103:0.034116312861442566 165:0.04602033644914627 327:0.11368214339017868 505:0.1434009075164795 651:0.07106146961450577 674:0.08328883349895477 779:0.09789573401212692 1008:0.07364039868116379 1029:0.1434009075164795 1030:0.12559810280799866
-2.778275830319868 28:4.941526567563415E-4 43:0.01115043368190527 51:0.008581890724599361 103:0.007815655320882797 119:0.017524354159832 180:0.014376073144376278 241:0.005342964082956314 270:0.028773082420229912 314:0.00834741536527872 361:0.008462944999337196 372:0.010938994586467743 483:0.014795850962400436 542:0.007815655320882797 716:0.007916351780295372 919:0.026043273508548737 1104:0.022426787763834 1153:0.018255213275551796 1197:0.013621630147099495 1440:0.03285149857401848 1547:0.028773082420229912 1769:0.089707151055336 1789:0.024019543081521988 1933:0.024019543081521988 1935:0.021122757345438004 1987:0.03285149857401848 2083:0.028773082420229912 2158:0.028773082420229912 2162:0.04044940322637558 2163:0.03285149857401848 2164:0.16179761290550232 2165:0.04044940322637558 2166:0.04044940322637558 2167:0.01908051408827305 2168:0.04044940322637558 2169:0.04044940322637558 2170:0.04044940322637558
-1.7748809486098567 28:0.001420773332938552 35:4.7345570055767894E-4 44:0.05038551241159439 47:0.010982202365994453 79:0.02305814065039158 176:0.04133366793394089 458:0.02138441614806652 510:0.02829279750585556 582:0.027834007516503334 628:0.04850462079048157 1032:0.052486855536699295 1138:0.03086969256401062 1584:0.07487885653972626 1632:0.01867067627608776 1644:0.00925163272768259 1647:0.00925163272768259 1861:0.06448084861040115 1894:0.05038551241159439 1907:0.03639473021030426 2682:0.09445367753505707 2825:0.09445367753505707 3246:0.11629894375801086 3247:0.09445367753505707
-1.4709297739353397 14:0.016916679218411446 35:1.8827422172762454E-4 47:0.004367178771644831 58:0.001658906228840351 64:0.002271324396133423 135:0.021815506741404533 144:0.021815506741404533 175:0.009812015108764172 227:0.005895331036299467 349:0.024150481447577477 467:0.020036285743117332 706:0.005116695538163185 850:0.027462491765618324 1335:0.012748731300234795 1679:0.05927138403058052 1723:0.029776301234960556 3269:0.027462491765618324 3345:0.037560414522886276 3472:0.032897401601076126 3573:0.04624740034341812 3574:0.04624740034341812 3575:0.04624740034341812 3576:0.18498960137367249 3577:0.04624740034341812 3578:0.04624740034341812 3579:0.037560414522886276 3580:0.18498960137367249
-1.0510298461269654 173:0.029685333371162415 314:0.0226525217294693 476:0.07067406922578812 483:0.040151748806238174 780:0.06085995212197304 982:0.019942529499530792 1039:0.07067406922578812 1102:0.3123280107975006 1319:0.01607736572623253 1654:0.018004246056079865 1721:0.011588242836296558 1722:0.07808200269937515 1744:0.01656329445540905 1790:0.035170163959264755 2137:0.07808200269937515 2175:0.07808200269937515 2176:0.04138246551156044
-3.299545581666642 14:0.014986616559326649 15:0.00384125136770308 35:0.00817288551479578 43:0.10164779424667358 47:0.0038689172361046076 57:0.006120665464550257 64:0.004527413751929998 71:0.010309113189578056 118:0.016489259898662567 175:0.008692539297044277 268:0.008816659450531006 276:0.019839389249682426 311:0.011518317274749279 314:0.008455040864646435 361:0.00857205968350172 433:0.013451788574457169 457:0.004358805250376463 483:0.014986616559326649 623:0.017750298604369164 716:0.00801841914653778 751:0.014166150242090225 765:0.011999855749309063 845:0.0145614268258214 866:0.015445981174707413 928:0.012259277515113354 929:0.01770840585231781 982:0.007443537469953299 983:0.0038138956297188997 1151:0.010309113189578056 1532:0.029144059866666794 1536:0.01049018558114767 1596:0.014986616559326649 1642:0.009967261925339699 1645:0.003925201948732138 1647:0.013037021271884441 1719:0.03922254219651222 1721:0.017301220446825027 1741:0.016489259898662567 1745:0.09086376428604126 1804:0.029144059866666794 1855:0.02139509655535221 1910:0.01312724407762289 1913:0.011080033145844936 2300:0.02637905441224575 2557:0.029144059866666794 3142:0.029144059866666794 3181:0.040970925241708755 3182:0.040970925241708755 3183:0.040970925241708755 3184:0.029144059866666794 3185:0.040970925241708755
-0.5667487455570506 22:0.02824171632528305 35:0.0011475139763206244 37:0.0903133973479271 47:0.02661754935979843 111:0.04725572466850281 165:0.07346752285957336 227:0.03593149781227112 236:0.0903133973479271 392:0.04296448454260826 393:0.2818736135959625 394:0.2818736135959625
-0.3729449620462912 58:0.003443712368607521 101:0.012456195428967476 234:0.1545531004667282 379:0.20053528249263763 672:0.07797141373157501 673:0.06829149276018143 674:0.04528666287660599 675:0.06829149276018143 676:0.0960046648979187 677:0.2731659710407257
-1.5144627236329111 35:5.083506111986935E-4 58:0.004479137249290943 305:0.03510533273220062 311:0.03510533273220062 320:0.05635527893900871 438:0.0741502195596695 462:0.08882477134466171 929:0.05397137627005577 968:0.1682041734457016 1219:0.024757586419582367 1312:0.017431611195206642 1536:0.03197180852293968 1647:0.08940152823925018 1968:0.0589030496776104 2106:0.26083043217658997
-1.1201707168853725 79:0.03035825677216053 84:0.025670146569609642 223:0.2117699831724167 287:0.07580236345529556 372:0.04140889272093773 384:0.09092450886964798 426:0.12435733526945114 448:0.10891874134540558 568:0.06633736938238144 702:0.05772554501891136 1245:0.07580236345529556 1246:0.09092450886964798
-1.001706169681099 4:0.07761424779891968 32:0.04630066826939583 35:9.382704156450927E-4 228:0.0661158636212349 245:0.02042361907660961 251:0.034430816769599915 263:0.08191295713186264 954:0.10871824622154236 1119:0.10871824622154236 1166:0.1040157899260521 1632:0.03700059652328491 1645:0.022080592811107635 2392:0.127784863114357 2615:0.16394521296024323
-0.8819870790519373 32:0.031591493636369705 101:0.02040329948067665 105:0.11186175793409348 236:0.05038544908165932 285:0.08718912303447723 426:0.1277175098657608 427:0.1277175098657608 428:0.15725605189800262 429:0.08718912303447723 430:0.07097119837999344 431:0.1277175098657608
-0.5796627066363546 22:0.001841075369156897 28:8.979329140856862E-4 35:2.9922538669779897E-4 175:0.015594296157360077 223:0.025413878262043 582:0.017591174691915512 779:0.04075208678841591 954:0.034671518951654434 1011:0.2940050959587097 1012:0.07350127398967743 1013:0.03184379264712334 1014:0.05969500169157982 1015:0.03638725355267525 1016:0.2940050959587097 1017:0.07350127398967743
-0.8656664987826357 35:9.09054942894727E-4 64:0.002741690492257476 245:0.019787676632404327 355:0.13259868323802948 360:0.03828132897615433 524:0.0336943157017231 596:0.10533302277326584 1460:0.11054547876119614 1630:0.05432336404919624 1636:0.04608148708939552 1645:0.021393055096268654 1685:0.05097885802388191 1793:0.06540136784315109 1853:0.13259868323802948 1866:0.04156137630343437 1873:0.14377057552337646
