SVM-light Version V6.01
0 # kernel type
3 # kernel parameter -d
1.0 # kernel parameter -g
1.0 # kernel parameter -s
0.0 # kernel parameter -r
empty# kernel parameter -u
823 # highest feature index
75 # number of training documents
72 # number of support vectors plus 1
-0.13476015394100704 # threshold b, each following line is a SV (starting with alpha*y)
-2.9810784323548942 10:0.06637267768383026 22:0.013203499838709831 58:0.012115273624658585 128:0.027797849848866463 200:0.09377441555261612 207:0.050903864204883575 433:0.03334987163543701 434:0.04533297196030617 436:0.2036154568195343 439:0.050903864204883575 442:0.03039502538740635 445:0.040686994791030884 457:0.11888690292835236 458:0.09377441555261612 461:0.11888690292835236
-11.258947261092842 1:0.02431904524564743 43:0.01661006547510624 217:0.04356033354997635 242:0.028491947799921036 285:0.021154681220650673 388:0.04356033354997635 446:0.06181521713733673 447:0.06181521713733673 448:0.04356033354997635 449:0.06181521713733673 450:0.06181521713733673 451:0.1742413341999054 452:0.06181521713733673 453:0.03435908257961273 454:0.13743633031845093 455:0.06181521713733673 456:0.06181521713733673
-3.9042811945690348 22:0.0033746492117643356 58:0.0013762275921180844 207:0.05204156041145325 433:0.03409523889422417 436:0.208166241645813 439:0.05204156041145325 445:0.041596345603466034 457:0.1215440109372139 458:0.09587026387453079 459:0.09587026387453079 460:0.17247961461544037 461:0.1215440109372139
-6.009456071578286 20:0.0022894239518791437 22:0.006199886556714773 43:0.08514689654111862 69:0.0028644176200032234 108:0.01427240576595068 110:0.0374506376683712 137:0.031166212633252144 302:0.03651402145624161 444:0.015659894794225693 462:0.07921964675188065 463:0.044033076614141464 464:0.027110902592539787 465:0.10844361037015915 466:0.031166212633252144 467:0.055824995040893555 468:0.044033076614141464 469:0.044033076614141464 470:0.07921964675188065 471:0.17613230645656586 472:0.07921964675188065
-11.258947261092842 20:7.066564867272973E-4 34:0.0015832212520763278 36:0.03347234055399895 58:7.804183405824006E-4 69:8.841347298584878E-4 108:0.004405338317155838 118:0.008368085138499737 152:0.06892404705286026 178:0.017231011763215065 180:0.01359130535274744 228:0.011270463466644287 342:0.005897017195820808 466:0.009619802236557007 471:0.05436522141098976 473:0.024452034384012222 474:0.024452034384012222 475:0.024452034384012222 476:0.024452034384012222 477:0.09780813753604889 478:0.024452034384012222 479:0.06892404705286026 480:0.011270463466644287 481:0.09780813753604889 482:0.024452034384012222 483:0.024452034384012222 484:0.024452034384012222 485:0.024452034384012222 486:0.017231011763215065 487:0.024452034384012222 488:0.024452034384012222 489:0.024452034384012222 490:0.024452034384012222 491:0.011270463466644287 492:0.024452034384012222 493:0.024452034384012222 494:0.09780813753604889
16.13816066424281 1:0.014353918842971325 2:0.10284309834241867 3:0.036485422402620316 4:0.036485422402620316 5:0.014353918842971325 6:0.008799069561064243 7:0.007212324999272823 8:0.036485422402620316 9:0.020279886201024055 10:0.014353918842971325 11:0.008799069561064243 12:0.014353918842971325 13:0.036485422402620316 14:0.0574156753718853 15:0.036485422402620316 16:0.020279886201024055 17:0.036485422402620316 18:0.025710774585604668 19:0.06726762652397156 20:0.016870683059096336 21:0.005069971550256014 22:7.138553191907704E-4 23:0.014353918842971325 24:0.006573302671313286 25:0.020279886201024055 26:0.036485422402620316 27:0.025710774585604668 28:0.020279886201024055 29:0.036485422402620316 30:0.036485422402620316 31:0.036485422402620316 32:0.01681690663099289 33:0.08111954480409622 34:0.0023623593151569366 35:0.036485422402620316 36:0.012486204504966736
23.24803284372763 14:0.014915816485881805 20:0.004382775630801916 21:0.005268440116196871 22:7.417998858727515E-4 32:0.017475221306085587 37:0.03791367635130882 38:0.017475221306085587 39:0.03791367635130882 40:0.009143517352640629 41:0.02671724744141102 42:0.03791367635130882 43:0.010187598876655102 44:0.021073760464787483 45:0.03791367635130882 46:0.02732248418033123 47:0.03791367635130882 48:0.02671724744141102 49:0.02671724744141102 50:0.02671724744141102 51:0.03791367635130882 52:0.03791367635130882 53:0.03791367635130882 54:0.03791367635130882 55:0.03791367635130882 56:0.002282688394188881 57:0.021073760464787483 58:3.0251604039222E-4 59:0.03791367635130882 60:0.03791367635130882 61:0.03791367635130882 62:0.03791367635130882 63:0.021073760464787483 64:0.03791367635130882 65:0.02671724744141102 66:0.02671724744141102 67:0.03791367635130882 68:0.03791367635130882 69:0.0013708797050639987 70:0.021073760464787483
14.20031270777329 12:0.020122099667787552 23:0.020122099667787552 56:0.0030794483609497547 58:4.0810758946463466E-4 71:0.05114723742008209 72:0.05114723742008209 73:0.05114723742008209 74:0.05114723742008209 75:0.05114723742008209 76:0.05114723742008209 77:0.05114723742008209 78:0.017503837123513222 79:0.03604275360703468 80:0.05114723742008209 81:0.05114723742008209 82:0.02357484959065914 83:0.05114723742008209 84:0.05114723742008209 85:0.03604275360703468 86:0.028429441154003143 87:0.05114723742008209 88:0.03604275360703468 89:0.05114723742008209 90:0.11371776461601257
3.9659014242891195 20:0.002908713184297085 22:0.0019692389760166407 28:0.05594402551651001 69:0.003639242611825466 91:0.05594402551651001 92:0.10064855962991714 93:0.10064855962991714 94:0.04639106243848801 95:0.4025942385196686 96:0.158386692404747 97:0.07092565298080444
6.321532045499228 7:0.02056925743818283 24:0.018746791407465935 46:0.07498716562986374 58:8.302619680762291E-4 98:0.10405492782592773 99:0.0356101430952549 100:0.10405492782592773 101:0.10405492782592773 102:0.0356101430952549 103:0.05783740431070328 104:0.10405492782592773 105:0.07332607358694077 106:0.05783740431070328 107:0.10405492782592773 108:0.018746791407465935 109:0.07332607358694077 110:0.01229784358292818
-8.46273243729512 32:0.10623614490032196 34:0.014923550188541412 56:0.003469255520030856 58:4.5976723777130246E-4 69:0.0020834782626479864 88:0.04060516878962517 144:0.02655903622508049 242:0.02655903622508049 463:0.032028138637542725 534:0.04060516878962517 705:0.032028138637542725 708:0.04060516878962517 746:0.057621631771326065 747:0.057621631771326065 748:0.23048652708530426 749:0.057621631771326065 750:0.23048652708530426
-11.258947261092842 6:0.006490641739219427 10:0.01058818120509386 20:0.0031111689750105143 22:0.004739184398204088 27:0.018965575844049454 34:0.01568336971104145 58:0.001932703540660441 69:0.0038925453554838896 90:0.014959476888179779 102:0.009210459887981415 128:0.004434485454112291 138:0.014959476888179779 163:0.01058818120509386 246:0.012405007146298885 249:0.018965575844049454 263:0.014959476888179779 268:0.0072317966260015965 302:0.012405007146298885 375:0.018965575844049454 395:0.014959476888179779 464:0.009210459887981415 480:0.04962002858519554 507:0.014959476888179779 644:0.014959476888179779 723:0.026913505047559738 724:0.026913505047559738 725:0.026913505047559738 726:0.026913505047559738 727:0.026913505047559738 728:0.026913505047559738 729:0.10765402019023895 730:0.026913505047559738 731:0.026913505047559738 732:0.018965575844049454 733:0.026913505047559738 734:0.026913505047559738 735:0.026913505047559738 736:0.026913505047559738 737:0.026913505047559738 738:0.026913505047559738 739:0.026913505047559738 740:0.026913505047559738 741:0.026913505047559738 742:0.026913505047559738 743:0.026913505047559738 744:0.026913505047559738 745:0.026913505047559738
-11.258947261092842 1:0.02143031544983387 5:0.02143031544983387 22:0.004263127222657204 58:0.0017385609680786729 70:0.03027774952352047 78:0.01864182949066162 119:0.011863790452480316 143:0.07456731796264648 158:0.038386035710573196 162:0.016435766592621803 198:0.014637044630944729 224:0.06574306637048721 318:0.02510754205286503 433:0.01076795905828476 503:0.03027774952352047 536:0.02510754205286503 762:0.05447251722216606 763:0.05447251722216606 764:0.05447251722216606 765:0.05447251722216606 766:0.15354414284229279 767:0.05447251722216606 768:0.05447251722216606 769:0.05447251722216606 770:0.05447251722216606
-11.258947261092842 20:0.0017524781869724393 22:0.010678065940737724 25:0.03370586037635803 58:0.0019354044925421476 198:0.01629428192973137 228:0.027950270101428032 277:0.027950270101428032 278:0.042732179164886475 281:0.02385670132935047 539:0.060640010982751846 540:0.060640010982751846 541:0.042732179164886475 542:0.060640010982751846 543:0.060640010982751846 544:0.060640010982751846 545:0.042732179164886475 546:0.060640010982751846 547:0.060640010982751846 548:0.060640010982751846 549:0.060640010982751846 550:0.060640010982751846 551:0.060640010982751846 552:0.060640010982751846
-11.258947261092842 20:7.378641748800874E-4 21:0.0035478826612234116 22:4.995441995561123E-4 32:0.01176819484680891 36:0.008737640455365181 56:0.0015372121706604958 58:0.0018334880005568266 65:0.01799197681248188 106:0.014191530644893646 119:0.022242780774831772 134:0.008737640455365181 163:0.010044636204838753 211:0.010044636204838753 242:0.04707277938723564 250:0.010044636204838753 262:0.008737640455365181 263:0.014191530644893646 268:0.0068605514243245125 292:0.014191530644893646 319:0.07196790724992752 384:0.014191530644893646 502:0.014191530644893646 507:0.014191530644893646 705:0.056766122579574585 719:0.01799197681248188 732:0.01799197681248188 774:0.025531897321343422 775:0.025531897321343422 776:0.025531897321343422 777:0.10212758928537369 778:0.025531897321343422 779:0.025531897321343422 780:0.025531897321343422 781:0.025531897321343422 782:0.025531897321343422 783:0.025531897321343422 784:0.01799197681248188 785:0.10212758928537369 786:0.025531897321343422 787:0.025531897321343422 788:0.025531897321343422 789:0.025531897321343422 790:0.025531897321343422
10.562963616024582 22:0.0048317620530724525 56:0.0016520490171387792 58:0.005473494529724121 69:9.921460878103971E-4 139:0.012647333554923534 161:0.05058933421969414 195:0.02390441857278347 227:0.02743924781680107 228:0.012647333554923534 229:0.02743924781680107 230:0.02743924781680107 231:0.01933605968952179 232:0.02743924781680107 233:0.02743924781680107 234:0.01933605968952179 235:0.02743924781680107 236:0.02743924781680107 237:0.02743924781680107 238:0.02743924781680107 239:0.01933605968952179 240:0.10975699126720428 241:0.01933605968952179 242:0.05058933421969414 243:0.01933605968952179 244:0.01933605968952179 245:0.24695323407649994 246:0.012647333554923534 247:0.02743924781680107 248:0.01933605968952179 249:0.01933605968952179 250:0.010795016773045063 251:0.02743924781680107
4.91935095352833 36:0.054257337003946304 111:0.0881238654255867 114:0.1117231547832489 275:0.1117231547832489 307:0.15854312479496002 308:0.15854312479496002 309:0.15854312479496002 310:0.15854312479496002
6.515600265874076 58:0.009735002182424068 126:0.032693278044462204 169:0.1355629712343216 170:0.1355629712343216 171:0.09552935510873795 172:0.1355629712343216 173:0.062483858317136765 174:0.07535068690776825 175:0.04639296606183052 176:0.1355629712343216 177:0.1355629712343216
9.833228582273135 20:0.003511028131470084 22:0.002377014374360442 126:0.029299374669790268 184:0.05599738284945488 259:0.12149012088775635 260:0.12149012088775635 261:0.12149012088775635 262:0.16630758345127106 263:0.06752850115299225 264:0.06752850115299225 265:0.12149012088775635 266:0.12149012088775635
4.943461669761829 20:0.0024528736248612404 22:0.0016606291756033897 58:6.772270426154137E-4 69:0.003068917663767934 106:0.04717674478888512 164:0.03339127078652382 178:0.05981052294373512 179:0.05981052294373512 180:0.04717674478888512 181:0.03339127078652382 182:0.025609100237488747 183:0.05981052294373512 184:0.1564835011959076 185:0.05981052294373512 186:0.1564835011959076 187:0.05981052294373512 188:0.13356508314609528 189:0.05981052294373512
-9.299035946873206 56:0.008900380693376064 118:0.05059049651026726 173:0.06813725084066391 262:0.05059049651026726 293:0.05815793573856354 318:0.06813725084066391 559:0.10417263209819794 607:0.1478283852338791 608:0.1478283852338791 609:0.1478283852338791 610:0.1478283852338791
-11.258947261092842 11:0.005687495227903128 16:0.01310840342193842 20:6.815488450229168E-4 22:4.614179488271475E-4 33:0.01310840342193842 34:0.0015269691357389092 40:0.005687495227903128 56:0.022718222811818123 103:0.01310840342193842 110:0.025084905326366425 184:0.01087002083659172 196:0.01310840342193842 208:0.06647516787052155 224:0.00711567560210824 239:0.016618791967630386 262:0.07263688743114471 264:0.01310840342193842 277:0.01087002083659172 342:0.005687495227903128 360:0.016618791967630386 387:0.016618791967630386 405:0.016618791967630386 444:0.0186474546790123 466:0.0371120348572731 468:0.01310840342193842 471:0.01310840342193842 479:0.016618791967630386 486:0.016618791967630386 537:0.009278008714318275 612:0.01087002083659172 643:0.023583250120282173 644:0.01310840342193842 645:0.023583250120282173 646:0.023583250120282173 647:0.023583250120282173 648:0.023583250120282173 649:0.023583250120282173 650:0.023583250120282173 651:0.023583250120282173 652:0.023583250120282173 653:0.06647516787052155 654:0.023583250120282173 655:0.016618791967630386 656:0.023583250120282173 657:0.023583250120282173 658:0.023583250120282173 659:0.023583250120282173 660:0.023583250120282173 661:0.023583250120282173 662:0.023583250120282173
-7.226436064015905 22:0.0037024784833192825 137:0.07444795966148376 198:0.05084843933582306 241:0.1333513706922531 262:0.06476088613271713 453:0.10518355667591095 601:0.18923510611057281 602:0.18923510611057281 603:0.18923510611057281
-11.258947261092842 20:0.009970820508897305 22:0.001687595620751381 34:0.0013961888616904616 56:0.0012982797343283892 58:6.882243324071169E-4 69:7.796882418915629E-4 119:0.004696383606642485 161:0.03975614905357361 244:0.015195442363619804 246:0.009939037263393402 248:0.015195442363619804 318:0.009939037263393402 342:0.005200378596782684 357:0.01198570802807808 384:0.01198570802807808 513:0.01198570802807808 522:0.015195442363619804 592:0.01198570802807808 636:0.015195442363619804 644:0.01198570802807808 671:0.021563416346907616 672:0.021563416346907616 673:0.021563416346907616 674:0.08625366538763046 675:0.021563416346907616 676:0.021563416346907616 677:0.08625366538763046 678:0.08625366538763046 679:0.021563416346907616 680:0.021563416346907616 681:0.021563416346907616 682:0.021563416346907616 683:0.021563416346907616 684:0.021563416346907616 685:0.021563416346907616 686:0.021563416346907616 687:0.021563416346907616 688:0.021563416346907616 689:0.021563416346907616 690:0.08625366538763046 691:0.021563416346907616 692:0.021563416346907616 693:0.06078176945447922
-7.353029697131922 40:0.043116696178913116 182:0.0539436861872673 203:0.08240524679422379 442:0.03221012279391289 576:0.12598645687103271 578:0.12598645687103271 604:0.17878377437591553 605:0.17878377437591553 606:0.17878377437591553
10.181678134853673 43:0.0219200998544693 56:0.004911535885185003 57:0.04534326121211052 58:6.509072263725102E-4 82:0.037600476294755936 99:0.02791757509112358 119:0.017766939476132393 126:0.019673606380820274 175:0.02791757509112358 191:0.03209354728460312 293:0.03209354728460312 311:0.04534326121211052 312:0.08157678693532944 313:0.08157678693532944 314:0.08157678693532944 315:0.05748603865504265 316:0.15040190517902374 317:0.08157678693532944 318:0.037600476294755936 319:0.05748603865504265 320:0.05748603865504265
6.7978260099862595 56:0.007905354723334312 70:0.07298216968774796 252:0.13130177557468414 253:0.13130177557468414 254:0.13130177557468414 255:0.13130177557468414 256:0.13130177557468414 257:0.13130177557468414 258:0.13130177557468414
23.365746889932325 12:0.051231108605861664 40:0.007851271890103817 58:2.597616985440254E-4 91:0.01809542439877987 94:0.015005461871623993 112:0.02294132113456726 122:0.011141244322061539 128:0.005364084150642157 162:0.00982279609888792 165:0.01809542439877987 181:0.012807777151465416 186:0.015005461871623993 191:0.051231108605861664 268:0.008747794665396214 277:0.06002184748649597 285:0.044564977288246155 293:0.012807777151465416 320:0.02294132113456726 333:0.015005461871623993 350:0.02294132113456726 373:0.02294132113456726 374:0.032555367797613144 375:0.02294132113456726 376:0.01809542439877987 377:0.032555367797613144 378:0.032555367797613144 379:0.032555367797613144 380:0.02294132113456726 381:0.032555367797613144 382:0.032555367797613144 383:0.032555367797613144 384:0.01809542439877987 385:0.032555367797613144 386:0.032555367797613144 387:0.02294132113456726 388:0.02294132113456726 389:0.032555367797613144 390:0.032555367797613144 391:0.032555367797613144 392:0.032555367797613144
5.030837067828205 14:0.02175367996096611 20:0.0015979933086782694 56:0.003329142229631543 58:4.4119858648627996E-4 134:0.018923118710517883 146:0.038965243846178055 198:0.014857904985547066 211:0.02175367996096611 268:0.014857904985547066 289:0.12293846160173416 325:0.02175367996096611 414:0.0552944615483284 415:0.2211778461933136 416:0.0552944615483284 417:0.2211778461933136 418:0.0552944615483284 419:0.0552944615483284 420:0.0552944615483284
8.952474873081535 6:0.013970764353871346 7:0.011451403610408306 20:0.006696627009660006 22:0.001133427140302956 24:0.010436792857944965 58:4.622269480023533E-4 69:0.002094624564051628 90:0.03219948336482048 152:0.04082240164279938 153:0.02279050275683403 154:0.05792989954352379 155:0.05792989954352379 156:0.05792989954352379 157:0.05792989954352379 158:0.04082240164279938 159:0.05792989954352379 160:0.05792989954352379 161:0.026701122522354126 162:0.017478948459029198 163:0.02279050275683403 164:0.02279050275683403 165:0.03219948336482048 166:0.05792989954352379 167:0.23171959817409515 168:0.05792989954352379
-11.258947261092842 20:0.0010691292118281126 69:0.0013376432470977306 103:0.020562835037708282 165:0.020562835037708282 181:0.014554187655448914 302:0.017051540315151215 560:0.14797788858413696 561:0.14797788858413696 562:0.03699447214603424 563:0.03699447214603424 564:0.14797788858413696 565:0.03699447214603424 566:0.14797788858413696 567:0.03699447214603424 568:0.03699447214603424 569:0.03699447214603424 570:0.03699447214603424 571:0.03699447214603424 572:0.03699447214603424
-10.989719069404162 22:7.315145339816809E-4 34:0.0024207988753914833 43:0.010046344250440598 50:0.026346800848841667 58:2.9832153813913465E-4 69:0.001351871993392706 96:0.058836013078689575 108:0.026943648234009743 118:0.01279508601874113 119:0.008142881095409393 161:0.017232919111847878 195:0.008142881095409393 454:0.020781565457582474 511:0.020781565457582474 753:0.03738798946142197 754:0.03738798946142197 755:0.14955195784568787 756:0.03738798946142197 757:0.03738798946142197 758:0.03738798946142197 759:0.14955195784568787 760:0.14955195784568787 761:0.14955195784568787
-11.258947261092842 22:0.017536576837301254 34:0.0023213496897369623 36:0.01226944848895073 58:0.0011442644754424691 122:0.01226944848895073 174:0.01992783509194851 207:0.010817489586770535 315:0.025264443829655647 380:0.025264443829655647 445:0.008646320551633835 451:0.025264443829655647 541:0.025264443829655647 784:0.025264443829655647 791:0.03585204854607582 792:0.03585204854607582 793:0.03585204854607582 794:0.03585204854607582 795:0.03585204854607582 796:0.03585204854607582 797:0.03585204854607582 798:0.03585204854607582 799:0.03585204854607582 800:0.03585204854607582 801:0.03585204854607582 802:0.03585204854607582 803:0.03585204854607582 804:0.03585204854607582 805:0.03585204854607582 806:0.03585204854607582 807:0.03585204854607582 808:0.03585204854607582 809:0.03585204854607582 810:0.03585204854607582 811:0.03585204854607582 812:0.03585204854607582
-11.258947261092842 11:0.004892650526016951 12:0.007981378585100174 20:0.014657508581876755 21:0.0028191159944981337 22:0.0063509345054626465 34:0.0013135705376043916 56:0.001221455167979002 58:0.002589997136965394 69:0.0029342034831643105 124:0.031925514340400696 180:0.011276463977992535 182:0.0061212386935949326 198:0.0054513332433998585 199:0.057185061275959015 243:0.014296265318989754 346:0.009350903332233429 365:0.057185061275959015 448:0.014296265318989754 491:0.009350903332233429 525:0.011276463977992535 582:0.014296265318989754 628:0.057185061275959015 630:0.014296265318989754 701:0.020287418738007545 702:0.020287418738007545 703:0.08114967495203018 704:0.020287418738007545 705:0.04510585591197014 706:0.08114967495203018 707:0.020287418738007545 708:0.014296265318989754 709:0.020287418738007545 710:0.020287418738007545 711:0.020287418738007545 712:0.020287418738007545 713:0.020287418738007545 714:0.020287418738007545 715:0.020287418738007545 716:0.020287418738007545 717:0.020287418738007545 718:0.020287418738007545 719:0.014296265318989754 720:0.020287418738007545 721:0.020287418738007545 722:0.08114967495203018
-10.489970542956172 5:0.019307322800159454 20:0.0056731500662863255 34:0.0031775878742337227 40:0.011835547164082527 43:0.013187026605010033 69:0.001774493372067809 99:0.016795078292489052 137:0.019307322800159454 437:0.027278287336230278 523:0.1963048130273819 524:0.049076203256845474 525:0.027278287336230278 526:0.049076203256845474 527:0.049076203256845474 528:0.1963048130273819 529:0.049076203256845474 530:0.03458332270383835 531:0.049076203256845474 532:0.049076203256845474 533:0.049076203256845474 534:0.03458332270383835 535:0.049076203256845474
9.68592685262794 22:0.0011611257214099169 28:0.03298637270927429 34:0.015370040200650692 69:0.0021458128467202187 94:0.027353640645742416 164:0.023347454145550728 188:0.023347454145550728 198:0.015946460887789726 199:0.16728006303310394 200:0.03298637270927429 201:0.059345584362745285 202:0.059345584362745285 203:0.027353640645742416 204:0.041820015758275986 205:0.16728006303310394 206:0.041820015758275986 207:0.01790609583258629 208:0.041820015758275986 209:0.059345584362745285 210:0.059345584362745285 211:0.023347454145550728 212:0.059345584362745285
22.976003510435298 1:0.016351627185940742 6:0.010023681446909904 20:0.0012011665385216475 34:0.010764564387500286 58:0.0029847286641597748 91:0.02310234308242798 94:0.019157402217388153 96:0.016351627185940742 126:0.010023681446909904 153:0.016351627185940742 164:0.016351627185940742 192:0.02928907610476017 195:0.03620894253253937 203:0.019157402217388153 204:0.02928907610476017 228:0.019157402217388153 268:0.011168267577886581 269:0.02928907610476017 356:0.04156328737735748 357:0.09240937232971191 358:0.02928907610476017 359:0.04156328737735748 360:0.02928907610476017 361:0.02928907610476017 362:0.04156328737735748 363:0.02928907610476017 364:0.04156328737735748 365:0.02928907610476017 366:0.04156328737735748 367:0.02928907610476017 368:0.04156328737735748 369:0.04156328737735748 370:0.04156328737735748 371:0.04156328737735748 372:0.04156328737735748
7.80004397032241 22:0.008985389024019241 23:0.04516865313053131 34:0.0074338302947580814 58:0.0036643631756305695 121:0.11481167376041412 122:0.03929136320948601 123:0.11481167376041412 124:0.04516865313053131 125:0.11481167376041412 126:0.027688754722476006 127:0.11481167376041412 128:0.018917294219136238 129:0.11481167376041412 130:0.11481167376041412 131:0.11481167376041412
3.55870498855914 7:0.042698681354522705 24:0.038915518671274185 46:0.038915518671274185 58:0.0017234989209100604 110:0.025528473779559135 122:0.07392130047082901 147:0.1522139012813568 153:0.0849786177277565 288:0.12006174772977829 291:0.21600237488746643 292:0.12006174772977829 293:0.0849786177277565
15.998842847362386 10:0.009381426498293877 12:0.009381426498293877 14:0.03752570599317551 20:0.0027565830387175083 22:0.0018662447109818459 24:0.004296175669878721 56:0.012921442277729511 58:7.610798347741365E-4 69:8.622261811979115E-4 124:0.009381426498293877 150:0.05301806703209877 162:0.00719499122351408 196:0.013254516758024693 211:0.009381426498293877 287:0.016804033890366554 293:0.009381426498293877 323:0.016804033890366554 346:0.04396473988890648 357:0.013254516758024693 373:0.016804033890366554 376:0.013254516758024693 393:0.09538448601961136 394:0.02384612150490284 395:0.013254516758024693 396:0.02384612150490284 397:0.09538448601961136 398:0.02384612150490284 399:0.02384612150490284 400:0.09538448601961136 401:0.02384612150490284 402:0.02384612150490284 403:0.02384612150490284 404:0.02384612150490284 405:0.016804033890366554 406:0.02384612150490284 407:0.02384612150490284 408:0.02384612150490284 409:0.02384612150490284 410:0.02384612150490284 411:0.02384612150490284 412:0.02384612150490284 413:0.02384612150490284
-7.069610353085596 56:0.012118702754378319 110:0.005947188939899206 592:0.02796994149684906 612:0.09277525544166565 653:0.035460200160741806 655:0.035460200160741806 694:0.20128221809864044 695:0.05032055452466011 696:0.20128221809864044 697:0.05032055452466011 698:0.20128221809864044 699:0.05032055452466011 700:0.035460200160741806
-11.258947261092842 11:0.011070599779486656 16:0.025515254586935043 21:0.025515254586935043 22:0.0035925644915550947 58:0.0014650964876636863 143:0.015709590166807175 182:0.013850525952875614 224:0.013850525952875614 363:0.0323481559753418 395:0.025515254586935043 432:0.021158287301659584 433:0.03629691153764725 439:0.013850525952875614 444:0.009074227884411812 445:0.044282399117946625 536:0.08463314920663834 587:0.04590434208512306 588:0.04590434208512306 589:0.04590434208512306 590:0.04590434208512306 591:0.04590434208512306 592:0.025515254586935043 593:0.04590434208512306 594:0.04590434208512306 595:0.04590434208512306 596:0.04590434208512306 597:0.04590434208512306 598:0.04590434208512306 599:0.04590434208512306 600:0.04590434208512306
-11.258947261092842 5:0.021496467292308807 21:0.007592802867293358 22:0.00106907170265913 40:0.013177510350942612 58:4.359818994998932E-4 143:0.018699374049901962 203:0.02518504485487938 250:0.021496467292308807 285:0.018699374049901962 297:0.038504526019096375 342:0.013177510350942612 346:0.02518504485487938 367:0.038504526019096375 442:0.009844196029007435 453:0.03037121146917343 573:0.05464066565036774 574:0.05464066565036774 575:0.05464066565036774 576:0.038504526019096375 577:0.05464066565036774 578:0.038504526019096375 579:0.05464066565036774 580:0.05464066565036774 581:0.05464066565036774 582:0.038504526019096375 583:0.05464066565036774 584:0.05464066565036774 585:0.05464066565036774 586:0.05464066565036774
-8.405022873103889 6:0.015614477917551994 20:0.029938042163848877 58:5.166096962057054E-4 110:0.0076520247384905815 162:0.01953541301190853 435:0.03598787635564804 444:0.05119481682777405 466:0.10188756138086319 537:0.025471890345215797 663:0.25898227095603943 664:0.06474556773900986 665:0.06474556773900986 666:0.06474556773900986 667:0.06474556773900986 668:0.06474556773900986 669:0.06474556773900986 670:0.06474556773900986
-11.258947261092842 5:0.011747640557587147 20:0.007766679860651493 22:5.842387909069657E-4 34:0.0019334197277203202 58:2.3826048709452152E-4 69:0.0010796997230499983 138:0.01659761555492878 198:0.008023714646697044 341:0.08416961133480072 454:0.01659761555492878 480:0.01376341748982668 545:0.02104240283370018 616:0.029860669746994972 617:0.029860669746994972 618:0.029860669746994972 619:0.029860669746994972 620:0.029860669746994972 621:0.029860669746994972 622:0.029860669746994972 623:0.029860669746994972 624:0.029860669746994972 625:0.029860669746994972 626:0.029860669746994972 627:0.029860669746994972 628:0.08416961133480072 629:0.029860669746994972 630:0.08416961133480072 631:0.11944267898797989 632:0.11944267898797989 633:0.02104240283370018
5.3490133936293045 46:0.027098681777715683 58:0.004800609312951565 99:0.20589934289455414 108:0.027098681777715683 110:0.01777666062116623 141:0.06932831555604935 207:0.045383334159851074 222:0.1059936061501503 223:0.15041248500347137 224:0.045383334159851074 225:0.15041248500347137 226:0.15041248500347137
6.399718545325339 11:0.0367354117333889 20:0.017608437687158585 34:0.009862661361694336 56:0.009171032346785069 58:0.0012154021533206105 108:0.027443012222647667 124:0.059926461428403854 126:0.0367354117333889 289:0.0846669003367424 329:0.10734042525291443 421:0.15232370793819427 422:0.15232370793819427 423:0.15232370793819427 424:0.15232370793819427
7.013843163972672 9:0.030930528417229652 19:0.10259541124105453 20:0.006432718597352505 22:0.0010887597454711795 23:0.021892346441745758 38:0.025648852810263634 58:0.0017760437913239002 69:0.0020120772533118725 110:0.006576692219823599 124:0.021892346441745758 195:0.012119569815695286 197:0.030930528417229652 213:0.055646929889917374 214:0.2225877195596695 215:0.039213623851537704 216:0.055646929889917374 217:0.039213623851537704 218:0.055646929889917374 219:0.055646929889917374 220:0.055646929889917374 221:0.15685449540615082
6.3245409961236625 22:0.0012884323950856924 34:0.017055222764611244 48:0.04640519246459007 58:5.254401476122439E-4 162:0.07947733253240585 175:0.02253626100718975 188:0.025907285511493683 222:0.04640519246459007 268:0.01769484393298626 325:0.10362914204597473 425:0.06585227698087692 426:0.06585227698087692 427:0.06585227698087692 428:0.2634091079235077 429:0.06585227698087692 430:0.04640519246459007 431:0.06585227698087692
18.24601659070112 2:0.020906368270516396 6:0.007154844701290131 7:0.005864604841917753 18:0.08362547308206558 20:8.573855157010257E-4 21:0.004122579004615545 22:0.005224156193435192 24:0.021379970014095306 34:0.007683682721108198 36:0.010152988135814667 38:0.013674440793693066 44:0.01649031601846218 56:0.0017862141830846667 58:0.00852192658931017 63:0.01649031601846218 99:0.010152988135814667 139:0.013674440793693066 144:0.013674440793693066 173:0.013674440793693066 197:0.01649031601846218 246:0.013674440793693066 268:0.00797184370458126 316:0.013674440793693066 325:0.011671694926917553 333:0.05469776317477226 335:0.029667627066373825 336:0.029667627066373825 337:0.1186705082654953 338:0.029667627066373825 339:0.029667627066373825 340:0.029667627066373825 341:0.08362547308206558 342:0.06439360231161118 343:0.029667627066373825 344:0.029667627066373825 345:0.029667627066373825 346:0.013674440793693066 347:0.029667627066373825 348:0.029667627066373825 349:0.029667627066373825
-7.358054338328934 20:0.0295540913939476 58:9.06638684682548E-4 108:0.020471328869462013 110:0.12086222320795059 195:0.024747295305132866 342:0.2466275840997696 442:0.020471328869462013 464:0.03888596221804619 465:0.03888596221804619 514:0.05237312614917755 611:0.08007141947746277 612:0.05237312614917755 613:0.08007141947746277 614:0.08007141947746277 615:0.11362705379724503
-4.493911735990754 19:0.080304354429245 22:0.0034088129177689552 58:0.005560640245676041 69:0.006299640517681837 110:0.02059105783700943 281:0.06854305416345596 464:0.2384972721338272 465:0.0596243180334568 466:0.06854305416345596 514:0.080304354429245 614:0.12277448177337646 751:0.12277448177337646 752:0.12277448177337646
-11.258947261092842 6:0.005882570520043373 20:0.002819701097905636 22:0.011931102722883224 34:0.0015793426427990198 56:0.0014685896458104253 58:0.007006558123975992 69:8.819687063805759E-4 78:0.008347584865987301 111:0.013558007776737213 119:0.005312460940331221 128:0.004019043408334255 133:0.04497141018509865 163:0.009596235118806362 182:0.007359736133366823 195:0.005312460940331221 200:0.013558007776737213 207:0.007359736133366823 221:0.017188798636198044 250:0.009596235118806362 334:0.017188798636198044 432:0.04497141018509865 433:0.019287044182419777 434:0.026217162609100342 436:0.029438944533467293 439:0.007359736133366823 440:0.05423203110694885 442:0.004394546151161194 443:0.011242852546274662 444:0.004821761045604944 445:0.005882570520043373 458:0.013558007776737213 463:0.013558007776737213 495:0.024392131716012955 496:0.024392131716012955 497:0.024392131716012955 498:0.024392131716012955 499:0.024392131716012955 500:0.09756852686405182 501:0.024392131716012955 502:0.013558007776737213 503:0.013558007776737213 504:0.09756852686405182 505:0.024392131716012955 506:0.024392131716012955 507:0.013558007776737213 508:0.024392131716012955 509:0.09756852686405182 510:0.017188798636198044
-6.772080714917714 56:0.005118498578667641 69:0.0030739393550902605 142:0.059908390045166016 285:0.029093965888023376 333:0.03918488696217537 358:0.059908390045166016 376:0.047253936529159546 430:0.059908390045166016 525:0.047253936529159546 530:0.23963356018066406 557:0.08501427620649338 558:0.08501427620649338 559:0.23963356018066406
-9.763692421232713 34:0.00149063253775239 56:0.0055444021709263325 58:0.0016532517038285732 69:8.324294467456639E-4 78:0.007878709584474564 108:0.004147708881646395 110:0.0027208856772631407 119:0.005014065187424421 128:0.0037932980339974165 133:0.010611352510750294 143:0.007878709584474564 163:0.009057223796844482 198:0.006186142563819885 215:0.016223322600126266 224:0.006946347653865814 282:0.012796469032764435 294:0.016223322600126266 342:0.0055521526373922825 361:0.06489329040050507 433:0.04095834866166115 434:0.05567528307437897 442:0.004147708881646395 443:0.010611352510750294 444:0.01820371113717556 445:0.049969371408224106 459:0.012796469032764435 502:0.012796469032764435 503:0.012796469032764435 510:0.016223322600126266 536:0.010611352510750294 611:0.016223322600126266 612:0.010611352510750294 633:0.016223322600126266 634:0.02302205003798008 635:0.02302205003798008 636:0.016223322600126266 637:0.02302205003798008 638:0.02302205003798008 639:0.09208820015192032 640:0.02302205003798008 641:0.09208820015192032 642:0.20719845592975616
14.783462197184601 19:0.016580089926719666 20:0.009356123395264149 21:0.004998575430363417 22:0.002815210958942771 34:0.0023290924727916718 40:0.008675159886479378 56:0.002165762474760413 58:2.870202879421413E-4 79:0.025348711758852005 102:0.012310372665524483 128:0.005926974583417177 173:0.016580089926719666 206:0.025348711758852005 211:0.014151785522699356 224:0.04341427981853485 264:0.019994301721453667 267:0.03597163036465645 268:0.009665761142969131 269:0.025348711758852005 270:0.03597163036465645 271:0.03597163036465645 272:0.03597163036465645 273:0.03597163036465645 274:0.03597163036465645 275:0.10139484703540802 276:0.03597163036465645 277:0.016580089926719666 278:0.025348711758852005 279:0.03597163036465645 280:0.1438865214586258 281:0.014151785522699356 282:0.019994301721453667 283:0.03597163036465645 284:0.03597163036465645 285:0.012310372665524483 286:0.03597163036465645 287:0.025348711758852005
8.908979504520559 7:0.04645943641662598 11:0.014170181006193161 22:0.001149605493992567 24:0.04234306141734123 40:0.014170181006193161 41:0.041405096650123596 46:0.04234306141734123 58:0.0018752987962216139 69:0.0021245230454951525 85:0.041405096650123596 86:0.03265909478068352 110:0.02777693420648575 135:0.041405096650123596 141:0.027082251384854317 142:0.041405096650123596 143:0.08043203502893448 144:0.027082251384854317 145:0.05875678360462189 146:0.16562038660049438 147:0.041405096650123596 148:0.05875678360462189 149:0.05875678360462189 150:0.03265909478068352 151:0.05875678360462189
3.0402831939776895 7:0.10069262981414795 21:0.017695706337690353 24:0.09177111834287643 46:0.09177111834287643 69:0.004604528658092022 110:0.015050400979816914 116:0.08973823487758636 132:0.08973823487758636 133:0.058695998042821884 134:0.043580561876297 135:0.08973823487758636 136:0.12734495103359222 137:0.050099439918994904 138:0.07078282535076141 139:0.058695998042821884
8.858083725224956 7:0.013644825667142868 11:0.016646750271320343 14:0.027155837044119835 20:0.001994827762246132 21:0.009591758251190186 22:0.001350525883026421 24:0.01243587490171194 46:0.04974349960684776 102:0.02362235262989998 122:0.02362235262989998 128:0.011373260989785194 132:0.04864159971475601 137:0.027155837044119835 150:0.03836703300476074 174:0.03836703300476074 205:0.04864159971475601 285:0.02362235262989998 298:0.06902589648962021 299:0.06902589648962021 300:0.06902589648962021 301:0.06902589648962021 302:0.03181550279259682 303:0.06902589648962021 304:0.06902589648962021 305:0.06902589648962021 306:0.06902589648962021
4.639751408919447 6:0.021745963022112846 20:0.0026058810763061047 38:0.04156119376420975 46:0.016245217993855476 58:0.0028778871055692434 82:0.04156119376420975 102:0.030858324840664864 111:0.05011957883834839 112:0.25416576862335205 113:0.09016983211040497 114:0.06354144215583801 115:0.09016983211040497 116:0.06354144215583801 117:0.09016983211040497 118:0.030858324840664864 119:0.01963845267891884 120:0.09016983211040497
-11.258947261092842 21:0.007095304783433676 58:4.0741535485722125E-4 108:0.009199181571602821 122:0.01747414655983448 143:0.01747414655983448 182:0.015406266786158085 224:0.06162506714463234 433:0.04037391394376755 434:0.05488085001707077 443:0.0941394492983818 445:0.012314089573919773 693:0.035981617867946625 700:0.035981617867946625 766:0.035981617867946625 813:0.05106048285961151 814:0.05106048285961151 815:0.05106048285961151 816:0.05106048285961151 817:0.05106048285961151 818:0.05106048285961151 819:0.05106048285961151 820:0.05106048285961151 821:0.05106048285961151 822:0.05106048285961151 823:0.05106048285961151
-7.878974762920363 10:0.06477134674787521 20:0.019032029435038567 33:0.09151197224855423 44:0.09151197224855423 96:0.06477134674787521 128:0.027127185836434364 162:0.04967573285102844 433:0.13018102943897247 434:0.04423924535512924 436:0.04967573285102844 442:0.02966170199215412 444:0.03254525735974312 536:0.07588545233011246 537:0.06477134674787521 538:0.16463863849639893
-11.258947261092842 20:0.0011210594093427062 21:0.0053904056549072266 22:7.589726592414081E-4 34:0.0025116659235209227 43:0.010423443280160427 56:0.021019797772169113 58:0.004952309187501669 69:0.005610463209450245 110:0.07335362583398819 118:0.013275361619889736 119:0.008448532782495022 153:0.015261120162904263 181:0.015261120162904263 262:0.013275361619889736 281:0.015261120162904263 342:0.009355191141366959 442:0.006988750770688057 444:0.030672643333673477 464:0.013275361619889736 465:0.1194782555103302 469:0.08624649047851562 480:0.017879774793982506 491:0.017879774793982506 511:0.021561622619628906 512:0.0273357555270195 513:0.021561622619628906 514:0.07151909917593002 516:0.0273357555270195 517:0.0273357555270195 518:0.0273357555270195 519:0.0273357555270195 521:0.0273357555270195 537:0.015261120162904263 613:0.0273357555270195 751:0.0273357555270195 752:0.0273357555270195 771:0.03879138454794884 772:0.03879138454794884 773:0.03879138454794884
3.7069791242721526 25:0.04576529189944267 82:0.15180176496505737 128:0.013566351495683193 175:0.1127096638083458 188:0.03239225596189499 350:0.23208436369895935 351:0.08233606070280075 352:0.08233606070280075 353:0.08233606070280075 354:0.08233606070280075 355:0.08233606070280075
3.5194043032022195 7:0.09153871983289719 21:0.0160870011895895 22:0.002265060320496559 24:0.020857064053416252 46:0.08342825621366501 49:0.08158019185066223 58:0.0036948889028280973 69:0.004185933619737625 86:0.064348004758358 102:0.03961867839097977 105:0.08158019185066223 108:0.020857064053416252 109:0.08158019185066223 110:0.013682177290320396 294:0.08158019185066223 295:0.11576810479164124 296:0.11576810479164124 297:0.08158019185066223
0.5530598989749114 46:0.09608886390924454 57:0.2964523732662201 63:0.07411309331655502 140:0.5333456993103027
-4.042341371827197 20:0.010697660967707634 22:0.007242463529109955 56:0.00557168060913682 58:0.0029535747598856688 69:0.003346100216731429 96:0.036407146602869034 128:0.015247845090925694 133:0.04265424236655235 195:0.020154939964413643 433:0.01829327456653118 434:0.22379684448242188 436:0.027922095730900764 438:0.05143771320581436 439:0.027922095730900764 442:0.016672464087605476 459:0.05143771320581436 465:0.031669892370700836 537:0.036407146602869034 553:0.09254127740859985 554:0.09254127740859985 555:0.09254127740859985 556:0.09254127740859985
3.8943229209138623 6:0.031453587114810944 7:0.10312613099813461 21:0.01812336966395378 24:0.02349725179374218 46:0.09398900717496872 69:0.004715809598565102 110:0.06165653467178345 134:0.04463380202651024 141:0.0601145438849926 207:0.03935186564922333 231:0.09190700203180313 288:0.07249347865581512 292:0.07249347865581512 332:0.13042259216308594 333:0.0601145438849926 334:0.09190700203180313
3.86049742667937 1:0.06538033485412598 11:0.010019670240581036 22:8.128808112815022E-4 23:0.016345083713531494 56:0.002501420909538865 58:0.0029835342429578304 66:0.02927735447883606 69:0.0015022405423223972 108:0.007485147099941969 126:0.010019670240581036 139:0.01914973556995392 164:0.016345083713531494 171:0.11710941791534424 179:0.02927735447883606 181:0.016345083713531494 182:0.0125356987118721 183:0.02927735447883606 184:0.07659894227981567 185:0.02927735447883606 186:0.07659894227981567 187:0.02927735447883606 188:0.14710575342178345 189:0.02927735447883606 190:0.04154665395617485 191:0.016345083713531494 192:0.02927735447883606 193:0.04154665395617485 194:0.04154665395617485 195:0.009048613719642162 196:0.023093096911907196 197:0.023093096911907196
-0.3934130183980806 11:0.010201970115303993 20:0.0012225313112139702 21:0.00587831437587738 34:0.0027390075847506523 43:0.01136691402643919 56:0.0025469320826232433 58:0.008438381366431713 69:0.001529572531580925 110:0.07999317348003387 118:0.014476971700787544 119:0.00921324547380209 153:0.01664246991276741 250:0.01664246991276741 281:0.01664246991276741 342:0.04080788046121597 442:0.007621332537382841 444:0.008362239226698875 464:0.05790788680315018 465:0.2316315472126007 467:0.02981003187596798 468:0.02351325750350952 469:0.02351325750350952 491:0.019498148933053017 511:0.02351325750350952 512:0.02981003187596798 513:0.02351325750350952 514:0.019498148933053017 515:0.042302560061216354 516:0.02981003187596798 517:0.02981003187596798 518:0.02981003187596798 519:0.02981003187596798 520:0.042302560061216354 521:0.02981003187596798 522:0.02981003187596798
0.20035817295719427 9:0.03701650723814964 20:0.0076984381303191185 34:0.004311971832066774 40:0.016060782596468925 99:0.02279084175825119 126:0.016060782596468925 134:0.09116336703300476 175:0.02279084175825119 186:0.2762603461742401 191:0.026199946179986 311:0.03701650723814964 316:0.1227823793888092 321:0.06659617274999619 322:0.046929407864809036 323:0.046929407864809036 324:0.06659617274999619 325:0.026199946179986 326:0.06659617274999619
