SVM-light Version V6.01
0 # kernel type
3 # kernel parameter -d
1.0 # kernel parameter -g
1.0 # kernel parameter -s
0.0 # kernel parameter -r
empty# kernel parameter -u
3708 # highest feature index
1114 # number of training documents
590 # number of support vectors plus 1
0.802044558478162 # threshold b, each following line is a SV (starting with alpha*y)
-1.3610139904066652 35:8.660433813929558E-4 47:0.02008860372006893 57:0.03178036957979202 102:0.11794812232255936 146:0.08020026236772537 178:0.03911629319190979 228:0.06102633476257324 274:0.044508758932352066 630:0.05091386288404465 983:0.019802914932370186 1455:0.04008547589182854 1737:0.07355499267578125 1896:0.1727743148803711 2197:0.15132488310337067 2259:0.09600876271724701
-5.002267153731976 7:0.011661307886242867 17:0.04726463928818703 18:0.23848219215869904 19:0.02245544269680977 20:0.15333855152130127 21:0.031804077327251434 22:0.00735511677339673 23:0.07340960949659348 24:0.04726463928818703 25:0.05962054803967476 26:0.10740900784730911 27:0.07340960949659348 28:8.968129986897111E-4 29:0.07340960949659348 30:0.052218835800886154
-1.7977758272785898 22:0.002068199450150132 31:0.04903073236346245 32:0.016587408259510994 33:0.08256875723600388 34:0.06705927103757858 35:3.3613931736908853E-4 36:0.1961229294538498 37:0.0264553502202034 38:0.05873405933380127 39:0.05873405933380127 40:0.05873405933380127 41:0.08256875723600388 42:0.08256875723600388 43:0.022761212661862373 44:0.03577220067381859 45:0.016370587050914764 46:0.08256875723600388 47:0.007797033991664648 48:0.05316174030303955
-1.866003586631999 22:0.013933827169239521 28:0.0016989584546536207 49:0.0356074720621109 50:0.13907009363174438 51:0.029505612328648567 52:0.08258218318223953 53:0.13907009363174438 54:0.07262267172336578 55:0.11294755339622498 56:0.046832866966724396 57:0.020775744691491127 58:0.0049884808249771595 59:0.041612409055233 60:0.0214147437363863 61:0.05412212386727333 62:0.08258218318223953 63:0.09892544895410538 64:0.001707519288174808
-9.446153401519595 15:0.0069217681884765625 65:0.02971293032169342 66:0.034825555980205536 67:0.13327689468860626 68:0.052516330033540726 69:0.29531130194664 70:0.05996021255850792 71:0.018576575443148613 72:0.0365489162504673 73:0.02623905800282955 74:0.04753391072154045 75:0.07382782548666 76:0.038553036749362946 77:0.1461956650018692
34.72883406310513 45:0.01360157411545515 62:0.04073740169405937 372:0.01855264976620674 422:0.025093920528888702 524:0.010351678356528282 719:0.04073740169405937 793:0.014157305471599102 835:0.03396214172244072 1343:0.05571649223566055 1461:0.04879945516586304 1813:0.03803607076406479 2763:0.05571649223566055 3247:0.05571649223566055 3369:0.06860261410474777 3370:0.06860261410474777 3371:0.06860261410474777 3372:0.06860261410474777 3373:0.06860261410474777 3374:0.06860261410474777 3375:0.06860261410474777 3376:0.06860261410474777
18.221045805701454 7:0.00713353743776679 15:0.004210246726870537 35:1.8281597294844687E-4 58:0.0016108129639178514 64:5.513691576197743E-4 113:0.01807323843240738 257:0.06570500135421753 274:0.00939550157636404 283:0.00994851067662239 340:0.01945541426539421 341:0.017476387321949005 504:0.04951653257012367 690:0.09959224611520767 716:0.008788677863776684 930:0.01807323843240738 1043:0.02891305834054947 1244:0.02118305303156376 1748:0.02666632831096649 1830:0.02223130688071251 1888:0.024898061528801918 1936:0.0319436751306057 3046:0.02891305834054947 3377:0.04490664228796959 3378:0.17962656915187836 3379:0.17962656915187836 3380:0.03647150471806526 3381:0.04490664228796959
18.769416690979416 22:0.001105019124224782 28:0.0021557684522122145 35:0.001616364112123847 58:0.001582441502250731 81:0.05168367177248001 94:0.01567910611629486 130:0.010912872850894928 178:0.00811175350099802 276:0.005340545903891325 341:0.017168574035167694 466:0.013200252316892147 504:0.04864438995718956 590:0.12552417814731598 690:0.09783811122179031 720:0.013200252316892147 728:0.17201469838619232 879:0.035829126834869385 983:0.004106635693460703 1070:0.035829126834869385 1423:0.02619664929807186 1426:0.028403809294104576 1541:0.031381044536828995 1844:0.020809954032301903 2342:0.12552417814731598 2756:0.02619664929807186 3353:0.035829126834869385 3382:0.04411569610238075
7.914417780054089 107:0.06963740289211273 108:0.07693666964769363 260:0.013093375600874424 305:0.03040691651403904 689:0.053544335067272186 817:0.02819032408297062 878:0.024320783093571663 983:0.010068207047879696 1616:0.06963740289211273 3383:0.10815811157226562 3384:0.05648037791252136 3385:0.10815811157226562 3386:0.3513679802417755
13.018823550288957 7:0.00990353710949421 28:0.006854684557765722 32:0.012524452991783619 35:2.538046392146498E-4 47:0.005887211766093969 66:0.029408572241663933 137:0.02240859903395176 174:0.10804032534360886 178:0.011463508941233158 182:0.08397943526506424 320:0.028136543929576874 448:0.0443476140499115 498:0.05063362792134285 523:0.13826456665992737 562:0.09401468187570572 872:0.02280467003583908 982:0.01132659986615181 1309:0.011463508941233158 1388:0.0443476140499115 2440:0.0443476140499115 3384:0.03255625441670418 3387:0.06234418600797653 3388:0.06234418600797653 3389:0.06234418600797653
-2.9717231593141165 28:6.475647678598762E-4 35:2.157932030968368E-4 64:0.0026033110916614532 302:0.01621447689831257 306:0.019983608275651932 411:0.03412853553891182 504:0.36530351638793945 716:0.010374021716415882 1200:0.018839195370674133 1309:0.00974665954709053 1525:0.15082331001758575 1607:0.019983608275651932 1608:0.043050408363342285 1609:0.05300711840391159 1610:0.043050408363342285 1611:0.21202847361564636
-9.446153401519595 22:0.0012673181481659412 28:0.0024723955430090427 35:2.059740509139374E-4 49:0.012954371981322765 58:0.001814861549064517 64:6.212134030647576E-4 227:0.006449556443840265 251:0.0075584338046610355 302:0.015476676635444164 721:0.023866401985287666 728:0.19727922976016998 983:0.0047097946517169476 1099:0.019690196961164474 1309:0.00930316187441349 1625:0.06644666939973831 1629:0.14396046102046967 1630:0.012308611534535885 1953:0.026420889422297478 2049:0.035990115255117416 2145:0.04109150543808937 2675:0.035990115255117416 3033:0.035990115255117416 3119:0.050595156848430634 3120:0.050595156848430634 3121:0.03257559984922409 3122:0.16436602175235748
-4.814093405602563 35:3.8757824222557247E-4 58:0.0034149971324950457 79:0.01887575350701809 165:0.024814000353217125 385:0.02979329600930214 474:0.0429665632545948 559:0.03970663994550705 560:0.04124636948108673 561:0.05653383582830429 562:0.14356729388237 563:0.19886313378810883 564:0.07732125371694565 565:0.07732125371694565 566:0.24518802762031555
-6.072227352129685 22:0.00723773380741477 35:0.0011763308430090547 174:0.125186026096344 1035:0.13630253076553345 1100:0.08645996451377869 1133:0.16020677983760834 1291:0.13630253076553345 1300:0.1124519556760788 2829:0.23467618227005005
-3.823535474041271 247:0.039892155677080154 471:0.039892155677080154 542:0.037860117852687836 590:0.1393807977437973 617:0.08843077719211578 648:0.07167314738035202 945:0.1261572241783142 1020:0.1086384654045105 1021:0.1261572241783142 1022:0.15913720428943634 1023:0.06278073787689209
14.633428451562029 22:0.0015224781818687916 35:2.474445791449398E-4 37:0.019474761560559273 66:0.02867162972688675 67:0.10972590744495392 70:0.049364808946847916 71:0.015293959528207779 72:0.030090458691120148 77:0.12036183476448059 227:0.007748101372271776 260:0.007358120754361153 308:0.01289571076631546 542:0.011744314804673195 859:0.008731094188988209 1142:0.049364808946847916 1309:0.011176247149705887 1550:0.039134323596954346 1691:0.10140088200569153 3111:0.04323631525039673 3287:0.17294526100158691 3543:0.049364808946847916 3551:0.049364808946847916 3553:0.060781918466091156
19.621958052298385 22:0.007112596649676561 35:0.002600983250886202 49:0.01817602477967739 58:0.022917568683624268 66:0.03348647803068161 67:0.1281522661447525 71:0.017862286418676376 73:0.02523013949394226 77:0.035143572837114334 154:0.032038066536188126 229:0.02596685290336609 245:0.0566163994371891 471:0.014452745206654072 619:0.04570618271827698 706:0.007854051887989044 772:0.02036445029079914 810:0.023307504132390022 3096:0.05049702152609825 3384:0.037070631980895996 3470:0.05049702152609825 3496:0.05049702152609825 3547:0.05765468254685402 3548:0.05765468254685402 3550:0.05049702152609825 3551:0.05765468254685402 3552:0.07098907232284546
14.730518684143588 26:0.018589653074741364 28:6.208582199178636E-4 35:8.275742875412107E-4 52:0.030178390443325043 58:0.0018229635898023844 64:0.002495946828275919 67:0.09174411743879318 77:0.025159258395433426 110:0.017571931704878807 196:0.02653883956372738 305:0.014287515543401241 458:0.03737877309322357 522:0.03272102400660515 682:0.012363560497760773 1319:0.00744357705116272 1369:0.030178390443325043 2499:0.03615078330039978 3139:0.04127494618296623 3207:0.03615078330039978 3470:0.14460313320159912 3471:0.050821028649806976 3472:0.03615078330039978 3473:0.2032841145992279 3474:0.050821028649806976 3475:0.050821028649806976
25.15098029264985 22:0.001435325713828206 24:0.03689412772655487 35:2.33279904932715E-4 67:0.025861194357275963 77:0.1134718656539917 114:0.014418474398553371 118:0.09224846959114075 171:0.031770844012498856 228:0.016438227146863937 524:0.008646570146083832 559:0.023899076506495476 662:0.021602971479296684 668:0.0814632847905159 706:0.006339807063341141 793:0.01182534173130989 1200:0.020365821197628975 1239:0.046538978815078735 1319:0.008392899297177792 1329:0.046538978815078735 1596:0.020960498601198196 3111:0.040761303156614304 3244:0.040761303156614304 3287:0.040761303156614304 3384:0.029923491179943085 3579:0.046538978815078735 3591:0.057302527129650116 3592:0.057302527129650116 3593:0.057302527129650116
12.162350230599877 7:0.007448268122971058 35:0.0017179361311718822 64:5.756954778917134E-4 77:0.09284859150648117 223:0.016212016344070435 706:0.0051875608041882515 734:0.038080621510744095 872:0.01715097203850746 907:0.03335302323102951 1013:0.08125513792037964 1610:0.038080621510744095 3541:0.18755166232585907 3542:0.04688791558146477 3543:0.15232248604297638 3544:0.18755166232585907 3545:0.04688791558146477 3546:0.04688791558146477
-9.446153401519595 22:0.0018393477657809854 35:0.0011957783717662096 67:0.033140718936920166 77:0.14541244506835938 135:0.03463898226618767 223:0.025390030816197395 227:0.009360694326460361 386:0.033140718936920166 398:0.04727925360202789 662:0.02768387459218502 773:0.02197233773767948 883:0.05963898450136185 893:0.05223498120903969 1030:0.05223498120903969 1131:0.029553746804594994 1312:0.010250967927277088 1691:0.030626296997070312 2027:0.05963898450136185 2103:0.05223498120903969 3284:0.0734323039650917 3285:0.0734323039650917 3286:0.0734323039650917 3287:0.05223498120903969
-2.8253735325067475 57:0.019066767767071724 118:0.20546582341194153 178:0.023467985913157463 487:0.03518307954072952 767:0.23040345311164856 1048:0.027863770723342896 1372:0.04089328274130821 1645:0.012227578088641167 1823:0.029591187834739685 1857:0.04089328274130821 2484:0.10365667939186096 2594:0.10365667939186096 3262:0.12763042747974396
-4.624461414804048 28:0.002031274838373065 35:6.768979947082698E-4 107:0.10705405473709106 108:0.11827526986598969 109:0.10705405473709106 110:0.057490456849336624 111:0.027875307947397232 112:0.08682767301797867 113:0.06691832840442657 114:0.04183745011687279 115:0.0987352654337883 116:0.16627220809459686 117:0.052033424377441406 118:0.06691832840442657
-1.6243055697533733 22:0.002793131163343787 28:0.0013622714905068278 71:0.11223290115594864 93:0.03661161661148071 130:0.027584215626120567 182:0.1502075046300888 186:0.07932113856077194 214:0.021011915057897568 341:0.04339660331606865 503:0.044878676533699036 799:0.05823085084557533 1007:0.06621666252613068 1064:0.07179564237594604 1644:0.035482749342918396 1823:0.025853708386421204 3295:0.11151020973920822 3296:0.11151020973920822
-2.029910032418312 28:0.006627771072089672 35:5.521563580259681E-4 173:0.03667953237891197 182:0.045674677938222885 360:0.02325192652642727 361:0.028377091512084007 817:0.14140327274799347 1219:0.02689100243151188 1288:0.05113264173269272 1308:0.056567348539829254 1415:0.07519923895597458 1688:0.11350836604833603 1691:0.22626939415931702 1694:0.08732566982507706 1711:0.08053990453481674
41.081006584809955 7:0.009309927001595497 15:0.005494761746376753 20:0.12241943925619125 28:7.159800734370947E-4 35:2.3859177599661052E-4 45:0.04647938907146454 51:0.049737367779016495 117:0.018340647220611572 225:0.018778014928102493 256:0.014746788889169693 349:0.030604859814047813 369:0.02764584682881832 424:0.015849560499191284 562:0.08837951719760895 810:0.019242264330387115 921:0.030604859814047813 1042:0.03249427676200867 1088:0.04168945178389549 1200:0.02082955837249756 1352:0.047598689794540405 1520:0.017165331169962883 1789:0.03480202704668045 1830:0.029013914987444878 2007:0.03480202704668045 3253:0.047598689794540405 3384:0.030604859814047813 3409:0.047598689794540405 3427:0.058607328683137894 3428:0.058607328683137894
4.395977198306644 7:0.006548828911036253 22:0.0010326328920200467 28:5.036377697251737E-4 54:0.19375380873680115 61:0.01604391448199749 64:5.061755073256791E-4 163:0.018605615943670273 174:0.01786072924733162 294:0.008871509693562984 320:0.018605615943670273 562:0.015542075037956238 770:0.024480590596795082 916:0.01786072924733162 1063:0.015079852193593979 1098:0.06216830015182495 1309:0.007580378092825413 1483:0.09792236238718033 1568:0.024480590596795082 1811:0.10617265850305557 3392:0.2639283537864685 3603:0.04122581705451012 3604:0.04122581705451012
12.750615201856357 35:2.0278400916140527E-4 58:0.0017867536516860127 96:0.008838544599711895 158:0.016774404793977737 174:0.021580427885055542 194:0.0059296623803675175 250:0.01428931299597025 378:0.009271147660911083 731:0.11047019064426422 763:0.024659516289830208 774:0.029578952118754387 942:0.035432714968919754 985:0.02004728466272354 1007:0.11831580847501755 1300:0.07754097133874893 1309:0.009159077890217304 2912:0.16182038187980652 3586:0.035432714968919754 3597:0.04981156066060066 3598:0.04981156066060066 3599:0.19924624264240265
29.347506081738768 7:0.007095088250935078 22:0.010068913921713829 26:0.016337713226675987 35:1.8183060456067324E-4 59:0.013364494778215885 60:0.006877689156681299 64:5.483973072841763E-4 245:0.003957962617278099 515:0.06535085290670395 898:0.020157571882009506 924:0.02106887847185135 968:0.015041127800941467 1043:0.028757218271493912 1099:0.017382191494107246 1103:0.006672464776784182 1187:0.015874190255999565 1308:0.01862819492816925 1331:0.031771499663591385 1366:0.08844592422246933 3397:0.12708599865436554 3446:0.031771499663591385 3582:0.12708599865436554 3588:0.1450996994972229 3589:0.036274924874305725 3590:0.1450996994972229
20.956523683091874 15:0.004109626170247793 22:0.001097948639653623 28:5.354936583898962E-4 58:0.0015723161632195115 94:0.015578781254589558 130:0.010843046009540558 171:0.024303022772073746 175:0.009299855679273605 260:0.005306373815983534 314:0.009045763872563839 341:0.0682348757982254 520:0.024303022772073746 665:0.12472100555896759 683:0.11288826167583466 706:0.004849618766456842 728:0.07596179842948914 794:0.03559986874461174 817:0.011424739845097065 855:0.024303022772073746 1300:0.01705871894955635 1372:0.014044397510588169 2104:0.026029029861092567 2236:0.028222065418958664 3506:0.0438334196805954 3507:0.0438334196805954 3508:0.0438334196805954 3509:0.1753336787223816 3510:0.0438334196805954
-9.446153401519595 22:0.011074619367718697 26:0.017969559878110886 35:1.9999225332867354E-4 59:0.014699369668960571 60:0.007564648054540157 64:6.031724042259157E-4 245:0.004353292286396027 515:0.07187823951244354 898:0.022170953452587128 924:0.02317328378558159 968:0.016543468460440636 1043:0.03162955120205879 1103:0.007338924799114466 1187:0.01745973899960518 1308:0.020488819107413292 1331:0.03494490683078766 1366:0.024320024996995926 3397:0.13977962732315063 3446:0.03494490683078766 3582:0.13977962732315063 3588:0.15959256887435913 3589:0.03989814221858978 3590:0.15959256887435913
-9.446153401519595 22:0.016803422942757607 35:3.034464898519218E-4 81:0.02183126099407673 84:0.049984872341156006 187:0.041326966136693954 206:0.023882310837507248 236:0.023882310837507248 283:0.016513003036379814 300:0.024472752586007118 360:0.01277847494930029 432:0.041326966136693954 660:0.05302160233259201 661:0.07453814148902893 662:0.02810077555477619 663:0.03363979607820511 664:0.05302160233259201 665:0.21208640933036804 666:0.03108750842511654 667:0.07453814148902893 668:0.02649150975048542 669:0.07453814148902893 670:0.04799124598503113 671:0.017839329317212105
-4.572493183368502 28:7.315912516787648E-4 35:0.002194146392866969 64:7.352777174673975E-4 241:0.03164095804095268 959:0.02702677994966507 1265:0.03855697438120842 1351:0.048636529594659805 1352:0.19454611837863922 1353:0.04259844869375229 1354:0.04259844869375229 1355:0.17039379477500916 1356:0.048636529594659805 1357:0.048636529594659805 1358:0.048636529594659805 1359:0.19454611837863922 1360:0.05988520011305809
-8.49367875595021 20:0.309173047542572 35:6.025689071975648E-4 37:0.04742429777979851 57:0.08844758570194244 64:0.007269340567290783 87:0.07327529042959213 96:0.026263568550348282 101:0.01920419931411743 217:0.016375908628106117 227:0.018867921084165573 256:0.03724334388971329 772:0.042460426688194275 822:0.10528764873743057 823:0.0878932997584343 824:0.12021155655384064
-0.07159451682763168 15:0.004555162973701954 22:0.00121698051225394 28:5.935481167398393E-4 35:1.9779281865339726E-4 58:0.006971102673560381 64:0.005368850659579039 71:0.012225101701915264 100:0.01266332995146513 137:0.004365818575024605 206:0.015566992573440075 240:0.01266332995146513 256:0.012225101701915264 258:0.0069791292771697044 309:0.024052562192082405 360:0.008329278789460659 386:0.021927127614617348 456:0.014861945994198322 457:0.005168905947357416 470:0.011092015542089939 716:0.00950867310166359 765:0.014230075292289257 888:0.012896250933408737 929:0.00524989515542984 983:0.00452272268012166 1025:0.012439827434718609 1157:0.02291843295097351 1319:0.007116151973605156 1356:0.039459358900785446 1520:0.014230075292289257 1632:0.007799938786774874 1640:0.014861945994198322 1642:0.011819716542959213 1647:0.003865000559017062 1654:0.007969026453793049 1664:0.015204413793981075 1666:0.007717938628047705 1721:0.005129179451614618 1744:0.0073312330059707165 1790:0.015566992573440075 1793:0.014230075292289257 1870:0.018908105790615082 1913:0.013139300048351288 1918:0.013139300048351288 1941:0.017267724499106407 1976:0.011092015542089939 2792:0.03456059470772743 2938:0.13824237883090973 2939:0.13824237883090973 3209:0.03456059470772743 3229:0.04858553037047386 3230:0.04858553037047386 3231:0.04858553037047386
12.152325960679422 15:0.004788918420672417 43:0.01408056728541851 56:0.017201149836182594 64:6.271513411775231E-4 221:0.010261321440339088 260:0.024733921512961388 276:0.006183480378240347 283:0.01131587103009224 291:0.02832014299929142 423:0.02832014299929142 515:0.07473573088645935 524:0.007707447279244661 817:0.053252678364515305 839:0.14533652365207672 2859:0.12132578343153 3403:0.14533652365207672 3418:0.05107877776026726 3419:0.05107877776026726 3420:0.20431511104106903
24.484107066984883 15:0.004340944346040487 26:0.0169361662119627 58:0.0016608170699328184 114:0.011650185100734234 178:0.008513514883816242 247:0.009426405653357506 361:0.00968716386705637 479:0.012289770878851414 616:0.015201677568256855 620:0.029810599982738495 738:0.11924239993095398 902:0.018634282052516937 1044:0.02417830005288124 1305:0.03293529525399208 1349:0.019310548901557922 1458:0.03293529525399208 1486:0.015201677568256855 1752:0.029810599982738495 1981:0.029810599982738495 2530:0.03760368004441261 3001:0.15041472017765045 3556:0.04630066826939583 3557:0.1852026730775833 3558:0.04630066826939583 3559:0.04630066826939583 3560:0.04630066826939583
21.124016945567597 22:0.0012406633468344808 28:6.050987867638469E-4 35:2.0164191664662212E-4 56:0.016679931432008743 58:0.0017766905948519707 101:0.006426438223570585 260:0.005996112246066332 348:0.01993437670171261 616:0.01626228354871273 671:0.01185433566570282 817:0.012909761629998684 1107:0.1098480150103569 1177:0.02941236086189747 1372:0.015869930386543274 1520:0.014506996609270573 1523:0.03523315489292145 1588:0.1609089970588684 2149:0.03523315489292145 2228:0.03189045563340187 2503:0.02941236086189747 2735:0.03523315489292145 3488:0.04953101649880409 3489:0.04953101649880409 3490:0.04953101649880409 3491:0.04953101649880409 3492:0.04953101649880409 3493:0.1609089970588684
23.485667066566833 22:0.004767650738358498 28:0.005231897812336683 35:1.9371858797967434E-4 58:0.0017068772576749325 130:0.011771010234951973 205:0.01218358613550663 314:0.009819913655519485 339:0.015246337279677391 617:0.02147546224296093 635:0.1225493997335434 663:0.02147546224296093 706:0.005264656152576208 738:0.03063734993338585 743:0.07660429924726486 1038:0.10553164035081863 1079:0.08590184897184372 1720:0.020615678280591965 2859:0.028256630524992943 3269:0.028256630524992943 3319:0.15458622574806213 3483:0.04758474603295326 3484:0.04758474603295326 3485:0.04758474603295326 3486:0.04758474603295326 3487:0.04758474603295326
20.902264759672022 7:0.008735818788409233 22:0.0013774819672107697 24:0.03540728986263275 98:0.01954507641494274 111:0.036878157407045364 117:0.06883858889341354 245:0.019492944702506065 258:0.00789957121014595 304:0.022132711485028267 420:0.03911861777305603 545:0.02594102919101715 743:0.022132711485028267 955:0.03265591710805893 968:0.018519369885325432 983:0.005119202192872763 1004:0.03265591710805893 1044:0.02871757186949253 1106:0.02722473442554474 1249:0.044663455337285995 1774:0.03540728986263275 1816:0.02871757186949253 2618:0.03540728986263275 2851:0.03911861777305603 3261:0.044663455337285995 3524:0.044663455337285995 3554:0.05499323084950447 3555:0.21997292339801788
-8.559442791201723 15:0.005470197182148695 22:0.0014614458195865154 35:9.501005988568068E-4 117:0.018258653581142426 336:0.037565525621175766 423:0.032349009066820145 494:0.032349009066820145 500:0.02888420596718788 687:0.03464644402265549 762:0.030468039214611053 770:0.03464644402265549 928:0.017458027228713036 1038:0.12939603626728058 1039:0.15026210248470306 1040:0.05834532156586647 1041:0.04150307923555374 1042:0.032349009066820145 1043:0.15026210248470306 1044:0.12187215685844421 1045:0.04150307923555374
-3.1549805945591722 22:0.006371262017637491 64:0.0031230624299496412 241:0.13439369201660156 524:0.03838122636079788 1104:0.14102748036384583 1519:0.40948137640953064 1644:0.020234448835253716 1666:0.040405746549367905 3001:0.2065816968679428
-9.446153401519595 22:0.0017460706876590848 35:2.8378452407196164E-4 64:8.558881236240268E-4 101:0.03617747128009796 180:0.024774977937340736 359:0.01641811802983284 373:0.03288237005472183 474:0.12584035098552704 494:0.03864916414022446 524:0.010518534108996391 534:0.021323272958397865 553:0.03864916414022446 738:0.17952650785446167 1098:0.02627996914088726 1103:0.01041377056390047 1179:0.049586039036512375 1288:0.02627996914088726 1456:0.0345095694065094 1457:0.03146008774638176 1458:0.049586039036512375 1459:0.05661457031965256 1460:0.1380382776260376 1461:0.049586039036512375
-1.2144777779643465 22:0.003731447970494628 35:0.005458166357129812 96:0.026433296501636505 152:0.048910822719335556 217:0.016481736674904823 223:0.05150824785232544 303:0.03116808459162712 641:0.05294547602534294 739:0.05995509773492813 811:0.09591447561979294 1142:0.12098841369152069 1143:0.14897064864635468 1144:0.10596806555986404 1145:0.08259536325931549 1146:0.14897064864635468
-9.446153401519595 5:0.030116233974695206 28:0.001005823607556522 58:0.0029532986227422953 79:0.01632380299270153 137:0.007398293819278479 160:0.030116233974695206 206:0.026379745453596115 226:0.06686762720346451 229:0.030116233974695206 515:0.030116233974695206 586:0.0488906092941761 671:0.01970483548939228 743:0.03313585743308067 810:0.027031932026147842 855:0.04564863443374634 1340:0.0488906092941761 1503:0.05300981551408768 1865:0.06686762720346451 2106:0.04299434274435043 3316:0.0823327898979187 3317:0.0823327898979187 3318:0.05856620892882347 3319:0.06686762720346451 3320:0.0823327898979187
13.830498935310105 7:0.00787116028368473 57:0.029609236866235733 111:0.008307003416121006 194:0.005898535251617432 339:0.015876037999987602 810:0.016268542036414146 916:0.08586857467889786 1266:0.021467143669724464 1429:0.04024273157119751 1541:0.03524671494960785 1918:0.05360059812664986 2523:0.04024273157119751 2878:0.1409868597984314 3501:0.04024273157119751 3502:0.16097092628479004 3503:0.04955007880926132 3504:0.04955007880926132 3505:0.1982003152370453
20.636315832390228 22:0.0011565175373107195 35:7.518636994063854E-4 297:0.011617724783718586 314:0.009528301656246185 441:0.03749890998005867 474:0.020837727934122086 481:0.015159323811531067 791:0.025599442422389984 855:0.025599442422389984 933:0.02741752192378044 1515:0.02741752192378044 1753:0.012727854773402214 2094:0.021779783070087433 2415:0.02741752192378044 2847:0.03749890998005867 3443:0.02741752192378044 3444:0.04617166891694069 3445:0.04617166891694069 3446:0.03284353017807007 3447:0.04617166891694069 3448:0.18468667566776276 3449:0.04617166891694069 3450:0.04617166891694069 3451:0.03749890998005867 3452:0.18468667566776276
18.52960164534867 22:0.004793801810592413 28:0.0023380424827337265 58:0.0017162396106868982 64:5.874558701179922E-4 167:0.023686330765485764 173:0.01293923705816269 190:0.014972906559705734 241:0.02527979388833046 396:0.02841162122786045 497:0.0186202060431242 558:0.024985145777463913 719:0.02841162122786045 968:0.01611240580677986 1083:0.02841162122786045 1103:0.007147698663175106 1504:0.02841162122786045 2065:0.023686330765485764 2104:0.02841162122786045 2343:0.0340343676507473 2675:0.0340343676507473 2744:0.03885854035615921 3464:0.0478457510471344 3465:0.1913830041885376 3466:0.1913830041885376 3467:0.0478457510471344 3468:0.0478457510471344 3469:0.0478457510471344
23.356889093211908 22:0.0014690711395815015 28:7.164982962422073E-4 45:0.011628258042037487 64:7.20108684618026E-4 80:0.01879160664975643 103:0.011332335881888866 130:0.014508153311908245 160:0.021453294903039932 178:0.04313678294420242 276:0.00710000516846776 339:0.01879160664975643 342:0.03482721745967865 511:0.030627014115452766 706:0.006488860584795475 924:0.11066342890262604 1084:0.032517798244953156 1265:0.03776153177022934 1408:0.1393088698387146 2679:0.1393088698387146 3232:0.04763314500451088 3241:0.04763314500451088 3380:0.04763314500451088 3513:0.05864974856376648 3514:0.05864974856376648 3515:0.05864974856376648
-8.60627137859577 28:0.0015731973107904196 81:0.03771676495671272 260:0.015589303337037563 276:0.015589303337037563 518:0.060745228081941605 651:0.05182741954922676 835:0.0637512356042862 882:0.06724696606397629 912:0.07646925002336502 913:0.12877579033374786 914:0.12877579033374786 915:0.12877579033374786 916:0.22316397726535797
39.72851405540673 11:0.03940531983971596 35:0.0028813204262405634 58:0.0028208503499627113 137:0.028265992179512978 258:0.011296393349766731 275:0.03709569200873375 276:0.009520023129880428 494:0.04360140115022659 598:0.06386877596378326 788:0.04360140115022659 921:0.04106615111231804 947:0.03893138840794563 965:0.050632450729608536 1000:0.050632450729608536 1084:0.04360140115022659 1197:0.02648271434009075 1201:0.046697985380887985 2060:0.06386877596378326 2881:0.06386877596378326 3324:0.055939655750989914 3404:0.07864036411046982 3405:0.07864036411046982 3406:0.07864036411046982
-6.855217300424478 15:0.009571673348546028 16:0.02870147116482258 22:0.010228867642581463 64:0.0012534954585134983 233:0.05331254005432129 361:0.02135995216667652 487:0.028143011033535004 924:0.19263218343257904 1654:0.016745155677199364 1719:0.024433791637420654 1795:0.10209180414676666 1796:0.05660383403301239 1797:0.08291516453027725 1798:0.06573162227869034 1799:0.10209180414676666 1800:0.10209180414676666 1801:0.10209180414676666
-6.717202934952252 22:0.005759231746196747 35:9.360335534438491E-4 47:0.005428021308034658 60:0.008851299062371254 128:0.03187005594372749 137:0.005165193695574999 219:0.09253653883934021 298:0.03413347527384758 457:0.006115325260907412 506:0.023134134709835052 706:0.006359605118632317 947:0.0284565519541502 996:0.03187005594372749 1106:0.0284565519541502 1400:0.18673723936080933 1401:0.057481471449136734 1402:0.04668430984020233 1403:0.057481471449136734 1404:0.03413347527384758 1405:0.04668430984020233 1406:0.057481471449136734 1407:0.04668430984020233 1408:0.13653390109539032 1409:0.02102595381438732
-3.5201013059865494 7:0.010822765529155731 11:0.00853479839861393 47:0.006433652248233557 64:8.365189423784614E-4 137:0.0061221313662827015 144:0.03213822469115257 185:0.020386045798659325 251:0.010178101249039173 283:0.06037420034408569 294:0.058645159006118774 303:0.05701817199587822 357:0.16182906925678253 360:0.011680040508508682 457:0.007248290814459324 511:0.03557806834578514 599:0.03557806834578514 671:0.016305865719914436 672:0.05533335357904434 733:0.043865930289030075 1099:0.02651459351181984 1366:0.13491439819335938 1441:0.06813086569309235 1442:0.022943563759326935 1443:0.04045726731419563 1444:0.06813086569309235
-8.862590663770787 21:0.056090280413627625 515:0.04735714569687843 810:0.042507145553827286 1107:0.07178152352571487 1227:0.10514794290065765 1247:0.10514794290065765 1248:0.12946657836437225 1249:0.10514794290065765 1250:0.09209413826465607 1251:0.061071090400218964 1252:0.09209413826465607 1253:0.09209413826465607
-3.022193826650731 22:0.007403566036373377 35:0.001203283085487783 100:0.07703804224729538 205:0.07567835599184036 1000:0.19030390679836273 1368:0.07845503091812134 2147:0.15434862673282623 2415:0.1755160689353943 2419:0.24005311727523804
20.800653209701583 7:0.006248127203434706 28:4.805122734978795E-4 51:0.008345000445842743 58:0.0014108798932284117 130:0.009729744866490364 245:0.003485489170998335 284:0.05439908057451248 339:0.012602400034666061 420:0.027978843078017235 709:0.027978843078017235 916:0.0681624785065651 944:0.00897964183241129 1032:0.017751304432749748 1103:0.00587595347315073 1104:0.021807728335261345 1219:0.007798372767865658 1473:0.03194468095898628 2008:0.02532438561320305 3318:0.027978843078017235 3520:0.039332855492830276 3521:0.1573314219713211 3522:0.1573314219713211 3523:0.039332855492830276 3524:0.03194468095898628 3525:0.039332855492830276 3526:0.039332855492830276 3527:0.12777872383594513
14.605555010513353 7:0.009161015041172504 22:0.001444527879357338 28:7.045279489830136E-4 58:0.0020686346106231213 111:0.009668280370533466 130:0.014265770092606544 175:0.012235455214977264 339:0.018477661535143852 579:0.017640788108110428 763:0.028549836948513985 916:0.09993994981050491 983:0.0053683677688241005 1025:0.014765788801014423 1137:0.024052297696471214 1166:0.026026993989944458 1506:0.03713066130876541 2212:0.18734939396381378 2406:0.10410797595977783 3581:0.23067961633205414 3582:0.04102263227105141 3583:0.057669904083013535 3584:0.057669904083013535
23.409305597262755 7:0.008365541696548462 64:6.465938640758395E-4 130:0.013027038425207138 228:0.060428373515605927 319:0.015107093378901482 325:0.021194593980908394 359:0.04961328208446503 456:0.06443598121404648 572:0.12508703768253326 576:0.037460535764694214 579:0.01610899530351162 580:0.12508703768253326 706:0.005826422479003668 787:0.042770348489284515 960:0.027500348165631294 2395:0.033906515687704086 2463:0.037460535764694214 3498:0.052662286907434464 3499:0.21064914762973785 3500:0.052662286907434464
12.87892390988257 15:0.0034709819592535496 58:0.0013279751874506474 194:0.004407123662531376 258:0.005318016745150089 763:0.07331111282110214 798:0.023836299777030945 802:0.020526286214590073 1075:0.023836299777030945 1253:0.02633477933704853 1918:0.010011996142566204 2116:0.02198406681418419 2309:0.023836299777030945 2766:0.16494999825954437 3334:0.030067581683397293 3429:0.27060821652412415 3430:0.03702161833643913 3431:0.14808647334575653 3432:0.03702161833643913 3433:0.03702161833643913 3434:0.03702161833643913
12.096862766413697 35:1.5221226203721017E-4 79:0.007413010112941265 171:0.02073008380830288 232:0.01687411032617092 318:0.0195247083902359 350:0.07054789364337921 516:0.018509747460484505 542:0.007224360015243292 634:0.026596248149871826 810:0.0122758150100708 1103:0.00558558851480484 1336:0.06237541139125824 1436:0.0042715296149253845 1468:0.030366111546754837 1735:0.024072961881756783 1749:0.05820324271917343 2803:0.024072961881756783 2816:0.030366111546754837 3528:0.14955677092075348 3529:0.33650273084640503 3530:0.03738919273018837 3531:0.03738919273018837
-4.4537358762028925 194:0.022325290367007256 1300:0.07298579812049866 1744:0.0282987579703331 1749:0.07298579812049866 2094:0.08846577256917953 2212:0.1523142009973526 2213:0.18754145503044128 2214:0.18754145503044128 2215:0.18754145503044128
-6.057097239235587 28:0.01757085882127285 372:0.043218206614255905 410:0.10289278626441956 424:0.043218206614255905 572:0.09489735215902328 778:0.0440535731613636 812:0.1297909915447235 1644:0.01271288376301527 2167:0.07538404315710068 2765:0.11367782205343246 2766:0.07911445945501328 2767:0.11367782205343246 2768:0.1297909915447235
-5.722051247575165 15:0.006526338867843151 35:0.004534153267741203 47:0.006573343649506569 58:0.0024969347286969423 64:8.546819444745779E-4 120:0.01782296970486641 136:0.04481837525963783 223:0.02406848408281803 225:0.022303367033600807 315:0.04951615631580353 580:0.1653427928686142 648:0.025462467223405838 826:0.17927350103855133 845:0.024740062654018402 1001:0.04481837525963783 1036:0.1049717366695404 1072:0.009363308548927307 1333:0.04133569821715355 1463:0.0565347820520401 1522:0.04951615631580353 1523:0.04951615631580353 1524:0.06961016356945038
-5.876055685749219 22:0.00195306574460119 28:9.525530622340739E-4 35:3.1742689316160977E-4 64:0.015317645855247974 84:0.013071944005787373 276:0.009439145214855671 302:0.023851126432418823 306:0.029395435005426407 540:0.019964000210165977 571:0.07797227054834366 572:0.046301260590553284 573:0.07797227054834366 574:0.07797227054834366 575:0.07797227054834366 576:0.22185766696929932 577:0.046301260590553284 578:0.07797227054834366 579:0.023851126432418823 580:0.046301260590553284 581:0.046301260590553284 582:0.018661225214600563 583:0.046301260590553284
-5.026315604360732 28:9.508485672995448E-4 35:3.1685890280641615E-4 111:0.01304855290800333 140:0.023289034143090248 410:0.050112467259168625 572:0.04621840640902519 774:0.04621840640902519 982:0.0141405388712883 989:0.22146067023277283 1309:0.01431146077811718 1409:0.028470177203416824 1436:0.03556801751255989 1657:0.01893487572669983 1658:0.02232767827808857 1950:0.038531575351953506 2363:0.050112467259168625 2761:0.06321285665035248 2762:0.07783274352550507 2763:0.06321285665035248 2764:0.07783274352550507 2765:0.05536516755819321 2766:0.038531575351953506
17.393486963718455 19:0.01419887039810419 35:7.558725774288177E-4 64:5.699239554814994E-4 89:0.03769885376095772 175:0.009848179295659065 212:0.021895911544561386 232:0.020948832854628563 582:0.011109257116913795 655:0.027563709765672684 810:0.06096060946583748 1002:0.033018652349710464 1072:0.006243695504963398 1202:0.10294375568628311 1252:0.033018652349710464 1300:0.018064508214592934 1366:0.022979440167546272 2301:0.03769885376095772 2618:0.029886048287153244 3411:0.046417851001024246 3412:0.18567140400409698 3413:0.18567140400409698 3414:0.046417851001024246 3415:0.046417851001024246
19.00708266946523 35:8.755151648074389E-4 205:0.055063970386981964 227:0.006853635888546705 458:0.009886025451123714 568:0.02329324744641781 728:0.02329324744641781 858:0.04366597905755043 1065:0.034616533666849136 1103:0.008031986653804779 1199:0.029809527099132538 1292:0.04366597905755043 1328:0.15297991037368774 1781:0.034616533666849136 2452:0.17466391623020172 3291:0.038244977593421936 3494:0.053765058517456055 3495:0.053765058517456055 3496:0.038244977593421936 3497:0.17466391623020172
3.6116182519471978 11:0.007344312500208616 22:0.0014685152564197779 35:2.3867412528488785E-4 58:0.0021029857452958822 64:7.198361563496292E-4 190:0.01834697648882866 196:0.030615422874689102 283:0.012988208793103695 305:0.016482194885611534 458:0.01078011468052864 524:0.008846507407724857 623:0.02539988048374653 682:0.01426270417869091 684:0.03481403738260269 810:0.0769956186413765 859:0.008421627804636955 872:0.021445175632834435 1025:0.015010984614491463 1103:0.008758396841585636 1955:0.13002195954322815 2180:0.03774724155664444 2313:0.13002195954322815 3121:0.03774724155664444 3478:0.1904604732990265 3585:0.05862755328416824 3586:0.04170383885502815 3587:0.05862755328416824
18.647046137498442 7:0.0065851411782205105 32:0.008327861316502094 35:1.68761849636212E-4 101:0.021514128893613815 117:0.05189116671681404 260:0.005018376279622316 353:0.02948797680437565 368:0.240213081240654 516:0.020522257313132286 728:0.01795976422727108 810:0.054442111402750015 1310:0.033667728304862976 1312:0.005786932539194822 1455:0.007811270654201508 1459:0.033667728304862976 2735:0.02948797680437565 3435:0.04145440831780434 3436:0.033667728304862976 3437:0.026690343394875526 3438:0.04145440831780434 3439:0.04145440831780434 3440:0.16581763327121735 3441:0.04145440831780434 3442:0.04145440831780434
16.804851436825842 15:0.019220946356654167 28:6.261332891881466E-4 35:0.0018778628436848521 219:0.02062733843922615 227:0.006533391773700714 276:0.0062045506201684475 349:0.02676432393491268 604:0.028416642919182777 1072:0.006894050631672144 1177:0.12173919379711151 1320:0.02676432393491268 1376:0.02417663112282753 1438:0.036457937210798264 1885:0.022204842418432236 2513:0.036457937210798264 3421:0.0512528233230114 3422:0.0512528233230114 3423:0.0512528233230114 3424:0.0512528233230114 3425:0.2050112932920456 3426:0.2050112932920456
-9.179014649873285 28:0.008638068102300167 35:3.198369813617319E-4 71:0.019768361002206802 111:0.013171193189918995 225:0.025172298774123192 245:0.006961989216506481 328:0.041026417165994644 368:0.20233385264873505 390:0.0327666811645031 526:0.1418273150920868 876:0.02961862087249756 944:0.01793612539768219 1063:0.028737761080265045 1637:0.05058346316218376 1654:0.05154462903738022 2102:0.10865786671638489 2891:0.07856427133083344 2892:0.07856427133083344 2893:0.06380698084831238
-9.446153401519595 14:0.018071241676807404 15:0.004631878342479467 22:0.0012374762445688248 79:0.009795094840228558 119:0.021403759717941284 156:0.02229641005396843 336:0.031808532774448395 355:0.029336804524064064 368:0.031808532774448395 476:0.031808532774448395 524:0.007454701233655214 621:0.029336804524064064 628:0.020604757592082024 708:0.013889078050851822 800:0.029336804524064064 827:0.11734721809625626 1056:0.03514264523983002 1098:0.018625155091285706 1657:0.012018776498734951 1955:0.10956582427024841 2177:0.11734721809625626 2357:0.029336804524064064 2679:0.029336804524064064 3002:0.04012390971183777 3334:0.04012390971183777 3335:0.049403779208660126 3336:0.049403779208660126 3337:0.049403779208660126
-4.388754869251865 22:0.0030625960789620876 35:4.977561184205115E-4 56:0.04117465764284134 175:0.02594083361327648 260:0.059205975383520126 294:0.1052449569106102 996:0.06779036670923233 1001:0.07872206717729568 1036:0.04609488695859909 1176:0.12226805835962296 1177:0.29041942954063416 1178:0.07260485738515854 1179:0.08697357028722763
-4.738418912462815 35:0.0029668405186384916 205:0.0466485396027565 258:0.026171280071139336 470:0.04159433767199516 1095:0.07090416550636292 1312:0.025433631613850594 1436:0.020814595744013786 1685:0.04159433767199516 1721:0.01923408918082714 1737:0.06299509853124619 1866:0.03391048684716225 2451:0.12959998846054077 2452:0.1479700207710266 2453:0.18219256401062012 2454:0.1479700207710266
-2.60447251509822 35:0.002100281184539199 49:0.03302336484193802 59:0.03859250992536545 61:0.05019436776638031 185:0.03859250992536545 340:0.055878378450870514 635:0.08304191380739212 1074:0.09174621850252151 1076:0.36698487401008606 1201:0.07658902555704117 1202:0.07151034474372864 1203:0.09174621850252151
16.232469234069963 21:0.01931902766227722 35:7.261375430971384E-4 56:0.015016624704003334 57:0.00666159437969327 58:0.0015995207941159606 88:0.024723520502448082 137:0.004006951581686735 227:0.0056842900812625885 241:0.005890137981623411 285:0.024723520502448082 371:0.02103455550968647 706:0.004933528136461973 731:0.09889408200979233 737:0.022075459361076355 775:0.01464062463492155 791:0.024723520502448082 870:0.031719740480184555 1210:0.1448633074760437 1247:0.036215826869010925 1277:0.023285942152142525 1940:0.031719740480184555 3532:0.17836734652519226 3533:0.17836734652519226 3534:0.044591836631298065 3535:0.036215826869010925
17.515101793716386 11:0.006302427034825087 35:2.048151072813198E-4 137:0.0045208195224404335 149:0.035787612199783325 173:0.013605788350105286 241:0.006645514164119959 304:0.020248079672455788 497:0.07831762731075287 524:0.0075915162451565266 567:0.01386877428740263 706:0.005566224455833435 845:0.01788078434765339 1333:0.11950086802244186 1334:0.035787612199783325 1388:0.035787612199783325 1397:0.04086029529571533 1426:0.03239230811595917 1607:0.018966978415846825 2981:0.16344118118286133 3386:0.04086029529571533 3480:0.05031047761440277 3481:0.05031047761440277 3482:0.20124191045761108
19.874099506351854 14:0.016916679218411446 35:1.8827422172762454E-4 47:0.004367178771644831 58:0.001658906228840351 64:0.002271324396133423 135:0.021815506741404533 144:0.021815506741404533 175:0.009812015108764172 227:0.005895331036299467 349:0.024150481447577477 467:0.020036285743117332 706:0.005116695538163185 850:0.027462491765618324 1335:0.012748731300234795 1679:0.05927138403058052 1723:0.029776301234960556 3269:0.027462491765618324 3345:0.037560414522886276 3472:0.032897401601076126 3573:0.04624740034341812 3574:0.04624740034341812 3575:0.04624740034341812 3576:0.18498960137367249 3577:0.04624740034341812 3578:0.04624740034341812 3579:0.037560414522886276 3580:0.18498960137367249
15.942998002559605 22:0.0015337124932557344 32:0.012300706468522549 35:2.492704661563039E-4 58:0.008785405196249485 60:0.03771432861685753 71:0.01540681254118681 84:0.041060786694288254 110:0.021171096712350845 174:0.02652755193412304 228:0.017565013840794563 245:0.02170378528535366 499:0.02308378368616104 548:0.03197464719414711 562:0.02308378368616104 689:0.030312495306134224 706:0.006774379871785641 1335:0.0168790090829134 2048:0.03635966777801514 2381:0.03942309319972992 2488:0.1212499812245369 3390:0.04972907155752182 3407:0.06123042479157448 3408:0.06123042479157448 3409:0.04972907155752182 3410:0.2449216991662979
24.766096288790845 7:0.00937597081065178 22:0.013305802829563618 28:7.21059157513082E-4 32:0.047429077327251434 64:7.246924797073007E-4 73:0.02097732201218605 158:0.019876452162861824 160:0.0863594189286232 229:0.0215898547321558 457:0.006279333960264921 630:0.014126085676252842 985:0.023754576221108437 1135:0.19174540042877197 1309:0.010852842591702938 1554:0.04793635010719299 2309:0.038001902401447296 2312:0.04198519513010979 2679:0.03504890948534012 2766:0.02921973541378975 2808:0.19174540042877197 3110:0.04198519513010979 3436:0.04793635010719299 3453:0.05902308225631714
-9.408734251873103 3:0.16959242522716522 22:0.0025463367346674204 35:4.1384974610991776E-4 64:0.001248162123374641 111:0.017042730003595352 141:0.04091330245137215 195:0.05032613128423691 318:0.05308570712804794 629:0.05308570712804794 1131:0.04091330245137215 1132:0.101657435297966 1133:0.056362997740507126 1134:0.08256237953901291 1135:0.33024951815605164
-9.446153401519595 7:0.019552653655409813 35:5.010890308767557E-4 49:0.031515102833509445 57:0.018387988209724426 58:0.004415154457092285 64:0.001511274022050202 203:0.0294585470110178 216:0.08755594491958618 228:0.035309579223394394 314:0.025401026010513306 622:0.05133560299873352 728:0.05332627519965172 1010:0.08755594491958618 1202:0.06824428588151932 1370:0.09996648877859116 1625:0.04041248932480812 1792:0.08755594491958618 2094:0.058061644434928894 2807:0.09996648877859116 2808:0.09996648877859116
-3.5186702003797037 51:0.08467545360326767 176:0.14184525609016418 359:0.09399936348199844 582:0.09551830589771271 788:0.22127971053123474 944:0.0911150649189949 1644:0.0317489430308342 1808:0.17290858924388885 1924:0.06690932810306549
-7.633483437140786 35:4.110975714866072E-4 58:0.003622228978201747 64:0.0012398617109283805 84:0.016929391771554947 86:0.038069840520620346 137:0.00907402765005827 160:0.14775057137012482 211:0.06501667946577072 251:0.06034262478351593 630:0.02416803315281868 668:0.035889673978090286 793:0.020839210599660873 1109:0.0527326799929142 1151:0.02540896087884903 1303:0.10098139196634293 1304:0.10098139196634293 1305:0.071831613779068 1306:0.0820133313536644 1307:0.0820133313536644 1308:0.04211615025997162 1309:0.018567906692624092
-3.319301479706266 64:0.001019602408632636 101:0.010774374008178711 137:0.007462042849510908 149:0.23628342151641846 257:0.030375735834240913 276:0.010052903555333614 314:0.017137162387371063 577:0.049311887472867966 766:0.059070855379104614 818:0.046041976660490036 838:0.06744380295276642 839:0.059070855379104614 840:0.06744380295276642 841:0.05346658453345299 842:0.08304222673177719 843:0.059070855379104614 844:0.030375735834240913 845:0.02951393648982048 846:0.08304222673177719
26.492805781534926 35:1.994669873965904E-4 58:0.0070301080122590065 117:0.01533310767263174 132:0.03979335352778435 146:0.018471714109182358 147:0.025586210191249847 167:0.02425614930689335 206:0.015698755159974098 245:0.00434185890480876 303:0.041005004197359085 701:0.10234484076499939 706:0.00542087946087122 728:0.021227426826953888 731:0.027165794745087624 743:0.07887744903564453 855:0.1086631789803505 930:0.019719362258911133 944:0.011185901239514351 967:0.03979335352778435 968:0.016500018537044525 1258:0.03979335352778435 1955:0.027165794745087624 2155:0.03485312685370445 3192:0.03979335352778435 3459:0.03979335352778435 3460:0.04899677261710167 3461:0.04899677261710167 3462:0.04899677261710167 3463:0.04899677261710167
10.658641917518944 22:0.0013875593431293964 28:0.006090688984841108 58:0.007948211394250393 68:0.03940480574965477 174:0.21599680185317993 289:0.030713537707924843 346:0.035666324198246 421:0.03289481997489929 430:0.02500055730342865 458:0.040743328630924225 595:0.026130810379981995 648:0.08105181157588959 983:0.005156653467565775 1029:0.04499020427465439 1496:0.028927665203809738 1503:0.035666324198246 1733:0.04499020427465439 2341:0.04499020427465439 2742:0.035666324198246 3046:0.142665296792984 3384:0.028927665203809738 3395:0.04499020427465439
8.536846923971195 22:0.005700445733964443 28:6.950582028366625E-4 35:2.316198224434629E-4 47:0.021490465849637985 58:0.002040829276666045 60:0.008760951459407806 101:0.02952739968895912 229:0.020811336115002632 499:0.08579695224761963 810:0.01867998018860817 859:0.008172716945409775 968:0.17243747413158417 1168:0.03663157671689987 1319:0.008333173580467701 1502:0.028166089206933975 3586:0.04047123342752457 3594:0.22757898271083832 3595:0.05689474567770958 3596:0.22757898271083832
14.578333843521435 11:0.015107276849448681 28:3.6832044133916497E-4 64:0.0014807054540142417 137:0.024382490664720535 174:0.11755719780921936 260:0.0036498021800071 276:0.0036498021800071 411:0.01941155083477497 524:0.0045493245124816895 548:0.015744008123874664 562:0.011366232298314571 749:0.010715315118432045 773:0.009021233767271042 874:0.015744008123874664 960:0.06297603249549866 968:0.010152986273169518 1202:0.01671597734093666 1300:0.011733238585293293 1306:0.0244861152023077 1330:0.01422180701047182 1376:0.01422180701047182 1568:0.017903149127960205 2342:0.021446235477924347 2618:0.01941155083477497 3394:0.021446235477924347 3454:0.12059707939624786 3455:0.12059707939624786 3456:0.12059707939624786 3457:0.030149269849061966 3458:0.12059707939624786
16.394189375924345 35:7.538426434621215E-4 37:0.05933007597923279 58:0.01494494080543518 64:0.005115540698170662 305:0.013014587573707104 329:0.02005612663924694 339:0.014832518994808197 494:0.025666821748018265 579:0.014160738326609135 905:0.08357029408216476 1072:0.006226927507668734 1515:0.027489686384797096 1616:0.11922314763069153 2562:0.03759760782122612 3053:0.15039043128490448 3472:0.03292997553944588 3535:0.15039043128490448 3550:0.1317199021577835 3568:0.046293195337057114 3569:0.046293195337057114
-9.446153401519595 35:3.219065838493407E-4 64:9.708634461276233E-4 72:0.1565815806388855 120:0.08098296821117401 166:0.07907264679670334 167:0.039145395159721375 168:0.25687944889068604 169:0.039145395159721375 170:0.05091077834367752 171:0.043841078877449036 172:0.026628289371728897 173:0.02138412930071354 174:0.13703016936779022 175:0.06710535287857056
-9.446153401519595 3:0.03183469921350479 7:0.012125168927013874 22:0.0019119217758998275 28:0.0037299450486898422 35:3.107398806605488E-4 64:9.371849591843784E-4 103:0.014748461544513702 111:0.012796565890312195 115:0.045325860381126404 130:0.018881626427173615 137:0.006858863867819309 140:0.022839287295937538 143:0.03444833308458328 165:0.019894562661647797 245:0.006763970013707876 251:0.011402925476431847 339:0.02445632591843605 377:0.029705340042710304 484:0.036005713045597076 560:0.033069174736738205 763:0.03778747096657753 859:0.09868025034666061 861:0.03778747096657753 863:0.045325860381126404 960:0.15943802893161774 1309:0.014035085216164589 1616:0.19657889008522034 1617:0.042320266366004944
-7.85826476653945 35:5.083506111986935E-4 58:0.004479137249290943 305:0.03510533273220062 311:0.03510533273220062 320:0.05635527893900871 438:0.0741502195596695 462:0.08882477134466171 929:0.05397137627005577 968:0.1682041734457016 1219:0.024757586419582367 1312:0.017431611195206642 1536:0.03197180852293968 1647:0.08940152823925018 1968:0.0589030496776104 2106:0.26083043217658997
-2.9386456719740988 19:0.05248584970831871 28:0.0020961507689207792 35:0.0027940685395151377 58:0.02461886592209339 64:0.0021067128982394934 120:0.0439319908618927 194:0.020425530150532722 227:0.021872296929359436 359:0.04041213169693947 378:0.03193572908639908 499:0.2587457299232483 682:0.04174203425645828 793:0.03540898114442825 983:0.015972265973687172 1635:0.031172892078757286 1663:0.04922148585319519 1664:0.05369529500603676 1665:0.12205281108617783 1666:0.02725636027753353 2566:0.12205281108617783
-7.4322266903576 35:3.149723925162107E-4 58:0.0027752588503062725 135:0.03649614006280899 227:0.009862564504146576 237:0.03351960331201553 260:0.037464629858732224 287:0.03830216825008392 309:0.03830216825008392 313:0.031138259917497635 391:0.045943234115839005 458:0.01422625407576561 763:0.03830216825008392 983:0.007202147040516138 1028:0.06283650547266006 1036:0.029168134555220604 1136:0.04981411248445511 1139:0.03830216825008392 1327:0.19925644993782043 1328:0.0550355389714241 1329:0.06283650547266006 1330:0.03649614006280899 1331:0.0550355389714241 1332:0.07736934721469879
18.97704220509928 22:0.004698105622082949 58:0.0016819792799651623 64:5.757288308814168E-4 137:0.004213517997413874 170:0.030190447345376015 276:0.005676473490893841 361:0.009810598567128181 385:0.014674010686576366 629:0.024486379697918892 665:0.03335495665669441 878:0.01054397877305746 1253:0.03335495665669441 1277:0.024486379697918892 1549:0.038082826882600784 1830:0.09285397082567215 1950:0.023213492706418037 2069:0.030190447345376015 2104:0.02784445509314537 2679:0.11137782037258148 3227:0.15233130753040314 3266:0.15233130753040314 3291:0.03335495665669441 3570:0.046890631318092346 3571:0.046890631318092346 3572:0.046890631318092346
10.112142633045103 22:0.003492753952741623 28:0.0038328589871525764 32:0.007003161124885082 35:1.4191716036293656E-4 43:0.009609725326299667 64:0.001712076598778367 96:0.006185601465404034 229:0.012751437723636627 240:0.00908599141985178 294:0.007501698564738035 458:0.006409924943000078 567:0.009609725326299667 662:0.013142290525138378 684:0.020700648427009583 728:0.015102931298315525 1050:0.02831225097179413 1138:0.009253112599253654 1151:0.008771560154855251 1436:0.003982617985457182 1680:0.01573280431330204 1721:0.0036802073009312153 2067:0.01932797208428383 2222:0.01932797208428383 2406:0.01573280431330204 2624:0.02831225097179413 3244:0.09918947517871857 3403:0.09918947517871857 3561:0.034860316663980484 3562:0.31374284625053406 3563:0.034860316663980484 3564:0.034860316663980484 3565:0.034860316663980484 3566:0.034860316663980484 3567:0.034860316663980484
14.414702800552426 28:0.006757894065231085 35:2.5022082263603806E-4 79:0.01218620128929615 117:0.01923457533121109 171:0.03407805785536766 227:0.007835031487047672 245:0.005446632858365774 250:0.07052791863679886 499:0.023171789944171906 614:0.043721407651901245 706:0.00680020684376359 810:0.02018013782799244 1079:0.11095698177814484 1091:0.0364982895553112 1816:0.12838619947433472 3228:0.043721407651901245 3516:0.061463862657547 3517:0.061463862657547 3518:0.245855450630188 3519:0.061463862657547
24.219388006886433 11:0.008403324522078037 28:8.195033296942711E-4 35:2.730896812863648E-4 47:0.025338178500533104 64:8.236327557824552E-4 172:0.02259012870490551 173:0.018141241744160652 559:0.027977509424090385 668:0.09536518901586533 706:0.007421710528433323 935:0.027977509424090385 1007:0.03983404114842415 1241:0.04319019615650177 1280:0.027977509424090385 1312:0.009364388883113861 1409:0.09814982861280441 1486:0.08809798210859299 1596:0.024537457153201103 1773:0.03719261288642883 1955:0.03719261288642883 2313:0.14877045154571533 2766:0.033209025859832764 3121:0.04319019615650177 3511:0.06708133965730667 3512:0.06708133965730667
-6.825447753487586 28:0.0010873464634642005 35:0.0014493806520476937 57:0.013296635821461678 64:0.004371301736682653 170:0.05730630084872246 214:0.01677142269909382 227:0.011345922946929932 247:0.018120817840099335 250:0.10213159769773483 457:0.009469142183661461 670:0.05730630084872246 878:0.020014159381389618 1072:0.011972244828939438 1219:0.01764685846865177 1630:0.02165304683148861 1654:0.014598802663385868 1830:0.17625170946121216 1831:0.05730630084872246 1832:0.05730630084872246 1835:0.22922520339488983 1836:0.05730630084872246 2004:0.04406292736530304
-4.55393747921214 22:0.006508893799036741 51:0.0551316998898983 64:7.976316846907139E-4 96:0.011527127586305141 1268:0.046210937201976776 1409:0.0950513556599617 2440:0.046210937201976776 3165:0.046210937201976776 3429:0.05276107043027878 3642:0.1848437488079071 3672:0.06496366113424301 3673:0.06496366113424301 3674:0.06496366113424301 3675:0.25985464453697205
-4.629737039679293 11:0.0064408062025904655 35:0.0018838092219084501 58:0.0018442737637087703 101:0.026683568954467773 157:0.020692655816674232 217:0.0056884391233325005 221:0.010328889824450016 260:0.006224197335541248 329:0.022275155410170555 392:0.007836931385099888 524:0.0077581992372870445 773:0.015384378843009472 928:0.015384378843009472 951:0.028506625443696976 1147:0.02684907428920269 1288:0.019383426755666733 1375:0.0365733839571476 1436:0.0058739217929542065 1455:0.009688171558082104 1538:0.01880696229636669 1623:0.02684907428920269 1636:0.010610375553369522 1753:0.01417328417301178 1842:0.017777346074581146 2306:0.05141511932015419 2307:0.0365733839571476 2308:0.20566047728061676 2309:0.03310352936387062 2310:0.04175744578242302 2311:0.04175744578242302 2312:0.1462935358285904 2313:0.028506625443696976 2314:0.05141511932015419
-1.4858023225431565 49:0.042596351355314255 64:0.002042663749307394 101:0.02158529870212078 156:0.0750826820731163 542:0.03214535862207413 1486:0.21848882734775543 1644:0.013234501704573631 1977:0.42845815420150757 2709:0.16636615991592407
-6.794400981358233 47:0.010067207738757133 64:0.005235850345343351 79:0.021137025207281113 80:0.03415805473923683 137:0.009579748846590519 140:0.03189954534173012 274:0.02230512909591198 319:0.03058275207877159 466:0.03189954534173012 542:0.0205991193652153 800:0.06330645829439163 830:0.05910855159163475 1274:0.04618758708238602 1654:0.017486128956079483 1976:0.02433878555893898 2007:0.06330645829439163 2161:0.05910855159163475 2678:0.10660936683416367 2679:0.06330645829439163 2680:0.10660936683416367 2681:0.08658415824174881 2682:0.08658415824174881
16.911481475559007 35:5.167161580175161E-4 64:0.001558405114337802 96:0.09008636325597763 101:0.06587210297584534 137:0.01140531338751316 196:0.06628067791461945 305:0.035683032125234604 636:0.08172067254781723 810:0.041672803461551666 878:0.028540849685668945 968:0.17097218334674835 1319:0.01859031431376934 1616:0.08172067254781723 1933:0.07537044584751129 2243:0.10308407247066498 3476:0.12692537903785706
10.767176832363045 35:2.081603743135929E-4 51:0.01084839180111885 54:0.02670133486390114 64:6.27807283308357E-4 72:0.025313308462500572 120:0.05236750468611717 141:0.020578792318701744 167:0.10125323385000229 168:0.04152766987681389 172:0.017219141125679016 174:0.199373260140419 175:0.01084839180111885 227:0.0065180156379938126 243:0.015640953555703163 604:0.02834976464509964 1200:0.07269133627414703 1470:0.03637213259935379 1472:0.04152766987681389 3394:0.03637213259935379 3416:0.20452880859375 3417:0.0511322021484375
18.750986905228714 11:0.007405560929328203 22:0.0014807619154453278 35:9.626582032069564E-4 47:0.0055824164301157 64:7.258392288349569E-4 190:0.018499981611967087 194:0.0070373378694057465 245:0.005238618701696396 260:0.007156506646424532 304:0.09516865760087967 457:0.006289270240813494 630:0.05659375712275505 885:0.030870741233229637 1327:0.03806203603744507 1384:0.024655617773532867 2521:0.048012204468250275 2934:0.14041748642921448 3110:0.04205163195729256 3392:0.16820652782917023 3536:0.05911647900938988 3537:0.05911647900938988 3538:0.05911647900938988 3539:0.05911647900938988 3540:0.05911647900938988
13.219421467240627 22:0.003700871020555496 35:1.5037333650980145E-4 58:0.001324957120232284 64:4.535228363238275E-4 73:0.05251162126660347 101:0.004792480263859034 167:0.018286125734448433 251:0.005518107209354639 260:0.0044715674594044685 341:0.014375017024576664 572:0.021934105083346367 576:0.02627492882311344 579:0.011298895813524723 591:0.10509971529245377 728:0.06401138007640839 817:0.009627383202314377 1030:0.02627492882311344 1170:0.10509971529245377 1309:0.0067918626591563225 1573:0.018286125734448433 1798:0.09512851387262344 3046:0.02378212846815586 3493:0.11999698728322983 3501:0.029999246820807457 3502:0.11999698728322983 3600:0.03693748265504837 3601:0.03693748265504837 3602:0.03693748265504837
-4.738543184359502 35:0.008558033965528011 64:0.006452712696045637 96:0.02331315539777279 111:0.022026751190423965 201:0.04111621901392937 214:0.09902877360582352 217:0.014536261558532715 293:0.04542830213904381 299:0.07801948487758636 300:0.04313747212290764 301:0.09345977008342743 302:0.04019010812044144 303:0.027489056810736656 304:0.21151240170001984 305:0.036937177181243896 306:0.04953249171376228 307:0.1313864141702652 308:0.027875414118170738
-3.3672906407945864 22:0.004440445452928543 28:0.0021657028701156378 35:0.0028867782093584538 47:0.016740312799811363 64:0.008706462569534779 350:0.08362340927124023 1103:0.026483338326215744 1200:0.25202175974845886 1496:0.0925738587975502 1625:0.05820417404174805 1645:0.06793539226055145 2307:0.12610262632369995 2420:0.14397694170475006 2421:0.11413880437612534
-5.306648217620296 28:0.001834444236010313 35:6.113065755926073E-4 120:0.03844704106450081 164:0.10681439936161041 256:0.03778340294957161 278:0.08325503021478653 279:0.08325503021478653 359:0.03536663576960564 1270:0.07433784008026123 1666:0.023853378370404243 1885:0.065055713057518 1941:0.05336833745241165 1958:0.06043393909931183 2461:0.10681439936161041 3227:0.12195471674203873 3228:0.10681439936161041
-1.4669215230141297 35:0.0019253824139013886 64:0.0014517282834276557 227:0.015072120353579521 706:0.0130814453586936 1063:0.04324951767921448 1097:0.04758596047759056 1099:0.04601448029279709 1200:0.1680898815393448 1613:0.07021114975214005 1650:0.0655553862452507 2176:0.04457518830895424 2217:0.2808445990085602 2558:0.08410614728927612 3041:0.11823701113462448
-3.676730187672382 28:0.006884255446493626 35:2.548995253164321E-4 60:0.03856600075960159 98:0.022253258153796196 120:0.016031451523303986 137:0.005626317113637924 172:0.021085429936647415 190:0.019594229757785797 294:0.013473913073539734 423:0.034715261310338974 640:0.029535438865423203 671:0.014985299669206142 765:0.018338581547141075 833:0.050852060317993164 877:0.03718074411153793 983:0.005828522611409426 1068:0.17815570533275604 1489:0.050852060317993164 1552:0.06261313706636429 1553:0.06261313706636429 1554:0.20340824127197266 1555:0.04453892633318901 1556:0.06261313706636429
14.178719969875758 7:0.0069196089170873165 22:0.001091098296456039 28:0.002128610387444496 35:1.7733348067849874E-4 84:0.007302762940526009 143:0.019659025594592094 151:0.022747080773115158 206:0.013956771232187748 242:0.019659025594592094 339:0.013956771232187748 345:0.10346651077270508 731:0.0241513904184103 743:0.01753123849630356 795:0.0241513904184103 1268:0.03098571114242077 1353:0.03098571114242077 1649:0.010960559360682964 1844:0.020547792315483093 2106:0.022747080773115158 2859:0.10346651077270508 3397:0.03098571114242077 3398:0.043559931218624115 3399:0.043559931218624115 3400:0.043559931218624115 3401:0.043559931218624115 3402:0.17423972487449646 3403:0.12394284456968307
-4.608451888595203 22:0.016691798344254494 37:0.0237236600369215 64:9.09108726773411E-4 234:0.029799524694681168 241:0.009780342690646648 271:0.04396798461675644 294:0.015933537855744362 427:0.06013495847582817 525:0.04396798461675644 548:0.03866539150476456 568:0.03207848593592644 596:0.03492705151438713 597:0.07404299080371857 598:0.24053983390331268 599:0.03866539150476456 600:0.29617196321487427
-4.473633279748198 28:0.0010666794842109084 32:0.01754073239862919 64:0.001072054379619658 130:0.02159886434674263 341:0.03398020565509796 518:0.041187260299921036 791:0.19364213943481445 795:0.19364213943481445 930:0.03514069318771362 982:0.015863116830587387 1310:0.07091335207223892 1311:0.07091335207223892 1312:0.012188847176730633 1313:0.06210966780781746 1314:0.07091335207223892 1315:0.08731421083211899 1316:0.07091335207223892
-6.846474415439623 28:0.0013475822051987052 217:0.012204177677631378 258:0.015845302492380142 297:0.027755675837397575 662:0.04158588871359825 668:0.03920436277985573 864:0.054608553647994995 882:0.05760295316576958 928:0.03300618752837181 1077:0.06550265103578568 1078:0.11030780524015427 1079:0.049782998859882355 1080:0.07846581935882568 1081:0.11030780524015427 1082:0.06550265103578568 1083:0.06550265103578568 1084:0.06115911900997162 1085:0.11030780524015427
-1.3245301623723058 45:0.03097691386938095 64:0.0019183220574632287 236:0.05005960538983345 240:0.04072214290499687 256:0.03931291028857231 543:0.04779234901070595 680:0.27075690031051636 702:0.05890190973877907 749:0.05552873760461807 793:0.03224256634712219 992:0.07734710723161697 1079:0.07051222771406174 1266:0.06768922507762909 1276:0.1562390774488449
-3.084876574740717 11:0.024777265265583992 28:0.002416311763226986 35:0.003220828017219901 137:0.017773080617189407 471:0.04026825726032257 506:0.07960298657417297 947:0.09791706502437592 1684:0.11745096743106842 2104:0.11745096743106842 2158:0.14069487154483795 2610:0.19778984785079956 2611:0.16063754260540009
-1.8648049192013338 35:3.4261998371221125E-4 84:0.05643767863512039 190:0.026337336748838425 192:0.03798253461718559 194:0.0901678055524826 247:0.01713436469435692 515:0.03078484535217285 519:0.0416642501950264 552:0.03969968855381012 765:0.024649573490023613 898:0.15193013846874237 977:0.0416642501950264 1072:0.011320505291223526 1419:0.022339100018143654 1960:0.049976032227277756 3353:0.2734086215496063 3354:0.08416066318750381
-2.719081044289508 15:0.019910236820578575 22:0.005319320131093264 35:8.645358611829579E-4 84:0.14240966737270355 130:0.05253218114376068 338:0.11774281412363052 339:0.06804202497005463 340:0.09200455993413925 341:0.08264575153589249 342:0.126104936003685 343:0.08006066083908081 344:0.21236330270767212
-5.469867959394973 11:0.06038003787398338 22:0.012073151767253876 35:4.9055484123528E-4 117:0.03770914673805237 137:0.010827862657606602 274:0.025211192667484283 313:0.04849638789892197 524:0.01818251982331276 595:0.056841034442186356 749:0.04282645881175995 1408:0.07155444473028183 1820:0.04282645881175995 1842:0.041663914918899536 2219:0.07155444473028183 2367:0.1204991564154625 2368:0.1204991564154625 2369:0.09786492586135864 2370:0.1204991564154625
-4.517436665027443 22:0.0025907435920089483 35:4.210670886095613E-4 64:0.005079718306660652 71:0.026025153696537018 135:0.04878942668437958 154:0.04667910560965538 191:0.06141866743564606 260:0.012521035969257355 316:0.07357360422611237 349:0.054011497646570206 683:0.06659340113401413 951:0.05734594538807869 1015:0.05120379477739334 1103:0.015451498329639435 3293:0.08400223404169083 3338:0.10343029350042343 3339:0.08400223404169083 3340:0.10343029350042343 3341:0.10343029350042343
-3.478051771365235 35:4.154716443736106E-4 52:0.06060248613357544 64:0.001253053778782487 236:0.032699085772037506 513:0.08288594335317612 514:0.08288594335317612 515:0.03733065724372864 516:0.05052335932850838 517:0.10205583274364471 518:0.048141077160835266 519:0.05052335932850838 520:0.2263355553150177 521:0.10205583274364471 522:0.0657084584236145 523:0.056583888828754425
9.057280562311801 22:0.0012377352686598897 28:6.03670661803335E-4 35:2.0116602536290884E-4 58:0.0017724974313750863 111:0.008284209296107292 117:0.015463713556528091 227:0.006299005355685949 304:0.019887330010533333 391:0.11737178266048431 523:0.10958876460790634 810:0.016223901882767677 872:0.01807502470910549 953:0.14060001075267792 994:0.025804150849580765 1309:0.009085998870432377 1320:0.025804150849580765 1436:0.022581271827220917 1483:0.02934294566512108 2333:0.031815189868211746 3390:0.1605292409658432 3391:0.049414120614528656 3392:0.14060001075267792 3393:0.049414120614528656
-9.446153401519595 55:0.07954782247543335 58:0.0035133364144712687 60:0.01508218701928854 64:0.0012025885516777635 185:0.029307199642062187 205:0.025077981874346733 228:0.02809741720557213 403:0.06306213140487671 458:0.018009712919592857 560:0.04243411123752594 562:0.03692537546157837 635:0.06306213140487671 708:0.027535848319530487 1204:0.09794566035270691 1205:0.05114741250872612 1206:0.09794566035270691 1207:0.06306213140487671 1208:0.09794566035270691 1209:0.07954782247543335 1210:0.07954782247543335
-5.149519395440374 7:0.006289220880717039 56:0.01333274133503437 58:0.001420159125700593 245:0.03157571703195572 296:0.021951157599687576 302:0.01211075484752655 424:0.010706998407840729 479:0.010508941486477852 551:0.16081248223781586 562:0.014925956726074219 640:0.018675852566957474 720:0.011846541427075863 803:0.01960003562271595 804:0.011595853604376316 854:0.02351013384759426 859:0.0056871771812438965 876:0.014925956726074219 904:0.16808266937732697 983:0.003685492090880871 1014:0.03215477988123894 1063:0.014482058584690094 1161:0.02816285938024521 1328:0.02816285938024521 1515:0.09404053539037704 1625:0.012998903170228004 1883:0.02549094334244728 3106:0.02816285938024521 3107:0.03959154710173607 3108:0.03959154710173607 3109:0.03959154710173607 3110:0.02816285938024521 3111:0.02816285938024521
-0.43378619385081235 15:0.045117612928152084 228:0.13804806768894196 1607:0.18142154812812805 1675:0.1541866958141327 1819:0.4812260568141937
-1.8353638240246355 35:0.004793732427060604 47:0.012354960665106773 58:0.004693126305937767 540:0.033499252051115036 743:0.0526566356420517 809:0.06832288205623627 810:0.04295680299401283 1197:0.04406002163887024 1205:0.06832288205623627 1484:0.08423860371112823 1519:0.0526566356420517 1581:0.42504096031188965 1644:0.04163229092955589 1671:0.06477122753858566
-2.1704018529395515 7:0.022344879806041718 22:0.0035233867820352316 35:0.0022905890364199877 47:0.013283034786581993 64:0.006908368784934282 80:0.045069362968206406 228:0.040351979434490204 260:0.01702849008142948 331:0.06348314136266708 458:0.02586456947028637 467:0.24376623332500458 706:0.015562734566628933 720:0.04208940267562866 888:0.03733706474304199 1645:0.013476275838911533 1651:0.04401962831616402 1844:0.06635316461324692 1857:0.045069362968206406 1905:0.04736969992518425 2054:0.09056639671325684 2694:0.11424224078655243
-6.313430007015186 35:3.91224428312853E-4 64:0.001179924700409174 137:0.07771836966276169 141:0.03867655619978905 236:0.030790744349360466 359:0.02263396605849266 369:0.04533153027296066 433:0.03155198320746422 471:0.01956506446003914 503:0.03867655619978905 568:0.04163439944386482 586:0.0570656880736351 735:0.07804866880178452 736:0.09609978646039963 737:0.047574784606695175 738:0.0618736669421196 739:0.03867655619978905 740:0.04163439944386482 741:0.09609978646039963 742:0.09609978646039963 743:0.03867655619978905
-6.143537211627502 17:0.05761029198765755 35:3.6426729639060795E-4 297:0.022514494135975838 422:0.13091953098773956 509:0.0251553226262331 793:0.018465308472514153 1089:0.04961027204990387 1301:0.07267076522111893 1632:0.014364843256771564 1645:0.008572408929467201 1680:0.04038233309984207 1798:0.05761029198765755 1823:0.020745543763041496 1861:0.04961027204990387 1905:0.030132392421364784 2127:0.030132392421364784 2512:0.06364890187978745 2757:0.07267076522111893 2890:0.07267076522111893 3266:0.07267076522111893 3267:0.08947807550430298
-2.8488207815701134 28:0.0014561084099113941 35:0.0019409226952120662 60:0.01835370808839798 325:0.04797004163265228 542:0.02303021401166916 772:0.03419211134314537 1151:0.029990950599312782 1275:0.07674112170934677 1443:0.07077784091234207 1696:0.04797004163265228 1697:0.039133522659540176 1920:0.19884377717971802 2058:0.09680276364088058 2059:0.11919133365154266 2060:0.09680276364088058 2061:0.09680276364088058
-3.9219949022877194 15:0.04960596188902855 22:0.003313245251774788 35:0.004846441559493542 58:0.004744729492813349 64:0.0016240851255133748 111:0.0887027159333229 247:0.026929963380098343 258:0.019000770524144173 415:0.09409167617559433 641:0.0470116026699543 690:0.07333847135305405 1023:0.04238133877515793 1103:0.019760582596063614 1219:0.02622559852898121 1335:0.03646335005760193 1520:0.038741566240787506 1547:0.09409167617559433 1658:0.03794531151652336 2520:0.10742861777544022 2548:0.05147756636142731 2695:0.13227473199367523
-6.089668109940207 7:0.014953117817640305 22:0.009431354701519012 35:3.832136280834675E-4 37:0.030160265043377876 64:0.0011557642137631774 167:0.04660063236951828 169:0.04660063236951828 215:0.06060672551393509 229:0.03443223610520363 583:0.055897194892168045 1145:0.05219060555100441 1197:0.03169964253902435 1246:0.055897194892168045 2472:0.06060672551393509 2557:0.06695941835641861 2934:0.055897194892168045 3312:0.09413202106952667 3313:0.09413202106952667 3314:0.09413202106952667 3315:0.09413202106952667
9.743752160859785 11:0.024506090208888054 28:0.002389866393059492 35:1.990986056625843E-4 47:0.004618259146809578 58:0.007017124444246292 64:6.004772149026394E-4 103:0.009449698030948639 378:0.00910265278071165 551:0.02207188494503498 810:0.01605716533958912 1349:0.020397266373038292 1409:0.01788926310837269 1570:0.027115624397993088 1830:0.024211352691054344 1950:0.024211352691054344 1955:0.10846249759197235 2313:0.10846249759197235 2615:0.03478875756263733 2859:0.029041381552815437 3051:0.03971986100077629 3121:0.031488217413425446 3318:0.03478875756263733 3477:0.19562512636184692 3478:0.15887944400310516 3479:0.04890628159046173
-1.596083763181439 11:0.023906702175736427 22:0.004780210088938475 28:0.009325654245913029 64:0.002343161264434457 93:0.06265771389007568 310:0.08267994970083237 314:0.03938312828540802 481:0.06265771389007568 497:0.07426965236663818 552:0.09002192318439484 1025:0.048862725496292114 1219:0.037837181240320206 1280:0.07959350198507309 2899:0.19084039330482483 2900:0.19084039330482483
-1.6988773300194808 35:4.860545741394162E-4 64:0.0014659304870292544 241:0.015770724043250084 243:0.036521635949611664 250:0.0342501662671566 319:0.0342501662671566 337:0.03825421258807182 372:0.03228841722011566 378:0.022222084924578667 874:0.06234763190150261 878:0.02684725634753704 965:0.07687142491340637 1342:0.09696713835000992 1431:0.3397158086299896 1925:0.06234763190150261 2371:0.1193937212228775
-5.117571565775382 28:0.001106162671931088 67:0.04086436703801155 160:0.033120568841695786 178:0.01664913259446621 457:0.009633002802729607 471:0.018434392288327217 585:0.07353821396827698 618:0.03523798659443855 624:0.053767841309309006 860:0.053767841309309006 891:0.053767841309309006 894:0.05020245164632797 1063:0.033120568841695786 1153:0.04086436703801155 2398:0.05020245164632797 2536:0.0905461460351944 2537:0.0905461460351944 2538:0.0905461460351944 2539:0.07353821396827698 2540:0.0905461460351944
-1.6372984852898365 11:0.00931175984442234 22:0.0018619116162881255 51:0.01577078364789486 58:0.0026663485914468765 103:0.014362686313688755 194:0.008848755620419979 458:0.013667969033122063 488:0.03354726731777191 1309:0.013667969033122063 1364:0.06037059426307678 1383:0.2115030586719513 1482:0.04121329262852669 3324:0.052875764667987823 3617:0.2973324954509735 3618:0.07433312386274338 3619:0.07433312386274338 3620:0.07433312386274338
-3.500088830199584 22:0.0015134706627577543 28:7.381528848782182E-4 64:0.002967489417642355 111:0.01012971717864275 160:0.022101672366261482 205:0.015470513142645359 293:0.02089168131351471 554:0.027269180864095688 580:0.035879794508218765 713:0.0490727499127388 724:0.028501996770501137 725:0.0490727499127388 726:0.06042230874300003 727:0.06042230874300003 728:0.02617744170129299 729:0.24168923497200012 730:0.06042230874300003 731:0.03350057452917099 732:0.0490727499127388 733:0.15561115741729736 734:0.0490727499127388
-3.085163724643717 22:0.0017149107297882438 35:0.0011148806661367416 64:8.406141423620284E-4 137:0.0061521027237176895 221:0.055015821009874344 276:0.008288145065307617 515:0.025043362751603127 534:0.020942743867635727 542:0.05291491746902466 1107:0.03795943781733513 1312:0.009557461366057396 1583:0.03389371931552887 1584:0.04408067837357521 1585:0.2224169671535492 1586:0.06846440583467484 1587:0.17632271349430084 1588:0.0556042417883873 1589:0.06846440583467484 1590:0.0556042417883873 1591:0.0556042417883873
-2.8627705994488535 58:0.02184665948152542 190:0.04764894023537636 229:0.055695272982120514 239:0.07951132953166962 385:0.04764894023537636 515:0.055695272982120514 622:0.06350352615118027 643:0.07537805289030075 675:0.1083090603351593 1107:0.08442002534866333 1158:0.08442002534866333 1159:0.1522616446018219 1160:0.12366124242544174
-4.053584517133874 11:0.017545921728014946 35:5.702041671611369E-4 79:0.027769964188337326 93:0.04598657786846161 118:0.05637054145336151 126:0.05280396714806557 227:0.01785450056195259 504:0.03861059248447418 524:0.021134739741683006 701:0.07314174622297287 708:0.039376769214868546 1105:0.1400640904903412 1106:0.2773583233356476 1107:0.07765720784664154 1108:0.11375484615564346
-3.226189580135496 47:0.007556678727269173 101:0.041530802845954895 217:0.008853592909872532 283:0.017728205770254135 285:0.04436824470758438 357:0.04751928523182869 360:0.013718850910663605 456:0.024478569626808167 599:0.04178840294480324 687:0.04751928523182869 716:0.015661386772990227 793:0.016514187678694725 1103:0.011954739689826965 1366:0.03961609676480293 1402:0.06499207019805908 1483:0.04751928523182869 1548:0.19007714092731476 1549:0.06499207019805908 1550:0.20609180629253387 1551:0.04751928523182869
-1.2161832805394344 35:4.3106303201057017E-4 185:0.031683001667261124 811:0.06817429512739182 921:0.05529370903968811 1161:0.07532020658254623 1162:0.08599640429019928 1163:0.10588567703962326 1164:0.10588567703962326 1165:0.42354270815849304 1166:0.047787245362997055
-1.782616603067409 28:0.0077336435206234455 35:2.863493573386222E-4 60:0.010831080377101898 64:8.63623630721122E-4 84:0.011792140081524849 178:0.01293344609439373 245:0.024932214990258217 251:0.010507889091968536 343:0.10606994479894638 375:0.021515991538763046 378:0.013091698288917542 442:0.034821465611457825 456:0.021515991538763046 468:0.03317955881357193 959:0.031744420528411865 1319:0.010302221402525902 1442:0.023686975240707397 1648:0.01977451704442501 1679:0.20283034443855286 1744:0.010613599792122841 1746:0.029335936531424522 1754:0.01938975416123867 1761:0.022536704316735268 1859:0.038998473435640335 1970:0.09474790096282959 2677:0.04528726264834404 2921:0.0703384205698967 2922:0.0703384205698967
-2.8039636836455464 28:0.0059270854108035564 35:2.1945891785435379E-4 60:0.008300969377160072 97:0.024329010397195816 245:0.019108116626739502 251:0.00805327482521534 310:0.02335498295724392 343:0.0812922939658165 375:0.016489913687109947 378:0.010033512488007545 468:0.025428904220461845 630:0.01290178019553423 689:0.026687264442443848 841:0.034708280116319656 866:0.020323073491454124 959:0.024329010397195816 1312:0.007525361608713865 1542:0.028150631114840508 1679:0.15544971823692322 1744:0.008134291507303715 1754:0.014860359020531178 1970:0.07261504977941513 1972:0.08678307384252548 1982:0.13883312046527863 2148:0.05390755832195282 2149:0.038346342742443085 2150:0.05390755832195282
-2.205964930363314 11:0.01222308725118637 15:0.009148049168288708 28:0.0047680470161139965 45:0.01934550330042839 47:0.00921393558382988 64:0.0011980182025581598 84:0.01635804958641529 137:0.03507117182016373 203:0.023352397605776787 275:0.18410664796829224 859:0.12614449858665466 1072:0.013124663382768631 1309:0.017941268160939217 1349:0.16277918219566345 1632:0.015664473176002502 1635:0.017726995050907135 1636:0.08054367452859879 1721:0.010300836525857449 1777:0.04602666199207306 1895:0.024982674047350883 2159:0.05409865453839302 2495:0.057940755039453506 2756:0.057940755039453506
-1.6005833204870659 35:2.669401583261788E-4 56:0.022081436589360237 64:8.050858741626143E-4 256:0.016498934477567673 348:0.10555911064147949 361:0.013718914240598679 362:0.2622831165790558 363:0.04664279893040657 364:0.06557077914476395 365:0.06557077914476395 366:0.06557077914476395 367:0.2622831165790558 368:0.04221762344241142 369:0.030930597335100174
-2.489432340763441 28:6.489732186309993E-4 35:8.650501840747893E-4 45:0.04212949424982071 58:0.0019055146258324385 86:0.020027073100209236 94:0.018880169838666916 120:0.013601448386907578 180:0.018880169838666916 249:0.043144043534994125 348:0.08551910519599915 563:0.02774062566459179 662:0.020027073100209236 708:0.014934510923922062 773:0.015895232558250427 933:0.031544990837574005 1317:0.1725761741399765 1318:0.05312240868806839 1319:0.007780652493238449 1320:0.11096250265836716 1321:0.05312240868806839 1322:0.05312240868806839 1323:0.03420276194810867 1324:0.05312240868806839 1325:0.05312240868806839 1326:0.05312240868806839
-3.582225050270287 16:0.03499872609972954 22:0.003118283813819289 35:0.0020272275432944298 64:0.0015285189729183912 67:0.05618413910269737 137:0.04474635794758797 175:0.10565008223056793 185:0.037250153720378876 217:0.013773402199149132 954:0.05872417613863945 1224:0.0690230131149292 1381:0.06500959396362305 1873:0.08015348017215729 2187:0.10110718756914139 2385:0.10110718756914139 2386:0.10110718756914139 2387:0.12449128180742264
-1.3776642820703446 11:0.014385474845767021 28:0.0014028906589373946 35:4.6749651664867997E-4 54:0.23986855149269104 110:0.03970552235841751 113:0.04621683806180954 163:0.05182623118162155 165:0.11972250044345856 217:0.012705070897936821 377:0.0446905717253685 421:0.0681910589337349 509:0.03228405490517616 749:0.040813419967889786 861:0.05684983730316162 862:0.06366925686597824 1018:0.09326483309268951 1019:0.07393639534711838
-2.2132822488967503 7:0.014716995880007744 35:3.771623596549034E-4 58:0.0033232218120247126 64:0.010237623937427998 126:0.034927260130643845 305:0.026045821607112885 334:0.038639556616544724 630:0.022173015400767326 668:0.03292705863714218 702:0.034927260130643845 1100:0.02772131934762001 1103:0.013840368017554283 1241:0.059649694710969925 1245:0.0458647683262825 1646:0.02713470160961151 1666:0.014716995880007744 2018:0.1748085916042328 2020:0.06590206921100616 2021:0.19351884722709656 2294:0.09264560043811798 2295:0.06590206921100616
-3.332723640626992 28:0.017369521781802177 35:6.431316724047065E-4 58:0.0056667085736989975 100:0.04117535054683685 101:0.08198782801628113 178:0.029048113152384758 284:0.05462260544300079 314:0.03260140120983124 456:0.04832424595952034 471:0.032162901014089584 487:0.04354877769947052 924:0.07452025264501572 929:0.017070254310965538 963:0.044412948191165924 983:0.014705823734402657 1341:0.08249636739492416 1749:0.061480503529310226 1750:0.07129697501659393 1946:0.08249636739492416 1976:0.03606615588068962 2189:0.12830376625061035
-2.09614359533508 151:0.025398992002010345 223:0.016817215830087662 245:0.017240356653928757 424:0.013153559528291225 450:0.08428841829299927 518:0.02294330485165119 548:0.025398992002010345 1015:0.024078665301203728 1075:0.031315650790929794 1486:0.01596916653215885 3155:0.039502181112766266 3497:0.039502181112766266 3605:0.19455303251743317 3606:0.19455303251743317 3607:0.15800872445106506 3608:0.04863825812935829 3609:0.04863825812935829
-2.2224621792706483 28:0.008159410208463669 35:0.0027190258260816336 47:0.015767522156238556 118:0.0672009140253067 205:0.04275207221508026 361:0.0349348708987236 567:0.18411511182785034 1048:0.036453183740377426 1072:0.022459829226136208 1100:0.04996189475059509 1645:0.01599690690636635 1744:0.025195319205522537 1866:0.12431201338768005 1924:0.02799302153289318 2127:0.05622982978820801 2877:0.16697435081005096 2878:0.11877472698688507
-3.6531333150210914 35:5.53631572984159E-4 258:0.019534917548298836 284:0.04702116176486015 424:0.03677752986550331 457:0.014468016102910042 616:0.04465000703930855 694:0.051269255578517914 706:0.015045947395265102 1187:0.04833318665623665 1486:0.04465000703930855 1721:0.014356818981468678 1844:0.06414978951215744 1866:0.025311658158898354 1910:0.04357275739312172 1917:0.06732427328824997 1918:0.03677752986550331 2101:0.09673676639795303 2721:0.09673676639795303 2726:0.13599322736263275 2727:0.09673676639795303
-1.1615209010194996 35:3.9243671926669776E-4 47:0.009102899581193924 71:0.024255577474832535 178:0.017725059762597084 361:0.020168587565422058 567:0.026573315262794495 772:0.027653319761157036 982:0.017513368278741837 1072:0.012966499663889408 1319:0.014119013212621212 1869:0.1410437673330307 1900:0.18188799917697906 1924:0.01616092026233673 2012:0.05724251642823219 2014:0.04772220551967621 2015:0.19088882207870483 2016:0.07829051464796066 2017:0.04772220551967621 2878:0.06857097893953323
-0.9264046525648809 58:0.0039392560720443726 114:0.24869537353515625 228:0.031503647565841675 300:0.036056529730558395 424:0.029699213802814484 622:0.045802269130945206 680:0.047578372061252594 793:0.022663114592432976 896:0.07070711255073547 1065:0.2828284502029419 1167:0.10981954634189606 1168:0.07070711255073547
-3.9648489649011056 22:0.0021178037859499454 28:0.0010328993666917086 35:0.0013768054777756333 45:0.016763223335146904 58:0.003032798646017909 60:0.013019315898418427 145:0.04687745124101639 225:0.027089862152934074 245:0.007492336444556713 524:0.01275789737701416 902:0.03402784466743469 905:0.03815784305334091 1114:0.04687745124101639 1748:0.05020669847726822 1823:0.019602760672569275 1869:0.030926933512091637 1957:0.06014275550842285 2111:0.04687745124101639 2458:0.05020669847726822 2464:0.08454910665750504 2465:0.08454910665750504 2466:0.08454910665750504 2467:0.08454910665750504 2468:0.08454910665750504 2469:0.06866763532161713
-0.4343338067210185 35:3.2784129143692553E-4 58:0.002888648072257638 64:9.887624764814973E-4 68:0.22913654148578644 223:0.027844291180372238 622:0.03358670696616173 630:0.01927347667515278 793:0.016618814319372177 803:0.039867088198661804 829:0.039867088198661804 1089:0.04464934021234512 1090:0.05728413537144661 1091:0.4303831160068512 1092:0.05728413537144661
-3.395786042447662 32:0.019670996814966202 57:0.014628049917519093 58:0.014049410820007324 79:0.019413867965340614 370:0.07952554523944855 439:0.09791823476552963 440:0.058145515620708466 441:0.07952554523944855 442:0.04847501963376999 443:0.0461893193423748 444:0.07952554523944855 445:0.09791823476552963 446:0.07952554523944855 447:0.09791823476552963 448:0.06965268403291702 449:0.09791823476552963
-5.283455214025312 58:0.0021855602972209454 71:0.015331116504967213 79:0.012080272659659386 110:0.021067079156637192 130:0.015072115696966648 137:0.021900145336985588 186:0.17336542904376984 238:0.036181025207042694 253:0.030163563787937164 339:0.019522076472640038 510:0.014822735451161861 540:0.015600397251546383 591:0.17336542904376984 706:0.006741096265614033 806:0.04334135726094246 824:0.0494847446680069 861:0.030163563787937164 1644:0.004846975672990084 1816:0.03181754797697067 3044:0.060929588973522186 3045:0.060929588973522186 3046:0.03922940045595169 3047:0.060929588973522186 3048:0.060929588973522186
-1.1336660874065239 28:0.0015853296499699354 58:0.0046548438258469105 103:0.02507401444017887 320:0.05856597423553467 803:0.0642428770661354 878:0.02918025106191635 1185:0.08355145901441574 1312:0.018115416169166565 1720:0.2248849868774414 2037:0.06776556372642517 2279:0.06776556372642517 2373:0.2710622549057007 2485:0.08355145901441574
-2.8337702720724742 5:0.04605938121676445 15:0.011805577203631401 28:0.001538293669000268 35:0.00205047195777297 58:0.0045167370699346066 250:0.036121971905231476 276:0.015243432484567165 375:0.038517579436302185 470:0.11498833447694778 1136:0.08107252418994904 1277:0.06575499475002289 1436:0.014385586604475975 1721:0.013293251395225525 1737:0.04353778436779976 1770:0.16961616277694702 1895:0.03224019333720207 2114:0.08107252418994904 2881:0.10226649045944214 2882:0.1259187012910843
-0.02003050932670996 113:0.032396554946899414 276:0.009744643233716488 314:0.016611672937870026 457:0.008563772775232792 506:0.032396554946899414 579:0.024623068049550056 916:0.03487412631511688 1072:0.010827546939253807 1602:0.1911991834640503 1894:0.13949650526046753 2488:0.03984995558857918 2661:0.04779979586601257 3633:0.06537572294473648 3634:0.2290380746126175 3636:0.06537572294473648 3643:0.051827095448970795
-1.9827652247994858 22:0.0086145531386137 28:0.004201507195830345 35:0.0031502293422818184 58:0.0030841154512017965 64:0.001055669505149126 111:0.014414384961128235 117:0.02690660022199154 137:0.007726002484560013 361:0.017988936975598335 372:0.023252056911587715 1225:0.0698295384645462 1335:0.023701496422290802 1841:0.03241423889994621 1872:0.031450238078832626 1874:0.03055795282125473 1878:0.05535789206624031 2322:0.2793181538581848 2323:0.0698295384645462 2381:0.05535789206624031 2382:0.0698295384645462 2383:0.08597972989082336 2384:0.08597972989082336
-6.913951946414605 11:0.02545321360230446 22:0.0012723598629236221 28:6.205578683875501E-4 32:0.010204602032899857 35:0.0018611412961035967 45:0.01007121242582798 47:0.004796748515218496 58:0.0018220815109089017 60:0.007821902632713318 64:0.0155921196565032 203:0.012157190591096878 221:0.010204602032899857 245:0.01800534687936306 276:0.006149301305413246 297:0.012781411409378052 303:0.010627781972289085 308:0.04310862347483635 309:0.0251470860093832 314:0.010482700541615486 353:0.0361332930624485 360:0.008708306588232517 540:0.013005907647311687 706:0.005619989708065987 810:0.016677752137184143 837:0.04125497490167618 929:0.005488794296979904 935:0.02118559181690216 1035:0.023961348459124565 1244:0.023961348459124565 1623:0.02652599848806858 1632:0.00815487839281559 1681:0.015538246370851994 1688:0.010627781972289085 1763:0.0361332930624485 1820:0.01805349998176098 1976:0.10437086969614029 2167:0.023961348459124565 2190:0.0251470860093832 2717:0.032705191522836685 2857:0.04125497490167618 2858:0.05079643800854683 2859:0.03016378916800022 2860:0.05079643800854683 2861:0.05079643800854683 2862:0.05079643800854683
-3.5074478486701697 35:7.182570407167077E-4 645:0.06270533055067062 778:0.04863579198718071 793:0.03640962764620781 1634:0.08322509378194809 1648:0.04960090294480324 1753:0.04863579198718071 1823:0.04090576618909836 1905:0.05941461771726608 1924:0.02957851253449917 1933:0.10476807504892349 1941:0.06270533055067062 2470:0.07962530851364136 2471:0.09213291853666306 2488:0.08734352886676788 2585:0.1135951429605484
-2.0953923821578018 4:0.05606616288423538 35:6.777779199182987E-4 59:0.049816470593214035 228:0.04776008054614067 268:0.14330856502056122 457:0.017712324857711792 472:0.08242107182741165 616:0.05466232821345329 1309:0.12245187908411026 1771:0.10719321668148041 1772:0.1184290200471878 1773:0.09230788797140121 1774:0.10719321668148041
-3.0502560776318615 4:0.04226832836866379 11:0.015723437070846558 35:0.0020439093932509422 47:0.011852549389004707 111:0.021042536944150925 194:0.059766512364149094 251:0.01875085011124611 258:0.01802986115217209 260:0.015194647014141083 305:0.03528672456741333 455:0.056646473705768585 804:0.03676193580031395 1072:0.01688320003449917 1312:0.017521683126688004 1319:0.018383845686912537 1636:0.1036091297864914 1645:0.01202497910708189 1736:0.04339844733476639 1867:0.06213731691241264 2191:0.24854926764965057 2313:0.0695909932255745 2576:0.0745333656668663
-4.9839393168757775 22:0.002749721286818385 28:0.005364398006349802 51:0.023290717974305153 187:0.06086490675806999 258:0.015769077464938164 341:0.04272214695811272 518:0.051783330738544464 588:0.08915692567825317 613:0.051783330738544464 671:0.02627313882112503 1000:0.07067982107400894 1001:0.07067982107400894 1002:0.07808835804462433 1003:0.10977715998888016 1004:0.06518754363059998 1005:0.10977715998888016 1006:0.06086490675806999 1007:0.06518754363059998
-5.882057322621066 28:0.014356805011630058 35:2.9901458765380085E-4 49:0.018805989995598793 58:0.0026346526574343443 64:9.01821709703654E-4 111:0.012313706800341606 117:0.022985372692346573 152:0.024115322157740593 203:0.01757878251373768 294:0.015805821865797043 361:0.015367322601377964 968:0.024734651669859886 1072:0.00987973902374506 1177:0.04361555725336075 1190:0.05224720761179924 1949:0.04729032143950462 1960:0.04361555725336075 2081:0.05965294688940048 2747:0.05965294688940048 2923:0.07344949245452881 2924:0.07344949245452881 2925:0.07344949245452881 2926:0.07344949245452881 2927:0.07344949245452881 2928:0.07344949245452881 2929:0.07344949245452881
-3.7330067413833383 5:0.027500364929437637 28:0.003673834726214409 35:3.060653689317405E-4 94:0.026720143854618073 120:0.019249437376856804 260:0.03640517592430115 312:0.04464401677250862 318:0.0392598919570446 386:0.03393012285232544 465:0.04464401677250862 481:0.024683963507413864 668:0.10688057541847229 1317:0.06105956435203552 1357:0.06105956435203552 1358:0.06105956435203552 1612:0.07518143951892853 1613:0.04464401677250862 1614:0.2139168083667755 1615:0.07518143951892853
-3.322560633427779 35:0.001879895105957985 58:0.004140994045883417 167:0.057151082903146744 217:0.0127723952755332 243:0.03531334176659584 272:0.057151082903146744 314:0.02382374182343483 318:0.06028490141034126 336:0.07432818412780762 615:0.08211912959814072 784:0.07432818412780762 1024:0.04814790561795235 1195:0.09375903755426407 1196:0.115443654358387 1197:0.0388764888048172 1198:0.115443654358387 1199:0.06400664150714874 1200:0.041029687970876694
-2.7284493113345034 28:0.0010194774949923158 35:0.003057558089494705 58:0.002993389032781124 60:0.012850137427449226 101:0.04330935329198837 154:0.03766200318932533 305:0.0234607495367527 663:0.03766200318932533 668:0.02965901978313923 706:0.009232746437191963 968:0.028102543205022812 1083:0.04955429211258888 1131:0.033585671335458755 1368:0.02215058170258999 1644:0.006638519465923309 1645:0.03197973594069481 2551:0.27110135555267334 2552:0.04626830294728279 3033:0.059361234307289124 3084:0.08345043659210205 3085:0.08345043659210205 3086:0.08345043659210205
-0.8275137287871623 7:0.011386348865926266 22:0.0017954231007024646 28:0.003502669045701623 35:2.918056270573288E-4 37:0.022966133430600166 106:0.032349299639463425 172:0.024138323962688446 481:0.023533925414085388 714:0.1702561229467392 871:0.23285908997058868 882:0.03743075579404831 968:0.024138323962688446 969:0.4153517782688141
-0.8820756537128286 11:0.010652871802449226 22:0.0021300707012414932 28:0.0010388822993263602 64:0.0010441170306876302 96:0.06035703793168068 360:0.014578665606677532 682:0.0827517956495285 706:0.009408482350409031 708:0.02390730194747448 720:0.025445232167840004 935:0.03546701744198799 1596:0.031106069684028625 1654:0.013948118314146996 2125:0.03837886452674866 2216:0.06049111485481262 2347:0.2019900381565094 2619:0.04714897647500038 2693:0.34015536308288574
-1.9613311483415232 7:0.02810453623533249 11:0.0221631471067667 22:0.00443158159032464 49:0.04529908671975136 58:0.006346241571009159 101:0.02295488491654396 231:0.09809277206659317 377:0.06885304301977158 392:0.10786914080381393 429:0.09809277206659317 456:0.05411912873387337 1486:0.05808798596262932 1626:0.11391095817089081 1644:0.014074230566620827 2337:0.11391095817089081 3178:0.14368952810764313
-2.0414874606165774 22:0.003097675507888198 32:0.024844028055667877 35:5.034575005993247E-4 58:0.004436022602021694 64:0.006073668599128723 328:0.06457994878292084 360:0.021201161667704582 845:0.04395288601517677 928:0.03700397163629532 1100:0.03700397163629532 1409:0.18094518780708313 1445:0.06457994878292084 1745:0.06856685131788254 1945:0.25831979513168335 1950:0.0612228624522686 3027:0.12366853654384613
-2.6876478783860627 22:0.013949371874332428 28:0.00680341525003314 64:0.0017094241920858622 165:0.03628765791654587 719:0.08267431706190109 849:0.09903580695390701 946:0.08267431706190109 947:0.06892430037260056 948:0.13922524452209473 949:0.13922524452209473 950:0.13922524452209473 951:0.07719211280345917 952:0.11307355761528015
-1.0382279082132302 35:9.129782556556165E-4 137:0.020151883363723755 146:0.08454668521881104 153:0.15952588617801666 372:0.06064879149198532 524:0.03383973613381386 985:0.09025728702545166 1644:0.01784018985927105 1667:0.133170947432518 1843:0.07363107800483704 2053:0.10121192038059235 2494:0.22426261007785797
-1.7675495408869335 9:0.07082439213991165 22:0.0016088661504909396 28:7.8467937419191E-4 35:0.0023533650673925877 58:0.002303974935784936 84:0.010768203064799309 85:0.16541948914527893 101:0.008333669975399971 106:0.028987983241677284 260:0.0699806958436966 265:0.04568961635231972 294:0.013822019100189209 384:0.03814133256673813 625:0.05216585099697113 630:0.01537245325744152 671:0.01537245325744152 691:0.15256533026695251 953:0.04568961635231972 1241:0.04135487228631973 1333:0.03814133256673813 1374:0.05216585099697113 1375:0.04568961635231972 1376:0.03029850497841835 1377:0.05216585099697113
-2.4039898181119006 35:2.064019354293123E-4 47:0.019150665029883385 64:0.0024900154676288366 103:0.009796331636607647 111:0.008499829098582268 137:0.00455584516748786 185:0.015170479193329811 283:0.011232015676796436 303:0.04243063926696777 319:0.014544252306222916 339:0.016244560480117798 395:0.04117686301469803 504:0.013976223766803741 684:0.0301066767424345 706:0.0056093488819897175 721:0.023915980011224747 1037:0.04117686301469803 1252:0.03606487810611725 1297:0.10039789229631424 1409:0.018545476719737053 2766:0.02509947307407856 3637:0.05070026218891144 3638:0.05070026218891144 3639:0.05070026218891144 3640:0.20280104875564575 3641:0.16470745205879211
-2.763925376280691 35:6.476141279563308E-4 64:0.007812762632966042 175:0.03375076875090599 274:0.03328297659754753 472:0.07875300943851471 579:0.04866105318069458 1000:0.10242269933223724 1300:0.06190900877118111 1681:0.04866105318069458 1727:0.12919801473617554 1728:0.09446379542350769 1729:0.08819982409477234 1730:0.1131584644317627 1731:0.15907897055149078
-1.9041627579477642 51:0.11960738897323608 57:0.08421897888183594 178:0.10365940630435944 378:0.10492777079343796 582:0.13492333889007568 1644:0.04484662041068077 1647:0.04484662041068077 2069:0.36296987533569336
-2.560265515501477 79:0.054465990513563156 182:0.023127777501940727 241:0.009071665816009045 289:0.03807780146598816 302:0.08403218537569046 306:0.10356586426496506 345:0.04078209772706032 346:0.04421813040971756 347:0.05577762424945831 348:0.027640271931886673 349:0.143454909324646 350:0.032396260648965836 351:0.0686778873205185 352:0.274711549282074
-2.502708440681844 9:0.02294948138296604 28:0.0010170497698709369 35:0.0054227146320044994 47:0.007861526682972908 51:0.017662985250353813 64:0.004088698420673609 203:0.019924763590097427 245:0.0073773679323494434 313:0.03350569307804108 392:0.012689613737165928 1048:0.07270074635744095 1166:0.03757232055068016 1379:0.06761395186185837 2007:0.19774514436721802 2152:0.039270929992198944 2956:0.06761395186185837 3122:0.06761395186185837 3459:0.06761395186185837 3614:0.0832517221570015 3615:0.0832517221570015 3616:0.0832517221570015
-2.3715903517713626 64:0.0019663949497044086 137:0.01439121924340725 437:0.13007143139839172 1058:0.0836329311132431 1082:0.09510239958763123 1170:0.11392345279455185 1569:0.10311510413885117 1985:0.06445613503456116 2676:0.10311510413885117 2797:0.16015438735485077 2798:0.13007143139839172
-2.390271136772147 28:0.006112128496170044 35:5.091984057798982E-4 58:0.004486606922000647 64:0.0015357317170128226 217:0.013838395476341248 524:0.0188735481351614 542:0.024167779833078384 560:0.054189279675483704 630:0.029935287311673164 982:0.022724119946360588 983:0.011643311008810997 1032:0.05644926056265831 1651:0.03914228826761246 1735:0.08053170889616013 1962:0.06934871524572372 2006:0.05644926056265831 2035:0.06934871524572372 2732:0.101584292948246 2733:0.1250787377357483 2734:0.1250787377357483 2735:0.08897290378808975
-2.5459406690906836 16:0.05123191326856613 35:0.0029675010591745377 221:0.036609191447496414 405:0.10821312665939331 1036:0.06870163232088089 1493:0.10821312665939331 1573:0.09021561592817307 2934:0.10821312665939331 3061:0.12962883710861206 3188:0.1480029672384262 3190:0.1480029672384262
-4.4066686992719895 28:0.0014234337722882628 35:4.743422905448824E-4 137:0.010470008477568626 194:0.01387037243694067 257:0.04262026026844978 275:0.05496247112751007 604:0.0646015927195549 645:0.04141106829047203 716:0.02280348539352417 757:0.09463054686784744 817:0.2733202278614044 1462:0.06918961554765701 1628:0.050479862838983536 1691:0.048595450818538666 2826:0.09463054686784744 3105:0.11651672422885895
-0.9080613666336887 58:0.012591209262609482 64:0.004309875890612602 194:0.04178618639707565 933:0.20844213664531708 1335:0.0967637151479721 2496:0.2850860357284546 2834:0.35102081298828125
-3.0658195126802803 22:0.0033825854770839214 28:0.001649761339649558 35:5.497632082551718E-4 80:0.04326830431818962 113:0.05434974282979965 206:0.04326830431818962 258:0.019398421049118042 375:0.04130863398313522 751:0.0466926135122776 1048:0.029482057318091393 1309:0.024830970913171768 1363:0.10967690497636795 1372:0.04326830431818962 1520:0.03955235704779625 1632:0.02167985402047634 1634:0.0637015625834465 1737:0.0466926135122776 1846:0.08694718778133392 1864:0.06094623729586601 2243:0.10967690497636795 2244:0.10967690497636795
-1.3490711659960035 22:0.0014677135040983558 35:9.541752515360713E-4 58:0.0021018374245613813 64:0.0028777725528925657 81:0.017161879688501358 84:0.009823462925851345 137:0.04738772660493851 205:0.015002788975834846 225:0.018774239346385002 227:0.007469396106898785 229:0.08573386818170547 245:0.005192456301301718 479:0.2488519847393036 500:0.029008081182837486 678:0.04758911952376366 1103:0.00875361543148756 3612:0.04168107360601425 3651:0.05859554558992386 3652:0.23438218235969543 3653:0.05859554558992386 3654:0.05859554558992386
