SVM-light Version V6.01
0 # kernel type
3 # kernel parameter -d
1.0 # kernel parameter -g
1.0 # kernel parameter -s
0.0 # kernel parameter -r
empty# kernel parameter -u
3708 # highest feature index
1114 # number of training documents
512 # number of support vectors plus 1
0.899497521559721 # threshold b, each following line is a SV (starting with alpha*y)
-0.5077145540258402 28:0.004067913629114628 84:0.05582423135638237 201:0.10420425981283188 203:0.07969346642494202 859:0.047831833362579346 1048:0.07269565016031265 1309:0.06122719123959541 1636:0.2748670279979706 1640:0.10185714066028595 2495:0.19773127138614655
-0.11486612927578065 7:0.011661307886242867 17:0.04726463928818703 18:0.23848219215869904 19:0.02245544269680977 20:0.15333855152130127 21:0.031804077327251434 22:0.00735511677339673 23:0.07340960949659348 24:0.04726463928818703 25:0.05962054803967476 26:0.10740900784730911 27:0.07340960949659348 28:8.968129986897111E-4 29:0.07340960949659348 30:0.052218835800886154
-9.446153401519595 22:0.002068199450150132 31:0.04903073236346245 32:0.016587408259510994 33:0.08256875723600388 34:0.06705927103757858 35:3.3613931736908853E-4 36:0.1961229294538498 37:0.0264553502202034 38:0.05873405933380127 39:0.05873405933380127 40:0.05873405933380127 41:0.08256875723600388 42:0.08256875723600388 43:0.022761212661862373 44:0.03577220067381859 45:0.016370587050914764 46:0.08256875723600388 47:0.007797033991664648 48:0.05316174030303955
-0.8299978378860107 22:0.002707010367885232 58:0.015506286174058914 60:0.01664149761199951 81:0.03165290132164955 84:0.018118126317858696 101:0.01402188278734684 133:0.04507342725992203 242:0.04877396300435066 269:0.07687542587518692 270:0.07687542587518692 271:0.06417500227689743 272:0.053501710295677185 273:0.10807201266288757 274:0.02261115051805973 275:0.05097899213433266 276:0.013082952238619328 277:0.05991950258612633 278:0.05991950258612633 279:0.05991950258612633 280:0.053501710295677185 281:0.10807201266288757
-0.29278513647292437 28:0.0019738206174224615 35:6.577520980499685E-4 58:0.00579553097486496 60:0.024879280477762222 64:0.001983766444027424 618:0.06287815421819687 1072:0.021732782945036888 1456:0.0799858346581459 1685:0.036886055022478104 1744:0.024379722774028778 1928:0.10402605682611465 1934:0.3583221137523651 2142:0.11492988467216492 2856:0.1615692377090454
12.765106684958527 151:0.025398992002010345 223:0.016817215830087662 245:0.017240356653928757 424:0.013153559528291225 450:0.08428841829299927 518:0.02294330485165119 548:0.025398992002010345 1015:0.024078665301203728 1075:0.031315650790929794 1486:0.01596916653215885 3155:0.039502181112766266 3497:0.039502181112766266 3605:0.19455303251743317 3606:0.19455303251743317 3607:0.15800872445106506 3608:0.04863825812935829 3609:0.04863825812935829
7.105869238620354 19:0.019658969715237617 35:0.0010465392842888832 36:0.15265274047851562 56:0.021642576903104782 58:0.0023052950855344534 227:0.008192433044314384 245:0.022780342027544975 944:0.01467220950871706 1004:0.038163185119628906 1015:0.031816061586141586 1319:0.009413047693669796 2264:0.05219574272632599 3092:0.20878297090530396 3093:0.04571579396724701 3610:0.05219574272632599 3611:0.0642675906419754 3612:0.04571579396724701 3613:0.20878297090530396
23.708266791568203 9:0.02294948138296604 28:0.0010170497698709369 35:0.0054227146320044994 47:0.007861526682972908 51:0.017662985250353813 64:0.004088698420673609 203:0.019924763590097427 245:0.0073773679323494434 313:0.03350569307804108 392:0.012689613737165928 1048:0.07270074635744095 1166:0.03757232055068016 1379:0.06761395186185837 2007:0.19774514436721802 2152:0.039270929992198944 2956:0.06761395186185837 3122:0.06761395186185837 3459:0.06761395186185837 3614:0.0832517221570015 3615:0.0832517221570015 3616:0.0832517221570015
8.463049928263807 11:0.00931175984442234 22:0.0018619116162881255 51:0.01577078364789486 58:0.0026663485914468765 103:0.014362686313688755 194:0.008848755620419979 458:0.013667969033122063 488:0.03354726731777191 1309:0.013667969033122063 1364:0.06037059426307678 1383:0.2115030586719513 1482:0.04121329262852669 3324:0.052875764667987823 3617:0.2973324954509735 3618:0.07433312386274338 3619:0.07433312386274338 3620:0.07433312386274338
28.48116624138846 22:0.011074619367718697 26:0.017969559878110886 35:1.9999225332867354E-4 59:0.014699369668960571 60:0.007564648054540157 64:6.031724042259157E-4 245:0.004353292286396027 515:0.07187823951244354 898:0.022170953452587128 924:0.02317328378558159 968:0.016543468460440636 1043:0.03162955120205879 1103:0.007338924799114466 1187:0.01745973899960518 1308:0.020488819107413292 1331:0.03494490683078766 1366:0.024320024996995926 3397:0.13977962732315063 3446:0.03494490683078766 3582:0.13977962732315063 3588:0.15959256887435913 3589:0.03989814221858978 3590:0.15959256887435913
-9.446153401519595 7:0.007095088250935078 22:0.010068913921713829 26:0.016337713226675987 35:1.8183060456067324E-4 59:0.013364494778215885 60:0.006877689156681299 64:5.483973072841763E-4 245:0.003957962617278099 515:0.06535085290670395 898:0.020157571882009506 924:0.02106887847185135 968:0.015041127800941467 1043:0.028757218271493912 1099:0.017382191494107246 1103:0.006672464776784182 1187:0.015874190255999565 1308:0.01862819492816925 1331:0.031771499663591385 1366:0.08844592422246933 3397:0.12708599865436554 3446:0.031771499663591385 3582:0.12708599865436554 3588:0.1450996994972229 3589:0.036274924874305725 3590:0.1450996994972229
-3.9174040611722507 47:0.010067207738757133 64:0.005235850345343351 79:0.021137025207281113 80:0.03415805473923683 137:0.009579748846590519 140:0.03189954534173012 274:0.02230512909591198 319:0.03058275207877159 466:0.03189954534173012 542:0.0205991193652153 800:0.06330645829439163 830:0.05910855159163475 1274:0.04618758708238602 1654:0.017486128956079483 1976:0.02433878555893898 2007:0.06330645829439163 2161:0.05910855159163475 2678:0.10660936683416367 2679:0.06330645829439163 2680:0.10660936683416367 2681:0.08658415824174881 2682:0.08658415824174881
-2.245739100215786 35:0.002051231451332569 58:0.018073640763759613 194:0.059980615973472595 241:0.06655508279800415 245:0.04464977979660034 944:0.1150309294462204 982:0.09154079854488373 1048:0.11000103503465652 1312:0.07033780217170715 1657:0.12257762253284454 2177:0.29920145869255066
-3.2946647246811946 28:0.009859549812972546 35:3.650641010608524E-4 147:0.046827834099531174 175:0.019025517627596855 280:0.04439356178045273 291:0.049718789756298065 360:0.015373261645436287 488:0.0404706671833992 706:0.009921283461153507 1100:0.026832101866602898 1396:0.046827834099531174 1485:0.06378813087940216 1520:0.02626430056989193 1689:0.0728297233581543 1790:0.028731834143400192 1920:0.03740011155605316 1949:0.05773631110787392 2005:0.08967380225658417 2006:0.0404706671833992 2007:0.05324982851743698 2008:0.05773631110787392 2009:0.0728297233581543 2010:0.08967380225658417
-1.7324036802040976 22:0.0012673181481659412 28:0.0024723955430090427 35:2.059740509139374E-4 49:0.012954371981322765 58:0.001814861549064517 64:6.212134030647576E-4 227:0.006449556443840265 251:0.0075584338046610355 302:0.015476676635444164 721:0.023866401985287666 728:0.19727922976016998 983:0.0047097946517169476 1099:0.019690196961164474 1309:0.00930316187441349 1625:0.06644666939973831 1629:0.14396046102046967 1630:0.012308611534535885 1953:0.026420889422297478 2049:0.035990115255117416 2145:0.04109150543808937 2675:0.035990115255117416 3033:0.035990115255117416 3119:0.050595156848430634 3120:0.050595156848430634 3121:0.03257559984922409 3122:0.16436602175235748
34.37546580936638 22:0.0012218274641782045 31:0.11586327850818634 36:0.11586327850818634 38:0.0346982404589653 39:0.0346982404589653 40:0.1387929618358612 48:0.03140629082918167 64:5.989148048684001E-4 217:0.005396789405494928 1032:0.022014455869793892 1509:0.03961651399731636 1510:0.03961651399731636 1511:0.03961651399731636 1512:0.15846605598926544 1513:0.03961651399731636 1514:0.0346982404589653 1515:0.028965819627046585 1516:0.03961651399731636 1517:0.03961651399731636 1518:0.03961651399731636
5.3372558980997375 7:0.030605310574173927 22:0.010858294554054737 35:0.0017647716449573636 58:0.001727734343148768 64:5.913904751650989E-4 84:0.00807499885559082 97:0.021737881004810333 101:0.006249359343200922 130:0.011914845556020737 185:0.014412241987884045 190:0.01507318951189518 283:0.010670626536011696 339:0.061730556190013885 500:0.023844974115490913 579:0.014733677729964256 706:0.00532898772507906 1151:0.04847836494445801 1811:0.12404689192771912 1910:0.015432639047503471 2712:0.034262314438819885 3622:0.12404689192771912 3641:0.15647520124912262 3642:0.034262314438819885 3643:0.03101172298192978 3644:0.19266481697559357
15.204778272662693 7:0.012392775155603886 28:9.530664538033307E-4 58:0.0027983931358903646 73:0.02772696502506733 137:0.007010241039097309 152:0.02561406046152115 251:0.01165459118783474 279:0.04325428605079651 329:0.03379901871085167 339:0.024996083229780197 1657:0.018979042768478394 1666:0.012392775155603886 1793:0.02284938097000122 2410:0.0633603036403656 2609:0.0633603036403656 3339:0.0633603036403656 3688:0.2534412145614624 3689:0.07801429182291031 3690:0.07801429182291031 3691:0.07801429182291031 3692:0.07801429182291031
19.96588847344706 35:0.007463496644049883 44:0.03177084028720856 58:0.0026304698549211025 64:9.003899758681655E-4 185:0.08777035772800446 229:0.026824189350008965 283:0.06498397141695023 305:0.020616361871361732 392:0.01117773912847042 583:0.04354631528258324 671:0.01755087450146675 1035:0.03459208458662033 1103:0.010955233126878738 1390:0.04721524193882942 1604:0.03309585154056549 1682:0.029513735324144363 2578:0.059558238834142685 3269:0.04354631528258324 3443:0.04354631528258324 3622:0.1888609677553177 3643:0.04721524193882942 3655:0.07333288341760635 3656:0.07333288341760635
22.05103961194406 35:1.7641588055994362E-4 57:0.006473765708506107 58:0.0015544210327789187 64:5.320666241459548E-4 142:0.030825378373265266 173:0.011719238944351673 487:0.011945759877562523 545:0.020441468805074692 724:0.020441468805074692 887:0.09610568732023239 904:0.08176587522029877 1546:0.030825378373265266 1623:0.022629378363490105 2343:0.030825378373265266 3625:0.04333453252911568 3626:0.04333453252911568 3627:0.1733381301164627 3628:0.04333453252911568 3629:0.1733381301164627 3630:0.04333453252911568 3631:0.03519469499588013 3632:0.04333453252911568 3633:0.03519469499588013
-9.446153401519595 22:0.0012218274641782045 31:0.11586327850818634 36:0.11586327850818634 38:0.0346982404589653 39:0.0346982404589653 40:0.1387929618358612 48:0.03140629082918167 64:5.989148048684001E-4 217:0.005396789405494928 1032:0.022014455869793892 1509:0.03961651399731636 1510:0.03961651399731636 1511:0.03961651399731636 1512:0.15846605598926544 1513:0.03961651399731636 1514:0.0346982404589653 1515:0.028965819627046585 1516:0.03961651399731636 1517:0.03961651399731636 1518:0.03961651399731636
-5.220870266354523 7:0.006289220880717039 56:0.01333274133503437 58:0.001420159125700593 245:0.03157571703195572 296:0.021951157599687576 302:0.01211075484752655 424:0.010706998407840729 479:0.010508941486477852 551:0.16081248223781586 562:0.014925956726074219 640:0.018675852566957474 720:0.011846541427075863 803:0.01960003562271595 804:0.011595853604376316 854:0.02351013384759426 859:0.0056871771812438965 876:0.014925956726074219 904:0.16808266937732697 983:0.003685492090880871 1014:0.03215477988123894 1063:0.014482058584690094 1161:0.02816285938024521 1328:0.02816285938024521 1515:0.09404053539037704 1625:0.012998903170228004 1883:0.02549094334244728 3106:0.02816285938024521 3107:0.03959154710173607 3108:0.03959154710173607 3109:0.03959154710173607 3110:0.02816285938024521 3111:0.02816285938024521
-0.4952558623286594 15:0.031899262219667435 28:0.001039136783219874 35:3.462798777036369E-4 64:0.0010443729115650058 80:0.027253448963165283 103:0.016435276716947556 203:0.020357463508844376 297:0.021402733400464058 682:0.020693017169833183 1141:0.035475704818964005 1319:0.01245839148759842 1645:0.008149106055498123 1647:0.02706613950431347 1777:0.04012376442551613 1811:0.21906204521656036 1918:0.023003239184617996 1924:0.01426013745367527 1938:0.1776733100414276 2173:0.05476551130414009 2392:0.04716052860021591 3115:0.0605059377849102 3124:0.05476551130414009 3215:0.08505967259407043
-2.27649776061218 28:0.002660740865394473 31:0.1293320655822754 35:2.2166501730680466E-4 64:6.685370462946594E-4 304:0.021913865581154823 442:0.10782214999198914 694:0.0821094810962677 1103:0.00813423004001379 1147:0.11373446136713028 1219:0.010795483365654945 1645:0.0052165077067911625 1647:0.004331478849053383 1973:0.03873181715607643 2432:0.21779784560203552 2433:0.21779784560203552 2434:0.03873181715607643
-0.34680219680084673 35:0.0010420953622087836 251:0.03824078291654587 325:0.10302183777093887 1173:0.1336725950241089 1505:0.2078964114189148 1644:0.020363222807645798 1646:0.07497287541627884 2777:0.16481143236160278 2778:0.2559787333011627
21.037670668219402 7:0.005864395759999752 58:0.001324229990132153 64:4.53273969469592E-4 137:0.003317322116345167 314:0.007618488743901253 359:0.008694951422512531 456:0.011292695999145508 479:0.009799082763493061 494:0.020468397065997124 540:0.009452274069190025 615:0.026260511949658394 655:0.021922068670392036 1502:0.018276091665029526 1600:0.0950763151049614 1894:0.015994062647223473 1961:0.048483408987522125 2028:0.029982784762978554 2177:0.08768827468156815 3612:0.10504204779863358 3631:0.029982784762978554 3666:0.14766885340213776 3667:0.14766885340213776 3668:0.03691721335053444 3669:0.03691721335053444 3670:0.03691721335053444 3671:0.03691721335053444
23.23654365226061 35:1.8711978918872774E-4 111:0.007705772295594215 158:0.015478652901947498 243:0.014059986919164658 279:0.025484206154942513 303:0.009616688825190067 398:0.11837489157915115 409:0.02959372289478779 594:0.02959372289478779 655:0.02729410119354725 743:0.01849871501326561 1151:0.011565428227186203 1894:0.019913429394364357 2177:0.02729410119354725 2866:0.03269568458199501 3008:0.037330109626054764 3016:0.13078273832798004 3106:0.03269568458199501 3184:0.03269568458199501 3686:0.14932043850421906 3703:0.045963823795318604 3704:0.045963823795318604 3705:0.045963823795318604 3706:0.045963823795318604 3707:0.045963823795318604
14.8612004048491 11:0.02982364036142826 22:0.005963317584246397 35:2.423007827019319E-4 64:7.307740743272007E-4 93:0.019541393965482712 111:0.009978178888559341 112:0.03108062595129013 194:0.007085183635354042 209:0.042337533086538315 256:0.014976033940911293 377:0.02316286973655224 616:0.019541393965482712 1138:0.06319282203912735 1187:0.021153362467885017 1350:0.0483386293053627 1436:0.006799682043492794 1638:0.07816557586193085 2167:0.02807561308145523 2756:0.03534303978085518 2777:0.038320813328027725 3676:0.23807360231876373 3677:0.23807360231876373
18.124068959638205 15:0.005014422815293074 35:8.709386456757784E-4 93:0.01756015047430992 217:0.005917336791753769 276:0.025898613035678864 283:0.011848721653223038 423:0.029653703793883324 457:0.005690045189112425 542:0.010334210470318794 706:0.005917336791753769 791:0.029653703793883324 960:0.027929456904530525 1013:0.09268594533205032 1536:0.013694033958017826 1591:0.04343772679567337 1600:0.03443558141589165 1602:0.1270388662815094 1603:0.03804505988955498 1644:0.00425467686727643 1752:0.03443558141589165 1894:0.09268594533205032 2094:0.025229113176465034 2100:0.025229113176465034 2694:0.04343772679567337 3634:0.1521802395582199 3635:0.05348401516675949 3636:0.04343772679567337
29.979141697199438 9:0.07727452367544174 35:0.004564784001559019 47:0.0066177500411868095 227:0.008933416567742825 348:0.11281895637512207 363:0.04985066503286362 458:0.05154402181506157 579:0.08574827760457993 646:0.1804845929145813 773:0.020969390869140625 983:0.006523636169731617 1138:0.07440689951181412 1219:0.013894572854042053 1295:0.041614945977926254 2090:0.045121148228645325 2497:0.04985066503286362 2700:0.04985066503286362 3685:0.04985066503286362 3708:0.07008042186498642
-9.446153401519595 22:0.0015920879086479545 64:7.804089691489935E-4 81:0.07446473091840744 137:0.005711486097425222 152:0.020868662744760513 369:0.029982535168528557 479:0.016871236264705658 542:0.012281280942261219 567:0.01752145029604435 793:0.013116872869431973 843:0.045213136821985245 1117:0.03319165110588074 1266:0.027537232264876366 1568:0.15097428858280182 1600:0.040923599153757095 1601:0.18085254728794098 1602:0.15097428858280182 1603:0.045213136821985245 1604:0.028685681521892548 1605:0.05162183567881584 1606:0.05162183567881584
-2.8940529118861975 22:0.010366497561335564 268:0.08906020224094391 1455:0.07798415422439575 1644:0.0329228937625885 1717:0.16656385362148285 1721:0.04369143769145012 1894:0.17930206656455994 1989:0.1952240765094757 2253:0.2048848271369934
-1.4193044767129719 35:0.0015020191203802824 725:0.29965049028396606 1013:0.1598460078239441 1638:0.12113681435585022 1675:0.1182142049074173 2672:0.29965049028396606
-2.005325807075407 35:4.153632035013288E-4 47:0.009634698741137981 64:0.0012527266517281532 110:0.1411108821630478 137:0.00916818156838417 245:0.009041337296366692 257:0.03732091560959816 283:0.09041322022676468 361:0.02134685218334198 376:0.07257695496082306 859:0.014656110666692257 886:0.056569118052721024 887:0.056569118052721024 1008:0.04255315661430359 1065:0.26276522874832153 1066:0.07257695496082306 1067:0.10202918946743011
-9.446153401519595 22:0.00210655783303082 32:0.0675802007317543 35:0.0030813622288405895 49:0.021532978862524033 64:0.0010325915645807981 84:0.014099272899329662 221:0.0675802007317543 467:0.03643565624952316 540:0.021532978862524033 542:0.016249874606728554 646:0.21659086644649506 804:0.024631844833493233 876:0.03170563280582428 983:0.00782870128750801 1036:0.03170563280582428 1245:0.04163428395986557 1624:0.05982338264584541 1625:0.11044878512620926 1629:0.05982338264584541 1686:0.046628523617982864 1696:0.0338471494615078 2845:0.0841001346707344
19.108688632156497 22:0.004171239212155342 28:0.0020344050135463476 35:1.694852689979598E-4 101:0.005401588045060635 111:0.006979566067457199 150:0.029614383354783058 251:0.006219439674168825 260:0.020159553736448288 276:0.005039888434112072 339:0.01333908922970295 809:0.021740367636084557 1036:0.015695245936512947 1520:0.012193507514894009 1583:0.020610230043530464 1684:0.02472185343503952 2100:0.019638413563370705 2449:0.03381204977631569 2992:0.03381204977631569 3443:0.02472185343503952 3451:0.03381204977631569 3678:0.16652843356132507 3679:0.16652843356132507 3680:0.04163210839033127 3681:0.16652843356132507 3682:0.04163210839033127 3683:0.04163210839033127 3684:0.04163210839033127
29.39300944023053 35:2.1874831872992218E-4 276:0.006504795514047146 329:0.09311744570732117 433:0.017641901969909668 618:0.020911358296871185 628:0.02241034246981144 773:0.016077935695648193 912:0.0319075733423233 1114:0.029791755601763725 1727:0.1745597869157791 1855:0.02805948071181774 1886:0.03459589555859566 2102:0.16720902919769287 2133:0.03459589555859566 3693:0.05373300611972809 3694:0.05373300611972809 3695:0.05373300611972809 3696:0.05373300611972809 3697:0.05373300611972809 3698:0.05373300611972809
13.414922199510697 22:0.006508893799036741 51:0.0551316998898983 64:7.976316846907139E-4 96:0.011527127586305141 1268:0.046210937201976776 1409:0.0950513556599617 2440:0.046210937201976776 3165:0.046210937201976776 3429:0.05276107043027878 3642:0.1848437488079071 3672:0.06496366113424301 3673:0.06496366113424301 3674:0.06496366113424301 3675:0.25985464453697205
-6.102835761471301 28:0.002224322408437729 35:7.412288105115294E-4 58:0.006531054154038429 60:0.02803676389157772 392:0.11101046204566956 982:0.03307899832725525 983:0.016948910430073738 1685:0.04156734421849251 1721:0.019221607595682144 1744:0.027473805472254753 1754:0.20076517760753632 1757:0.09507957100868225 1761:0.05833732336759567 1762:0.07327809184789658 1866:0.033888477832078934 2102:0.25181686878204346
-7.772301878412679 35:6.476141279563308E-4 64:0.007812762632966042 175:0.03375076875090599 274:0.03328297659754753 472:0.07875300943851471 579:0.04866105318069458 1000:0.10242269933223724 1300:0.06190900877118111 1681:0.04866105318069458 1727:0.12919801473617554 1728:0.09446379542350769 1729:0.08819982409477234 1730:0.1131584644317627 1731:0.15907897055149078
-5.38585807337708 22:0.0021663494408130646 28:0.016905220225453377 103:0.06684441864490509 137:0.0077716028317809105 241:0.011424100026488304 263:0.030738310888409615 308:0.07339774817228317 458:0.06361117959022522 470:0.01974491961300373 582:0.020699117332696915 706:0.00956872571259737 1340:0.05135757103562355 1384:0.14428433775901794 1632:0.01388468686491251 1633:0.029125194996595383 1721:0.009130463004112244 1963:0.034807853400707245 2043:0.04795200750231743 2102:0.11961562931537628 2377:0.07024168968200684 3042:0.08648720383644104 3043:0.07024168968200684
-0.3757445513080263 7:0.018677830696105957 28:0.0014364187372848392 35:4.7866933164186776E-4 130:0.02908560074865818 178:0.021619899198412895 194:0.013996900990605354 245:0.01041934173554182 297:0.02958540990948677 859:0.016889872029423714 878:0.026439331471920013 884:0.04575864225625992 1048:0.02566951885819435 1309:0.021619899198412895 1635:0.021361691877245903 1636:0.024264534935355186 1640:0.03596671670675278 1643:0.0836385190486908 1721:0.012412892654538155 1866:0.021884437650442123 1895:0.03010505624115467 2015:0.05820850655436516 2107:0.07570341974496841 2112:0.2792831063270569 2496:0.09549378603696823
-3.5314468200747777 28:9.68356616795063E-4 35:3.226932603865862E-4 101:0.01028440985828638 247:0.016137830913066864 274:0.0165842454880476 385:0.02480556070804596 707:0.06437680125236511 983:0.007378691341727972 1093:0.1569642424583435 1221:0.204140767455101 1548:0.047069430351257324 1867:0.039241060614585876 2008:0.05103519186377525 2102:0.10962822288274765 2287:0.05103519186377525 2497:0.0563846118748188 2501:0.06437680125236511 2835:0.07926588505506516
25.277897371352832 22:0.0015920879086479545 64:7.804089691489935E-4 81:0.07446473091840744 137:0.005711486097425222 152:0.020868662744760513 369:0.029982535168528557 479:0.016871236264705658 542:0.012281280942261219 567:0.01752145029604435 793:0.013116872869431973 843:0.045213136821985245 1117:0.03319165110588074 1266:0.027537232264876366 1568:0.15097428858280182 1600:0.040923599153757095 1601:0.18085254728794098 1602:0.15097428858280182 1603:0.045213136821985245 1604:0.028685681521892548 1605:0.05162183567881584 1606:0.05162183567881584
16.84517724909766 22:0.0014677135040983558 35:9.541752515360713E-4 58:0.0021018374245613813 64:0.0028777725528925657 81:0.017161879688501358 84:0.009823462925851345 137:0.04738772660493851 205:0.015002788975834846 225:0.018774239346385002 227:0.007469396106898785 229:0.08573386818170547 245:0.005192456301301718 479:0.2488519847393036 500:0.029008081182837486 678:0.04758911952376366 1103:0.00875361543148756 3612:0.04168107360601425 3651:0.05859554558992386 3652:0.23438218235969543 3653:0.05859554558992386 3654:0.05859554558992386
17.99904492363338 35:7.694970699958503E-4 47:0.0044622826389968395 58:0.0016950322315096855 84:0.00792215671390295 103:0.00913054496049881 111:0.00792215671390295 137:0.004246216733008623 206:0.015140533447265625 305:0.013284850865602493 398:0.03042473830282688 562:0.017814889550209045 623:0.020472614094614983 872:0.017285073176026344 1004:0.028060540556907654 1093:0.09357456117868423 1162:0.15351346135139465 1309:0.03475561738014221 1866:0.03518088161945343 2110:0.09357456117868423 2408:0.12169895321130753 3443:0.028060540556907654 3685:0.03361380472779274 3686:0.03837836533784866 3687:0.1890181005001068
22.71292601516701 21:0.016189059242606163 196:0.01951327733695507 276:0.004523600451648235 361:0.007818098179996014 474:0.0168642308562994 510:0.009090584702789783 542:0.007220129948109388 754:0.026580674573779106 845:0.013280666433274746 1044:0.01951327733695507 1141:0.01558472216129303 1264:0.022189337760210037 1270:0.01849891059100628 1330:0.017626646906137466 1435:0.02071794494986534 2522:0.022189337760210037 2648:0.03034833073616028 3527:0.03034833073616028 3607:0.12139332294464111 3657:0.14946919679641724 3658:0.03736729919910431 3659:0.03736729919910431 3660:0.03736729919910431 3661:0.03736729919910431 3662:0.03736729919910431 3663:0.14946919679641724 3664:0.03736729919910431 3665:0.03736729919910431
23.09536243488387 130:0.010153107345104218 240:0.1711646020412445 339:0.013150758109986782 662:0.01547364890575409 663:0.018523702397942543 881:0.09749124944210052 969:0.10570522397756577 1312:0.005729684606194496 1383:0.11678505688905716 1476:0.03333466500043869 2661:0.02437281236052513 3300:0.03333466500043869 3437:0.02642630599439144 3645:0.16417725384235382 3646:0.041044313460588455 3647:0.041044313460588455 3648:0.041044313460588455 3649:0.041044313460588455
-3.7018412373798477 7:0.011386348865926266 22:0.0017954231007024646 28:0.003502669045701623 35:2.918056270573288E-4 37:0.022966133430600166 106:0.032349299639463425 172:0.024138323962688446 481:0.023533925414085388 714:0.1702561229467392 871:0.23285908997058868 882:0.03743075579404831 968:0.024138323962688446 969:0.4153517782688141
-6.231694909485998 6:0.18786104023456573 28:0.006274193525314331 35:5.226999637670815E-4 37:0.04113833233714104 111:0.02152528613805771 117:0.040180157870054245 165:0.03346492722630501 236:0.04113833233714104 240:0.30118435621261597 702:0.04840482398867607 749:0.04563279449939728 1292:0.1042778342962265 1293:0.1283952295780182
-9.288849165367823 22:0.002064635744318366 28:0.0010069682030007243 35:3.355600929353386E-4 64:0.0010120421648025513 101:0.010694483295083046 178:0.01515613030642271 245:0.007304239086806774 360:0.014130814000964165 479:0.1969090849161148 1138:0.021878788247704506 1235:0.05307013541460037 1519:0.033173564821481705 1688:0.017245512455701828 1729:0.04570057615637779 1920:0.034377481788396835 1949:0.05307013541460037 2080:0.0669437125325203 2081:0.0669437125325203 2082:0.08242647349834442 2083:0.058632850646972656 2084:0.08242647349834442 2085:0.08242647349834442 2086:0.05307013541460037
-3.498108479046391 28:0.0010454225121065974 35:0.0013934981543570757 58:0.0030695691239088774 84:0.01434639748185873 214:0.06449912488460541 294:0.018414976075291634 300:0.028096169233322144 640:0.04036647453904152 983:0.007965919561684132 1369:0.20326167345046997 1525:0.06087194010615349 1567:0.0855742022395134 1568:0.20326167345046997 1569:0.22038716077804565 1570:0.04744580388069153
-1.627316277020802 35:4.3106303201057017E-4 185:0.031683001667261124 811:0.06817429512739182 921:0.05529370903968811 1161:0.07532020658254623 1162:0.08599640429019928 1163:0.10588567703962326 1164:0.10588567703962326 1165:0.42354270815849304 1166:0.047787245362997055
19.73891528295029 7:0.008384058251976967 15:0.004948309622704983 34:0.04286501556634903 57:0.007884656079113483 58:0.007572764065116644 130:0.013055872172117233 137:0.004742623772472143 156:0.023819612339138985 339:0.016910547390580177 409:0.0339815616607666 500:0.026128489524126053 628:0.022012392058968544 655:0.03134097903966904 1048:0.04608988016843796 1119:0.09958590567111969 2049:0.03754344955086708 3016:0.03754344955086708 3043:0.04286501556634903 3153:0.04286501556634903 3642:0.03754344955086708 3688:0.04286501556634903 3699:0.21111539006233215 3700:0.05277884751558304 3701:0.05277884751558304 3702:0.05277884751558304
19.081554753548854 35:2.064019354293123E-4 47:0.019150665029883385 64:0.0024900154676288366 103:0.009796331636607647 111:0.008499829098582268 137:0.00455584516748786 185:0.015170479193329811 283:0.011232015676796436 303:0.04243063926696777 319:0.014544252306222916 339:0.016244560480117798 395:0.04117686301469803 504:0.013976223766803741 684:0.0301066767424345 706:0.0056093488819897175 721:0.023915980011224747 1037:0.04117686301469803 1252:0.03606487810611725 1297:0.10039789229631424 1409:0.018545476719737053 2766:0.02509947307407856 3637:0.05070026218891144 3638:0.05070026218891144 3639:0.05070026218891144 3640:0.20280104875564575 3641:0.16470745205879211
13.924645097223296 35:0.003154918784275651 36:0.028761880472302437 84:0.008120161481201649 103:0.009358751587569714 245:0.017168520018458366 305:0.013616888783872128 774:0.028761880472302437 1103:0.0072358157485723495 1614:0.034453943371772766 1894:0.020984303206205368 2206:0.10117264837026596 2517:0.1573503464460373 2837:0.034453943371772766 3093:0.13781577348709106 3106:0.034453943371772766 3610:0.1573503464460373 3613:0.1573503464460373 3650:0.04843559488654137
-2.6540761828465476 35:2.669401583261788E-4 56:0.022081436589360237 64:8.050858741626143E-4 256:0.016498934477567673 348:0.10555911064147949 361:0.013718914240598679 362:0.2622831165790558 363:0.04664279893040657 364:0.06557077914476395 365:0.06557077914476395 366:0.06557077914476395 367:0.2622831165790558 368:0.04221762344241142 369:0.030930597335100174
-3.716610069408188 28:6.489732186309993E-4 35:8.650501840747893E-4 45:0.04212949424982071 58:0.0019055146258324385 86:0.020027073100209236 94:0.018880169838666916 120:0.013601448386907578 180:0.018880169838666916 249:0.043144043534994125 348:0.08551910519599915 563:0.02774062566459179 662:0.020027073100209236 708:0.014934510923922062 773:0.015895232558250427 933:0.031544990837574005 1317:0.1725761741399765 1318:0.05312240868806839 1319:0.007780652493238449 1320:0.11096250265836716 1321:0.05312240868806839 1322:0.05312240868806839 1323:0.03420276194810867 1324:0.05312240868806839 1325:0.05312240868806839 1326:0.05312240868806839
-4.406501311932657 64:0.002646826673299074 630:0.05159333720803261 912:0.12801070511341095 1093:0.10672055184841156 1106:0.10672055184841156 1601:0.15334439277648926 1635:0.15665967762470245 1636:0.04448704421520233 1666:0.03424427658319473 2776:0.21557264029979706
-3.5651240716425665 35:4.117724020034075E-4 79:0.020054053515195847 81:0.02962469682097435 85:0.06512340903282166 223:0.034972745925188065 234:0.16283173859119415 271:0.06006290018558502 278:0.056080080568790436 391:0.06006290018558502 395:0.08214795589447021 396:0.06006290018558502 397:0.10114715248346329 398:0.06512340903282166 399:0.10114715248346329 400:0.10114715248346329
-5.6477738562906445 15:0.01783626340329647 22:0.004765227437019348 28:0.002324105938896537 35:0.0030979220755398273 64:0.002335817087441683 245:0.016858354210853577 641:0.06761375814676285 944:0.04343206435441971 982:0.03456293046474457 1436:0.02173423022031784 1646:0.05571949854493141 1841:0.07172105461359024 1872:0.0695880651473999 1874:0.06761375814676285 1918:0.05144844204187393 2548:0.0740368664264679 2638:0.10547800362110138 3015:0.15450765192508698 3016:0.13532598316669464
7.0748305336414505 15:0.005635206587612629 28:0.0029371213167905807 35:0.003915042150765657 58:0.002155993366613984 64:7.379802991636097E-4 137:0.005400968249887228 173:0.016254670917987823 203:0.057540394365787506 232:0.027126118540763855 540:0.01538935024291277 1072:0.008084804750978947 1309:0.011051837354898453 1415:0.033324822783470154 1788:0.048815298825502396 1808:0.026040107011795044 2408:0.038698695600032806 3437:0.038698695600032806 3443:0.14276623725891113 3621:0.06010531261563301 3622:0.15479478240013123 3623:0.06010531261563301 3624:0.24042125046253204
5.11004221889865 15:0.004273010417819023 35:0.0016698716208338737 84:0.0076407683081924915 103:0.00880623608827591 417:0.03701519966125488 562:0.0171821191906929 579:0.013941379263997078 580:0.027063854038715363 1072:0.006130468565970659 1106:0.022562718018889427 1602:0.10825541615486145 1604:0.020568935200572014 1894:0.07898177951574326 2350:0.019008345901966095 2661:0.10825541615486145 2986:0.03241987153887749 3074:0.14806079864501953 3437:0.02934407629072666 3622:0.02934407629072666 3634:0.12967948615550995 3643:0.11737630516290665 3685:0.03241987153887749
-2.0568787085203604 35:4.4347374932840466E-4 47:0.010286745615303516 137:0.03915462642908096 457:0.011589269153773785 479:0.11565937846899033 510:0.026501134037971497 706:0.012052208185195923 929:0.04708342254161835 935:0.04543302580714226 975:0.309954971075058 1647:0.008665765635669231 1721:0.01150019746273756 1866:0.02027531899511814 2630:0.0774887427687645 2722:0.10893422365188599 2723:0.0774887427687645 2724:0.0774887427687645
-0.9704995980177625 58:0.003844758728519082 122:0.19349481165409088 203:0.02565278485417366 771:0.06364835798740387 881:0.06364835798740387 983:0.009977634996175766 1019:0.06901095062494278 1312:0.01496278028935194 1538:0.039206888526678085 1702:0.05942778289318085 1744:0.016173522919416428 1749:0.0417134054005146 1750:0.19349481165409088 1751:0.10718513280153275 1752:0.06901095062494278 1753:0.029547056183218956
-1.908026484918573 11:0.02369389310479164 130:0.046787843108177185 137:0.06798385828733444 283:0.041901979595422745 339:0.06060170382261276 340:0.08194395899772644 524:0.02854020893573761 542:0.03654604032635689 617:0.08536145836114883 648:0.06918546557426453 795:0.10486776381731033 859:0.02716948091983795 894:0.10486776381731033 895:0.09877011179924011 896:0.1217784658074379
-2.367190025778577 15:0.0034709819592535496 58:0.0013279751874506474 194:0.004407123662531376 258:0.005318016745150089 763:0.07331111282110214 798:0.023836299777030945 802:0.020526286214590073 1075:0.023836299777030945 1253:0.02633477933704853 1918:0.010011996142566204 2116:0.02198406681418419 2309:0.023836299777030945 2766:0.16494999825954437 3334:0.030067581683397293 3429:0.27060821652412415 3430:0.03702161833643913 3431:0.14808647334575653 3432:0.03702161833643913 3433:0.03702161833643913 3434:0.03702161833643913
-1.6899546122324745 11:0.0910305380821228 64:0.003965400625020266 137:0.18138191103935242 173:0.021835368126630783 194:0.009611586108803749 302:0.09879249334335327 306:0.12175728380680084 350:0.03808668628334999 663:0.03643929958343506 706:0.008933003060519695 708:0.02269909158349037 888:0.021431459113955498 1345:0.02586979605257511 1346:0.08074120432138443 1347:0.05743405967950821 1348:0.08074120432138443 1349:0.033674608916044235 1350:0.0655750036239624
-1.7661999146456553 28:0.003486946225166321 35:2.9049578006379306E-4 58:0.0025595922488719225 96:0.012661549262702465 217:0.00789475254714489 309:0.03532569110393524 310:0.12365911900997162 311:0.020060859620571136 312:0.042372968047857285 313:0.2584664523601532 314:0.014725708402693272 315:0.05075870454311371 316:0.05075870454311371 317:0.05795345455408096 318:0.14905095100402832 319:0.02046998217701912 320:0.03220409154891968 321:0.07135694473981857 322:0.045943036675453186
-1.4211305696424816 22:0.003968256525695324 35:6.449508364312351E-4 243:0.048460934311151505 628:0.06607396900653839 716:0.03100530430674553 793:0.032693617045879364 934:0.1286666840314865 1368:0.04205131158232689 1436:0.07239696383476257 1457:0.07149864733219147 1604:0.07149864733219147 1634:0.07473103702068329 1640:0.048460934311151505 1823:0.036730874329805374 2379:0.11269310116767883 3270:0.1584247499704361
-1.888340321636085 22:0.0036110086366534233 35:0.002347552916035056 143:0.06506188213825226 390:0.06012556701898575 409:0.09281866252422333 645:0.05123656615614891 1110:0.09281866252422333 1151:0.03627416118979454 1647:0.01146817859262228 1677:0.07528185844421387 1719:0.03450259938836098 1805:0.11708329617977142 1806:0.07528185844421387 1807:0.10254774987697601 1808:0.062457092106342316 1809:0.11708329617977142
-3.194414997737568 9:0.023294895887374878 35:3.440207801759243E-4 114:0.02126310206949711 165:0.02202531136572361 227:0.010772140696644783 238:0.050180356949567795 272:0.04183458909392357 323:0.068631611764431 324:0.046852853149175644 325:0.034009989351034164 326:0.08450474590063095 327:0.05440822243690491 328:0.04412854462862015 329:0.03661094978451729 330:0.08450474590063095 331:0.03813782334327698 332:0.068631611764431 333:0.068631611764431 334:0.03524426370859146 335:0.08450474590063095 336:0.05440822243690491 337:0.027075648307800293
-0.2143662818511702 35:4.727361083496362E-4 47:0.010965511202812195 51:0.024636901915073395 64:0.0014257621951401234 178:0.02135191485285759 246:0.06895533204078674 325:0.046734824776649475 433:0.03812584653496742 457:0.012353980913758278 567:0.032010678201913834 878:0.026111610233783722 888:0.03082277439534664 929:0.05019019544124603 983:0.010809565894305706 1151:0.2629682123661041 1319:0.017008008435368538 1632:0.018642298877239227 1647:0.036950286477804184 1664:0.0363394170999527 1721:0.012259031645953655 1744:0.07008825987577438 1895:0.02973189763724804 1985:0.046734824776649475 1986:0.09431011974811554
-2.422732688390499 35:0.0054403250105679035 64:0.0018231006106361747 103:0.028690099716186523 126:0.055978141725063324 152:0.04875094071030617 227:0.01892777904868126 739:0.05975911393761635 878:0.033388521522283554 1294:0.14848369359970093 1295:0.08817213773727417 1296:0.08232537657022476 1297:0.07350775599479675 1298:0.14848369359970093 1299:0.14848369359970093 1300:0.057785630226135254
-2.0446301675448106 51:0.05093942955136299 260:0.029065359383821487 276:0.029065359383821487 361:0.050233401358127594 458:0.04414736479520798 724:0.11325598508119583 773:0.07184098660945892 1270:0.11886051297187805 1455:0.04524120315909386 1644:0.01909966766834259 1746:0.10013606399297714 2067:0.1331184208393097 2627:0.19499625265598297
-1.6210524484128006 35:9.179534390568733E-4 64:0.00276852841489017 221:0.04529809206724167 329:0.09768930077552795 694:0.08500742167234421 746:0.10636410117149353 947:0.11162757873535156 1536:0.05773305147886276 1644:0.01793740876019001 1646:0.06604156643152237 2800:0.2254847139120102 2801:0.18313029408454895
-2.7670852438969824 9:0.02613159827888012 22:0.002374449744820595 32:0.01904360204935074 56:0.031922969967126846 64:0.004655627068132162 241:0.012521502561867237 377:0.14756636321544647 456:0.028997132554650307 503:0.03815150633454323 651:0.03815150633454323 652:0.07698912918567657 653:0.09479518979787827 654:0.09479518979787827 655:0.05629099905490875 656:0.07698912918567657 657:0.09479518979787827 658:0.09479518979787827 659:0.0610337071120739
-0.6436357117032179 35:2.729704137891531E-4 64:0.00329309212975204 205:0.06867195665836334 225:0.021483734250068665 245:0.005941830575466156 268:0.014429135248064995 303:0.014028828591108322 983:0.006241730879992247 1187:0.02383088506758213 1345:0.021483734250068665 1368:0.017797891050577164 1409:0.024526741355657578 1436:0.007660362869501114 1455:0.050538573414087296 1647:0.005334019660949707 1721:0.0070786913856863976 1841:0.025278525426983833 1871:0.08393338322639465 1895:0.06867195665836334 2109:0.04769647493958473 2127:0.022580264136195183 2156:0.04769647493958473 2231:0.030261246487498283 2406:0.030261246487498283 2504:0.04769647493958473 2580:0.0544571727514267 2701:0.04769647493958473 2994:0.06705204397439957 2995:0.06705204397439957 2996:0.06705204397439957
-1.5409356716253373 22:0.007363431621342897 28:0.0035913074389100075 35:2.991900546476245E-4 80:0.09418925642967224 101:0.00953535083681345 119:0.03184003382921219 227:0.009368379600346088 568:0.12736013531684875 983:0.006841268390417099 1138:0.07802972942590714 1748:0.04364115372300148 2265:0.07349259406328201 2266:0.07349259406328201 2267:0.07349259406328201 2268:0.07349259406328201 2269:0.29397037625312805
-1.4564487823795664 22:0.003097675507888198 32:0.024844028055667877 35:5.034575005993247E-4 58:0.004436022602021694 64:0.006073668599128723 328:0.06457994878292084 360:0.021201161667704582 845:0.04395288601517677 928:0.03700397163629532 1100:0.03700397163629532 1409:0.18094518780708313 1445:0.06457994878292084 1745:0.06856685131788254 1945:0.25831979513168335 1950:0.0612228624522686 3027:0.12366853654384613
-1.236375956245195 58:0.0038997428491711617 101:0.12695126235485077 114:0.027355646714568138 120:0.027836129069328308 194:0.012941996566951275 292:0.08829671144485474 372:0.02940131351351738 465:0.06455859541893005 515:0.15907035768032074 519:0.05382150784134865 785:0.08829671144485474 786:0.10871800035238266 787:0.08829671144485474 788:0.06027766317129135 789:0.06027766317129135
-1.823559751472654 7:0.009161015041172504 22:0.001444527879357338 28:7.045279489830136E-4 58:0.0020686346106231213 111:0.009668280370533466 130:0.014265770092606544 175:0.012235455214977264 339:0.018477661535143852 579:0.017640788108110428 763:0.028549836948513985 916:0.09993994981050491 983:0.0053683677688241005 1025:0.014765788801014423 1137:0.024052297696471214 1166:0.026026993989944458 1506:0.03713066130876541 2212:0.18734939396381378 2406:0.10410797595977783 3581:0.23067961633205414 3582:0.04102263227105141 3583:0.057669904083013535 3584:0.057669904083013535
-2.2985468211659 15:0.005470197182148695 22:0.0014614458195865154 35:9.501005988568068E-4 117:0.018258653581142426 336:0.037565525621175766 423:0.032349009066820145 494:0.032349009066820145 500:0.02888420596718788 687:0.03464644402265549 762:0.030468039214611053 770:0.03464644402265549 928:0.017458027228713036 1038:0.12939603626728058 1039:0.15026210248470306 1040:0.05834532156586647 1041:0.04150307923555374 1042:0.032349009066820145 1043:0.15026210248470306 1044:0.12187215685844421 1045:0.04150307923555374
-1.5007333116928083 58:0.02184665948152542 190:0.04764894023537636 229:0.055695272982120514 239:0.07951132953166962 385:0.04764894023537636 515:0.055695272982120514 622:0.06350352615118027 643:0.07537805289030075 675:0.1083090603351593 1107:0.08442002534866333 1158:0.08442002534866333 1159:0.1522616446018219 1160:0.12366124242544174
-3.2307894873200635 28:0.002836383180692792 45:0.04603248089551926 133:0.09683296084403992 245:0.020574254915118217 645:0.0825171172618866 902:0.09344182163476944 1173:0.12124235928058624 1820:0.0825171172618866 1894:0.10058791190385818 2206:0.12124235928058624 2531:0.23217523097991943
-1.3115164065409959 5:0.027247652411460876 15:0.006983903236687183 22:0.001865855185315013 35:3.0325280386023223E-4 64:0.003658416448161006 145:0.041300587356090546 146:0.02808283641934395 147:0.03889911621809006 148:0.052987758070230484 149:0.21195103228092194 150:0.21195103228092194 151:0.15559646487236023 152:0.024457130581140518 153:0.052987758070230484 154:0.033618323504924774 155:0.07449056208133698 156:0.033618323504924774
-2.2769837938495194 45:0.021681170910596848 64:0.0013426601653918624 98:0.038865331560373306 245:0.009690416976809502 348:0.04401083663105965 402:0.2284192591905594 457:0.01163391675800085 563:0.05710481479763985 566:0.07040730118751526 678:0.08881315588951111 679:0.10935389250516891 680:0.04737662896513939 681:0.10935389250516891 682:0.026603227481245995 683:0.07040730118751526 684:0.06493619829416275
-4.465103364808555 11:0.004860910587012768 22:0.008747570216655731 28:4.740424919873476E-4 35:0.0014217208372429013 57:0.005796837154775858 64:4.764311306644231E-4 79:0.007693372201174498 137:0.0034867997746914625 245:0.00343855912797153 268:0.008350193500518799 274:0.008118534460663795 276:0.0046974350698292255 385:0.012143139727413654 424:0.010493818670511246 443:0.0183040089905262 542:0.0074975877068936825 552:0.0183040089905262 581:0.023042038083076477 887:0.08605640381574631 944:0.008858736604452133 1020:0.021514100953936577 1034:0.01751229353249073 1063:0.01419371459633112 1072:0.005219452083110809 1100:0.011610671877861023 1285:0.02026313915848732 1368:0.04119881987571716 1638:0.05096036195755005 1645:0.014870120212435722 1649:0.00976368598639965 1654:0.006364533212035894 1666:0.006163999903947115 1857:0.01243271678686142 1866:0.007222234737128019 1935:0.02026313915848732 1958:0.015616857446730137 1961:0.05096036195755005 2108:0.0183040089905262 2167:0.0183040089905262 2211:0.08105255663394928 2883:0.08605640381574631 2884:0.03151456639170647 2885:0.12605826556682587 2886:0.03151456639170647 2904:0.03880326449871063
-2.460051854753498 22:0.0011565175373107195 35:7.518636994063854E-4 297:0.011617724783718586 314:0.009528301656246185 441:0.03749890998005867 474:0.020837727934122086 481:0.015159323811531067 791:0.025599442422389984 855:0.025599442422389984 933:0.02741752192378044 1515:0.02741752192378044 1753:0.012727854773402214 2094:0.021779783070087433 2415:0.02741752192378044 2847:0.03749890998005867 3443:0.02741752192378044 3444:0.04617166891694069 3445:0.04617166891694069 3446:0.03284353017807007 3447:0.04617166891694069 3448:0.18468667566776276 3449:0.04617166891694069 3450:0.04617166891694069 3451:0.03749890998005867 3452:0.18468667566776276
-1.6896448887863185 28:0.0032698812428861856 31:0.03973522037267685 47:0.006318829953670502 60:0.010303911752998829 64:8.215894922614098E-4 84:0.011218195781111717 140:0.08008886128664017 251:0.009996451437473297 929:0.007230472285300493 1048:0.05843441188335419 1072:0.009000769816339016 1141:0.02790810354053974 1361:0.054345812648534775 1648:0.018812056630849838 1680:0.12079745531082153 1744:0.010097016580402851 1761:0.021439801901578903 2304:0.054345812648534775 2506:0.06691492348909378 2507:0.054345812648534775 2508:0.2676596939563751 2509:0.06691492348909378
-1.4496553437978104 35:0.006523621268570423 58:0.01437009871006012 64:0.002186122816056013 101:0.0057753161527216434 133:0.01856478862464428 227:0.005674186162650585 282:0.08398865908384323 360:0.0076310294680297375 371:0.020997164770960808 471:0.00906236469745636 778:0.012270502746105194 872:0.016282103955745697 878:0.010009240359067917 983:0.004143579863011837 1137:0.01856478862464428 1219:0.008825334720313549 1308:0.01856478862464428 1436:0.0050853402353823185 1625:0.01461460068821907 1688:0.037252213805913925 1759:0.024679573252797127 1761:0.014262001030147076 1762:0.01791463978588581 1870:0.017323026433587074 2192:0.0361514538526535 2443:0.024679573252797127 3092:0.0361514538526535 3093:0.031663358211517334 3094:0.17805027961730957 3095:0.04451256990432739 3096:0.031663358211517334 3097:0.04451256990432739 3098:0.17805027961730957
-1.9343805824543505 19:0.030175302177667618 35:0.0036143397446721792 64:0.001211196999065578 84:0.016537996008992195 241:0.013030258938670158 276:0.011941954493522644 305:0.027732955291867256 509:0.027732955291867256 542:0.019060583785176277 545:0.04653298109769821 697:0.06351353973150253 866:0.03718969598412514 977:0.04883568733930588 982:0.01792200095951557 983:0.009182817302644253 1069:0.05469376966357231 1119:0.04653298109769821 1630:0.0239984393119812 1636:0.020357424393296242 1892:0.03970162570476532 1960:0.05857813358306885 2004:0.04883568733930588 2191:0.04883568733930588 2472:0.06351353973150253 2529:0.06351353973150253 2598:0.05857813358306885 2629:0.09864677488803864
-1.2514525091772863 6:0.05306096002459526 15:0.013600166887044907 35:5.905420985072851E-4 47:0.013698119670152664 217:0.016049059107899666 236:0.04647774621844292 282:0.06842664629220963 474:0.06546694785356522 568:0.06284593790769577 1114:0.08042707294225693 1115:0.14505986869335175 1116:0.14505986869335175 1117:0.07575054466724396 1118:0.14505986869335175 1119:0.06842664629220963
-2.0767008370546503 7:0.0069196089170873165 22:0.001091098296456039 28:0.002128610387444496 35:1.7733348067849874E-4 84:0.007302762940526009 143:0.019659025594592094 151:0.022747080773115158 206:0.013956771232187748 242:0.019659025594592094 339:0.013956771232187748 345:0.10346651077270508 731:0.0241513904184103 743:0.01753123849630356 795:0.0241513904184103 1268:0.03098571114242077 1353:0.03098571114242077 1649:0.010960559360682964 1844:0.020547792315483093 2106:0.022747080773115158 2859:0.10346651077270508 3397:0.03098571114242077 3398:0.043559931218624115 3399:0.043559931218624115 3400:0.043559931218624115 3401:0.043559931218624115 3402:0.17423972487449646 3403:0.12394284456968307
-0.6567231898031064 64:0.0034247119911015034 251:0.04166918620467186 479:0.07403697818517685 601:0.13157401978969574 1376:0.13157401978969574 1519:0.11225806921720505 2744:0.22653497755527496 2745:0.2789280414581299
-2.1831099773960307 28:6.880954024381936E-4 35:2.292995632160455E-4 45:0.011167299002408981 59:0.016853448003530502 63:0.16026324033737183 72:0.02788393571972847 137:0.005061257164925337 152:0.01849285326898098 185:0.15168103575706482 205:0.014421388506889343 227:0.028719743713736534 303:0.011784442700445652 337:0.018046684563159943 542:0.010883108712732792 1191:0.031228750944137573 1309:0.010356697253882885 1666:0.008947341702878475 1669:0.04006581008434296 1670:0.04006581008434296 1671:0.11153574287891388 1672:0.056324802339076996 1673:0.22529920935630798
-0.9139678504223083 9:0.08963233232498169 58:0.01166324969381094 64:0.003992242272943258 1657:0.0791015774011612 1722:0.23129130899906158 1737:0.11242453753948212 2125:0.14674381911754608 3234:0.3251509368419647
-1.8673627970597608 4:0.024950839579105377 35:0.0012065122136846185 100:0.019311195239424706 175:0.015719512477517128 228:0.02125442586839199 268:0.06377588212490082 276:0.008969344198703766 329:0.03209948539733887 369:0.03494991734623909 433:0.02432609722018242 458:0.013623534701764584 504:0.020424330607056618 595:0.03494991734623909 616:0.02432609722018242 620:0.04770365357398987 888:0.019666392356157303 982:0.013460827991366386 1309:0.013623534701764584 1645:0.007098301313817501 1666:0.011769622564315796 1773:0.041079308837652206 1785:0.060174331068992615 1786:0.07409146428108215 1787:0.026332756504416466 1788:0.24069732427597046 1789:0.043996769934892654 1790:0.023739192634820938 1791:0.036679431796073914
-1.290889565712012 3:0.03247794508934021 47:0.00735351350158453 57:0.011633330956101418 64:9.561215410940349E-4 71:0.0783766582608223 137:0.006997452583163977 256:0.019594164565205574 283:0.017251573503017426 478:0.04624170809984207 613:0.0367332361638546 898:0.1405775547027588 979:0.0367332361638546 1120:0.17270152270793915 1138:0.02066987007856369 1442:0.026223955675959587 2653:0.06324472278356552 3103:0.06324472278356552 3304:0.07787197828292847 3305:0.07787197828292847 3306:0.06324472278356552
-3.820198989139584 28:0.001420773332938552 35:4.7345570055767894E-4 44:0.05038551241159439 47:0.010982202365994453 79:0.02305814065039158 176:0.04133366793394089 458:0.02138441614806652 510:0.02829279750585556 582:0.027834007516503334 628:0.04850462079048157 1032:0.052486855536699295 1138:0.03086969256401062 1584:0.07487885653972626 1632:0.01867067627608776 1644:0.00925163272768259 1647:0.00925163272768259 1861:0.06448084861040115 1894:0.05038551241159439 1907:0.03639473021030426 2682:0.09445367753505707 2825:0.09445367753505707 3246:0.11629894375801086 3247:0.09445367753505707
-3.0692366967825606 11:0.00774784991517663 22:0.0015492035308852792 28:0.012089289724826813 35:0.0010071528377011418 47:0.005840438883751631 64:7.593879126943648E-4 137:0.005557641852647066 240:0.016120286658406258 274:0.012940206564962864 284:0.021384932100772858 372:0.016726192086935043 1058:0.03229760378599167 1089:0.03429152071475983 1166:0.027913004159927368 1319:0.009058787487447262 1345:0.019816620275378227 1617:0.03429152071475983 1632:0.009929241612553596 1656:0.03429152071475983 1780:0.04399527981877327 1793:0.018114738166332245 1841:0.023316938430070877 1918:0.016726192086935043 1991:0.14690765738487244 2102:0.021384932100772858 2110:0.030618662014603615 2127:0.08331223577260971 2128:0.03229760378599167 2129:0.04399527981877327 2130:0.05023135244846344 2131:0.039821282029151917 2132:0.061848875135183334 2133:0.039821282029151917 2134:0.04399527981877327
-1.5355988101568436 7:0.028378348797559738 19:0.05464639142155647 35:7.272710790857673E-4 51:0.03790213167667389 98:0.06349227577447891 223:0.061768751591444016 245:0.015830732882022858 293:0.061768751591444016 450:0.07739673554897308 877:0.10608290135860443 981:0.09328917413949966 985:0.07189822196960449 992:0.08843968063592911 993:0.14508944749832153 994:0.09328917413949966
-1.2124371457852838 10:0.024193445220589638 160:0.021218672394752502 180:0.020616671070456505 341:0.022575192153453827 450:0.02513160929083824 479:0.015397381968796253 487:0.06396317481994629 569:0.04126336798071861 570:0.12864868342876434 609:0.23203332722187042 610:0.058008331805467606 611:0.04711220785975456 612:0.04711220785975456 613:0.02736329287290573 614:0.16505347192287445 615:0.04126336798071861 616:0.019045598804950714
-1.2774661298235885 35:3.785974404308945E-4 64:0.0011418419890105724 218:0.04603927955031395 240:0.09695608168840408 293:0.032155122607946396 369:0.04386842995882034 563:0.048563793301582336 662:0.035060156136751175 923:0.37199243903160095 924:0.04386842995882034 925:0.09299810975790024 926:0.09299810975790024 927:0.06615282595157623 928:0.02782679721713066
-2.006487242794114 22:0.0030954228714108467 35:5.03091374412179E-4 43:0.03406614437699318 64:0.0015173130668699741 217:0.013672426342964172 392:0.018836425617337227 532:0.0795658603310585 1138:0.03280196338891983 1295:0.07338307797908783 1607:0.0465889610350132 1644:0.009830732829868793 1666:0.019630786031484604 1683:0.06851698458194733 1713:0.10036594420671463 1739:0.12357860803604126 1740:0.12357860803604126 1741:0.04973575472831726 1742:0.10036594420671463 1743:0.10036594420671463
-1.0537516205504234 15:0.00800515990704298 26:0.03123207576572895 35:0.0013903898652642965 64:0.0041933865286409855 217:0.00944659486413002 257:0.03123207576572895 276:0.010336310602724552 314:0.017620285972952843 422:0.1249283030629158 457:0.009083740413188934 579:0.026118110865354538 753:0.054973892867565155 886:0.047339972108602524 1048:0.0186405498534441 1166:0.03853433206677437 1645:0.032720450311899185 1813:0.047339972108602524 1913:0.20781688392162323 2310:0.0693451538681984 2431:0.0693451538681984 3123:0.054973892867565155 3152:0.08538331836462021
-1.241240257464695 15:0.009571673348546028 16:0.02870147116482258 22:0.010228867642581463 64:0.0012534954585134983 233:0.05331254005432129 361:0.02135995216667652 487:0.028143011033535004 924:0.19263218343257904 1654:0.016745155677199364 1719:0.024433791637420654 1795:0.10209180414676666 1796:0.05660383403301239 1797:0.08291516453027725 1798:0.06573162227869034 1799:0.10209180414676666 1800:0.10209180414676666 1801:0.10209180414676666
-1.5128307438571544 49:0.04655764251947403 58:0.006522560957819223 152:0.05970185995101929 173:0.04917551204562187 630:0.04351946711540222 702:0.06855250149965286 780:0.10081811249256134 1297:0.09001979231834412 1504:0.10797823220491409 2018:0.08577516674995422 2021:0.0949559286236763 2097:0.11707577109336853 2295:0.12934744358062744
-0.7488143193415371 57:0.04652853682637215 64:0.0038240929134190083 74:0.2005303055047989 93:0.1022588312625885 96:0.05526461452245712 245:0.027599727734923363 286:0.14056310057640076 303:0.06516373157501221 481:0.1022588312625885 673:0.22154952585697174 706:0.034458696842193604
-1.3003222303318502 7:0.010822765529155731 11:0.00853479839861393 47:0.006433652248233557 64:8.365189423784614E-4 137:0.0061221313662827015 144:0.03213822469115257 185:0.020386045798659325 251:0.010178101249039173 283:0.06037420034408569 294:0.058645159006118774 303:0.05701817199587822 357:0.16182906925678253 360:0.011680040508508682 457:0.007248290814459324 511:0.03557806834578514 599:0.03557806834578514 671:0.016305865719914436 672:0.05533335357904434 733:0.043865930289030075 1099:0.02651459351181984 1366:0.13491439819335938 1441:0.06813086569309235 1442:0.022943563759326935 1443:0.04045726731419563 1444:0.06813086569309235
-1.3453556609701205 35:4.574109334498644E-4 81:0.032908134162425995 214:0.02117161452770233 434:0.06229568272829056 497:0.04372643679380417 720:0.03361956775188446 826:0.07234132289886475 1015:0.055623382329940796 1021:0.07234132289886475 1095:0.04372643679380417 1213:0.1123577356338501 1214:0.1123577356338501 1215:0.1123577356338501 1216:0.1123577356338501 1217:0.1123577356338501
-2.458102313402933 22:0.0020827369298785925 28:0.00101579655893147 64:0.0010209151078015566 81:0.024353310465812683 206:0.026641307398676872 217:0.009199410676956177 261:0.04116348922252655 331:0.037526022642850876 337:0.026641307398676872 377:0.032359279692173004 429:0.046101249754428864 481:0.02729995921254158 509:0.023376043885946274 641:0.029551934450864792 642:0.08314913511276245 643:0.04116348922252655 644:0.18440499901771545 645:0.029551934450864792 646:0.05353541672229767 647:0.08314913511276245 648:0.030414843931794167 649:0.08314913511276245 650:0.08314913511276245
-4.193092582045949 15:0.008012877777218819 22:0.008563045412302017 28:0.009396866895258427 35:3.479326260276139E-4 86:0.03222042694687843 159:0.05502689629793167 217:0.009455704130232334 258:0.012276819907128811 348:0.034396715462207794 378:0.01590724289417267 385:0.026745721697807312 479:0.02268548682332039 682:0.020791780203580856 982:0.0155272725969553 1072:0.011496039107441902 1119:0.04031527042388916 1219:0.016944941133260727 1319:0.012517852708697319 1335:0.023559780791401863 1436:0.009764025919139385 1536:0.02188260294497013 1551:0.05075095221400261 1638:0.11224211007356644 1645:0.008187999948859215 1663:0.024517308920621872 1744:0.01289619691669941 1746:0.0356450229883194 1753:0.023559780791401863 1761:0.027383524924516678 1860:0.04231029003858566 1924:0.01432819850742817 2186:0.06941201537847519 2673:0.08546564728021622 2674:0.08546564728021622
-2.9063046572492226 22:0.0018393477657809854 35:0.0011957783717662096 67:0.033140718936920166 77:0.14541244506835938 135:0.03463898226618767 223:0.025390030816197395 227:0.009360694326460361 386:0.033140718936920166 398:0.04727925360202789 662:0.02768387459218502 773:0.02197233773767948 883:0.05963898450136185 893:0.05223498120903969 1030:0.05223498120903969 1131:0.029553746804594994 1312:0.010250967927277088 1691:0.030626296997070312 2027:0.05963898450136185 2103:0.05223498120903969 3284:0.0734323039650917 3285:0.0734323039650917 3286:0.0734323039650917 3287:0.05223498120903969
-1.754053085614441 11:0.008403324522078037 28:8.195033296942711E-4 35:2.730896812863648E-4 47:0.025338178500533104 64:8.236327557824552E-4 172:0.02259012870490551 173:0.018141241744160652 559:0.027977509424090385 668:0.09536518901586533 706:0.007421710528433323 935:0.027977509424090385 1007:0.03983404114842415 1241:0.04319019615650177 1280:0.027977509424090385 1312:0.009364388883113861 1409:0.09814982861280441 1486:0.08809798210859299 1596:0.024537457153201103 1773:0.03719261288642883 1955:0.03719261288642883 2313:0.14877045154571533 2766:0.033209025859832764 3121:0.04319019615650177 3511:0.06708133965730667 3512:0.06708133965730667
-0.9992746752125863 22:0.002945621032267809 35:0.0019149777945131063 47:0.011104879900813103 51:0.02495003119111061 64:0.0014438832877203822 88:0.06520113348960876 203:0.02814492955803871 258:0.01689252257347107 471:0.023941924795508385 1100:0.03518757224082947 1188:0.05821764096617699 1202:0.06520113348960876 1409:0.04301580414175987 1770:0.03960200771689415 1880:0.05821764096617699 2282:0.07571530342102051 2425:0.09550877660512924 2426:0.11759807169437408 2427:0.11759807169437408 2428:0.11759807169437408
-2.321967024115016 28:9.507662034593523E-4 35:3.1683145789429545E-4 126:0.1173611730337143 165:0.020284565165638924 206:0.024935754016041756 227:0.009920775890350342 287:0.038528237491846085 377:0.030287666246294975 380:0.055360373109579086 432:0.04314988851547241 477:0.038528237491846085 478:0.18485762178897858 646:0.05010812729597092 671:0.018626218661665916 762:0.04064089059829712 845:0.02766004391014576 1266:0.03371744230389595 1267:0.046214405447244644 1309:0.014310221187770367 1411:0.06320738047361374 1620:0.06320738047361374 1621:0.07782600075006485
-0.3062517547554945 260:0.09258513897657394 618:0.29763901233673096 929:0.0826404020190239 1630:0.18605822324752808 1644:0.06084030121564865 1647:0.06084030121564865 1658:0.21939663589000702
-1.0140069375582452 15:0.019910236820578575 22:0.005319320131093264 35:8.645358611829579E-4 84:0.14240966737270355 130:0.05253218114376068 338:0.11774281412363052 339:0.06804202497005463 340:0.09200455993413925 341:0.08264575153589249 342:0.126104936003685 343:0.08006066083908081 344:0.21236330270767212
-0.4838186955779236 11:0.011331258341670036 32:0.018171532079577446 35:3.682411334011704E-4 84:0.06065808981657028 95:0.05823877081274986 214:0.017044320702552795 471:0.018415672704577446 504:0.02493494376540184 663:0.16329148411750793 666:0.03772559389472008 1072:0.012167053297162056 1219:0.07173601537942886 1408:0.05371324345469475 1787:0.03214821591973305 2777:0.05823877081274986 2874:0.36181679368019104
-1.8291478878438754 22:0.003576849587261677 137:0.012831657193601131 227:0.01820308156311512 248:0.06444641947746277 276:0.0172868762165308 283:0.03163526579737663 303:0.02987675368785858 311:0.04014553874731064 372:0.03861795738339424 456:0.04368101805448532 475:0.09194062650203705 481:0.046884387731552124 485:0.11597572267055511 592:0.14279861748218536 593:0.14279861748218536 594:0.09194062650203705 595:0.06735998392105103
-1.3243256850785148 22:0.00560346245765686 58:0.008024431765079498 64:0.0027467026375234127 137:0.020101964473724365 178:0.04113404080271721 217:0.02475038915872574 360:0.03835131227970123 632:0.18168658018112183 817:0.05830700695514679 1442:0.07533499598503113 1697:0.07344868779182434 1701:0.10552558302879333 1702:0.12403228133916855 1885:0.09691917151212692 1886:0.14403340220451355
-1.1476488422400262 35:5.494900397025049E-4 160:0.04937238618731499 184:0.10962241142988205 185:0.0403873547911644 186:0.09601311385631561 187:0.0748361125588417 188:0.10962241142988205 189:0.08690398931503296 190:0.04223952442407608 191:0.08015099167823792 192:0.060915958136320114 193:0.09601311385631561 194:0.016067789867520332 195:0.0668206512928009 196:0.07048468291759491
-4.557645914880577 7:0.009309927001595497 15:0.005494761746376753 20:0.12241943925619125 28:7.159800734370947E-4 35:2.3859177599661052E-4 45:0.04647938907146454 51:0.049737367779016495 117:0.018340647220611572 225:0.018778014928102493 256:0.014746788889169693 349:0.030604859814047813 369:0.02764584682881832 424:0.015849560499191284 562:0.08837951719760895 810:0.019242264330387115 921:0.030604859814047813 1042:0.03249427676200867 1088:0.04168945178389549 1200:0.02082955837249756 1352:0.047598689794540405 1520:0.017165331169962883 1789:0.03480202704668045 1830:0.029013914987444878 2007:0.03480202704668045 3253:0.047598689794540405 3384:0.030604859814047813 3409:0.047598689794540405 3427:0.058607328683137894 3428:0.058607328683137894
-2.7282476438499397 7:0.013005340471863747 57:0.012230669148266315 59:0.024497201666235924 71:0.0824010819196701 143:0.03694895654916763 182:0.027570482343435287 227:0.010436341166496277 359:0.01928260177373886 583:0.048616085201501846 979:0.03861938416957855 1004:0.048616085201501846 1072:0.011012451723217964 1244:0.03861938416957855 1427:0.05823735520243645 2395:0.05271216109395027 2553:0.05823735520243645 2850:0.06649216264486313 3170:0.05823735520243645 3269:0.048616085201501846 3309:0.08187048882246017 3310:0.08187048882246017 3311:0.08187048882246017
-2.880343845402692 35:0.0018980307504534721 57:0.01741255633533001 64:0.012879947200417519 217:0.012895612046122551 506:0.046909961849451065 616:0.038268718868494034 735:0.09466354548931122 1079:0.052603479474782944 1138:0.0309382826089859 1151:0.02932818792760372 1604:0.052603479474782944 1790:0.03734542801976204 1810:0.08291134238243103 1811:0.07504523545503616 1812:0.11655735224485397 1813:0.06462412327528 1814:0.11655735224485397 1815:0.11655735224485397
-0.6555894896518696 22:0.005700445733964443 28:6.950582028366625E-4 35:2.316198224434629E-4 47:0.021490465849637985 58:0.002040829276666045 60:0.008760951459407806 101:0.02952739968895912 229:0.020811336115002632 499:0.08579695224761963 810:0.01867998018860817 859:0.008172716945409775 968:0.17243747413158417 1168:0.03663157671689987 1319:0.008333173580467701 1502:0.028166089206933975 3586:0.04047123342752457 3594:0.22757898271083832 3595:0.05689474567770958 3596:0.22757898271083832
-1.6220154637415787 35:7.538426434621215E-4 37:0.05933007597923279 58:0.01494494080543518 64:0.005115540698170662 305:0.013014587573707104 329:0.02005612663924694 339:0.014832518994808197 494:0.025666821748018265 579:0.014160738326609135 905:0.08357029408216476 1072:0.006226927507668734 1515:0.027489686384797096 1616:0.11922314763069153 2562:0.03759760782122612 3053:0.15039043128490448 3472:0.03292997553944588 3535:0.15039043128490448 3550:0.1317199021577835 3568:0.046293195337057114 3569:0.046293195337057114
-1.5049246576587494 22:0.009634658694267273 175:0.02040189690887928 241:0.012701932340860367 275:0.04536047950387001 276:0.011641050688922405 392:0.014657328836619854 554:0.1735938936471939 1077:0.05710212513804436 1274:0.041660986840724945 1507:0.06840281188488007 1680:0.04339847341179848 1696:0.03870125487446785 2955:0.09616114944219589 2956:0.07809850573539734 2957:0.09616114944219589 2958:0.09616114944219589 2959:0.09616114944219589
-1.7499614056289434 21:0.056090280413627625 515:0.04735714569687843 810:0.042507145553827286 1107:0.07178152352571487 1227:0.10514794290065765 1247:0.10514794290065765 1248:0.12946657836437225 1249:0.10514794290065765 1250:0.09209413826465607 1251:0.061071090400218964 1252:0.09209413826465607 1253:0.09209413826465607
-1.7430379637943991 6:0.034419946372509 35:3.830768691841513E-4 64:0.0011553517542779446 102:0.2086879312992096 120:0.024092938750982285 240:0.024525808170437813 308:0.01996426284313202 319:0.026993772014975548 479:0.02497692033648491 497:0.036620430648326874 607:0.06693552434444427 705:0.07642324268817902 720:0.028156034648418427 992:0.04658399894833565 1100:0.028156034648418427 1114:0.2086879312992096 1147:0.0491383820772171 1148:0.09409842640161514
-1.7427500713492066 7:0.006248127203434706 28:4.805122734978795E-4 51:0.008345000445842743 58:0.0014108798932284117 130:0.009729744866490364 245:0.003485489170998335 284:0.05439908057451248 339:0.012602400034666061 420:0.027978843078017235 709:0.027978843078017235 916:0.0681624785065651 944:0.00897964183241129 1032:0.017751304432749748 1103:0.00587595347315073 1104:0.021807728335261345 1219:0.007798372767865658 1473:0.03194468095898628 2008:0.02532438561320305 3318:0.027978843078017235 3520:0.039332855492830276 3521:0.1573314219713211 3522:0.1573314219713211 3523:0.039332855492830276 3524:0.03194468095898628 3525:0.039332855492830276 3526:0.039332855492830276 3527:0.12777872383594513
-1.3614309414816292 11:0.008554899133741856 28:8.342851651832461E-4 51:0.014488933607935905 64:8.384890388697386E-4 93:0.022421764209866524 142:0.04857802018523216 245:0.006051649339497089 405:0.16221019625663757 648:0.09992021322250366 717:0.03786347433924675 1309:0.012557035312056541 1375:0.04857802018523216 1630:0.01661367155611515 1635:0.012407067231833935 1636:0.0563722588121891 1666:0.010848254896700382 2363:0.04396924003958702 2756:0.16221019625663757 2757:0.05546367168426514 2758:0.0682913213968277 2759:0.05546367168426514 2760:0.05546367168426514
-4.243347621483916 4:0.04488477110862732 11:0.06678691506385803 35:0.0021704290993511677 47:0.05034492537379265 59:0.03988146781921387 217:0.014746341854333878 250:0.03823518753051758 283:0.0295276939868927 458:0.09803104400634766 706:0.014746341854333878 881:0.07914703339338303 982:0.02421506494283676 1288:0.050248343497514725 1749:0.05187081918120384 1750:0.06015293300151825 1869:0.04875395447015762 1870:0.05187081918120384 1880:0.06598366796970367 2006:0.06015293300151825 2544:0.10824930667877197
-2.652937503210268 35:1.994669873965904E-4 58:0.0070301080122590065 117:0.01533310767263174 132:0.03979335352778435 146:0.018471714109182358 147:0.025586210191249847 167:0.02425614930689335 206:0.015698755159974098 245:0.00434185890480876 303:0.041005004197359085 701:0.10234484076499939 706:0.00542087946087122 728:0.021227426826953888 731:0.027165794745087624 743:0.07887744903564453 855:0.1086631789803505 930:0.019719362258911133 944:0.011185901239514351 967:0.03979335352778435 968:0.016500018537044525 1258:0.03979335352778435 1955:0.027165794745087624 2155:0.03485312685370445 3192:0.03979335352778435 3459:0.03979335352778435 3460:0.04899677261710167 3461:0.04899677261710167 3462:0.04899677261710167 3463:0.04899677261710167
-0.4309149357498389 9:0.030338428914546967 57:0.016441306099295616 136:0.07085930556058884 152:0.03613413870334625 165:0.02868496999144554 303:0.023026229813694954 331:0.04966932162642479 524:0.016606707125902176 525:0.2614123225212097 526:0.19867728650569916 527:0.0893833264708519 528:0.0893833264708519 529:0.0893833264708519
-1.216338699945845 4:0.08780284970998764 9:0.07187391072511673 15:0.02444491721689701 35:0.0010614393977448344 47:0.02462097816169262 64:0.0032012788578867912 276:0.03156342729926109 314:0.05380610376596451 392:0.03974173218011856 458:0.047941677272319794 706:0.02884655073285103 1645:0.024979161098599434 1773:0.14455947279930115 1904:0.1548261195421219 2510:0.2607303559780121
-1.2335255551794033 22:0.00195306574460119 28:9.525530622340739E-4 35:3.1742689316160977E-4 64:0.015317645855247974 84:0.013071944005787373 276:0.009439145214855671 302:0.023851126432418823 306:0.029395435005426407 540:0.019964000210165977 571:0.07797227054834366 572:0.046301260590553284 573:0.07797227054834366 574:0.07797227054834366 575:0.07797227054834366 576:0.22185766696929932 577:0.046301260590553284 578:0.07797227054834366 579:0.023851126432418823 580:0.046301260590553284 581:0.046301260590553284 582:0.018661225214600563 583:0.046301260590553284
-1.6773298240755414 15:0.03322501480579376 64:0.0043511101976037025 543:0.10840191692113876 694:0.13360045850276947 929:0.03829234093427658 1396:0.18505750596523285 1644:0.02819102257490158 1646:0.10379309952259064 1647:0.02819102257490158 1719:0.08481412380933762 2700:0.25208237767219543
-0.7738837603838762 26:0.02182861603796482 28:7.290333160199225E-4 79:0.011831692419946194 86:0.022497698664665222 160:0.02182861603796482 194:0.007103922311216593 331:0.026932282373309135 499:0.022497698664665222 551:0.026932282373309135 594:0.03842216357588768 671:0.014282306656241417 720:0.017856135964393616 762:0.03116282820701599 968:0.020096266642212868 1006:0.03308669105172157 1119:0.028149867430329323 1291:0.028149867430329323 1419:0.015839990228414536 1669:0.04244950786232948 2851:0.04244950786232948 3327:0.048466477543115616 3348:0.05967581644654274 3349:0.05967581644654274 3350:0.05967581644654274 3351:0.23870326578617096 3352:0.05967581644654274
-1.6992810328234846 22:0.002882939064875245 35:0.0018742276588454843 64:0.0014131577918305993 84:0.019295621663331985 137:0.01034230925142765 227:0.014671673998236656 305:0.03235728293657303 474:0.05194378271698952 613:0.054292116314172745 793:0.023751918226480484 900:0.08187156170606613 928:0.03443878889083862 983:0.010714003816246986 1266:0.04986418038606644 1330:0.054292116314172745 1470:0.08187156170606613 1502:0.05697878450155258 1558:0.09347637742757797 1564:0.11509561538696289 1565:0.09347637742757797 1566:0.11509561538696289
-0.7861821859840601 221:0.07416368275880814 1138:0.0979907289147377 1654:0.06055176258087158 1657:0.0898108035326004 1664:0.11552905291318893 2147:0.1927822083234787 3180:0.36917176842689514
-1.3790285494555385 5:0.02847805619239807 35:0.0012677862541750073 62:0.04623119533061981 173:0.021054638549685478 329:0.03372969478368759 545:0.14689955115318298 788:0.04316556826233864 825:0.06323035061359406 826:0.0501263327896595 827:0.04623119533061981 828:0.06323035061359406 829:0.038542237132787704 830:0.04316556826233864 831:0.06323035061359406 832:0.3114171326160431
-0.9967526036732893 61:0.027474144473671913 71:0.017763502895832062 111:0.011835403740406036 117:0.0220925472676754 457:0.0075106024742126465 477:0.03494922071695328 500:0.03494922071695328 504:0.0194608923047781 524:0.010652540251612663 751:0.024409515783190727 864:0.03494922071695328 878:0.015874553471803665 887:0.03914155066013336 919:0.04545341432094574 951:0.03914155066013336 977:0.03494922071695328 1025:0.018075507134199142 1573:0.03494922071695328 2236:0.04545341432094574 3294:0.05733583867549896 3366:0.2823859453201294 3367:0.07059648633003235 3368:0.07059648633003235
-1.5596815624589095 22:0.0038325053174048662 64:0.007514463271945715 156:0.06905273348093033 567:0.04217797517776489 847:0.09851209074258804 963:0.04301494359970093 1048:0.033403486013412476 1137:0.06381362676620483 1409:0.05596724525094032 1436:0.01748008094727993 1633:0.051525603979825974 1645:0.014658594503998756 1700:0.0721745491027832 1823:0.03547433763742447 1857:0.049023449420928955 1933:0.09085706621408463 2287:0.09851209074258804 2502:0.15300516784191132
-1.2291710070316197 28:0.001834444236010313 35:6.113065755926073E-4 120:0.03844704106450081 164:0.10681439936161041 256:0.03778340294957161 278:0.08325503021478653 279:0.08325503021478653 359:0.03536663576960564 1270:0.07433784008026123 1666:0.023853378370404243 1885:0.065055713057518 1941:0.05336833745241165 1958:0.06043393909931183 2461:0.10681439936161041 3227:0.12195471674203873 3228:0.10681439936161041
-0.8949098249918658 35:2.725477097555995E-4 66:0.031580351293087006 300:0.021980786696076393 648:0.02448876015841961 687:0.15901993215084076 850:0.03975498303771019 1010:0.04762261360883713 1259:0.04762261360883713 1260:0.06694820523262024 1261:0.26779282093048096 1262:0.06694820523262024 1263:0.06694820523262024 1264:0.15901993215084076
-5.078284060752866 22:0.0029460182413458824 28:0.0014368378324434161 32:0.02362770587205887 35:0.0019152360036969185 58:0.0168753694742918 100:0.03065488673746586 175:0.024953395128250122 460:0.06141822412610054 982:0.02136792615056038 1048:0.10270803421735764 1309:0.02162620797753334 1312:0.06567445397377014 1645:0.011267952620983124 1648:0.03306526690721512 1657:0.02861270122230053 1666:0.018683280795812607 1737:0.04066631570458412 2177:0.27936461567878723 2178:0.09552165865898132 2179:0.11761392652988434
-1.868617260698497 28:0.016335589811205864 35:6.048488430678844E-4 47:0.014029977843165398 146:0.05601225048303604 157:0.059795528650283813 240:0.03872436285018921 308:0.12608812749385834 471:0.030248383060097694 477:0.07355254888534546 706:0.016437871381640434 1048:0.1297444999217987 1635:0.026992736384272575 1761:0.04760374128818512 1910:0.04760374128818512 2230:0.06196559593081474 2434:0.10568603128194809 2518:0.14857417345046997
-2.7112844551191295 22:0.010147671215236187 35:4.123189428355545E-4 58:0.003632990410551429 60:0.015595843084156513 175:0.02148822881281376 245:0.008975072763860226 260:0.01226089708507061 274:0.021190397441387177 275:0.04777577146887779 456:0.030981216579675674 633:0.07204502820968628 706:0.011205519549548626 844:0.037047382444143295 888:0.10753410309553146 1023:0.03245095536112785 1100:0.030305316671729088 1617:0.056154515594244 1666:0.01608881540596485 1787:0.03599629923701286 2227:0.04777577146887779 2236:0.06520984321832657 2397:0.07204502820968628 2399:0.06014262139797211 2516:0.10128140449523926 2517:0.0822569876909256
-1.2072853611245593 22:0.004225488286465406 28:0.002060863422229886 35:6.867580814287066E-4 64:0.0020712479017674923 361:0.035294707864522934 479:0.04477718099951744 539:0.0761333629488945 616:0.05538656935095787 716:0.03301514312624931 905:0.0761333629488945 1607:0.06359748542308807 1644:0.013419700786471367 1645:0.016161678358912468 1649:0.04244687780737877 1866:0.03139811381697655 1979:0.11999813467264175 2092:0.09353091567754745 2111:0.09353091567754745 2231:0.0761333629488945 2599:0.11999813467264175
-0.8008347203830832 22:0.0016291486099362373 35:2.6478146901354194E-4 58:0.002333020558580756 114:0.01636551134288311 197:0.052823491394519806 198:0.052823491394519806 199:0.052823491394519806 200:0.052823491394519806 201:0.020353857427835464 203:0.015566249378025532 204:0.14424440264701843 205:0.01665295846760273 206:0.020839236676692963 401:0.21129396557807922 534:0.01989540457725525 835:0.0321987047791481 886:0.03606110066175461 1138:0.01726396381855011 1490:0.06504052132368088 1491:0.06504052132368088 1492:0.06504052132368088 1493:0.0386221669614315
-1.5992540576162848 11:0.015107276849448681 28:3.6832044133916497E-4 64:0.0014807054540142417 137:0.024382490664720535 174:0.11755719780921936 260:0.0036498021800071 276:0.0036498021800071 411:0.01941155083477497 524:0.0045493245124816895 548:0.015744008123874664 562:0.011366232298314571 749:0.010715315118432045 773:0.009021233767271042 874:0.015744008123874664 960:0.06297603249549866 968:0.010152986273169518 1202:0.01671597734093666 1300:0.011733238585293293 1306:0.0244861152023077 1330:0.01422180701047182 1376:0.01422180701047182 1568:0.017903149127960205 2342:0.021446235477924347 2618:0.01941155083477497 3394:0.021446235477924347 3454:0.12059707939624786 3455:0.12059707939624786 3456:0.12059707939624786 3457:0.030149269849061966 3458:0.12059707939624786
-2.1740570407121376 7:0.014953117817640305 22:0.009431354701519012 35:3.832136280834675E-4 37:0.030160265043377876 64:0.0011557642137631774 167:0.04660063236951828 169:0.04660063236951828 215:0.06060672551393509 229:0.03443223610520363 583:0.055897194892168045 1145:0.05219060555100441 1197:0.03169964253902435 1246:0.055897194892168045 2472:0.06060672551393509 2557:0.06695941835641861 2934:0.055897194892168045 3312:0.09413202106952667 3313:0.09413202106952667 3314:0.09413202106952667 3315:0.09413202106952667
-0.9130370991253853 35:4.31985390605405E-4 64:0.005211435724049807 72:0.21012605726718903 94:0.15085288882255554 329:0.04597221314907074 1185:0.06832017004489899 1319:0.01554188784211874 1570:0.05883292853832245 1737:0.036689482629299164 1749:0.041295867413282394 2309:0.06832017004489899 2909:0.0861804187297821 2910:0.10611224919557571 2911:0.10611224919557571
-1.43668974201116 7:0.007448268122971058 35:0.0017179361311718822 64:5.756954778917134E-4 77:0.09284859150648117 223:0.016212016344070435 706:0.0051875608041882515 734:0.038080621510744095 872:0.01715097203850746 907:0.03335302323102951 1013:0.08125513792037964 1610:0.038080621510744095 3541:0.18755166232585907 3542:0.04688791558146477 3543:0.15232248604297638 3544:0.18755166232585907 3545:0.04688791558146477 3546:0.04688791558146477
-1.6991270769472535 9:0.021651871502399445 35:0.0012790259206667542 84:0.013167877681553364 158:0.02645043097436428 201:0.024579808115959167 245:0.006960236933082342 773:0.023502003401517868 859:0.04513049125671387 873:0.03402872383594513 983:0.007311539258807898 1286:0.04664105921983719 1309:0.014442333951592445 1367:0.04664105921983719 1634:0.03705047443509102 1636:0.016208980232477188 1891:0.13611489534378052 1984:0.04101609066128731 2185:0.17419300973415375 2191:0.03888393193483353 2206:0.04101609066128731 2598:0.04664105921983719 2822:0.0785444974899292 2823:0.0785444974899292
-1.9662118812598606 16:0.05027991533279419 26:0.06541978567838669 35:7.280895952135324E-4 79:0.03545926883816719 114:0.04500148072838783 244:0.10620229691267014 294:0.038486599922180176 385:0.05596854165196419 542:0.034556884318590164 630:0.04280369356274605 877:0.10620229691267014 878:0.040216077119112015 879:0.1452527493238449 880:0.1272200495004654 881:0.10620229691267014
-0.5945080243755 22:0.002738179173320532 49:0.027989335358142853 59:0.03270953148603439 61:0.04254281893372536 185:0.03270953148603439 283:0.024217689409852028 303:0.02287149615585804 483:0.039986465126276016 862:0.060609422624111176 1086:0.07038313895463943 1093:0.05411773547530174 1094:0.10931636393070221 1095:0.04254281893372536 1096:0.43726545572280884
-1.067685749657717 4:0.025965509936213493 15:0.028915908187627792 22:0.0019313303055241704 35:0.0012555771972984076 45:0.015287214890122414 47:0.06552937626838684 64:9.466986521147192E-4 245:0.006832633167505264 276:0.009334098547697067 457:0.008202978409826756 466:0.09228454530239105 706:0.008530650287866592 804:0.022582922130823135 878:0.017337972298264503 983:0.007177494931966066 1442:0.025965509936213493 1460:0.03817106410861015 1635:0.014008237048983574 1721:0.008139933459460735 1853:0.04578597843647003 1854:0.03103167936205864 1855:0.1610565334558487 1856:0.25048571825027466 1857:0.024704590439796448 1858:0.04578597843647003 1859:0.04274987429380417
-1.040409390091433 111:0.015199914574623108 194:0.010792969726026058 240:0.023631000891327858 262:0.050268519669771194 288:0.050268519669771194 424:0.02451920695602894 874:0.0473456010222435 929:0.009796813130378723 1630:0.022056736052036285 1647:0.00721246562898159 1696:0.03648938611149788 1963:0.03648938611149788 2102:0.03134853392839432 2110:0.04488441348075867 2127:0.030532201752066612 2134:0.06449342519044876 2287:0.058374691754579544 2826:0.07363498955965042 2827:0.3626612424850464
-1.2591116343511601 35:6.438404088839889E-4 64:0.0019418090814724565 119:0.06851798295974731 128:0.08768586814403534 163:0.07137554883956909 217:0.017497537657618523 256:0.03979423642158508 305:0.04446189105510712 481:0.051925286650657654 500:0.07829410582780838 702:0.059623077511787415 708:0.04446189105510712 872:0.057849884033203125 1098:0.059623077511787415 1182:0.15815198421478271 1183:0.15815198421478271
-1.7831991383918464 15:0.01192905381321907 243:0.03892044350504875 251:0.01900780200958252 252:0.0755547359585762 404:0.06644274294376373 465:0.0755547359585762 1219:0.0252265315502882 1486:0.0417746976017952 1745:0.07054463773965836 1784:0.10333611816167831 1843:0.0417746976017952 1846:0.08192048221826553 2053:0.05742273107171059 2064:0.060018762946128845 3153:0.10333611816167831 3154:0.12723572552204132
-0.8605408925462485 64:0.0067938570864498615 479:0.14687268435955048 510:0.13461226224899292 582:0.13242942094802856 1455:0.1042642667889595 1644:0.04401767998933792 1647:0.04401767998933792 1721:0.05841514840722084 2198:0.3285769820213318
-0.7110376925454893 22:0.004786926321685314 28:5.83672255743295E-4 35:1.945018011610955E-4 79:0.009472586214542389 101:0.006198878400027752 111:0.008009769953787327 205:0.012232844717800617 258:0.027452021837234497 337:0.015307977795600891 414:0.13594220578670502 523:0.02648957632482052 568:0.02069902792572975 594:0.030761215835809708 634:0.033985551446676254 706:0.005285941064357758 827:0.1134834885597229 946:0.028370872139930725 1130:0.15521122515201569 1187:0.016980411484837532 1414:0.04777713119983673 1415:0.10595830529928207 1416:0.03880280628800392 1417:0.04777713119983673 1418:0.04777713119983673 1419:0.012681673280894756 1420:0.04777713119983673
-0.9222183036870109 58:0.0023982005659490824 73:0.02376178652048111 101:0.008674491196870804 378:0.012443836778402328 717:0.037068575620651245 944:0.01526351273059845 1309:0.012293415144085884 1415:0.037068575620651245 1596:0.02445562556385994 1688:0.013988152146339417 1953:0.03491318225860596 2154:0.21719710528850555 2293:0.0397011935710907 2443:0.037068575620651245 2497:0.04755818098783493 2498:0.26743051409721375 2499:0.04755818098783493 2500:0.06685762852430344 2501:0.05429927632212639
-1.4828042459339175 58:0.002217377768829465 64:7.589916931465268E-4 175:0.01311523374170065 247:0.050341248512268066 515:0.09044674783945084 519:0.03060268610715866 534:0.018909230828285217 630:0.014794663526117802 762:0.1291230022907257 763:0.03060268610715866 764:0.20082058012485504 766:0.04397232457995415 769:0.05020514503121376 869:0.05020514503121376 937:0.02197016403079033 1048:0.013495557010173798 1297:0.03060268610715866 1309:0.011366499587893486 1596:0.02261168695986271 1597:0.05020514503121376 1598:0.06181660294532776 1599:0.06181660294532776
-0.8345582004667893 22:0.0026897434145212173 35:4.3715728679671884E-4 64:0.0013184573035687208 96:0.01905393972992897 101:0.013932442292571068 146:0.04048311337828636 227:0.013688474893569946 256:0.027019649744033813 291:0.05953729897737503 440:0.06376565247774124 457:0.011424202471971512 515:0.1571165770292282 542:0.02074853703379631 779:0.05953729897737503 1008:0.04478592053055763 1154:0.056075435131788254 1158:0.05953729897737503 1192:0.348848819732666
-1.8631796792581914 9:0.07082439213991165 22:0.0016088661504909396 28:7.8467937419191E-4 35:0.0023533650673925877 58:0.002303974935784936 84:0.010768203064799309 85:0.16541948914527893 101:0.008333669975399971 106:0.028987983241677284 260:0.0699806958436966 265:0.04568961635231972 294:0.013822019100189209 384:0.03814133256673813 625:0.05216585099697113 630:0.01537245325744152 671:0.01537245325744152 691:0.15256533026695251 953:0.04568961635231972 1241:0.04135487228631973 1333:0.03814133256673813 1374:0.05216585099697113 1375:0.04568961635231972 1376:0.03029850497841835 1377:0.05216585099697113
-2.1454261411746445 11:0.008659390732645988 22:0.0017314685974270105 35:2.8141128132119775E-4 64:8.487305021844804E-4 243:0.02114495076239109 289:0.038325946778059006 327:0.044506289064884186 515:0.025285163894295692 519:0.034220971167087555 601:0.13042952120304108 617:0.031196992844343185 666:0.028830042108893394 682:0.01681659370660782 690:0.038325946778059006 720:0.020683644339442253 773:0.020683644339442253 895:0.036097440868616104 1001:0.044506289064884186 1035:0.03260738030076027 1103:0.010326681658625603 1178:0.04104786366224289 1187:0.02456779032945633 1393:0.04917135834693909 1438:0.04917135834693909 1473:0.05614111199975014 1474:0.06912544369697571 1475:0.06912544369697571 1476:0.05614111199975014
-0.8483559127620598 7:0.014608971774578094 28:0.01011152844876051 57:0.013738779351115227 64:0.0011291643604636192 90:0.0546107217669487 203:0.022010264918208122 276:0.011133143678307533 311:0.025854643434286118 534:0.028131574392318726 1312:0.012838167138397694 1520:0.026935530826449394 1536:0.2119215875864029 1647:0.007315902039408684 1657:0.08949223905801773 1658:0.026381926611065865 2046:0.18211247026920319 2837:0.2616733908653259
-1.458135727799265 35:5.899864481762052E-4 47:0.013685232028365135 137:0.013022586703300476 175:0.030747469514608383 274:0.030321305617690086 360:0.024844996631145477 457:0.015418076887726784 470:0.03308583050966263 579:0.04433096945285797 628:0.0604429729282856 1008:0.0604429729282856 1199:0.08035139739513397 1753:0.03995012491941452 1770:0.04880400747060776 1823:0.0336005724966526 1906:0.08035139739513397 1924:0.02429620921611786 2285:0.1030891090631485 3258:0.11770138889551163 3259:0.1449233889579773
-0.8160963994884215 35:4.8207290819846094E-4 49:0.12127647548913956 59:0.03543221578001976 61:0.18433603644371033 107:0.30496683716773987 185:0.14172886312007904 340:0.05130256712436676 1086:0.07624170929193497 1194:0.08423323184251785
-1.2885222536565455 55:0.07954782247543335 58:0.0035133364144712687 60:0.01508218701928854 64:0.0012025885516777635 185:0.029307199642062187 205:0.025077981874346733 228:0.02809741720557213 403:0.06306213140487671 458:0.018009712919592857 560:0.04243411123752594 562:0.03692537546157837 635:0.06306213140487671 708:0.027535848319530487 1204:0.09794566035270691 1205:0.05114741250872612 1206:0.09794566035270691 1207:0.06306213140487671 1208:0.09794566035270691 1209:0.07954782247543335 1210:0.07954782247543335
-1.7857807863075796 22:0.0025907435920089483 35:4.210670886095613E-4 64:0.005079718306660652 71:0.026025153696537018 135:0.04878942668437958 154:0.04667910560965538 191:0.06141866743564606 260:0.012521035969257355 316:0.07357360422611237 349:0.054011497646570206 683:0.06659340113401413 951:0.05734594538807869 1015:0.05120379477739334 1103:0.015451498329639435 3293:0.08400223404169083 3338:0.10343029350042343 3339:0.08400223404169083 3340:0.10343029350042343 3341:0.10343029350042343
-0.8997918933761235 11:0.020849306136369705 35:6.775569054298103E-4 64:0.002043497283011675 79:0.032998234033584595 137:0.014955501072108746 319:0.0477445088326931 385:0.052084073424339294 430:0.07511332631111145 542:0.03215847909450531 1103:0.02486366033554077 1747:0.08239419758319855 2167:0.0785091370344162 2522:0.09883137792348862 2523:0.1351715475320816 2524:0.16643406450748444 2525:0.1351715475320816
-2.085728255926394 15:0.004907513968646526 22:0.0013111165026202798 28:0.0025578413624316454 35:8.523699943907559E-4 45:0.01037798635661602 93:0.017185764387249947 96:0.009287849999964237 178:0.038498710840940475 241:0.006914085242897272 319:0.015015707351267338 378:0.00974244438111782 457:0.0055687315762043 458:0.009624677710235119 570:0.029021479189395905 644:0.029021479189395905 944:0.04780002310872078 1138:0.055575206875801086 1312:0.007307054009288549 1319:0.007666600868105888 1409:0.01914663426578045 1436:0.0059800101444125175 1633:0.017627129331231117 1640:0.016011549159884453 1647:0.037475697696208954 1688:0.010951509699225426 1744:0.007898319512605667 1858:0.03108259104192257 1866:0.00974244438111782 1869:0.01914663426578045 1907:0.01638050563633442 1910:0.01677113212645054 1917:0.02591307833790779 2015:0.02591307833790779 2047:0.09449294209480286 2194:0.037233930081129074 2202:0.04251162335276604 2203:0.17004649341106415 2204:0.029021479189395905 2205:0.03108259104192257 2206:0.027333993464708328
-0.9807191916299018 15:0.011132847517728806 22:0.002974308328703046 28:0.0014506354928016663 57:0.017739122733473778 64:0.023327121511101723 314:0.22054222226142883 471:0.024175094440579414 487:0.032733235508203506 968:0.03998768702149391 1337:0.053590040653944016 1536:0.0304030179977417 1657:0.028887463733553886 1823:0.027530714869499207 2063:0.0705118179321289 2110:0.058784618973731995 3058:0.11874335259199142 3059:0.11874335259199142 3060:0.11874335259199142
-0.2944683859779668 16:0.04726100713014603 35:0.0027374946512281895 47:0.015874622389674187 1187:0.05974724143743515 1644:0.013373107649385929 1691:0.07011275738477707 1732:0.10823635756969452 1733:0.13653148710727692 1734:0.5461259484291077
-2.2183756465950557 9:0.025948569178581238 28:0.004599840380251408 113:0.037884291261434555 137:0.008458483964204788 140:0.028165850788354874 279:0.05219016969203949 284:0.13018766045570374 337:0.03016001358628273 567:0.025948569178581238 884:0.03663320094347 888:0.024985628202557564 982:0.017101624980568886 1166:0.04248235374689102 1309:0.01730833761394024 1493:0.05589672923088074 1744:0.01420377753674984 1903:0.0606062225997448 1924:0.015780972316861153 2122:0.06695885956287384 2129:0.06695885956287384 2258:0.06695885956287384 2476:0.07644988596439362 2784:0.094131238758564
-1.6202862905149829 28:0.008638068102300167 35:3.198369813617319E-4 71:0.019768361002206802 111:0.013171193189918995 225:0.025172298774123192 245:0.006961989216506481 328:0.041026417165994644 368:0.20233385264873505 390:0.0327666811645031 526:0.1418273150920868 876:0.02961862087249756 944:0.01793612539768219 1063:0.028737761080265045 1637:0.05058346316218376 1654:0.05154462903738022 2102:0.10865786671638489 2891:0.07856427133083344 2892:0.07856427133083344 2893:0.06380698084831238
-1.8608299494892004 58:0.004303990863263607 64:0.0014732236741110682 101:0.015567894093692303 218:0.05940065160393715 261:0.05940065160393715 293:0.041487082839012146 296:0.06652605533599854 474:0.054151639342308044 651:0.04829055443406105 674:0.05659978464245796 702:0.045235201716423035 1031:0.11998771876096725 1032:0.054151639342308044 1033:0.11998771876096725 1034:0.054151639342308044 1035:0.05659978464245796 1036:0.045235201716423035 1037:0.09744956344366074
-0.8051931551844068 15:0.006095875520259142 28:7.943065138533711E-4 64:7.983089308254421E-4 154:0.029343634843826294 203:0.0622442252933979 228:0.07460712641477585 350:0.03067023493349552 458:0.011955306865274906 479:0.017258204519748688 686:0.046250175684690475 701:0.03395295515656471 929:0.007025590166449547 1077:0.03860928490757942 1519:0.02616763673722744 1520:0.07617270201444626 1866:0.048406362533569336 1920:0.027117300778627396 1958:0.02616763673722744 3142:0.046250175684690475 3248:0.06501882523298264 3249:0.06501882523298264 3250:0.26007530093193054
-0.3934484857723711 28:0.0013401478063315153 60:0.016892068088054657 111:0.01839093118906021 137:0.009857401251792908 180:0.038988079875707626 228:0.03146914392709732 229:0.04012652486562729 230:0.10969926416873932 231:0.060821715742349625 232:0.04950835555791855 233:0.05728516727685928 234:0.04414983466267586 235:0.4387970566749573 236:0.03514806926250458 237:0.04752625524997711
-1.050023406002303 28:0.004003765992820263 35:0.0013342071324586868 60:0.01261649839580059 227:0.010444330982863903 256:0.08246415853500366 458:0.06026168912649155 706:0.009064878337085247 1024:0.03417173773050308 1336:0.13668695092201233 1571:0.06654306501150131 1744:0.012363169342279434 1885:0.03549683466553688 1976:0.07482095062732697 2206:0.042785655707120895 2279:0.17114262282848358 2435:0.0819331631064415 2436:0.0819331631064415 2437:0.0819331631064415
-2.7145022419706395 22:0.001205351436510682 28:0.002351505681872368 35:7.836110889911652E-4 43:0.01326528750360012 64:5.908386665396392E-4 137:0.004324100445955992 172:0.016205186024308205 175:0.010209580883383751 217:0.0053240153938531876 245:0.0042642755433917046 251:0.0071888575330376625 256:0.01210828311741352 276:0.005825450643897057 329:0.020848121494054794 386:0.021717598661780357 507:0.02512901835143566 524:0.007261178456246853 851:0.039082299917936325 878:0.010820702649652958 1080:0.034230347722768784 1201:0.028575224801898003 1205:0.02512901835143566 1300:0.01872742734849453 1319:0.007048152387142181 1335:0.01326528750360012 1368:0.012773018330335617 1436:0.005497615318745375 1645:0.0046102371998131275 1647:0.003828067798167467 1649:0.01210828311741352 1910:0.015418239869177341 2022:0.030982786789536476 2023:0.034230347722768784 2024:0.04812126234173775 2025:0.04812126234173775 2026:0.028575224801898003 2027:0.039082299917936325 2028:0.039082299917936325 2029:0.04812126234173775 2030:0.04812126234173775 2031:0.02668037824332714 2032:0.04812126234173775 2033:0.04812126234173775 2034:0.04812126234173775 2035:0.02668037824332714 2036:0.04812126234173775
-1.1274697291346714 15:0.004340944346040487 26:0.0169361662119627 58:0.0016608170699328184 114:0.011650185100734234 178:0.008513514883816242 247:0.009426405653357506 361:0.00968716386705637 479:0.012289770878851414 616:0.015201677568256855 620:0.029810599982738495 738:0.11924239993095398 902:0.018634282052516937 1044:0.02417830005288124 1305:0.03293529525399208 1349:0.019310548901557922 1458:0.03293529525399208 1486:0.015201677568256855 1752:0.029810599982738495 1981:0.029810599982738495 2530:0.03760368004441261 3001:0.15041472017765045 3556:0.04630066826939583 3557:0.1852026730775833 3558:0.04630066826939583 3559:0.04630066826939583 3560:0.04630066826939583
-0.8257181241553828 7:0.013258358463644981 28:0.0010196341900154948 35:3.397808759473264E-4 59:0.02497379295527935 64:0.0010247720638290048 339:0.026741955429315567 568:0.03615973889827728 584:0.19824762642383575 840:0.06778575479984283 882:0.043584682047367096 941:0.21495068073272705 1021:0.05373767018318176 1052:0.06778575479984283 1053:0.08346326649188995 1054:0.08346326649188995 1055:0.08346326649188995
-1.2002396737854553 7:0.01905851624906063 22:0.0030051860958337784 28:0.001465695328079164 35:4.884254303760827E-4 84:0.08045531064271927 137:0.010780861601233482 534:0.03669977933168411 1184:0.08534321188926697 1666:0.01905851624906063 1685:0.027390390634536743 1696:0.04828587546944618 1823:0.0278165265917778 2244:0.09744011610746384 2605:0.11997608840465546 2606:0.11997608840465546 2607:0.08534321188926697 2608:0.11997608840465546 2609:0.09744011610746384
-0.5293393393781011 22:0.001841075369156897 28:8.979329140856862E-4 35:2.9922538669779897E-4 175:0.015594296157360077 223:0.025413878262043 582:0.017591174691915512 779:0.04075208678841591 954:0.034671518951654434 1011:0.2940050959587097 1012:0.07350127398967743 1013:0.03184379264712334 1014:0.05969500169157982 1015:0.03638725355267525 1016:0.2940050959587097 1017:0.07350127398967743
-1.3740402602439326 35:0.0022682424169033766 51:0.029552675783634186 58:0.004996437579393387 156:0.06286381185054779 203:0.033336952328681946 245:0.012343381531536579 457:0.014818956144154072 487:0.03839773312211037 765:0.040796805173158646 928:0.0416787825524807 1573:0.06895731389522552 1632:0.02236197516322136 1983:0.08271390944719315 2140:0.08968283981084824 2173:0.08968283981084824 2541:0.139291912317276 2542:0.1131277084350586 2543:0.1131277084350586
-0.7510685240470217 28:9.701618691906333E-4 35:3.232948365621269E-4 51:0.016848687082529068 56:0.026743127033114433 58:0.01139435451477766 64:0.0039002017583698034 137:0.007135985419154167 153:0.0564897246658802 207:0.07941365242004395 208:0.047157179564237595 209:0.0564897246658802 210:0.07941365242004395 211:0.05113033577799797 212:0.03746046498417854 213:0.25798726081848145 214:0.014963947236537933 215:0.05113033577799797 216:0.0564897246658802 217:0.008786126971244812 218:0.03931421414017677 219:0.03196101635694504 220:0.06449681520462036
-1.2005671555460182 28:0.001011732849292457 35:0.001348591409623623 58:0.0029706493951380253 64:0.0010168309090659022 225:0.026534726843237877 245:0.0073388004675507545 455:0.03737589716911316 793:0.017090579494833946 1188:0.04099880903959274 2897:0.06726047396659851 2991:0.06726047396659851 3143:0.08281649649143219 3144:0.08281649649143219 3145:0.08281649649143219 3146:0.08281649649143219 3147:0.08281649649143219 3148:0.08281649649143219 3149:0.08281649649143219 3150:0.06726047396659851 3151:0.08281649649143219
-0.7726732925957874 26:0.029805254191160202 35:3.317176306154579E-4 64:0.0010004533687606454 224:0.2098497450351715 251:0.012172725982964039 260:0.009864101186394691 293:0.02817351743578911 369:0.03843642398715019 371:0.03843642398715019 408:0.04838576540350914 618:0.03171071782708168 716:0.01594696193933487 717:0.045177266001701355 718:0.06617715209722519 719:0.04838576540350914 720:0.02438114583492279 721:0.03843642398715019 722:0.08148261904716492 723:0.23184582591056824
-1.0011541504346833 28:0.0028858997393399477 58:0.0021183942444622517 60:0.00909392535686493 97:0.02665305696427822 126:0.022264448925852776 378:0.010991971008479595 456:0.01806512475013733 524:0.008911325596272945 706:0.006533930543810129 751:0.0816785991191864 1175:0.035069119185209274 1312:0.00824422761797905 1430:0.029236584901809692 1482:0.1309746354818344 1502:0.029236584901809692 1573:0.029236584901809692 1679:0.01892212964594364 1744:0.008911325596272945 1864:0.10661222785711288 1885:0.02558598481118679 1925:0.030839741230010986 2547:0.19185596704483032 3049:0.05905711650848389 3050:0.05905711650848389 3051:0.04796399176120758
-1.2235534823495942 35:3.2245562761090696E-4 57:0.011832847259938717 58:0.0028411943931132555 110:0.027386875823140144 137:0.02846984937787056 183:0.041362322866916656 251:0.011832847259938717 277:0.17566342651844025 283:0.017547445371747017 319:0.02272205613553524 359:0.018655404448509216 414:0.056343093514442444 415:0.056343093514442444 416:0.07920751720666885 417:0.06432940065860748 418:0.06432940065860748 419:0.07920751720666885 420:0.056343093514442444 421:0.04703477397561073 422:0.02897305227816105 423:0.04391585662961006 424:0.02142060361802578 425:0.04391585662961006
-0.410588267162871 57:0.019066767767071724 118:0.20546582341194153 178:0.023467985913157463 487:0.03518307954072952 767:0.23040345311164856 1048:0.027863770723342896 1372:0.04089328274130821 1645:0.012227578088641167 1823:0.029591187834739685 1857:0.04089328274130821 2484:0.10365667939186096 2594:0.10365667939186096 3262:0.12763042747974396
-1.1015139236550622 22:0.0012406633468344808 28:6.050987867638469E-4 35:2.0164191664662212E-4 56:0.016679931432008743 58:0.0017766905948519707 101:0.006426438223570585 260:0.005996112246066332 348:0.01993437670171261 616:0.01626228354871273 671:0.01185433566570282 817:0.012909761629998684 1107:0.1098480150103569 1177:0.02941236086189747 1372:0.015869930386543274 1520:0.014506996609270573 1523:0.03523315489292145 1588:0.1609089970588684 2149:0.03523315489292145 2228:0.03189045563340187 2503:0.02941236086189747 2735:0.03523315489292145 3488:0.04953101649880409 3489:0.04953101649880409 3490:0.04953101649880409 3491:0.04953101649880409 3492:0.04953101649880409 3493:0.1609089970588684
-0.48194737432545826 35:3.5643469891510904E-4 64:0.0010749995708465576 185:0.02619784325361252 251:0.013079744763672352 260:0.010599099099636078 432:0.048543531447649 433:0.028746215626597404 434:0.194174125790596 435:0.28443267941474915 436:0.0563715361058712 437:0.28443267941474915 438:0.05199110507965088
