SVM-light Version V6.01
0 # kernel type
3 # kernel parameter -d
1.0 # kernel parameter -g
1.0 # kernel parameter -s
0.0 # kernel parameter -r
empty# kernel parameter -u
3708 # highest feature index
1114 # number of training documents
809 # number of support vectors plus 1
-0.09072613194644086 # threshold b, each following line is a SV (starting with alpha*y)
-9.446153401519595 1:0.10195452719926834 2:0.12553459405899048 3:0.05235651880502701 4:0.16909874975681305 5:0.04591887816786766 6:0.04591887816786766 7:0.019941499456763268 8:0.08929717540740967 9:0.03460533544421196 10:0.05235651880502701 11:0.01572580263018608 12:0.10195452719926834 13:0.05235651880502701 14:0.04591887816786766 15:0.01176956482231617 16:0.03529203310608864
-4.460771180585636 7:0.011661307886242867 17:0.04726463928818703 18:0.23848219215869904 19:0.02245544269680977 20:0.15333855152130127 21:0.031804077327251434 22:0.00735511677339673 23:0.07340960949659348 24:0.04726463928818703 25:0.05962054803967476 26:0.10740900784730911 27:0.07340960949659348 28:8.968129986897111E-4 29:0.07340960949659348 30:0.052218835800886154
-7.051141131576402 22:0.002068199450150132 31:0.04903073236346245 32:0.016587408259510994 33:0.08256875723600388 34:0.06705927103757858 35:3.3613931736908853E-4 36:0.1961229294538498 37:0.0264553502202034 38:0.05873405933380127 39:0.05873405933380127 40:0.05873405933380127 41:0.08256875723600388 42:0.08256875723600388 43:0.022761212661862373 44:0.03577220067381859 45:0.016370587050914764 46:0.08256875723600388 47:0.007797033991664648 48:0.05316174030303955
-9.446153401519595 22:0.013933827169239521 28:0.0016989584546536207 49:0.0356074720621109 50:0.13907009363174438 51:0.029505612328648567 52:0.08258218318223953 53:0.13907009363174438 54:0.07262267172336578 55:0.11294755339622498 56:0.046832866966724396 57:0.020775744691491127 58:0.0049884808249771595 59:0.041612409055233 60:0.0214147437363863 61:0.05412212386727333 62:0.08258218318223953 63:0.09892544895410538 64:0.001707519288174808
-1.8416571614587145 15:0.0069217681884765625 65:0.02971293032169342 66:0.034825555980205536 67:0.13327689468860626 68:0.052516330033540726 69:0.29531130194664 70:0.05996021255850792 71:0.018576575443148613 72:0.0365489162504673 73:0.02623905800282955 74:0.04753391072154045 75:0.07382782548666 76:0.038553036749362946 77:0.1461956650018692
5.286637274113753 16:0.01389926578849554 22:0.0012383838184177876 28:0.0024159480817615986 35:8.050857577472925E-4 45:0.009802279062569141 214:0.009316002018749714 217:0.005469918716698885 241:0.006530534476041794 375:0.01512332633137703 378:0.009201993234455585 524:0.007460169028490782 629:0.025817671790719032 716:0.009675903245806694 761:0.02935832180082798 765:0.014480343088507652 767:0.022312764078378677 778:0.013628819026052952 992:0.02447558008134365 1191:0.10964618623256683 1209:0.04015333950519562 1291:0.023321503773331642 1312:0.006901703774929047 1443:0.02935832180082798 1632:0.03174847364425659 1640:0.01512332633137703 1744:0.007460169028490782 1790:0.015840772539377213 1841:0.018638815730810165 1866:0.009201993234455585 1913:0.013370383530855179 1918:0.013370383530855179 1941:0.01757141575217247 1976:0.011287093162536621 1991:0.02935832180082798 2127:0.016649283468723297 2222:0.02741154655814171 2392:0.10964618623256683 2479:0.049440015107393265 2480:0.049440015107393265 2481:0.049440015107393265 2482:0.049440015107393265 2483:0.035168420523405075
2.5725568332954905 22:0.004620534833520651 28:0.0050704567693173885 58:0.014887871220707893 64:5.662229377776384E-4 96:0.008182879537343979 97:0.02081279270350933 100:0.012019780464470387 130:0.011407790705561638 194:0.005489785689860582 241:0.006091520190238953 245:0.016346462070941925 247:0.009388893842697144 251:0.006889352574944496 274:0.009648614563047886 408:0.027384713292121887 555:0.029691969975829124 711:0.029691969975829124 859:0.026497801765799522 873:0.019979538396000862 884:0.01794719696044922 1079:0.02081279270350933 1309:0.00847963523119688 1312:0.006437737960368395 1366:0.022830212488770485 1436:0.005268571432679892 1443:0.027384713292121887 1595:0.027384713292121887 1631:0.0461164154112339 1632:0.00740354647859931 1633:0.015530038625001907 1634:0.08701488375663757 1635:0.008378363214433193 1636:0.009516899473965168 1637:0.029691969975829124 1638:0.060564734041690826 1639:0.037454038858413696 1640:0.22570660710334778 1641:0.027384713292121887 1642:0.011219038628041744 1643:0.032804228365421295
7.902495653665716 9:0.013885753229260445 22:0.011355571448802948 28:0.0055383616127073765 35:0.0032810536213219166 51:0.010687120258808136 58:0.0018068592762574553 137:0.004526354372501373 206:0.016139406710863113 217:0.0055730389431118965 258:0.007235758937895298 361:0.010538994334638119 422:0.018425429239869118 471:0.04102122783660889 509:0.014161298051476479 534:0.01540843490511179 666:0.021008601412177086 682:0.012254338711500168 716:0.00985831581056118 767:0.022733408957719803 888:0.12033412605524063 1021:0.032431963831186295 1103:0.007525106426328421 1151:0.012674631550908089 1157:0.023761168122291565 1345:0.016139406710863113 1442:0.016963161528110504 1555:0.035831425338983536 1645:0.004825874697417021 1657:0.012254338711500168 1685:0.011499880813062191 1753:0.013885753229260445 1791:0.02493700012564659 1866:0.009375471621751785 1867:0.02493700012564659 1900:0.023761168122291565 2135:0.035831425338983536 2394:0.05037206783890724 2395:0.032431963831186295 2396:0.05037206783890724 2397:0.035831425338983536 2398:0.027928315103054047 2399:0.029911791905760765 2400:0.05037206783890724 2401:0.05037206783890724
11.378271282725382 15:0.00813942588865757 35:3.5342754563316703E-4 51:0.018419072031974792 64:0.0010659301187843084 71:0.021844513714313507 121:0.06175485625863075 194:0.010334671474993229 280:0.042978499084711075 291:0.048133980482816696 473:0.07050824910402298 559:0.03620797023177147 630:0.020777668803930283 884:0.03378608822822571 1251:0.04095197096467018 1309:0.015963144600391388 1338:0.04533517733216286 1368:0.023043761029839516 1520:0.025427116081118584 1538:0.03175591677427292 1596:0.03175591677427292 1645:0.008317314088344574 1647:0.006906204856932163 1648:0.024406759068369865 1649:0.021844513714313507 1650:0.048133980482816696 1651:0.027168119326233864 1652:0.08681541681289673 1653:0.08681541681289673 1654:0.01423951331526041 1655:0.08681541681289673
5.172719954230353 14:0.05682322755455971 22:0.0038911213632673025 28:0.007591141387820244 35:6.324142450466752E-4 240:0.040489185601472855 245:0.013765954412519932 721:0.07327841222286224 859:0.02231476828455925 969:0.10001877695322037 1312:0.02168581821024418 1416:0.12616565823554993 1436:0.0709897130727768 1647:0.012357786297798157 1656:0.08612971752882004 1657:0.03779185190796852 1658:0.044563498347997665 1659:0.15534529089927673 1660:0.12616565823554993
-0.20226270203699692 7:0.011386348865926266 22:0.0017954231007024646 28:0.003502669045701623 35:2.918056270573288E-4 37:0.022966133430600166 106:0.032349299639463425 172:0.024138323962688446 481:0.023533925414085388 714:0.1702561229467392 871:0.23285908997058868 882:0.03743075579404831 968:0.024138323962688446 969:0.4153517782688141
-7.06470434490629 119:0.024491166695952415 120:0.05789578706026077 121:0.16084732115268707 122:0.025512579828500748 123:0.03356852009892464 124:0.045911625027656555 125:0.05653007701039314 126:0.02131175994873047 127:0.18364650011062622 128:0.03134256601333618 129:0.18364650011062622 130:0.013983811251819134 131:0.045911625027656555 132:0.045911625027656555 133:0.02357691153883934 134:0.045911625027656555
-7.0282974542004615 130:0.010153107345104218 240:0.1711646020412445 339:0.013150758109986782 662:0.01547364890575409 663:0.018523702397942543 881:0.09749124944210052 969:0.10570522397756577 1312:0.005729684606194496 1383:0.11678505688905716 1476:0.03333466500043869 2661:0.02437281236052513 3300:0.03333466500043869 3437:0.02642630599439144 3645:0.16417725384235382 3646:0.041044313460588455 3647:0.041044313460588455 3648:0.041044313460588455 3649:0.041044313460588455
-9.446153401519595 22:0.002608437091112137 28:0.0012721921084448695 35:0.001695771235972643 258:0.014958842657506466 285:0.05773758888244629 375:0.031854622066020966 402:0.054380372166633606 418:0.08457592874765396 429:0.23095035552978516 464:0.06704820692539215 465:0.06183812767267227 466:0.031159667298197746 467:0.04511631280183792 468:0.0491226390004158 469:0.08457592874765396 470:0.023774271830916405 471:0.021201303228735924 472:0.05155349522829056 473:0.08457592874765396
-2.2228708865804245 35:0.01374905277043581 64:0.006634696386754513 84:0.02264796569943428 109:0.08697864413261414 212:0.06372460722923279 214:0.1018216609954834 293:0.04670950770378113 300:0.17741626501083374 304:0.21747761964797974 506:0.054369404911994934 540:0.03458888828754425 793:0.02787848189473152 983:0.012575412169098854 1013:0.0585273839533329 1526:0.07490040361881256
9.285776934633734 28:6.880954024381936E-4 35:2.292995632160455E-4 45:0.011167299002408981 59:0.016853448003530502 63:0.16026324033737183 72:0.02788393571972847 137:0.005061257164925337 152:0.01849285326898098 185:0.15168103575706482 205:0.014421388506889343 227:0.028719743713736534 303:0.011784442700445652 337:0.018046684563159943 542:0.010883108712732792 1191:0.031228750944137573 1309:0.010356697253882885 1666:0.008947341702878475 1669:0.04006581008434296 1670:0.04006581008434296 1671:0.11153574287891388 1672:0.056324802339076996 1673:0.22529920935630798
-6.230938052076191 22:0.002749721286818385 28:0.005364398006349802 51:0.023290717974305153 187:0.06086490675806999 258:0.015769077464938164 341:0.04272214695811272 518:0.051783330738544464 588:0.08915692567825317 613:0.051783330738544464 671:0.02627313882112503 1000:0.07067982107400894 1001:0.07067982107400894 1002:0.07808835804462433 1003:0.10977715998888016 1004:0.06518754363059998 1005:0.10977715998888016 1006:0.06086490675806999 1007:0.06518754363059998
8.427239944320299 35:6.632469012401998E-4 52:0.09674406051635742 58:0.005843946244567633 62:0.09674406051635742 221:0.0327291302382946 253:0.08065403252840042 839:0.11588999629020691 1025:0.04171373322606087 1644:0.012960276566445827 1787:0.05790283530950546 2870:0.1323167234659195 3193:0.16291896998882294 3194:0.16291896998882294
2.997950561951111 4:0.08780284970998764 9:0.07187391072511673 15:0.02444491721689701 35:0.0010614393977448344 47:0.02462097816169262 64:0.0032012788578867912 276:0.03156342729926109 314:0.05380610376596451 392:0.03974173218011856 458:0.047941677272319794 706:0.02884655073285103 1645:0.024979161098599434 1773:0.14455947279930115 1904:0.1548261195421219 2510:0.2607303559780121
9.966048080145617 15:0.005091702099889517 20:0.11343955248594284 22:0.005441300570964813 28:6.634604651480913E-4 35:0.001989812357351184 64:0.0060012321919202805 173:0.014686940237879753 217:0.006008530966937542 245:0.004812539089471102 250:0.015579274855554104 308:0.01152224000543356 361:0.011362539604306221 378:0.010108096525073051 392:0.033111680299043655 455:0.024509860202670097 749:0.019301638007164 775:0.017830777913331985 793:0.011207427829504013 859:0.031204720959067345 878:0.01221193466335535 1025:0.013905078172683716 1103:0.008113138377666473 1131:0.021857043728232384 1368:0.014415262266993523 1415:0.030110709369182587 1436:0.006204450968652964 1607:0.0204741433262825 1645:0.005202981643378735 1741:0.021857043728232384 1753:0.01497082319110632 1761:0.017400583252310753 2017:0.02688564360141754 2159:0.030110709369182587 2576:0.03224917873740196 3195:0.05430827662348747 3196:0.05430827662348747 3197:0.2172331064939499 3198:0.05430827662348747
-4.299780980515934 35:4.8207290819846094E-4 49:0.12127647548913956 59:0.03543221578001976 61:0.18433603644371033 107:0.30496683716773987 185:0.14172886312007904 340:0.05130256712436676 1086:0.07624170929193497 1194:0.08423323184251785
-5.488047800951965 15:0.004788918420672417 43:0.01408056728541851 56:0.017201149836182594 64:6.271513411775231E-4 221:0.010261321440339088 260:0.024733921512961388 276:0.006183480378240347 283:0.01131587103009224 291:0.02832014299929142 423:0.02832014299929142 515:0.07473573088645935 524:0.007707447279244661 817:0.053252678364515305 839:0.14533652365207672 2859:0.12132578343153 3403:0.14533652365207672 3418:0.05107877776026726 3419:0.05107877776026726 3420:0.20431511104106903
-9.446153401519595 35:0.007463496644049883 44:0.03177084028720856 58:0.0026304698549211025 64:9.003899758681655E-4 185:0.08777035772800446 229:0.026824189350008965 283:0.06498397141695023 305:0.020616361871361732 392:0.01117773912847042 583:0.04354631528258324 671:0.01755087450146675 1035:0.03459208458662033 1103:0.010955233126878738 1390:0.04721524193882942 1604:0.03309585154056549 1682:0.029513735324144363 2578:0.059558238834142685 3269:0.04354631528258324 3443:0.04354631528258324 3622:0.1888609677553177 3643:0.04721524193882942 3655:0.07333288341760635 3656:0.07333288341760635
-4.233077711847082 47:0.01140541397035122 49:0.03092464990913868 61:0.047004397958517075 64:0.0014829594874754548 130:0.0298774391412735 185:0.03613986447453499 280:0.059793200343847275 283:0.026757460087537766 340:0.2093086987733841 613:0.05697382241487503 921:0.06307189166545868 937:0.04292650520801544 1074:0.08591552823781967 1075:0.07776439934968948 1076:0.08591552823781967 1180:0.07776439934968948 1181:0.05697382241487503
-9.446153401519595 22:0.0025374542456120253 28:0.0012375721707940102 35:4.124061088077724E-4 57:0.015133674256503582 58:0.014535034075379372 64:0.0012438081903383136 157:0.04077058285474777 205:0.025937549769878387 221:0.08140373229980469 237:0.04388857260346413 302:0.03098776564002037 311:0.02847965992987156 408:0.06015533581376076 551:0.1828758269548416 552:0.04778587073087692 553:0.0561663880944252 554:0.0457189567387104 555:0.06522363424301147 556:0.10130281746387482 557:0.10130281746387482 558:0.052900530397892
9.872086681550057 7:0.012685144320130348 28:9.755511418916285E-4 35:3.2509074662812054E-4 64:0.003921867348253727 217:0.00883493386209011 221:0.0160421971231699 304:0.12855423986911774 479:0.02119617722928524 618:0.031077217310667038 696:0.0514143668115139 740:0.138385608792305 876:0.030105147510766983 1036:0.030105147510766983 1354:0.05680352821946144 1519:0.032138559967279434 1920:0.03330491855740547 1948:0.06485509872436523 2492:0.25942039489746094 2493:0.0798548012971878
2.5385113024781876 11:0.018540125340223312 22:0.003707148367539048 35:6.02513609919697E-4 101:0.01920243725180626 194:0.017618265002965927 229:0.05413661524653435 392:0.02255892939865589 429:0.08205749094486237 456:0.04527224600315094 484:0.0698137953877449 1219:0.029343491420149803 1389:0.07326856255531311 1644:0.011773508042097092 1666:0.023510271683335304 2018:0.0698137953877449 2337:0.09528987109661102 2363:0.09528987109661102 3178:0.12020052224397659 3179:0.1480005383491516
3.9017838237922446 35:0.006886080838739872 64:0.0012980172177776694 212:0.19947411119937897 214:0.0199204683303833 227:0.013476262800395489 595:0.04986852779984474 737:0.05233629420399666 997:0.05520609766244888 1072:0.01422018464654684 1103:0.015793247148394585 1419:0.028061125427484512 1559:0.05233629420399666 1648:0.029720891267061234 1794:0.08586014807224274 1961:0.034709855914115906 2064:0.04986852779984474 2176:0.03985550254583359 2217:0.2511083781719208
0.9674448962464247 28:0.0013629822060465813 35:4.5419749221764505E-4 64:0.0013698501279577613 133:0.04653165489435196 214:0.021022876724600792 290:0.07183310389518738 303:0.023342672735452652 304:0.04490208998322487 305:0.03136565908789635 706:0.01234364602714777 1072:0.015007136389613152 1147:0.05826123058795929 1219:0.02212023176252842 1654:0.018299510702490807 1793:0.03267694264650345 1840:0.21051310002803802 1892:0.04490208998322487 1973:0.07936251908540726 1974:0.07183310389518738 1975:0.09061169624328613 1976:0.10188369452953339
5.977936862066759 28:0.002660740865394473 31:0.1293320655822754 35:2.2166501730680466E-4 64:6.685370462946594E-4 304:0.021913865581154823 442:0.10782214999198914 694:0.0821094810962677 1103:0.00813423004001379 1147:0.11373446136713028 1219:0.010795483365654945 1645:0.0052165077067911625 1647:0.004331478849053383 1973:0.03873181715607643 2432:0.21779784560203552 2433:0.21779784560203552 2434:0.03873181715607643
-9.446153401519595 15:0.0056973532773554325 35:9.895545663312078E-4 59:0.018182991072535515 64:0.0029844758100807667 240:0.015838613733649254 253:0.12033462524414062 276:0.029425829648971558 305:0.017083996906876564 740:0.1053091436624527 772:0.017432408407330513 793:0.012540536932647228 814:0.043226540088653564 819:0.04935365170240402 874:0.03173325955867767 876:0.022909516468644142 955:0.03608517721295357 961:0.0391254760324955 983:0.005656779278069735 1063:0.022228186950087547 1280:0.0253444891422987 1557:0.06076817587018013 1558:0.1974146068096161 1559:0.12033462524414062
-4.672658104887569 11:0.01108472514897585 15:0.00829607155174017 35:3.602293727453798E-4 229:0.03236706927418709 288:0.049060333520174026 289:0.049060333520174026 290:0.22788670659065247 291:0.049060333520174026 292:0.07186520099639893 293:0.122380331158638 294:0.01904161646962166 295:0.0884862020611763 296:0.1962413340806961 297:0.022264916449785233 298:0.05254460871219635
-6.426842791258516 3:0.03183469921350479 7:0.012125168927013874 22:0.0019119217758998275 28:0.0037299450486898422 35:3.107398806605488E-4 64:9.371849591843784E-4 103:0.014748461544513702 111:0.012796565890312195 115:0.045325860381126404 130:0.018881626427173615 137:0.006858863867819309 140:0.022839287295937538 143:0.03444833308458328 165:0.019894562661647797 245:0.006763970013707876 251:0.011402925476431847 339:0.02445632591843605 377:0.029705340042710304 484:0.036005713045597076 560:0.033069174736738205 763:0.03778747096657753 859:0.09868025034666061 861:0.03778747096657753 863:0.045325860381126404 960:0.15943802893161774 1309:0.014035085216164589 1616:0.19657889008522034 1617:0.042320266366004944
-9.446153401519595 22:0.0014677135040983558 35:9.541752515360713E-4 58:0.0021018374245613813 64:0.0028777725528925657 81:0.017161879688501358 84:0.009823462925851345 137:0.04738772660493851 205:0.015002788975834846 225:0.018774239346385002 227:0.007469396106898785 229:0.08573386818170547 245:0.005192456301301718 479:0.2488519847393036 500:0.029008081182837486 678:0.04758911952376366 1103:0.00875361543148756 3612:0.04168107360601425 3651:0.05859554558992386 3652:0.23438218235969543 3653:0.05859554558992386 3654:0.05859554558992386
-9.446153401519595 35:0.001879895105957985 58:0.004140994045883417 167:0.057151082903146744 217:0.0127723952755332 243:0.03531334176659584 272:0.057151082903146744 314:0.02382374182343483 318:0.06028490141034126 336:0.07432818412780762 615:0.08211912959814072 784:0.07432818412780762 1024:0.04814790561795235 1195:0.09375903755426407 1196:0.115443654358387 1197:0.0388764888048172 1198:0.115443654358387 1199:0.06400664150714874 1200:0.041029687970876694
30.045983831336056 7:0.006289220880717039 56:0.01333274133503437 58:0.001420159125700593 245:0.03157571703195572 296:0.021951157599687576 302:0.01211075484752655 424:0.010706998407840729 479:0.010508941486477852 551:0.16081248223781586 562:0.014925956726074219 640:0.018675852566957474 720:0.011846541427075863 803:0.01960003562271595 804:0.011595853604376316 854:0.02351013384759426 859:0.0056871771812438965 876:0.014925956726074219 904:0.16808266937732697 983:0.003685492090880871 1014:0.03215477988123894 1063:0.014482058584690094 1161:0.02816285938024521 1328:0.02816285938024521 1515:0.09404053539037704 1625:0.012998903170228004 1883:0.02549094334244728 3106:0.02816285938024521 3107:0.03959154710173607 3108:0.03959154710173607 3109:0.03959154710173607 3110:0.02816285938024521 3111:0.02816285938024521
0.4433096014224618 28:0.008326408453285694 64:0.008368364535272121 93:0.05594392865896225 182:0.05738067999482155 211:0.10970644652843475 251:0.02545490860939026 260:0.02062724530696869 303:0.03564988076686859 902:0.06857630610466003 929:0.018411636352539062 1199:0.09447211772203445 1436:0.019466416910290718 1644:0.013554743491113186 1645:0.01632431335747242 1647:0.013554743491113186 1657:0.0414523147046566 1701:0.0803760513663292 1719:0.04078013449907303 2063:0.10118155181407928 2325:0.17039179801940918
5.38657439276045 28:0.0014234337722882628 35:4.743422905448824E-4 137:0.010470008477568626 194:0.01387037243694067 257:0.04262026026844978 275:0.05496247112751007 604:0.0646015927195549 645:0.04141106829047203 716:0.02280348539352417 757:0.09463054686784744 817:0.2733202278614044 1462:0.06918961554765701 1628:0.050479862838983536 1691:0.048595450818538666 2826:0.09463054686784744 3105:0.11651672422885895
17.011690901638264 13:0.14033079147338867 185:0.10067804157733917 191:0.04995032027363777 294:0.018101472407579422 308:0.017846642062067986 492:0.05983563885092735 497:0.03273608535528183 524:0.012692750431597233 601:0.03967926651239395 1092:0.05983563885092735 1250:0.05983563885092735 1520:0.0246368907392025 1625:0.02761785127222538 2511:0.0683169886469841 2512:0.05983563885092735 2513:0.05983563885092735 2514:0.0841173604130745 2515:0.0841173604130745
11.631276056825929 16:0.03499872609972954 22:0.003118283813819289 35:0.0020272275432944298 64:0.0015285189729183912 67:0.05618413910269737 137:0.04474635794758797 175:0.10565008223056793 185:0.037250153720378876 217:0.013773402199149132 954:0.05872417613863945 1224:0.0690230131149292 1381:0.06500959396362305 1873:0.08015348017215729 2187:0.10110718756914139 2385:0.10110718756914139 2386:0.10110718756914139 2387:0.12449128180742264
-9.446153401519595 13:0.14346686005592346 22:0.002154075540602207 28:0.0010505899554118514 35:3.500965249259025E-4 63:0.06117282435297966 84:0.014417311176657677 185:0.10292796045541763 187:0.0476803258061409 189:0.05536913126707077 302:0.02630588971078396 306:0.032420817762613297 432:0.0476803258061409 664:0.06117282435297966 770:0.05106659233570099 771:0.05106659233570099 772:0.024669790640473366 773:0.025731990113854408 774:0.05106659233570099 775:0.028235046193003654 776:0.08599718660116196 777:0.08599718660116196
-9.446153401519595 28:0.0014614015817642212 35:0.004382951185107231 51:0.02537998929619789 60:0.018420426174998283 79:0.02371750771999359 98:0.04251563921570778 114:0.12039989233016968 175:0.10151995718479156 385:0.037435468286275864 466:0.03579395264387131 643:0.059220895171165466 889:0.085093192756176 904:0.05642850324511528 1062:0.0971546620130539 1266:0.05182633176445961 1272:0.11962461471557617 1273:0.11962461471557617
-9.446153401519595 35:1.7641588055994362E-4 57:0.006473765708506107 58:0.0015544210327789187 64:5.320666241459548E-4 142:0.030825378373265266 173:0.011719238944351673 487:0.011945759877562523 545:0.020441468805074692 724:0.020441468805074692 887:0.09610568732023239 904:0.08176587522029877 1546:0.030825378373265266 1623:0.022629378363490105 2343:0.030825378373265266 3625:0.04333453252911568 3626:0.04333453252911568 3627:0.1733381301164627 3628:0.04333453252911568 3629:0.1733381301164627 3630:0.04333453252911568 3631:0.03519469499588013 3632:0.04333453252911568 3633:0.03519469499588013
-9.446153401519595 22:0.001914093503728509 64:0.008444244973361492 231:0.042368337512016296 234:0.030754724517464638 271:0.04537734389305115 276:0.009250792674720287 314:0.015769807621836662 379:0.03990478068590164 433:0.025089425966143608 483:0.02795208990573883 484:0.03604660928249359 485:0.06206253916025162 486:0.07641638070344925 487:0.021065225824713707 488:0.034487463533878326 489:0.07641638070344925 490:0.07641638070344925 491:0.07641638070344925 492:0.21743063628673553 493:0.07641638070344925
-9.446153401519595 47:0.01389157585799694 58:0.0052768210880458355 71:0.03701547905802727 96:0.026102880015969276 101:0.019086701795458794 111:0.02466254122555256 119:0.06373349577188492 182:0.04953986406326294 227:0.018752479925751686 302:0.0449993833899498 322:0.09471555054187775 648:0.053810328245162964 651:0.05920565873384476 902:0.05920565873384476 903:0.1471085250377655 904:0.06939302384853363 905:0.06639152020215988 906:0.1471085250377655
4.783835286866521 22:0.002064635744318366 28:0.0010069682030007243 35:3.355600929353386E-4 64:0.0010120421648025513 101:0.010694483295083046 178:0.01515613030642271 245:0.007304239086806774 360:0.014130814000964165 479:0.1969090849161148 1138:0.021878788247704506 1235:0.05307013541460037 1519:0.033173564821481705 1688:0.017245512455701828 1729:0.04570057615637779 1920:0.034377481788396835 1949:0.05307013541460037 2080:0.0669437125325203 2081:0.0669437125325203 2082:0.08242647349834442 2083:0.058632850646972656 2084:0.08242647349834442 2085:0.08242647349834442 2086:0.05307013541460037
4.611831756844864 35:4.4347374932840466E-4 47:0.010286745615303516 137:0.03915462642908096 457:0.011589269153773785 479:0.11565937846899033 510:0.026501134037971497 706:0.012052208185195923 929:0.04708342254161835 935:0.04543302580714226 975:0.309954971075058 1647:0.008665765635669231 1721:0.01150019746273756 1866:0.02027531899511814 2630:0.0774887427687645 2722:0.10893422365188599 2723:0.0774887427687645 2724:0.0774887427687645
-9.313508528783766 11:0.024506090208888054 28:0.002389866393059492 35:1.990986056625843E-4 47:0.004618259146809578 58:0.007017124444246292 64:6.004772149026394E-4 103:0.009449698030948639 378:0.00910265278071165 551:0.02207188494503498 810:0.01605716533958912 1349:0.020397266373038292 1409:0.01788926310837269 1570:0.027115624397993088 1830:0.024211352691054344 1950:0.024211352691054344 1955:0.10846249759197235 2313:0.10846249759197235 2615:0.03478875756263733 2859:0.029041381552815437 3051:0.03971986100077629 3121:0.031488217413425446 3318:0.03478875756263733 3477:0.19562512636184692 3478:0.15887944400310516 3479:0.04890628159046173
9.341086424790785 11:0.015123001299798489 22:0.003023885190486908 57:0.018034806475043297 59:0.03612249344587326 131:0.09804640710353851 233:0.0630415827035904 272:0.05976446345448494 470:0.027560820803046227 510:0.029368970543146133 539:0.05448329821228981 542:0.0233260877430439 859:0.01734134927392006 1181:0.056946441531181335 1763:0.08587423712015152 1934:0.06693350523710251 1938:0.0630415827035904 2568:0.08587423712015152 2616:0.09804640710353851 2617:0.09804640710353851
4.0498617486073 64:0.003982971888035536 127:0.06586556881666183 161:0.048157949000597 314:0.016736138612031937 457:0.00862793903797865 481:0.026626840233802795 543:0.09923025220632553 844:0.029664920642971992 929:0.035052504390478134 983:0.007549329660832882 1177:0.048157949000597 1228:0.057688552886247635 1404:0.048157949000597 1436:0.009265154600143433 1445:0.04235004261136055 1642:0.01972947269678116 1647:0.025805838406085968 1719:0.0776381716132164 1721:0.008561627008020878 1828:0.057688552886247635 1829:0.26346227526664734
-9.446153401519595 28:0.0018970463424921036 35:6.321679684333503E-4 84:0.02603328227996826 190:0.04859500750899315 260:0.018798423931002617 430:0.07008155435323715 765:0.045480914413928986 817:0.040473420172929764 974:0.07687468081712723 975:0.11045953631401062 976:0.1552847921848297 977:0.07687468081712723 978:0.09997982531785965 979:0.07324987649917603 980:0.1552847921848297
-3.694054964153008 22:0.0030625960789620876 35:4.977561184205115E-4 56:0.04117465764284134 175:0.02594083361327648 260:0.059205975383520126 294:0.1052449569106102 996:0.06779036670923233 1001:0.07872206717729568 1036:0.04609488695859909 1176:0.12226805835962296 1177:0.29041942954063416 1178:0.07260485738515854 1179:0.08697357028722763
-9.446153401519595 15:0.019220946356654167 28:6.261332891881466E-4 35:0.0018778628436848521 219:0.02062733843922615 227:0.006533391773700714 276:0.0062045506201684475 349:0.02676432393491268 604:0.028416642919182777 1072:0.006894050631672144 1177:0.12173919379711151 1320:0.02676432393491268 1376:0.02417663112282753 1438:0.036457937210798264 1885:0.022204842418432236 2513:0.036457937210798264 3421:0.0512528233230114 3422:0.0512528233230114 3423:0.0512528233230114 3424:0.0512528233230114 3425:0.2050112932920456 3426:0.2050112932920456
-9.446153401519595 35:0.001152005628682673 58:0.0025376142002642155 84:0.04744069278240204 113:0.028471898287534714 215:0.04554854333400726 217:0.007826963439583778 247:0.014402898959815502 251:0.010568513534963131 361:0.014801319688558578 601:0.13348393142223358 618:0.027531642466783524 688:0.07074423134326935 689:0.14008945226669312 690:0.03922346979379654 691:0.042009126394987106 692:0.07074423134326935 693:0.05745583027601242 694:0.02667047642171383 695:0.05745583027601242 696:0.04554854333400726 697:0.04554854333400726 698:0.07074423134326935
-6.01689927442215 6:0.034419946372509 35:3.830768691841513E-4 64:0.0011553517542779446 102:0.2086879312992096 120:0.024092938750982285 240:0.024525808170437813 308:0.01996426284313202 319:0.026993772014975548 479:0.02497692033648491 497:0.036620430648326874 607:0.06693552434444427 705:0.07642324268817902 720:0.028156034648418427 992:0.04658399894833565 1100:0.028156034648418427 1114:0.2086879312992096 1147:0.0491383820772171 1148:0.09409842640161514
4.962741128073466 58:0.003844758728519082 122:0.19349481165409088 203:0.02565278485417366 771:0.06364835798740387 881:0.06364835798740387 983:0.009977634996175766 1019:0.06901095062494278 1312:0.01496278028935194 1538:0.039206888526678085 1702:0.05942778289318085 1744:0.016173522919416428 1749:0.0417134054005146 1750:0.19349481165409088 1751:0.10718513280153275 1752:0.06901095062494278 1753:0.029547056183218956
6.620312383989985 35:4.21819684561342E-4 100:0.10802499204874039 262:0.05744843930006027 283:0.09181862324476242 859:0.059535715728998184 868:0.08415237069129944 930:0.04170121252536774 1095:0.1612962931394577 1312:0.014464419335126877 1597:0.08415237069129944 1617:0.05744843930006027 1744:0.015634838491678238 1749:0.040324073284864426 1750:0.04676253721117973 1790:0.03319869935512543 2225:0.1036151573061943
5.547036970753853 35:2.798279165290296E-4 103:0.013281305320560932 194:0.008182523772120476 229:0.10057158023118973 247:0.013994143344461918 963:0.0193241648375988 1072:0.009245792403817177 1093:0.136113703250885 1138:0.01824500411748886 1221:0.1770234853029251 1371:0.03811030462384224 1548:0.040816906839609146 1617:0.03811030462384224 1820:0.024429557844996452 1912:0.27494603395462036 1913:0.01858885958790779 1914:0.06873650848865509
6.505763457632336 28:0.0010754058603197336 35:3.5836611641570926E-4 60:0.013555093668401241 76:0.045968662947416306 84:0.05903144180774689 671:0.18961201608181 929:0.009511895477771759 1072:0.011840772815048695 1341:0.18387465178966522 1632:0.014132130891084671 1683:0.048806577920913696 1759:0.048806577920913696 1762:0.14171269536018372 1843:0.02890198305249214 1965:0.048806577920913696 1970:0.11857697367668152 1972:0.03542817384004593
3.048982527001641 22:0.0036990114022046328 28:0.007216356694698334 47:0.013945133425295353 64:0.0018131798133254051 96:0.026203516870737076 103:0.11413590610027313 203:0.03534345328807831 240:0.038490183651447296 241:0.019506489858031273 245:0.013086310587823391 258:0.02121305838227272 1188:0.0731077492237091 1666:0.02345866896212101 1717:0.05943392217159271 1718:0.07711653411388397 1942:0.08187738060951233 2031:0.08187738060951233 2219:0.08769233524799347 2488:0.0731077492237091 2960:0.14767569303512573
-5.920263071062582 15:0.009575295262038708 16:0.028712332248687744 43:0.028153659775853157 64:0.001253969850949943 98:0.036298055201768875 103:0.019733699038624763 227:0.013018954545259476 524:0.015410804189741611 566:0.06575649231672287 628:0.042595382779836655 630:0.024443037807941437 865:0.10213044285774231 866:0.03850303217768669 867:0.40852177143096924 868:0.0829465389251709 869:0.0829465389251709
-9.446153401519595 35:0.0014284146018326283 86:0.03306971490383148 101:0.011381087824702263 122:0.03958817571401596 245:0.007773184217512608 250:0.025163551792502403 252:0.05208868160843849 318:0.04580672085285187 325:0.03530336543917656 542:0.016948997974395752 595:0.041377924382686615 864:0.043425530195236206 983:0.008165517821907997 1519:0.03530336543917656 1761:0.028105316683650017 2017:0.043425530195236206 2865:0.07124162465333939 3256:0.28496649861335754 3360:0.0877184048295021 3361:0.0877184048295021
-9.446153401519595 35:7.694970699958503E-4 47:0.0044622826389968395 58:0.0016950322315096855 84:0.00792215671390295 103:0.00913054496049881 111:0.00792215671390295 137:0.004246216733008623 206:0.015140533447265625 305:0.013284850865602493 398:0.03042473830282688 562:0.017814889550209045 623:0.020472614094614983 872:0.017285073176026344 1004:0.028060540556907654 1093:0.09357456117868423 1162:0.15351346135139465 1309:0.03475561738014221 1866:0.03518088161945343 2110:0.09357456117868423 2408:0.12169895321130753 3443:0.028060540556907654 3685:0.03361380472779274 3686:0.03837836533784866 3687:0.1890181005001068
-9.446153401519595 22:0.004786926321685314 28:5.83672255743295E-4 35:1.945018011610955E-4 79:0.009472586214542389 101:0.006198878400027752 111:0.008009769953787327 205:0.012232844717800617 258:0.027452021837234497 337:0.015307977795600891 414:0.13594220578670502 523:0.02648957632482052 568:0.02069902792572975 594:0.030761215835809708 634:0.033985551446676254 706:0.005285941064357758 827:0.1134834885597229 946:0.028370872139930725 1130:0.15521122515201569 1187:0.016980411484837532 1414:0.04777713119983673 1415:0.10595830529928207 1416:0.03880280628800392 1417:0.04777713119983673 1418:0.04777713119983673 1419:0.012681673280894756 1420:0.04777713119983673
-9.446153401519595 11:0.011260798200964928 35:3.659513604361564E-4 162:0.03894481807947159 243:0.027497204020619392 314:0.018550675362348557 784:0.05787663161754608 876:0.033889058977365494 1063:0.03288119658827782 1064:0.23150652647018433 1122:0.06394315510988235 1187:0.03194831311702728 1218:0.08989173918962479 1219:0.01782248541712761 1220:0.07300672680139542 1221:0.05787663161754608 1222:0.08989173918962479 1223:0.07300672680139542 1224:0.049839623272418976
2.575409359348779 35:8.660433813929558E-4 47:0.02008860372006893 57:0.03178036957979202 102:0.11794812232255936 146:0.08020026236772537 178:0.03911629319190979 228:0.06102633476257324 274:0.044508758932352066 630:0.05091386288404465 983:0.019802914932370186 1455:0.04008547589182854 1737:0.07355499267578125 1896:0.1727743148803711 2197:0.15132488310337067 2259:0.09600876271724701
12.536945176304258 22:0.0021178037859499454 28:0.0010328993666917086 35:0.0013768054777756333 45:0.016763223335146904 58:0.003032798646017909 60:0.013019315898418427 145:0.04687745124101639 225:0.027089862152934074 245:0.007492336444556713 524:0.01275789737701416 902:0.03402784466743469 905:0.03815784305334091 1114:0.04687745124101639 1748:0.05020669847726822 1823:0.019602760672569275 1869:0.030926933512091637 1957:0.06014275550842285 2111:0.04687745124101639 2458:0.05020669847726822 2464:0.08454910665750504 2465:0.08454910665750504 2466:0.08454910665750504 2467:0.08454910665750504 2468:0.08454910665750504 2469:0.06866763532161713
9.327751777457745 13:0.09344111382961273 28:6.842577131465077E-4 35:2.2802069725003093E-4 58:0.002009117044508457 64:6.87705643940717E-4 137:0.005033029243350029 185:0.06703780591487885 190:0.017528042197227478 221:0.01125209778547287 294:0.012053105980157852 308:0.011883423663675785 492:0.15936940908432007 601:0.10568386316299438 706:0.006196878384798765 859:0.008045721799135208 1092:0.03984235227108002 1250:0.03984235227108002 1327:0.03606235980987549 1625:0.018389713019132614 1632:0.008991972543299198 1657:0.01362607628107071 1681:0.017133237794041634 1885:0.024266134947538376 2511:0.04548977315425873 2512:0.03984235227108002 2513:0.15936940908432007 2545:0.0560106597840786
10.616794816300166 11:0.008230550214648247 15:0.0061599393375217915 22:0.006582883186638355 28:8.026541909202933E-4 35:0.0024072742089629173 47:0.006204305216670036 64:8.066986920312047E-4 103:0.012695002369582653 137:0.005903889890760183 141:0.10577057301998138 189:0.16920879483222961 294:0.014138644561171532 424:0.071073018014431 483:0.024032963439822197 497:0.10227760672569275 601:0.12397024035453796 878:0.014773993752896786 983:0.006116071250289679 1097:0.026442643254995346 1099:0.025569401681423187 1106:0.03252624347805977 1654:0.010776502080261707 1748:0.03901504725217819 1843:0.08628667891025543 1921:0.03252624347805977 2664:0.06570213288068771
4.435693714934255 35:6.880857399664819E-4 102:0.0937117263674736 274:0.03536294028162956 314:0.03488019481301308 466:0.05057409405708313 630:0.04045190289616585 1023:0.05415477603673935 1102:0.12023011595010757 1384:0.07049305737018585 1455:0.03184857219457626 1644:0.013445643708109856 1790:0.05415477603673935 2398:0.0937117263674736 2992:0.13727203011512756 2993:0.16902035474777222
-9.446153401519595 35:5.494900397025049E-4 160:0.04937238618731499 184:0.10962241142988205 185:0.0403873547911644 186:0.09601311385631561 187:0.0748361125588417 188:0.10962241142988205 189:0.08690398931503296 190:0.04223952442407608 191:0.08015099167823792 192:0.060915958136320114 193:0.09601311385631561 194:0.016067789867520332 195:0.0668206512928009 196:0.07048468291759491
-9.29975497825511 35:4.574109334498644E-4 81:0.032908134162425995 214:0.02117161452770233 434:0.06229568272829056 497:0.04372643679380417 720:0.03361956775188446 826:0.07234132289886475 1015:0.055623382329940796 1021:0.07234132289886475 1095:0.04372643679380417 1213:0.1123577356338501 1214:0.1123577356338501 1215:0.1123577356338501 1216:0.1123577356338501 1217:0.1123577356338501
-9.446153401519595 22:0.003739278996363282 35:0.002430942840874195 64:0.0018329181475564837 111:0.025027139112353325 180:0.053056590259075165 227:0.019029706716537476 236:0.04783094301819801 256:0.037562694400548935 354:0.12124232947826385 360:0.025592437013983727 372:0.04037164896726608 475:0.09611576795578003 623:0.0646756961941719 866:0.056279588490724564 1100:0.04466839134693146 1101:0.1492832899093628 1102:0.10619045048952103 1103:0.02230149880051613 1104:0.08276870101690292
-7.409770227929934 21:0.056090280413627625 515:0.04735714569687843 810:0.042507145553827286 1107:0.07178152352571487 1227:0.10514794290065765 1247:0.10514794290065765 1248:0.12946657836437225 1249:0.10514794290065765 1250:0.09209413826465607 1251:0.061071090400218964 1252:0.09209413826465607 1253:0.09209413826465607
-1.9697284557710388 7:0.010822765529155731 11:0.00853479839861393 47:0.006433652248233557 64:8.365189423784614E-4 137:0.0061221313662827015 144:0.03213822469115257 185:0.020386045798659325 251:0.010178101249039173 283:0.06037420034408569 294:0.058645159006118774 303:0.05701817199587822 357:0.16182906925678253 360:0.011680040508508682 457:0.007248290814459324 511:0.03557806834578514 599:0.03557806834578514 671:0.016305865719914436 672:0.05533335357904434 733:0.043865930289030075 1099:0.02651459351181984 1366:0.13491439819335938 1441:0.06813086569309235 1442:0.022943563759326935 1443:0.04045726731419563 1444:0.06813086569309235
1.9701240613039555 28:0.0010893316939473152 35:0.0014520270051434636 64:0.001094820792786777 118:0.03588695079088211 221:0.017913231626152992 457:0.009486431255936623 471:0.018153902143239975 483:0.03261662274599075 793:0.018401408568024635 1151:0.022436581552028656 1188:0.04414337873458862 1372:0.028569912537932396 1644:0.007093388587236404 1645:0.008542744442820549 1823:0.020673753693699837 2483:0.57085782289505 3256:0.07241928577423096 3257:0.08916843682527542
11.38863865327766 28:0.0014714074786752462 35:0.0019613157492130995 93:0.03954469412565231 324:0.06677884608507156 361:0.025199582800269127 763:0.059626370668411255 859:0.017301280051469803 930:0.04847405478358269 1064:0.07754743099212646 1137:0.050233252346515656 1697:0.03954469412565231 1737:0.04164472967386246 2160:0.07152149826288223 2447:0.1204436644911766 2448:0.1204436644911766 2449:0.09781985729932785 2450:0.1204436644911766
14.578719474324908 22:0.0021755185443907976 35:3.535815922077745E-4 64:0.0010663947323337197 120:0.08895154297351837 219:0.13982069492340088 294:0.018690217286348343 385:0.1087198406457901 524:0.013105577789247036 568:0.1505136787891388 983:0.008084983564913273 1219:0.017220057547092438 1231:0.06178177520632744 1455:0.016365794464945793 1522:0.06178177520632744 1644:0.0069092148914933205 1650:0.048154961317777634 1736:0.030030472204089165 1918:0.09395315498113632 2155:0.06178177520632744 2311:0.07053898274898529
8.60442953485465 11:0.020849306136369705 35:6.775569054298103E-4 64:0.002043497283011675 79:0.032998234033584595 137:0.014955501072108746 319:0.0477445088326931 385:0.052084073424339294 430:0.07511332631111145 542:0.03215847909450531 1103:0.02486366033554077 1747:0.08239419758319855 2167:0.0785091370344162 2522:0.09883137792348862 2523:0.1351715475320816 2524:0.16643406450748444 2525:0.1351715475320816
3.6220471810250987 64:0.0016463387291878462 101:0.017397241666913033 111:0.02247953601181507 375:0.04101626202464104 424:0.03626207262277603 929:0.01448875293135643 946:0.3184930384159088 1274:0.05809212103486061 1436:0.015318796969950199 1647:0.010666696354746819 1746:0.05592354014515877 1806:0.07002060115337372 1816:0.07002060115337372 1817:0.1340872049331665 1818:0.1340872049331665
-9.446153401519595 28:0.0011089700274169445 35:3.6955098039470613E-4 79:0.01799779385328293 382:0.09077595174312592 383:0.20131945610046387 384:0.053904302418231964 385:0.2556678056716919 386:0.04096807911992073 387:0.09077595174312592 388:0.06457212567329407 389:0.09077595174312592 390:0.037859782576560974 391:0.053904302418231964
-7.7551062775631125 22:0.013949371874332428 28:0.00680341525003314 64:0.0017094241920858622 165:0.03628765791654587 719:0.08267431706190109 849:0.09903580695390701 946:0.08267431706190109 947:0.06892430037260056 948:0.13922524452209473 949:0.13922524452209473 950:0.13922524452209473 951:0.07719211280345917 952:0.11307355761528015
-9.446153401519595 35:3.91224428312853E-4 64:0.001179924700409174 137:0.07771836966276169 141:0.03867655619978905 236:0.030790744349360466 359:0.02263396605849266 369:0.04533153027296066 433:0.03155198320746422 471:0.01956506446003914 503:0.03867655619978905 568:0.04163439944386482 586:0.0570656880736351 735:0.07804866880178452 736:0.09609978646039963 737:0.047574784606695175 738:0.0618736669421196 739:0.03867655619978905 740:0.04163439944386482 741:0.09609978646039963 742:0.09609978646039963 743:0.03867655619978905
-9.446153401519595 22:0.00442708283662796 32:0.03550616279244423 45:0.03504204750061035 47:0.016689933836460114 64:0.0021700654178857803 103:0.03415028005838394 294:0.038033757358789444 303:0.0369785912334919 450:0.07657215744256973 481:0.058029018342494965 504:0.048721496015787125 604:0.09799319505691528 1041:0.12572313845157623 1231:0.12572313845157623 1232:0.17674247920513153 1233:0.08749744296073914
-9.446153401519595 22:0.005759231746196747 35:9.360335534438491E-4 47:0.005428021308034658 60:0.008851299062371254 128:0.03187005594372749 137:0.005165193695574999 219:0.09253653883934021 298:0.03413347527384758 457:0.006115325260907412 506:0.023134134709835052 706:0.006359605118632317 947:0.0284565519541502 996:0.03187005594372749 1106:0.0284565519541502 1400:0.18673723936080933 1401:0.057481471449136734 1402:0.04668430984020233 1403:0.057481471449136734 1404:0.03413347527384758 1405:0.04668430984020233 1406:0.057481471449136734 1407:0.04668430984020233 1408:0.13653390109539032 1409:0.02102595381438732
21.357310344237387 58:0.0021855602972209454 71:0.015331116504967213 79:0.012080272659659386 110:0.021067079156637192 130:0.015072115696966648 137:0.021900145336985588 186:0.17336542904376984 238:0.036181025207042694 253:0.030163563787937164 339:0.019522076472640038 510:0.014822735451161861 540:0.015600397251546383 591:0.17336542904376984 706:0.006741096265614033 806:0.04334135726094246 824:0.0494847446680069 861:0.030163563787937164 1644:0.004846975672990084 1816:0.03181754797697067 3044:0.060929588973522186 3045:0.060929588973522186 3046:0.03922940045595169 3047:0.060929588973522186 3048:0.060929588973522186
-6.19041565009101 28:0.0059575908817350864 35:4.963239771313965E-4 57:0.018213126808404922 111:0.08175638318061829 123:0.07239595800638199 162:0.05281917005777359 436:0.0784955620765686 765:0.03570770472288132 779:0.06759531795978546 782:0.08672332763671875 1110:0.0784955620765686 1127:0.1219162717461586 1128:0.0784955620765686 1129:0.1219162717461586 1130:0.09901585429906845
10.537810765527686 64:0.0051634712144732475 72:0.2081921249628067 94:0.14946448802947998 111:0.017625844106078148 137:0.009447320364415646 185:0.12583428621292114 360:0.018023965880274773 827:0.062431320548057556 985:0.042313143610954285 1384:0.04384874925017357 1688:0.021996788680553436 2909:0.08538723737001419 2919:0.10513562709093094 2920:0.10513562709093094
1.6917621498724653 22:0.0036612164694815874 28:0.004017725586891174 35:0.0037190525326877832 47:0.0034506618976593018 64:0.0017946534790098667 178:0.006719088181853294 217:0.03638593479990959 227:0.004658109042793512 260:0.017694620415568352 276:0.004423655103892088 286:0.01649162732064724 470:0.008342424407601357 532:0.02352730557322502 540:0.009356127120554447 716:0.007151574827730656 804:0.010702592320740223 866:0.22041870653629303 929:0.003948502242565155 1020:0.020260198041796684 1063:0.013366464525461197 1097:0.014706662856042385 1099:0.014220989309251308 1103:0.0054589807987213135 1319:0.021408535540103912 1632:0.005866417661309242 1638:0.04799024760723114 1649:0.009194630198180676 1654:0.005993590224534273 1753:0.010073221288621426 1842:0.012634696438908577 1913:0.00988220889121294 1941:0.012987240217626095 2191:0.01809019036591053 2206:0.019082145765423775 2211:0.0763285830616951 2239:0.02599339559674263 2458:0.08679632842540741 2548:0.014220989309251308 2640:0.03654170036315918 2641:0.02967780828475952 2642:0.02967780828475952 2643:0.03654170036315918 2644:0.03654170036315918
18.067407364393457 19:0.030175302177667618 35:0.0036143397446721792 64:0.001211196999065578 84:0.016537996008992195 241:0.013030258938670158 276:0.011941954493522644 305:0.027732955291867256 509:0.027732955291867256 542:0.019060583785176277 545:0.04653298109769821 697:0.06351353973150253 866:0.03718969598412514 977:0.04883568733930588 982:0.01792200095951557 983:0.009182817302644253 1069:0.05469376966357231 1119:0.04653298109769821 1630:0.0239984393119812 1636:0.020357424393296242 1892:0.03970162570476532 1960:0.05857813358306885 2004:0.04883568733930588 2191:0.04883568733930588 2472:0.06351353973150253 2529:0.06351353973150253 2598:0.05857813358306885 2629:0.09864677488803864
-9.446153401519595 35:3.219065838493407E-4 64:9.708634461276233E-4 72:0.1565815806388855 120:0.08098296821117401 166:0.07907264679670334 167:0.039145395159721375 168:0.25687944889068604 169:0.039145395159721375 170:0.05091077834367752 171:0.043841078877449036 172:0.026628289371728897 173:0.02138412930071354 174:0.13703016936779022 175:0.06710535287857056
-9.446153401519595 47:0.009977647103369236 172:0.14232836663722992 251:0.01578473672270775 308:0.0896696224808693 457:0.011241031810641289 540:0.02705340087413788 542:0.020415864884853363 687:0.06274326145648956 1068:0.30064135789871216 1069:0.23433081805706024 1070:0.08581387996673584
-9.446153401519595 22:0.003700871020555496 35:1.5037333650980145E-4 58:0.001324957120232284 64:4.535228363238275E-4 73:0.05251162126660347 101:0.004792480263859034 167:0.018286125734448433 251:0.005518107209354639 260:0.0044715674594044685 341:0.014375017024576664 572:0.021934105083346367 576:0.02627492882311344 579:0.011298895813524723 591:0.10509971529245377 728:0.06401138007640839 817:0.009627383202314377 1030:0.02627492882311344 1170:0.10509971529245377 1309:0.0067918626591563225 1573:0.018286125734448433 1798:0.09512851387262344 3046:0.02378212846815586 3493:0.11999698728322983 3501:0.029999246820807457 3502:0.11999698728322983 3600:0.03693748265504837 3601:0.03693748265504837 3602:0.03693748265504837
-9.446153401519595 19:0.20259398221969604 28:0.008091085590422153 35:6.740643293596804E-4 64:0.002032964024692774 227:0.021106621250510216 287:0.0819694846868515 294:0.03563084080815315 373:0.07810445129871368 380:0.11778014153242111 538:0.13447478413581848 539:0.0747261494398117 540:0.04239407926797867 541:0.11778014153242111 542:0.03199271485209465 543:0.05064849555492401
-9.446153401519595 32:0.02193809673190117 35:4.445695667527616E-4 45:0.021651333197951317 47:0.010312164202332497 57:0.0163139458745718 64:0.0013408124214038253 94:0.15524739027023315 103:0.08440136164426804 123:0.06484683603048325 249:0.08869093656539917 250:0.03132689744234085 251:0.0163139458745718 252:0.06484683603048325 253:0.054061807692050934 254:0.10920339822769165 255:0.10920339822769165 256:0.10991113632917404 257:0.03994514420628548
12.376137307790083 22:0.0019344496540725231 28:0.008491262793540955 35:3.144012880511582E-4 86:0.02911524660885334 120:0.07909483462572098 180:0.027447884902358055 217:0.034177713096141815 258:0.011093664914369583 260:0.009349174797534943 313:0.031081797555088997 378:0.01437421329319477 383:0.17127567529678345 404:0.04032916575670242 682:0.018788013607263565 706:0.008544428274035454 716:0.0604579895734787 1319:0.011311468668282032 1336:0.12883920967578888 1536:0.019773708656430244 1635:0.014030861668288708 1645:0.029595589265227318 1663:0.02215450070798397 1860:0.0382327176630497 1863:0.0458599291741848 1888:0.04281891882419586 1924:0.051789384335279465 2097:0.0497237853705883
3.4002197781474806 22:0.0036668165121227503 28:0.0017883869586512446 35:5.959585541859269E-4 58:0.021004242822527885 64:0.0017973985522985458 194:0.017426587641239166 460:0.0764453336596489 1103:0.021869324147701263 1219:0.02902424894273281 1400:0.11889280378818512 1409:0.05354763939976692 1644:0.011645418591797352 2282:0.3770126700401306 2283:0.14639036357402802 2284:0.11889280378818512
5.198611662264933 11:0.024777265265583992 28:0.002416311763226986 35:0.003220828017219901 137:0.017773080617189407 471:0.04026825726032257 506:0.07960298657417297 947:0.09791706502437592 1684:0.11745096743106842 2104:0.11745096743106842 2158:0.14069487154483795 2610:0.19778984785079956 2611:0.16063754260540009
10.336449997441377 7:0.021249404177069664 15:0.012541496194899082 64:0.01478178147226572 114:0.033658746629953384 133:0.055790431797504425 294:0.028785957023501396 385:0.041861530393362045 386:0.060370832681655884 1246:0.07943373918533325 1335:0.03687500208616257 1976:0.030539078637957573 2635:0.13376805186271667 2636:0.13376805186271667 2637:0.10864143073558807 2638:0.0741664245724678 2639:0.13376805186271667
5.831521066927799 11:0.011331258341670036 32:0.018171532079577446 35:3.682411334011704E-4 84:0.06065808981657028 95:0.05823877081274986 214:0.017044320702552795 471:0.018415672704577446 504:0.02493494376540184 663:0.16329148411750793 666:0.03772559389472008 1072:0.012167053297162056 1219:0.07173601537942886 1408:0.05371324345469475 1787:0.03214821591973305 2777:0.05823877081274986 2874:0.36181679368019104
-4.32800889499957 96:0.08508288115262985 180:0.17041967809200287 277:0.2658560276031494 319:0.1375538557767868 806:0.34108754992485046
-4.685396305042502 28:0.001731964643113315 35:0.0023086259607225657 71:0.035672664642333984 87:0.28074008226394653 104:0.06142142787575722 111:0.023767856881022453 217:0.06274112313985825 674:0.0668756440281868 1097:0.22823140025138855 1131:0.05705785006284714 1190:0.10084730386734009 1191:0.07860405743122101
-7.563717949208965 35:1.5221226203721017E-4 79:0.007413010112941265 171:0.02073008380830288 232:0.01687411032617092 318:0.0195247083902359 350:0.07054789364337921 516:0.018509747460484505 542:0.007224360015243292 634:0.026596248149871826 810:0.0122758150100708 1103:0.00558558851480484 1336:0.06237541139125824 1436:0.0042715296149253845 1468:0.030366111546754837 1735:0.024072961881756783 1749:0.05820324271917343 2803:0.024072961881756783 2816:0.030366111546754837 3528:0.14955677092075348 3529:0.33650273084640503 3530:0.03738919273018837 3531:0.03738919273018837
-9.446153401519595 11:0.02982364036142826 22:0.005963317584246397 35:2.423007827019319E-4 64:7.307740743272007E-4 93:0.019541393965482712 111:0.009978178888559341 112:0.03108062595129013 194:0.007085183635354042 209:0.042337533086538315 256:0.014976033940911293 377:0.02316286973655224 616:0.019541393965482712 1138:0.06319282203912735 1187:0.021153362467885017 1350:0.0483386293053627 1436:0.006799682043492794 1638:0.07816557586193085 2167:0.02807561308145523 2756:0.03534303978085518 2777:0.038320813328027725 3676:0.23807360231876373 3677:0.23807360231876373
-5.383888728159717 13:0.02819289267063141 35:2.7519205468706787E-4 51:0.01434178464114666 58:0.009698997251689434 120:0.06923085451126099 185:0.020226532593369484 223:0.023372674360871315 305:0.01900402456521988 361:0.014143005013465881 430:0.12203013896942139 457:0.0071915751323103905 622:0.02819289267063141 671:0.016178278252482414 921:0.03529968112707138 1103:0.010098460130393505 1316:0.21960154175758362 1347:0.04808466508984566 1470:0.19233866035938263 1471:0.06759776175022125 1472:0.054900385439395905
10.403049554452448 22:0.00723773380741477 35:0.0011763308430090547 174:0.125186026096344 1035:0.13630253076553345 1100:0.08645996451377869 1133:0.16020677983760834 1291:0.13630253076553345 1300:0.1124519556760788 2829:0.23467618227005005
3.396355293784796 64:0.0031303311698138714 175:0.21636612713336945 245:0.02259262278676033 251:0.0380873940885067 457:0.027123773470520973 659:0.16415035724639893 830:0.1413557082414627 1415:0.1413557082414627 1465:0.16415035724639893 1790:0.08168760687112808
6.18435496731328 22:0.004624348133802414 35:7.515837787650526E-4 64:0.002266760915517807 256:0.04645359888672829 541:0.13132521510124207 928:0.0552411787211895 1077:0.10962925106287003 1506:0.11886589974164963 1654:0.030281133949756622 1802:0.18461790680885315 1803:0.18461790680885315 1804:0.13132521510124207
0.47031700621866407 28:0.008159410208463669 35:0.0027190258260816336 47:0.015767522156238556 118:0.0672009140253067 205:0.04275207221508026 361:0.0349348708987236 567:0.18411511182785034 1048:0.036453183740377426 1072:0.022459829226136208 1100:0.04996189475059509 1645:0.01599690690636635 1744:0.025195319205522537 1866:0.12431201338768005 1924:0.02799302153289318 2127:0.05622982978820801 2877:0.16697435081005096 2878:0.11877472698688507
0.982813741987981 28:0.0016850157408043742 35:5.615113186649978E-4 47:0.013024726882576942 64:0.0067740255035459995 232:0.06224862113595009 256:0.13882270455360413 263:0.1960844248533249 457:0.014673937112092972 716:0.026994040235877037 818:0.07647331058979034 929:0.014903855510056019 983:0.01283949613571167 1103:0.020605245605111122 1642:0.03355482965707779 1647:0.010972296819090843 1721:0.014561157673597336 1893:0.3552207946777344
-9.446153401519595 22:0.006318952422589064 37:0.020207202062010765 57:0.00942174345254898 64:7.74355314206332E-4 84:0.042292993515729904 123:0.14980317652225494 274:0.05278102308511734 497:0.024544235318899155 520:0.03496740385890007 703:0.04486241936683655 863:0.037450794130563736 912:0.037450794130563736 928:0.018871113657951355 1023:0.020207202062010765 1103:0.00942174345254898 1264:0.14980317652225494 1462:0.037450794130563736 1463:0.05122140794992447 1464:0.04486241936683655 1465:0.16242462396621704 1466:0.04486241936683655
-9.446153401519595 28:0.001056431676261127 35:0.00140817288774997 43:0.02383812516927719 47:0.008165938779711723 64:0.004247019998729229 117:0.02706170454621315 143:0.03902718424797058 245:0.007663032505661249 318:0.04515760764479637 338:0.04794544726610184 641:0.1229364201426506 995:0.06151297315955162 1133:0.19178178906440735 1138:0.022953500971198082 1244:0.04079156741499901 1627:0.06151297315955162 2395:0.22270803153514862 3303:0.0702320784330368
-9.446153401519595 28:0.006757894065231085 35:2.5022082263603806E-4 79:0.01218620128929615 117:0.01923457533121109 171:0.03407805785536766 227:0.007835031487047672 245:0.005446632858365774 250:0.07052791863679886 499:0.023171789944171906 614:0.043721407651901245 706:0.00680020684376359 810:0.02018013782799244 1079:0.11095698177814484 1091:0.0364982895553112 1816:0.12838619947433472 3228:0.043721407651901245 3516:0.061463862657547 3517:0.061463862657547 3518:0.245855450630188 3519:0.061463862657547
-9.446153401519595 79:0.01530504785478115 146:0.029102208092808723 152:0.02534489333629608 225:0.02473340928554535 331:0.13935449719429016 378:0.014367775991559029 471:0.015716109424829483 708:0.021701985970139503 716:0.015107727609574795 835:0.03821559250354767 878:0.017358198761940002 1181:0.03641364723443985 1368:0.02049003541469574 1435:0.04279974102973938 1448:0.05491114407777786 1563:0.05491114407777786 1577:0.07719447463750839 1578:0.07719447463750839 1579:0.07719447463750839 1580:0.07719447463750839 1581:0.0626944750547409 1582:0.0626944750547409
-9.446153401519595 22:0.0015337124932557344 32:0.012300706468522549 35:2.492704661563039E-4 58:0.008785405196249485 60:0.03771432861685753 71:0.01540681254118681 84:0.041060786694288254 110:0.021171096712350845 174:0.02652755193412304 228:0.017565013840794563 245:0.02170378528535366 499:0.02308378368616104 548:0.03197464719414711 562:0.02308378368616104 689:0.030312495306134224 706:0.006774379871785641 1335:0.0168790090829134 2048:0.03635966777801514 2381:0.03942309319972992 2488:0.1212499812245369 3390:0.04972907155752182 3407:0.06123042479157448 3408:0.06123042479157448 3409:0.04972907155752182 3410:0.2449216991662979
12.758992494954999 64:0.0019663949497044086 137:0.01439121924340725 437:0.13007143139839172 1058:0.0836329311132431 1082:0.09510239958763123 1170:0.11392345279455185 1569:0.10311510413885117 1985:0.06445613503456116 2676:0.10311510413885117 2797:0.16015438735485077 2798:0.13007143139839172
0.5525703243647434 35:4.695991810876876E-4 58:0.00413769343867898 241:0.015236805193126202 258:0.0165698304772377 616:0.03787285462021828 817:0.030065245926380157 866:0.04348740726709366 888:0.030618244782090187 1457:0.05205933004617691 1823:0.02674434520304203 1918:0.031195292249321938 2035:0.06395561993122101 2099:0.07426893711090088 2133:0.07426893711090088 2253:0.05710553377866745 2415:0.27399107813835144 2585:0.07426893711090088 2645:0.09368430823087692
6.6741368827501955 64:0.0027631528209894896 180:0.07998364418745041 194:0.026790007948875427 204:0.12477511167526245 245:0.019942576065659523 765:0.06591333448886871 1098:0.08484236150979996 2803:0.1448960304260254 3251:0.22504688799381256 3252:0.22504688799381256
8.922882103301829 17:0.08050189912319183 19:0.03824647516012192 28:0.001527466461993754 35:5.090098711661994E-4 58:0.00448494590818882 64:0.0015351631445810199 74:0.08050189912319183 169:0.061898063868284225 194:0.059536390006542206 227:0.06375342607498169 245:0.011079774238169193 303:0.026159657165408134 682:0.03041744790971279 749:0.04443762078881264 983:0.046556003391742706 1309:0.022990280762314796 1632:0.020072752609848976 1635:0.02271570824086666 1661:0.07424638420343399 1662:0.1250324249267578 1663:0.03586772829294205 1664:0.03912779688835144 1665:0.08893996477127075 1666:0.019861727952957153
4.584978127030828 28:0.003378801280632615 35:0.0011259450111538172 104:0.02995598129928112 111:0.011591874063014984 221:0.013890453614294529 236:0.022153962403535843 251:0.010329432785511017 308:0.0586792454123497 337:0.022153962403535843 372:0.018699023872613907 983:0.006436454132199287 1066:0.04918446019291878 1153:0.031205303966999054 1436:0.00789934303611517 1711:0.041058801114559174 1730:0.04918446019291878 1761:0.022153962403535843 1821:0.04451814666390419 2103:0.04918446019291878 2144:0.05615607276558876 2352:0.04918446019291878 2761:0.05615607276558876 2843:0.0691438615322113 2844:0.2765754461288452
-4.675374971265777 57:0.04652853682637215 64:0.0038240929134190083 74:0.2005303055047989 93:0.1022588312625885 96:0.05526461452245712 245:0.027599727734923363 286:0.14056310057640076 303:0.06516373157501221 481:0.1022588312625885 673:0.22154952585697174 706:0.034458696842193604
-6.283823224261905 35:3.5643469891510904E-4 64:0.0010749995708465576 185:0.02619784325361252 251:0.013079744763672352 260:0.010599099099636078 432:0.048543531447649 433:0.028746215626597404 434:0.194174125790596 435:0.28443267941474915 436:0.0563715361058712 437:0.28443267941474915 438:0.05199110507965088
-7.7680839589725235 28:0.0010454225121065974 35:0.0013934981543570757 58:0.0030695691239088774 84:0.01434639748185873 214:0.06449912488460541 294:0.018414976075291634 300:0.028096169233322144 640:0.04036647453904152 983:0.007965919561684132 1369:0.20326167345046997 1525:0.06087194010615349 1567:0.0855742022395134 1568:0.20326167345046997 1569:0.22038716077804565 1570:0.04744580388069153
-9.446153401519595 6:0.0469072088599205 28:0.001566609600558877 58:0.0045998780988156796 98:0.045576389878988266 157:0.05161039158701897 337:0.04108748212456703 542:0.024777932092547417 796:0.06696537137031555 941:0.08256485313177109 1044:0.06696537137031555 1056:0.09121915698051453 1057:0.10414893925189972 1058:0.2678614854812622 1059:0.10414893925189972
9.073696455524557 35:4.94243751745671E-4 64:0.0014906288124620914 214:0.022876448929309845 240:0.03164307028055191 245:0.01075835432857275 526:0.0547914020717144 641:0.17259402573108673 944:0.027716675773262978 1337:0.0547914020717144 1696:0.048861075192689896 1936:0.08635985106229782 2293:0.07209252566099167 2404:0.08635985106229782 2612:0.08635985106229782 2668:0.12140529602766037 2669:0.12140529602766037
4.105594289824261 35:0.004793732427060604 47:0.012354960665106773 58:0.004693126305937767 540:0.033499252051115036 743:0.0526566356420517 809:0.06832288205623627 810:0.04295680299401283 1197:0.04406002163887024 1205:0.06832288205623627 1484:0.08423860371112823 1519:0.0526566356420517 1581:0.42504096031188965 1644:0.04163229092955589 1671:0.06477122753858566
1.2552138037990033 45:0.018822751939296722 47:0.008964958600699902 79:0.07529100775718689 257:0.03472661226987839 297:0.02388801984488964 314:0.019591808319091797 487:0.0261706355959177 524:0.014325331896543503 641:0.13496549427509308 775:0.03117014840245247 1072:0.012770011089742184 1095:0.036946702748537064 1312:0.013252942822873592 1456:0.046999044716358185 1632:0.015241189859807491 1647:0.00755226518958807 1923:0.18799617886543274 1924:0.015916025266051292 1925:0.19830474257469177 1926:0.07710413634777069
11.157998250057858 35:0.0018980307504534721 57:0.01741255633533001 64:0.012879947200417519 217:0.012895612046122551 506:0.046909961849451065 616:0.038268718868494034 735:0.09466354548931122 1079:0.052603479474782944 1138:0.0309382826089859 1151:0.02932818792760372 1604:0.052603479474782944 1790:0.03734542801976204 1810:0.08291134238243103 1811:0.07504523545503616 1812:0.11655735224485397 1813:0.06462412327528 1814:0.11655735224485397 1815:0.11655735224485397
-9.446153401519595 35:5.18782006110996E-4 228:0.03655632585287094 241:0.016832610592246056 293:0.04406131058931351 306:0.04804199934005737 641:0.1811629980802536 651:0.051286935806274414 917:0.12743283808231354 918:0.12743283808231354 919:0.08204739540815353 920:0.09064745903015137 921:0.06654567271471024 922:0.12743283808231354
-9.446153401519595 28:0.0013475822051987052 217:0.012204177677631378 258:0.015845302492380142 297:0.027755675837397575 662:0.04158588871359825 668:0.03920436277985573 864:0.054608553647994995 882:0.05760295316576958 928:0.03300618752837181 1077:0.06550265103578568 1078:0.11030780524015427 1079:0.049782998859882355 1080:0.07846581935882568 1081:0.11030780524015427 1082:0.06550265103578568 1083:0.06550265103578568 1084:0.06115911900997162 1085:0.11030780524015427
-9.446153401519595 22:0.0022038223687559366 28:0.0010748525382950902 35:0.0014327269745990634 56:0.1185159683227539 64:0.0010802686447277665 84:0.014750267378985882 165:0.022931942716240883 287:0.043556634336709976 300:0.02888711355626583 377:0.03424056991934776 421:0.052245937287807465 497:0.03424056991934776 509:0.09894028306007385 656:0.07145670056343079 793:0.01815682090818882 870:0.06258556246757507 1103:0.013143854215741158 1333:0.052245937287807465 1334:0.06258556246757507 1335:0.024253785610198975 1336:0.036695029586553574 1337:0.15883077681064606 1338:0.04594501107931137
-6.834636513084146 64:0.011036103591322899 137:0.008974291384220123 310:0.04326844587922096 314:0.020610157400369644 502:0.09987145662307739 503:0.04019451513886452 504:0.027530940249562263 505:0.08111187815666199 506:0.04019451513886452 507:0.05215306952595711 508:0.07104208320379257 509:0.028077255934476852 510:0.02429637499153614 511:0.05215306952595711 512:0.39948582649230957
-9.446153401519595 22:0.0016291486099362373 35:2.6478146901354194E-4 58:0.002333020558580756 114:0.01636551134288311 197:0.052823491394519806 198:0.052823491394519806 199:0.052823491394519806 200:0.052823491394519806 201:0.020353857427835464 203:0.015566249378025532 204:0.14424440264701843 205:0.01665295846760273 206:0.020839236676692963 401:0.21129396557807922 534:0.01989540457725525 835:0.0321987047791481 886:0.03606110066175461 1138:0.01726396381855011 1490:0.06504052132368088 1491:0.06504052132368088 1492:0.06504052132368088 1493:0.0386221669614315
8.903238580369383 9:0.015204147435724735 22:0.0013815261190757155 111:0.009246607311069965 160:0.020174846053123474 320:0.024891851469874382 424:0.01491583976894617 524:0.008322475478053093 637:0.15693387389183044 806:0.15693387389183044 1023:0.07068710029125214 1024:0.02300328016281128 1336:0.02300328016281128 1369:0.032751791179180145 1669:0.03923346847295761 1697:0.07243470102548599 1976:0.01259174570441246 2279:0.02880188450217247 2781:0.17917832732200623 2782:0.05515468493103981 2783:0.05515468493103981
17.02658544529827 11:0.08028921484947205 35:6.523060146719217E-4 58:0.0057475450448691845 86:0.060407038778066635 103:0.12384004890918732 175:0.033995285630226135 294:0.13792280852794647 360:0.027469342574477196 504:0.17668002843856812 671:0.038348447531461716 706:0.017727605998516083 1688:0.033524107187986374 1838:0.10316473990678787 2604:0.16023147106170654
7.633138441587097 22:0.006662286352366209 28:0.0032493434846401215 35:0.0010828047525137663 58:0.004240320064127445 64:0.005805718246847391 182:0.009952245280146599 219:0.01189404260367155 227:0.003767254762351513 278:0.016385475173592567 282:0.05576247721910477 308:0.025080429390072823 349:0.015432723797857761 392:0.0045046317391097546 457:0.012576383538544178 563:0.015432723797857761 582:0.007073006592690945 604:0.016385475173592567 720:0.00884286966174841 831:0.024001985788345337 859:0.0042452020570635796 872:0.010810155421495438 938:0.021022209897637367 979:0.013940619304776192 1058:0.061730895191431046 1072:0.003975216299295425 1154:0.015432723797857761 1219:0.005859392695128918 1288:0.011141504161059856 1320:0.015432723797857761 1436:0.003376303007826209 1681:0.03616036847233772 1686:0.016385475173592567 1697:0.00970305223017931 1833:0.09600794315338135 1997:0.02955317124724388 1998:0.02955317124724388 1999:0.024001985788345337 2000:0.024001985788345337 2001:0.02955317124724388 2002:0.26597854495048523 2003:0.024001985788345337
5.623427067272972 7:0.022344879806041718 22:0.0035233867820352316 35:0.0022905890364199877 47:0.013283034786581993 64:0.006908368784934282 80:0.045069362968206406 228:0.040351979434490204 260:0.01702849008142948 331:0.06348314136266708 458:0.02586456947028637 467:0.24376623332500458 706:0.015562734566628933 720:0.04208940267562866 888:0.03733706474304199 1645:0.013476275838911533 1651:0.04401962831616402 1844:0.06635316461324692 1857:0.045069362968206406 1905:0.04736969992518425 2054:0.09056639671325684 2694:0.11424224078655243
7.728658790153643 11:0.023906702175736427 22:0.004780210088938475 28:0.009325654245913029 64:0.002343161264434457 93:0.06265771389007568 310:0.08267994970083237 314:0.03938312828540802 481:0.06265771389007568 497:0.07426965236663818 552:0.09002192318439484 1025:0.048862725496292114 1219:0.037837181240320206 1280:0.07959350198507309 2899:0.19084039330482483 2900:0.19084039330482483
-7.320417515990035 28:6.475647678598762E-4 35:2.157932030968368E-4 64:0.0026033110916614532 302:0.01621447689831257 306:0.019983608275651932 411:0.03412853553891182 504:0.36530351638793945 716:0.010374021716415882 1200:0.018839195370674133 1309:0.00974665954709053 1525:0.15082331001758575 1607:0.019983608275651932 1608:0.043050408363342285 1609:0.05300711840391159 1610:0.043050408363342285 1611:0.21202847361564636
-9.446153401519595 22:0.004236237611621618 35:6.885051843710244E-4 64:0.002076517092064023 79:0.03353143483400345 245:0.014986902475357056 247:0.03443202003836632 443:0.07977772504091263 457:0.0179926585406065 458:0.03109748475253582 471:0.03443202003836632 474:0.07632704079151154 504:0.046621184796094894 791:0.09376885741949081 799:0.08831655979156494 878:0.03802962973713875 888:0.04489109292626381 895:0.08831655979156494 981:0.08831655979156494 1274:0.073271244764328 1275:0.10888977348804474
-9.446153401519595 4:0.03454500809311867 22:0.002569478703662753 35:4.176109505351633E-4 51:0.02176402509212494 314:0.021169384941458702 560:0.04444247484207153 1095:0.03992173448204994 1139:0.050783511251211166 1275:0.06604679673910141 1279:0.0833127349615097 1280:0.17113374173641205 1281:0.10258132964372635 1282:0.10258132964372635 1283:0.10258132964372635 1284:0.10258132964372635 1285:0.053568169474601746
-9.446153401519595 22:0.004171239212155342 28:0.0020344050135463476 35:1.694852689979598E-4 101:0.005401588045060635 111:0.006979566067457199 150:0.029614383354783058 251:0.006219439674168825 260:0.020159553736448288 276:0.005039888434112072 339:0.01333908922970295 809:0.021740367636084557 1036:0.015695245936512947 1520:0.012193507514894009 1583:0.020610230043530464 1684:0.02472185343503952 2100:0.019638413563370705 2449:0.03381204977631569 2992:0.03381204977631569 3443:0.02472185343503952 3451:0.03381204977631569 3678:0.16652843356132507 3679:0.16652843356132507 3680:0.04163210839033127 3681:0.16652843356132507 3682:0.04163210839033127 3683:0.04163210839033127 3684:0.04163210839033127
-9.446153401519595 7:0.009161015041172504 22:0.001444527879357338 28:7.045279489830136E-4 58:0.0020686346106231213 111:0.009668280370533466 130:0.014265770092606544 175:0.012235455214977264 339:0.018477661535143852 579:0.017640788108110428 763:0.028549836948513985 916:0.09993994981050491 983:0.0053683677688241005 1025:0.014765788801014423 1137:0.024052297696471214 1166:0.026026993989944458 1506:0.03713066130876541 2212:0.18734939396381378 2406:0.10410797595977783 3581:0.23067961633205414 3582:0.04102263227105141 3583:0.057669904083013535 3584:0.057669904083013535
18.52753022495845 22:0.006998905446380377 28:0.003413519822061062 35:0.007109466474503279 56:0.21171563863754272 60:0.0430261567234993 64:0.0034307201858609915 81:0.020459437742829323 120:0.017885489389300346 170:0.04497558996081352 180:0.09930739551782608 190:0.021860303357243538 241:0.009227065369486809 245:0.006190157029777765 262:0.03873008117079735 497:0.02718532457947731 630:0.01671835035085678 641:0.02482684887945652 859:0.010034315288066864 907:0.04968985542654991 928:0.020901745185256004 944:0.01594766043126583 983:0.006502591539174318 1219:0.01384975016117096 1335:0.019256310537457466 1455:0.052650731056928635 1608:0.05673310160636902 1644:0.005556944292038679 1654:0.011457549408078194 1736:0.024152912199497223 1918:0.018891165032982826 2110:0.03458182141184807 2825:0.05673310160636902
6.929709501236994 16:0.05123191326856613 35:0.0029675010591745377 221:0.036609191447496414 405:0.10821312665939331 1036:0.06870163232088089 1493:0.10821312665939331 1573:0.09021561592817307 2934:0.10821312665939331 3061:0.12962883710861206 3188:0.1480029672384262 3190:0.1480029672384262
7.671263861728131 140:0.03765753284096718 276:0.015235449187457561 297:0.03166709840297699 361:0.026331288740038872 385:0.03938451036810875 388:0.08952349424362183 844:0.04603525623679161 1034:0.05679858475923538 1335:0.03469304367899895 1550:0.08103006333112717 1824:0.08103006333112717 1842:0.043514981865882874 1875:0.10221292823553085 1913:0.034035176038742065 2100:0.05936640128493309 2147:0.0657205581665039 2355:0.07473351061344147 2356:0.08103006333112717
5.165252473488666 28:0.002187366597354412 35:7.289136992767453E-4 45:0.03549940511584282 250:0.05136340111494064 1039:0.11528053879737854 1675:0.05736808106303215 2065:0.08863943070173264 2600:0.14541715383529663 2658:0.14541715383529663 2713:0.1790492683649063 2714:0.1790492683649063
-6.42137964787549 7:0.00990353710949421 28:0.006854684557765722 32:0.012524452991783619 35:2.538046392146498E-4 47:0.005887211766093969 66:0.029408572241663933 137:0.02240859903395176 174:0.10804032534360886 178:0.011463508941233158 182:0.08397943526506424 320:0.028136543929576874 448:0.0443476140499115 498:0.05063362792134285 523:0.13826456665992737 562:0.09401468187570572 872:0.02280467003583908 982:0.01132659986615181 1309:0.011463508941233158 1388:0.0443476140499115 2440:0.0443476140499115 3384:0.03255625441670418 3387:0.06234418600797653 3388:0.06234418600797653 3389:0.06234418600797653
-9.446153401519595 11:0.007405560929328203 22:0.0014807619154453278 35:9.626582032069564E-4 47:0.0055824164301157 64:7.258392288349569E-4 190:0.018499981611967087 194:0.0070373378694057465 245:0.005238618701696396 260:0.007156506646424532 304:0.09516865760087967 457:0.006289270240813494 630:0.05659375712275505 885:0.030870741233229637 1327:0.03806203603744507 1384:0.024655617773532867 2521:0.048012204468250275 2934:0.14041748642921448 3110:0.04205163195729256 3392:0.16820652782917023 3536:0.05911647900938988 3537:0.05911647900938988 3538:0.05911647900938988 3539:0.05911647900938988 3540:0.05911647900938988
-9.387331651893007 57:0.022663114592432976 64:0.0018626386299729347 110:0.05245329812169075 144:0.07156071811914444 172:0.0510873906314373 176:0.053916893899440765 177:0.09767427295446396 178:0.027894483879208565 179:0.15170389413833618 180:0.21566757559776306 181:0.12320825457572937 182:0.0510873906314373 183:0.07922007143497467
-9.446153401519595 47:0.007556678727269173 101:0.041530802845954895 217:0.008853592909872532 283:0.017728205770254135 285:0.04436824470758438 357:0.04751928523182869 360:0.013718850910663605 456:0.024478569626808167 599:0.04178840294480324 687:0.04751928523182869 716:0.015661386772990227 793:0.016514187678694725 1103:0.011954739689826965 1366:0.03961609676480293 1402:0.06499207019805908 1483:0.04751928523182869 1548:0.19007714092731476 1549:0.06499207019805908 1550:0.20609180629253387 1551:0.04751928523182869
-9.446153401519595 7:0.014953117817640305 22:0.009431354701519012 35:3.832136280834675E-4 37:0.030160265043377876 64:0.0011557642137631774 167:0.04660063236951828 169:0.04660063236951828 215:0.06060672551393509 229:0.03443223610520363 583:0.055897194892168045 1145:0.05219060555100441 1197:0.03169964253902435 1246:0.055897194892168045 2472:0.06060672551393509 2557:0.06695941835641861 2934:0.055897194892168045 3312:0.09413202106952667 3313:0.09413202106952667 3314:0.09413202106952667 3315:0.09413202106952667
-5.5644685089250165 35:3.4261998371221125E-4 84:0.05643767863512039 190:0.026337336748838425 192:0.03798253461718559 194:0.0901678055524826 247:0.01713436469435692 515:0.03078484535217285 519:0.0416642501950264 552:0.03969968855381012 765:0.024649573490023613 898:0.15193013846874237 977:0.0416642501950264 1072:0.011320505291223526 1419:0.022339100018143654 1960:0.049976032227277756 3353:0.2734086215496063 3354:0.08416066318750381
5.393165453689238 22:0.001611968269571662 28:0.003144769463688135 35:0.001047956757247448 44:0.027881087735295296 94:0.0228722020983696 260:0.007790625561028719 455:0.029043877497315407 559:0.02684028632938862 582:0.015402094461023808 720:0.019256126135587692 767:0.029043877497315407 876:0.024261604994535446 983:0.005990634672343731 1275:0.16573844850063324 1280:0.02684028632938862 1312:0.008983748033642769 1590:0.0522664375603199 1654:0.010555483400821686 1696:0.025900324806571007 2053:0.029043877497315407 2967:0.25741854310035706 2968:0.2090657502412796
5.786669201970777 194:0.022325290367007256 1300:0.07298579812049866 1744:0.0282987579703331 1749:0.07298579812049866 2094:0.08846577256917953 2212:0.1523142009973526 2213:0.18754145503044128 2214:0.18754145503044128 2215:0.18754145503044128
2.472344504641098 221:0.04844342917203903 471:0.04909428581595421 508:0.17153246700763702 1280:0.10057253390550613 1419:0.06400716304779053 1565:0.19584619998931885 1644:0.019182918593287468 1646:0.07062725722789764 1654:0.039552174508571625 2824:0.24114155769348145
6.506898554751192 11:0.06408306956291199 28:0.0015623666113242507 35:0.0020825599785894156 64:0.0015702391974627972 137:0.011491922661662102 217:0.01414934080094099 471:0.02603711187839508 524:0.019297633320093155 560:0.2216275930404663 596:0.06032702699303627 1419:0.1357845813035965 1735:0.08234123885631561 1768:0.10386686772108078 3133:0.1278892159461975 3134:0.1278892159461975
11.40816947723403 35:0.0018350596074014902 47:0.010641437955200672 103:0.021774085238575935 247:0.02294275164604187 458:0.02072088234126568 481:0.03699907660484314 628:0.046999577432870865 1279:0.09152288734912872 1455:0.021234283223748207 2136:0.09152288734912872 2263:0.09152288734912872 3002:0.09152288734912872 3003:0.11269032210111618 3004:0.11269032210111618 3005:0.11269032210111618 3006:0.11269032210111618
-9.446153401519595 35:0.0054403250105679035 64:0.0018231006106361747 103:0.028690099716186523 126:0.055978141725063324 152:0.04875094071030617 227:0.01892777904868126 739:0.05975911393761635 878:0.033388521522283554 1294:0.14848369359970093 1295:0.08817213773727417 1296:0.08232537657022476 1297:0.07350775599479675 1298:0.14848369359970093 1299:0.14848369359970093 1300:0.057785630226135254
-9.446153401519595 26:0.02182861603796482 28:7.290333160199225E-4 79:0.011831692419946194 86:0.022497698664665222 160:0.02182861603796482 194:0.007103922311216593 331:0.026932282373309135 499:0.022497698664665222 551:0.026932282373309135 594:0.03842216357588768 671:0.014282306656241417 720:0.017856135964393616 762:0.03116282820701599 968:0.020096266642212868 1006:0.03308669105172157 1119:0.028149867430329323 1291:0.028149867430329323 1419:0.015839990228414536 1669:0.04244950786232948 2851:0.04244950786232948 3327:0.048466477543115616 3348:0.05967581644654274 3349:0.05967581644654274 3350:0.05967581644654274 3351:0.23870326578617096 3352:0.05967581644654274
-8.682224395957803 35:2.0278400916140527E-4 58:0.0017867536516860127 96:0.008838544599711895 158:0.016774404793977737 174:0.021580427885055542 194:0.0059296623803675175 250:0.01428931299597025 378:0.009271147660911083 731:0.11047019064426422 763:0.024659516289830208 774:0.029578952118754387 942:0.035432714968919754 985:0.02004728466272354 1007:0.11831580847501755 1300:0.07754097133874893 1309:0.009159077890217304 2912:0.16182038187980652 3586:0.035432714968919754 3597:0.04981156066060066 3598:0.04981156066060066 3599:0.19924624264240265
-9.446153401519595 81:0.0371360182762146 206:0.04062495008111 239:0.0662115216255188 243:0.03878500312566757 248:0.05722289904952049 251:0.01894165575504303 258:0.01821332983672619 259:0.10297650843858719 260:0.015349265187978745 261:0.06276962161064148 262:0.07029914110898972 263:0.0450633242726326 264:0.10297650843858719 265:0.0901922807097435 266:0.10297650843858719 267:0.10297650843858719 268:0.027284963056445122
-7.431130520851789 5:0.02847805619239807 35:0.0012677862541750073 62:0.04623119533061981 173:0.021054638549685478 329:0.03372969478368759 545:0.14689955115318298 788:0.04316556826233864 825:0.06323035061359406 826:0.0501263327896595 827:0.04623119533061981 828:0.06323035061359406 829:0.038542237132787704 830:0.04316556826233864 831:0.06323035061359406 832:0.3114171326160431
3.9408424510424207 51:0.19317133724689484 57:0.13601745665073395 64:0.011179018765687943 101:0.11813126504421234 176:0.3235936164855957 582:0.21790729463100433
10.198190158101266 7:0.013499447144567966 28:0.004152700304985046 35:3.459594154264778E-4 111:0.056987762451171875 247:0.017301369458436966 251:0.012695343233644962 314:0.017537251114845276 543:0.025995030999183655 765:0.024889826774597168 882:0.044377218931913376 898:0.15341095626354218 983:0.007910694926977158 990:0.06044994294643402 1369:0.05046313628554344 1485:0.06044994294643402 1645:0.008141564205288887 1649:0.08553170412778854 1654:0.013938624411821365 1688:0.07111987471580505 1807:0.06044994294643402 1917:0.16828136146068573 2017:0.04207034036517143
7.565042588313146 28:0.0012623060029000044 35:4.206483718007803E-4 58:0.0037063821218907833 64:0.0012686667032539845 471:0.021036550402641296 523:0.057288918644189835 524:0.015591423027217388 613:0.04874091222882271 988:0.07350043952465057 992:0.051152877509593964 1025:0.02645593136548996 1180:0.06652718037366867 1187:0.03672347962856293 1640:0.03160708025097847 1657:0.10054853558540344 1666:0.01641383394598961 1823:0.023956526070833206 1961:0.03392500430345535 1976:0.023589525371789932 2014:0.051152877509593964 2124:0.08391869813203812 2157:0.06652718037366867 3268:0.1033274382352829 3269:0.061357587575912476
11.516767269130787 7:0.017502538859844208 28:0.0013460328336805105 35:4.485493409447372E-4 37:0.1412096619606018 58:0.003952221013605595 96:0.019550472497940063 101:0.12865960597991943 137:0.03960275650024414 519:0.054545771330595016 716:0.021563518792390823 876:0.04153807833790779 983:0.010256512090563774 1024:0.04595301300287247 1025:0.0282107125967741 1968:0.051973819732666016 1976:0.02515418268740177 2090:0.07093982398509979 2108:0.051973819732666016 2230:0.04595301300287247 2804:0.08948490023612976 2809:0.11018098890781403
8.09691043689788 28:7.437362219206989E-4 111:0.01020633801817894 124:0.04944393411278725 175:0.012916380539536476 177:0.03919705003499985 392:0.009279511868953705 626:0.043305616825819016 755:0.04944393411278725 1122:0.043305616825819016 1245:0.030138688161969185 1430:0.030138688161969185 1480:0.17322246730327606 2285:0.043305616825819016 2286:0.24351735413074493 2287:0.03919705003499985 2288:0.060879338532686234 2289:0.060879338532686234 2290:0.060879338532686234
-9.446153401519595 22:8.817766210995615E-4 28:0.0017202473245561123 64:0.001728915493004024 137:0.0031633018516004086 140:0.010533458553254604 152:0.011558092199265957 214:0.0066333492286503315 276:0.004261616617441177 487:0.00970424059778452 503:0.014167958870530128 553:0.07807227224111557 708:0.009896808303892612 830:0.019518068060278893 1140:0.11436284333467484 1151:0.008857831358909607 1187:0.01251151878386736 1477:0.035203177481889725 1478:0.1408127099275589 1479:0.11436284333467484 1480:0.025041259825229645 1481:0.035203177481889725 1482:0.019518068060278893 1483:0.02090424671769142 1484:0.09066200256347656 1485:0.10016503930091858 1486:0.011558092199265957 1487:0.035203177481889725 1488:0.035203177481889725 1489:0.02859071083366871
-6.780687030998392 35:0.0021675254683941603 56:0.04482472687959671 58:0.004774580243974924 84:0.022315194830298424 114:0.03349239379167557 173:0.035996969789266586 227:0.016967644914984703 274:0.11139611154794693 457:0.014160948805510998 468:0.06278828531503677 793:0.027468856424093246 845:0.047307372093200684 898:0.2402898520231247 1103:0.019884904846549034 1178:0.31616461277008057
-5.911849314635736 35:0.0017447485588490963 43:0.029535813257098198 45:0.02124309539794922 360:0.018368331715464592 361:0.022417061030864716 481:0.03517819568514824 986:0.10714435577392578 987:0.10714435577392578 988:0.07621554285287857 989:0.07621554285287857 990:0.07621554285287857 991:0.4285774230957031
-9.203246240924086 3:0.044864721596241 35:4.379265010356903E-4 64:0.0013207771116867661 120:0.11017043143510818 151:0.056174103170633316 165:0.028037456795573235 175:0.022822780534625053 176:0.03823189437389374 234:0.043293535709381104 359:0.025335874408483505 462:0.07651946693658829 623:0.046604469418525696 634:0.07651946693658829 635:0.06925977766513824 636:0.06925977766513824 637:0.07651946693658829 638:0.08736565709114075 639:0.07651946693658829 640:0.050742942839860916
-9.32234068189619 64:0.001019602408632636 101:0.010774374008178711 137:0.007462042849510908 149:0.23628342151641846 257:0.030375735834240913 276:0.010052903555333614 314:0.017137162387371063 577:0.049311887472867966 766:0.059070855379104614 818:0.046041976660490036 838:0.06744380295276642 839:0.059070855379104614 840:0.06744380295276642 841:0.05346658453345299 842:0.08304222673177719 843:0.059070855379104614 844:0.030375735834240913 845:0.02951393648982048 846:0.08304222673177719
10.784206854468861 11:0.013318554498255253 28:0.0012988431844860315 49:0.027221690863370895 58:0.015254649333655834 152:0.03490695357322693 173:0.02875232696533203 377:0.0413760282099247 484:0.050151702016592026 702:0.04008181765675545 1199:0.0589471310377121 1240:0.0756278932094574 1297:0.052633482962846756 1486:0.03490695357322693 1641:0.06313356757164001 1977:0.06845279037952423 2018:0.050151702016592026 2021:0.05551958084106445 2295:0.0756278932094574 2338:0.10631822049617767 2339:0.10631822049617767
16.87830488167852 28:0.014356805011630058 35:2.9901458765380085E-4 49:0.018805989995598793 58:0.0026346526574343443 64:9.01821709703654E-4 111:0.012313706800341606 117:0.022985372692346573 152:0.024115322157740593 203:0.01757878251373768 294:0.015805821865797043 361:0.015367322601377964 968:0.024734651669859886 1072:0.00987973902374506 1177:0.04361555725336075 1190:0.05224720761179924 1949:0.04729032143950462 1960:0.04361555725336075 2081:0.05965294688940048 2747:0.05965294688940048 2923:0.07344949245452881 2924:0.07344949245452881 2925:0.07344949245452881 2926:0.07344949245452881 2927:0.07344949245452881 2928:0.07344949245452881 2929:0.07344949245452881
11.649372028602542 7:0.01905851624906063 22:0.0030051860958337784 28:0.001465695328079164 35:4.884254303760827E-4 84:0.08045531064271927 137:0.010780861601233482 534:0.03669977933168411 1184:0.08534321188926697 1666:0.01905851624906063 1685:0.027390390634536743 1696:0.04828587546944618 1823:0.0278165265917778 2244:0.09744011610746384 2605:0.11997608840465546 2606:0.11997608840465546 2607:0.08534321188926697 2608:0.11997608840465546 2609:0.09744011610746384
2.000777000395255 64:0.0011251664254814386 205:0.023463472723960876 260:0.044374898076057434 457:0.009749370627105236 929:0.03960851579904556 982:0.01664901338517666 1103:0.013690135441720486 1551:0.21766945719718933 1647:0.029159996658563614 1721:0.03869776055216789 1885:0.039702218025922775 1895:0.023463472723960876 1905:0.030860422179102898 2012:0.05441736429929733 2392:0.05080890655517578 2393:0.36655983328819275
2.3469305345466256 19:0.06751410663127899 22:0.0055284383706748486 28:0.0026963406708091497 58:0.007916994392871857 260:0.026718882843852043 276:0.026718882843852043 443:0.10411270707845688 694:0.08320807665586472 929:0.023848960176110268 1337:0.09960945695638657 1538:0.08073346316814423 1647:0.01755773089826107 1719:0.052823323756456375 1721:0.02330058068037033 2346:0.15700013935565948 2372:0.22071191668510437
-9.446153401519595 11:0.0910305380821228 64:0.003965400625020266 137:0.18138191103935242 173:0.021835368126630783 194:0.009611586108803749 302:0.09879249334335327 306:0.12175728380680084 350:0.03808668628334999 663:0.03643929958343506 706:0.008933003060519695 708:0.02269909158349037 888:0.021431459113955498 1345:0.02586979605257511 1346:0.08074120432138443 1347:0.05743405967950821 1348:0.08074120432138443 1349:0.033674608916044235 1350:0.0655750036239624
-5.84576828043984 22:0.001841075369156897 28:8.979329140856862E-4 35:2.9922538669779897E-4 175:0.015594296157360077 223:0.025413878262043 582:0.017591174691915512 779:0.04075208678841591 954:0.034671518951654434 1011:0.2940050959587097 1012:0.07350127398967743 1013:0.03184379264712334 1014:0.05969500169157982 1015:0.03638725355267525 1016:0.2940050959587097 1017:0.07350127398967743
-9.446153401519595 35:8.755151648074389E-4 205:0.055063970386981964 227:0.006853635888546705 458:0.009886025451123714 568:0.02329324744641781 728:0.02329324744641781 858:0.04366597905755043 1065:0.034616533666849136 1103:0.008031986653804779 1199:0.029809527099132538 1292:0.04366597905755043 1328:0.15297991037368774 1781:0.034616533666849136 2452:0.17466391623020172 3291:0.038244977593421936 3494:0.053765058517456055 3495:0.053765058517456055 3496:0.038244977593421936 3497:0.17466391623020172
-4.535395495811418 47:0.02429184503853321 58:0.009227442555129528 64:0.0031584841199219227 73:0.09142711013555527 96:0.045645441859960556 101:0.03337642922997475 106:0.11609716713428497 152:0.08446000516414642 192:0.11609716713428497 194:0.030622923746705055 217:0.028460931032896042 227:0.03279198706150055 269:0.18298736214637756 383:0.14262701570987701 944:0.058728694915771484
-9.446153401519595 9:0.02294948138296604 28:0.0010170497698709369 35:0.0054227146320044994 47:0.007861526682972908 51:0.017662985250353813 64:0.004088698420673609 203:0.019924763590097427 245:0.0073773679323494434 313:0.03350569307804108 392:0.012689613737165928 1048:0.07270074635744095 1166:0.03757232055068016 1379:0.06761395186185837 2007:0.19774514436721802 2152:0.039270929992198944 2956:0.06761395186185837 3122:0.06761395186185837 3459:0.06761395186185837 3614:0.0832517221570015 3615:0.0832517221570015 3616:0.0832517221570015
8.821851432835942 15:0.023279884830117226 28:0.0030334223993122578 64:0.0030487074982374907 488:0.11206207424402237 706:0.027471737936139107 708:0.06980670243501663 1036:0.09361029416322708 1178:0.14744718372821808 1240:0.17662742733955383 1691:0.10355979949235916 1921:0.12292445451021194 1968:0.11712830513715744
18.26271230706624 14:0.020073343068361282 15:0.0051450408063828945 22:0.0013745754258707166 28:0.0026816425379365683 32:0.01102439220994711 35:2.2340631403494626E-4 58:0.001968459226191044 60:0.008450278080999851 64:0.0026951550971716642 137:0.004931177478283644 156:0.02476661652326584 173:0.01484079472720623 190:0.01717333309352398 227:0.006995403673499823 243:0.016786517575383186 504:0.015127652324736118 636:0.0353325791656971 666:0.022887544706463814 668:0.01950383558869362 706:0.006071474403142929 720:0.01642029732465744 779:0.030426139011979103 845:0.01950383558869362 859:0.007882902398705482 929:0.005929738748818636 994:0.02865697629749775 995:0.15614430606365204 1309:0.010090518742799759 1351:0.044569212943315506 1376:0.02588629350066185 1419:0.01456627156585455 1455:0.01034053135663271 1627:0.03903607651591301 1644:0.017462020739912987 1645:0.0052574859000742435 1647:0.004365505184978247 1697:0.018017567694187164 2552:0.030426139011979103 2748:0.044569212943315506 2831:0.044569212943315506 3031:0.03903607651591301 3032:0.05487719178199768 3033:0.03903607651591301 3034:0.05487719178199768
11.725814977075467 28:0.001834444236010313 35:6.113065755926073E-4 120:0.03844704106450081 164:0.10681439936161041 256:0.03778340294957161 278:0.08325503021478653 279:0.08325503021478653 359:0.03536663576960564 1270:0.07433784008026123 1666:0.023853378370404243 1885:0.065055713057518 1941:0.05336833745241165 1958:0.06043393909931183 2461:0.10681439936161041 3227:0.12195471674203873 3228:0.10681439936161041
0.32055053692531865 22:0.001641124952584505 35:0.0010669117327779531 47:0.00618697889149189 58:0.002350171096622944 64:0.003217783523723483 137:0.005887402221560478 158:0.08825553208589554 241:0.03461745008826256 274:0.013708008453249931 296:0.036326196044683456 343:0.09880176186561584 385:0.020503485575318336 470:0.01495782658457756 765:0.019189568236470222 844:0.023965846747159958 888:0.156517893075943 983:0.006098990794271231 1097:0.026368798688054085 1632:0.010518388822674751 1738:0.04660572111606598 1744:0.009886329062283039 1864:0.029569212347269058 1867:0.03243540972471237 2227:0.030906010419130325 2231:0.029569212347269058 2399:0.03890608996152878 2434:0.04660572111606598 3022:0.06551865488290787 3023:0.05321181192994118 3024:0.04660572111606598
6.001490916431527 32:0.03285675868391991 35:0.0026633329689502716 45:0.03242727369070053 47:0.015444561839103699 58:0.005866734776645899 64:0.002008139155805111 203:0.039143700152635574 251:0.024433448910713196 268:0.03519574925303459 274:0.03421931713819504 487:0.04508598893880844 628:0.0682133287191391 662:0.061659734696149826 1137:0.0682133287191391 1434:0.11634191125631332 1583:0.08096854388713837 2347:0.09712131321430206 2742:0.10530412197113037 2954:0.13283270597457886
-9.446153401519595 22:0.004698105622082949 58:0.0016819792799651623 64:5.757288308814168E-4 137:0.004213517997413874 170:0.030190447345376015 276:0.005676473490893841 361:0.009810598567128181 385:0.014674010686576366 629:0.024486379697918892 665:0.03335495665669441 878:0.01054397877305746 1253:0.03335495665669441 1277:0.024486379697918892 1549:0.038082826882600784 1830:0.09285397082567215 1950:0.023213492706418037 2069:0.030190447345376015 2104:0.02784445509314537 2679:0.11137782037258148 3227:0.15233130753040314 3266:0.15233130753040314 3291:0.03335495665669441 3570:0.046890631318092346 3571:0.046890631318092346 3572:0.046890631318092346
-9.446153401519595 28:7.315912516787648E-4 35:0.002194146392866969 64:7.352777174673975E-4 241:0.03164095804095268 959:0.02702677994966507 1265:0.03855697438120842 1351:0.048636529594659805 1352:0.19454611837863922 1353:0.04259844869375229 1354:0.04259844869375229 1355:0.17039379477500916 1356:0.048636529594659805 1357:0.048636529594659805 1358:0.048636529594659805 1359:0.19454611837863922 1360:0.05988520011305809
-9.446153401519595 6:0.035163331776857376 28:0.0011743869399651885 58:0.003448234172537923 86:0.03624114766716957 156:0.04338473826646805 175:0.020395440980792046 242:0.04338473826646805 272:0.04759009927511215 311:0.027025606483221054 551:0.04338473826646805 623:0.04164780303835869 627:0.09613072127103806 628:0.04009309038519859 629:0.05019965022802353 630:0.023007115349173546 631:0.09613072127103806 632:0.07807379215955734 633:0.2735246419906616
-9.446153401519595 14:0.016916679218411446 35:1.8827422172762454E-4 47:0.004367178771644831 58:0.001658906228840351 64:0.002271324396133423 135:0.021815506741404533 144:0.021815506741404533 175:0.009812015108764172 227:0.005895331036299467 349:0.024150481447577477 467:0.020036285743117332 706:0.005116695538163185 850:0.027462491765618324 1335:0.012748731300234795 1679:0.05927138403058052 1723:0.029776301234960556 3269:0.027462491765618324 3345:0.037560414522886276 3472:0.032897401601076126 3573:0.04624740034341812 3574:0.04624740034341812 3575:0.04624740034341812 3576:0.18498960137367249 3577:0.04624740034341812 3578:0.04624740034341812 3579:0.037560414522886276 3580:0.18498960137367249
-4.7398944441322755 22:0.02824171632528305 35:0.0011475139763206244 37:0.0903133973479271 47:0.02661754935979843 111:0.04725572466850281 165:0.07346752285957336 227:0.03593149781227112 236:0.0903133973479271 392:0.04296448454260826 393:0.2818736135959625 394:0.2818736135959625
11.024554832008729 22:0.0012673181481659412 28:0.0024723955430090427 35:2.059740509139374E-4 49:0.012954371981322765 58:0.001814861549064517 64:6.212134030647576E-4 227:0.006449556443840265 251:0.0075584338046610355 302:0.015476676635444164 721:0.023866401985287666 728:0.19727922976016998 983:0.0047097946517169476 1099:0.019690196961164474 1309:0.00930316187441349 1625:0.06644666939973831 1629:0.14396046102046967 1630:0.012308611534535885 1953:0.026420889422297478 2049:0.035990115255117416 2145:0.04109150543808937 2675:0.035990115255117416 3033:0.035990115255117416 3119:0.050595156848430634 3120:0.050595156848430634 3121:0.03257559984922409 3122:0.16436602175235748
3.7636032206676346 35:0.0029668405186384916 205:0.0466485396027565 258:0.026171280071139336 470:0.04159433767199516 1095:0.07090416550636292 1312:0.025433631613850594 1436:0.020814595744013786 1685:0.04159433767199516 1721:0.01923408918082714 1737:0.06299509853124619 1866:0.03391048684716225 2451:0.12959998846054077 2452:0.1479700207710266 2453:0.18219256401062012 2454:0.1479700207710266
7.706511583141026 4:0.011443514376878738 11:0.004256884101778269 22:0.007660579867660999 28:4.151370085310191E-4 35:0.0012450548820197582 64:0.0016689153853803873 96:0.0060296631418168545 101:0.004408953245729208 137:0.01221409160643816 201:0.010634208098053932 217:0.003759626531973481 221:0.006826612167060375 245:0.00301127671264112 247:0.006918330676853657 308:0.007209635805338621 378:0.00632478529587388 457:0.0036152151878923178 524:0.020510323345661163 527:0.02759850211441517 540:0.008700612932443619 596:0.016029516234993935 623:0.0588887520134449 710:0.0218789204955101 716:0.026602067053318024 720:0.010167906992137432 859:0.004881314001977444 905:0.015336181037127972 944:0.00775793194770813 954:0.016029516234993935 983:0.0031632643658667803 1069:0.16956643760204315 1280:0.014172608032822609 1300:0.05289851874113083 1381:0.01774520054459572 1460:0.01682274416089058 1630:0.008266896940767765 1635:0.024694830179214478 1636:0.007012653164565563 1648:0.03821340203285217 1666:0.005398049019277096 1702:0.018840715289115906 1787:0.012077320367097855 1857:0.01088780164718628 1887:0.09668891876935959 1888:0.018840715289115906 1889:0.02759850211441517 1890:0.09668891876935959 1891:0.014722188003361225 1892:0.013676275499165058
5.234472297857364 11:0.013132304884493351 28:0.0012806798331439495 35:4.2677123565226793E-4 57:0.015660816803574562 67:0.047311458736658096 71:0.026377711445093155 160:0.03834594041109085 314:0.021633734926581383 530:0.08514019846916199 543:0.03206714615225792 577:0.06225069239735603 1349:0.04372188821434975 1457:0.047311458736658096 1486:0.03441880643367767 1820:0.14903205633163452 2014:0.05189744383096695 2188:0.08514019846916199 2298:0.07457029074430466 2391:0.08514019846916199 2898:0.08514019846916199
12.649302838856574 47:0.010067207738757133 64:0.005235850345343351 79:0.021137025207281113 80:0.03415805473923683 137:0.009579748846590519 140:0.03189954534173012 274:0.02230512909591198 319:0.03058275207877159 466:0.03189954534173012 542:0.0205991193652153 800:0.06330645829439163 830:0.05910855159163475 1274:0.04618758708238602 1654:0.017486128956079483 1976:0.02433878555893898 2007:0.06330645829439163 2161:0.05910855159163475 2678:0.10660936683416367 2679:0.06330645829439163 2680:0.10660936683416367 2681:0.08658415824174881 2682:0.08658415824174881
-9.446153401519595 11:0.008403324522078037 28:8.195033296942711E-4 35:2.730896812863648E-4 47:0.025338178500533104 64:8.236327557824552E-4 172:0.02259012870490551 173:0.018141241744160652 559:0.027977509424090385 668:0.09536518901586533 706:0.007421710528433323 935:0.027977509424090385 1007:0.03983404114842415 1241:0.04319019615650177 1280:0.027977509424090385 1312:0.009364388883113861 1409:0.09814982861280441 1486:0.08809798210859299 1596:0.024537457153201103 1773:0.03719261288642883 1955:0.03719261288642883 2313:0.14877045154571533 2766:0.033209025859832764 3121:0.04319019615650177 3511:0.06708133965730667 3512:0.06708133965730667
-9.446153401519595 22:0.0017149107297882438 35:0.0011148806661367416 64:8.406141423620284E-4 137:0.0061521027237176895 221:0.055015821009874344 276:0.008288145065307617 515:0.025043362751603127 534:0.020942743867635727 542:0.05291491746902466 1107:0.03795943781733513 1312:0.009557461366057396 1583:0.03389371931552887 1584:0.04408067837357521 1585:0.2224169671535492 1586:0.06846440583467484 1587:0.17632271349430084 1588:0.0556042417883873 1589:0.06846440583467484 1590:0.0556042417883873 1591:0.0556042417883873
-9.446153401519595 28:8.960944251157343E-4 35:2.9861272196285427E-4 37:0.02350187674164772 60:0.011294939555227757 64:9.006097679957747E-4 137:0.006591184996068478 217:0.008115345612168312 227:0.009350302629172802 236:0.02350187674164772 299:0.04355694353580475 542:0.014172878116369247 800:0.04355694353580475 845:0.026069512590765953 905:0.033103927969932556 1753:0.020220153033733368 2017:0.03631275147199631 2759:0.05957277864217758 2767:0.05217699334025383 3329:0.07335078716278076 3330:0.07335078716278076 3331:0.07335078716278076 3332:0.29340314865112305 3333:0.07335078716278076
